# Created at Thu Nov 07 19:33:27 EST 2019 in Burnaby Canada 
526451752380980 -0.000485 -0.006368 0.008720 
526451772951396 -0.000485 -0.006368 0.008720 
526451793521032 -0.000485 -0.006368 0.008720 
526451814092073 -0.000485 -0.006368 0.008720 
526451834662906 -0.000485 -0.006368 0.008720 
526451855233844 -0.000485 -0.006368 0.008720 
526451875804833 -0.000485 -0.006368 0.008720 
526451896375667 -0.000485 -0.006368 0.008720 
526451916946656 -0.000485 -0.006368 0.008720 
526451937517803 -0.000485 -0.006368 0.008720 
526451958088792 -0.000485 -0.006368 0.008720 
526451978659781 -0.000485 -0.006368 0.008720 
526451999230771 -0.000485 -0.006368 0.008720 
526452019801604 -0.000485 -0.006368 0.008720 
526452040372594 -0.000485 -0.006368 0.008720 
526452060943479 -0.000485 -0.006368 0.008720 
526452081514469 -0.000485 -0.006368 0.008720 
526452102085720 -0.000485 -0.006368 0.008720 
526452122656709 -0.000485 -0.006368 0.008720 
526452143227594 -0.000485 -0.006368 0.008720 
526452163798583 -0.000485 -0.006368 0.008720 
526452184369573 -0.000485 -0.006368 0.008720 
526452204940562 -0.000485 -0.006368 0.008720 
526452225511552 -0.000485 -0.006368 0.008720 
526452246083167 -0.000485 -0.006368 0.008720 
526452266653583 -0.000485 -0.006368 0.008720 
526452287225354 -0.000485 -0.006368 0.008720 
526452307795562 -0.000485 -0.006368 0.008720 
526452328366708 -0.000485 -0.006368 0.008720 
526452348937698 -0.000485 -0.006368 0.008720 
526452369508739 -0.000485 -0.006368 0.008720 
526452390079625 -0.000485 -0.006368 0.008720 
526452410650458 -0.000485 -0.006368 0.008720 
526452431221396 -0.000485 -0.006368 0.008720 
526452451792541 -0.000485 -0.006368 0.008720 
526452472363740 -0.000485 -0.006368 0.008720 
526452492934521 -0.000485 -0.006368 0.008720 
526452513505406 -0.000485 -0.006368 0.008720 
526452534076552 -0.000485 -0.006368 0.008720 
526452554647333 -0.000485 -0.006368 0.008720 
526452575220354 -0.000485 -0.006368 0.008720 
526452595791343 -0.000485 -0.006368 0.008720 
526452616362854 -0.000485 -0.006368 0.008720 
526452636933844 -0.000485 -0.006368 0.008720 
526452657503791 -0.000485 -0.006368 0.008720 
526452678074781 -0.000485 -0.006368 0.008720 
526452698645510 -0.000485 -0.006368 0.008720 
526452719216500 -0.000485 -0.006368 0.008720 
526452739786396 -0.000485 -0.006368 0.008720 
526452760357385 -0.000485 -0.006368 0.008720 
526452780928375 -0.000485 -0.006368 0.008720 
526452801499364 -0.000485 -0.006368 0.008720 
526452822072802 -0.000485 -0.006368 0.008720 
526452842643791 -0.000485 -0.006368 0.008720 
526452863213218 -0.000485 -0.006368 0.008720 
526452883784208 -0.000485 -0.006368 0.008720 
526452904355562 -0.000485 -0.006368 0.008720 
526452924926552 -0.000485 -0.006368 0.008720 
526452945496343 -0.000485 -0.006368 0.008720 
526452966067906 -0.000485 -0.006368 0.008720 
526452986638635 -0.000485 -0.006368 0.008720 
526453007210094 -0.000485 -0.006368 0.008720 
526453027781916 -0.000485 -0.006368 0.008720 
526453048352801 -0.000485 -0.006368 0.008720 
526453068925770 -0.000485 -0.006368 0.008720 
526453089495145 -0.000485 -0.006368 0.008720 
526453110064677 -0.000485 -0.006368 0.008720 
526453130636031 -0.000485 -0.006368 0.008720 
526453151206656 -0.000485 -0.006368 0.008720 
526453171777385 -0.000485 -0.006368 0.008720 
526453192348738 -0.000485 -0.006368 0.008720 
526453212920666 -0.000485 -0.006368 0.008720 
526453233490823 -0.000485 -0.006368 0.008720 
526453254061812 -0.000485 -0.006368 0.008720 
526453274632854 -0.000485 -0.006368 0.008720 
526453295203582 -0.000485 -0.006368 0.008720 
526453315774572 -0.000485 -0.006368 0.008720 
526453336346187 -0.000485 -0.006368 0.008720 
526453356917228 -0.000485 -0.006368 0.008720 
526453377488739 -0.000485 -0.006368 0.008720 
526453398059728 -0.000485 -0.006368 0.008720 
526453418629416 -0.000485 -0.006368 0.008720 
526453439200458 -0.000485 -0.006368 0.008720 
526453459771499 -0.000485 -0.006368 0.008720 
526453480342489 -0.000485 -0.006368 0.008720 
526453500915511 -0.000485 -0.006368 0.008720 
526453521486500 -0.000485 -0.006368 0.008720 
526453542057073 -0.000485 -0.006368 0.008720 
526453562628114 -0.000485 -0.006368 0.008720 
526453583198114 -0.000485 -0.006368 0.008720 
526453603769104 -0.000485 -0.006368 0.008720 
526453624340718 -0.000485 -0.006368 0.008720 
526453644911708 -0.000485 -0.006368 0.008720 
526453665480822 -0.000485 -0.006368 0.008720 
526453686054155 -0.000485 -0.006368 0.008720 
526453706625198 -0.000485 -0.006368 0.008720 
526453727196135 -0.000485 -0.006368 0.008720 
526453747767021 -0.000485 -0.006368 0.008720 
526453768337645 -0.000485 -0.006368 0.008720 
526453788909885 -0.000485 -0.006368 0.008720 
526453809479833 -0.000485 -0.006368 0.008720 
526453830051239 -0.000485 -0.006368 0.008720 
526453850622072 -0.000485 -0.006368 0.008720 
526453871192750 -0.000485 -0.006368 0.008720 
526453891762541 -0.000485 -0.006368 0.008720 
526453912334052 -0.000485 -0.006368 0.008720 
526453932904885 -0.000485 -0.006368 0.008720 
526453953475353 -0.000485 -0.006368 0.008720 
526453974046656 -0.000485 -0.006368 0.008720 
526453994618270 -0.000485 -0.006368 0.008720 
526454015188895 -0.000485 -0.006368 0.008720 
526454035759937 -0.000485 -0.006368 0.008720 
526454056331239 -0.000485 -0.006368 0.008720 
526454076902281 -0.000485 -0.006368 0.008720 
526454097473166 -0.000485 -0.006368 0.008720 
526454118044208 -0.000485 -0.006368 0.008720 
526454138616239 -0.000485 -0.006368 0.008720 
526454159187280 -0.000485 -0.006368 0.008720 
526454179756968 -0.000485 -0.006368 0.008720 
526454200328010 -0.000485 -0.006368 0.008720 
526454220898946 -0.000485 -0.006368 0.008720 
526454241469988 -0.000485 -0.006368 0.008720 
526454262041864 -0.000485 -0.006368 0.008720 
526454282612906 -0.000485 -0.006368 0.008720 
526454303183271 -0.000485 -0.006368 0.008720 
526454323754312 -0.000485 -0.006368 0.008720 
526454344324728 -0.000485 -0.006368 0.008720 
526454364895770 -0.000485 -0.006368 0.008720 
526454385467072 -0.000485 -0.006368 0.008720 
526454406037749 -0.000485 -0.006368 0.008720 
526454426608790 -0.000485 -0.006368 0.008720 
526454447180926 -0.000485 -0.006368 0.008720 
526454467751082 -0.000485 -0.006368 0.008720 
526454488323009 -0.000485 -0.006368 0.008720 
526454508896343 -0.000485 -0.006368 0.008720 
526454529464936 -0.000485 -0.006368 0.008720 
526454550037748 -0.000485 -0.006368 0.008720 
526454570607332 -0.000485 -0.006368 0.008720 
526454591178635 -0.000485 -0.006368 0.008720 
526454611750145 -0.000485 -0.006368 0.008720 
526454632320614 -0.000485 -0.006368 0.008720 
526454652893634 -0.000485 -0.006368 0.008720 
526454673462644 -0.000485 -0.006368 0.008720 
526454694033635 -0.000485 -0.006368 0.008720 
526454714604676 -0.000485 -0.006368 0.008720 
526454735175822 -0.000485 -0.006368 0.008720 
526454755746812 -0.000485 -0.006368 0.008720 
526454776316811 -0.000485 -0.006368 0.008720 
526454796887853 -0.000485 -0.006368 0.008720 
526454817459520 -0.000485 -0.006368 0.008720 
526454838030561 -0.000485 -0.006368 0.008720 
526454858601603 -0.000485 -0.006368 0.008720 
526454879172645 -0.000485 -0.006368 0.008720 
526454899742696 -0.000485 -0.006368 0.008720 
526454920313738 -0.000485 -0.006368 0.008720 
526454940885248 -0.000485 -0.006368 0.008720 
526454961456238 -0.000485 -0.006368 0.008720 
526454982027176 -0.000485 -0.006368 0.008720 
526455002598217 -0.000485 -0.006368 0.008720 
526455023169207 -0.000485 -0.006368 0.008720 
526455043740249 -0.000485 -0.006368 0.008720 
526455064313270 -0.000485 -0.006368 0.008720 
526455084884312 -0.000485 -0.006368 0.008720 
526455105454572 -0.000485 -0.006368 0.008720 
526455126025092 -0.000485 -0.006368 0.008720 
526455146597020 -0.000485 -0.006368 0.008720 
526455167167072 -0.000485 -0.006368 0.008720 
526455187738269 -0.000485 -0.006368 0.008720 
526455208308635 -0.000485 -0.006368 0.008720 
526455228880457 -0.000485 -0.006368 0.008720 
526455249451551 -0.000485 -0.006368 0.008720 
526455270022384 -0.000485 -0.006368 0.008720 
526455290594050 -0.000485 -0.006368 0.008720 
526455311163477 -0.000485 -0.006368 0.008720 
526455331734832 -0.000485 -0.006368 0.008720 
526455352305040 -0.000485 -0.006368 0.008720 
526455372875978 -0.000485 -0.006368 0.008720 
526455393447385 -0.000485 -0.006368 0.008720 
526455414018321 -0.000485 -0.006368 0.008720 
526455434588998 -0.000485 -0.006368 0.008720 
526455455160041 -0.000485 -0.006368 0.008720 
526455475731082 -0.000485 -0.006368 0.008720 
526455496302227 -0.000485 -0.006368 0.008720 
526455516873216 -0.000485 -0.006368 0.008720 
526455537446915 -0.000485 -0.006368 0.008720 
526455558017957 -0.000485 -0.006368 0.008720 
526455578588686 -0.000485 -0.006368 0.008720 
526455599159728 -0.000485 -0.006368 0.008720 
526455619730145 -0.000485 -0.006368 0.008720 
526455640301186 -0.000485 -0.006368 0.008720 
526455660872071 -0.000485 -0.006368 0.008720 
526455681443113 -0.000485 -0.006368 0.008720 
526455702013998 -0.000485 -0.006368 0.008720 
526455722584988 -0.000485 -0.006368 0.008720 
526455743155301 -0.000485 -0.006368 0.008720 
526455763726342 -0.000485 -0.006368 0.008720 
526455784296811 -0.000485 -0.006368 0.008720 
526455804867853 -0.000485 -0.006368 0.008720 
526455825439415 -0.000485 -0.006368 0.008720 
526455846010197 -0.000485 -0.006368 0.008720 
526455866581395 -0.000485 -0.006368 0.008720 
526455887152383 -0.000485 -0.006368 0.008720 
526455907723269 -0.000485 -0.006368 0.008720 
526455928294623 -0.000485 -0.006368 0.008720 
526455948865874 -0.000485 -0.006368 0.008720 
526455969436082 -0.000485 -0.006368 0.008720 
526455990007123 -0.000485 -0.006368 0.008720 
526456010578217 -0.000485 -0.006368 0.008720 
526456031149103 -0.000485 -0.006368 0.008720 
526456051722956 -0.000485 -0.006368 0.008720 
526456072292749 -0.000485 -0.006368 0.008720 
526456092863999 -0.000485 -0.006368 0.008720 
526456113435561 -0.000485 -0.006368 0.008720 
526456134004259 -0.000485 -0.006368 0.008720 
526456154576238 -0.000485 -0.006368 0.008720 
526456175146290 -0.000485 -0.006368 0.008720 
526456195717228 -0.000485 -0.006368 0.008720 
526456216288322 -0.000485 -0.006368 0.008720 
526456236859363 -0.000485 -0.006368 0.008720 
526456257430248 -0.000485 -0.006368 0.008720 
526456278001289 -0.000485 -0.006368 0.008720 
526456298572852 -0.000485 -0.006368 0.008720 
526456319143842 -0.000485 -0.006368 0.008720 
526456339714415 -0.000485 -0.006368 0.008720 
526456360285457 -0.000485 -0.006368 0.008720 
526456380856499 -0.000485 -0.006368 0.008720 
526456401427540 -0.000485 -0.006368 0.008720 
526456421998478 -0.000485 -0.006368 0.008720 
526456442569468 -0.000485 -0.006368 0.008720 
526456463141810 -0.000485 -0.006368 0.008720 
526456483712800 -0.000485 -0.006368 0.008720 
526456504282436 -0.000485 -0.006368 0.008720 
526456524853478 -0.000485 -0.006368 0.008720 
526456545424780 -0.000485 -0.006368 0.008720 
526456565995821 -0.000485 -0.006368 0.008720 
526456586568321 -0.000485 -0.006368 0.008720 
526456607139363 -0.000485 -0.006368 0.008720 
526456627712696 -0.000485 -0.006368 0.008720 
526456648281186 -0.000485 -0.006368 0.008720 
526456668852696 -0.000485 -0.006368 0.008720 
526456689423686 -0.000485 -0.006368 0.008720 
526456709994884 -0.000485 -0.006368 0.008720 
526456730565457 -0.000485 -0.006368 0.008720 
526456751136498 -0.000485 -0.006368 0.008720 
526456771707696 -0.000485 -0.006368 0.008720 
526456792277591 -0.000485 -0.006368 0.008720 
526456812848113 -0.000485 -0.006368 0.008720 
526456833419624 -0.000485 -0.006368 0.008720 
526456853990665 -0.000485 -0.006368 0.008720 
526456874560874 -0.000485 -0.006368 0.008720 
526456895131915 -0.000485 -0.006368 0.008720 
526456915702905 -0.000485 -0.006368 0.008720 
526456936273790 -0.000485 -0.006368 0.008720 
526456956844779 -0.000485 -0.006368 0.008720 
526456977415873 -0.000485 -0.006368 0.008720 
526456997986915 -0.000485 -0.006368 0.008720 
526457018559415 -0.000485 -0.006368 0.008720 
526457039130457 -0.000485 -0.006368 0.008720 
526457059705247 -0.000485 -0.006368 0.008720 
526457080276289 -0.000485 -0.006368 0.008720 
526457100843529 -0.000485 -0.006368 0.008720 
526457121414570 -0.000485 -0.006368 0.008720 
526457141985353 -0.000485 -0.006368 0.008720 
526457162556395 -0.000485 -0.006368 0.008720 
526457183128425 -0.000485 -0.006368 0.008720 
526457203699467 -0.000485 -0.006368 0.008720 
526457224268894 -0.000485 -0.006368 0.008720 
526457244839884 -0.000485 -0.006368 0.008720 
526457265410978 -0.000485 -0.006368 0.008720 
526457285981967 -0.000485 -0.006368 0.008720 
526457306553060 -0.000485 -0.006368 0.008720 
526457327123113 -0.000485 -0.006368 0.008720 
526457347694363 -0.000485 -0.006368 0.008720 
526457368265613 -0.000485 -0.006368 0.008720 
526457388836185 -0.000485 -0.006368 0.008720 
526457409407384 -0.000485 -0.006368 0.008720 
526457429978217 -0.000485 -0.006368 0.008720 
526457450549258 -0.000485 -0.006368 0.008720 
526457471121550 -0.000485 -0.006368 0.008720 
526457491691601 -0.000485 -0.006368 0.008720 
526457512262800 -0.000485 -0.006368 0.008720 
526457532834154 -0.000485 -0.006368 0.008720 
526457553405195 -0.000485 -0.006368 0.008720 
526457573975873 -0.000485 -0.006368 0.008720 
526457594546497 -0.000485 -0.006368 0.008720 
526457615117383 -0.000485 -0.006368 0.008720 
526457635688425 -0.000485 -0.006368 0.008720 
526457656259153 -0.000485 -0.006368 0.008720 
526457676830195 -0.000485 -0.006368 0.008720 
526457697401602 -0.000485 -0.006368 0.008720 
526457717972591 -0.000485 -0.006368 0.008720 
526457738543321 -0.000485 -0.006368 0.008720 
526457759114310 -0.000485 -0.006368 0.008720 
526457779685196 -0.000485 -0.006368 0.008720 
526457800256186 -0.000485 -0.006368 0.008720 
526457820827174 -0.000485 -0.006368 0.008720 
526457841398164 -0.000485 -0.006368 0.008720 
526457861969570 -0.000485 -0.006368 0.008720 
526457882540612 -0.000485 -0.006368 0.008720 
526457903111341 -0.000485 -0.006368 0.008720 
526457923682330 -0.000485 -0.006368 0.008720 
526457944253686 -0.000485 -0.006368 0.008720 
526457964824414 -0.000485 -0.006368 0.008720 
526457985395352 -0.000485 -0.006368 0.008720 
526458005967071 -0.000485 -0.006368 0.008720 
526458026537643 -0.000485 -0.006368 0.008720 
526458047110508 -0.000485 -0.006368 0.008720 
526458067680976 -0.000485 -0.006368 0.008720 
526458088252487 -0.000485 -0.006368 0.008720 
526458108823581 -0.000485 -0.006368 0.008720 
526458129394049 -0.000485 -0.006368 0.008720 
526458149963894 -0.000485 -0.006368 0.008720 
526458170534622 -0.000485 -0.006368 0.008720 
526458191105351 -0.000485 -0.006368 0.008720 
526458211676967 -0.000485 -0.006368 0.008720 
526458232247383 -0.000485 -0.006368 0.008720 
526458252818634 -0.000485 -0.006368 0.008720 
526458273389363 -0.000485 -0.006368 0.008720 
526458293961185 -0.000485 -0.006368 0.008720 
526458314531341 -0.000485 -0.006368 0.008720 
526458335102435 -0.000485 -0.006368 0.008720 
526458355673425 -0.000485 -0.006368 0.008720 
526458376245873 -0.000485 -0.006368 0.008720 
526458396816862 -0.000485 -0.006368 0.008720 
526458417386445 -0.000485 -0.006368 0.008720 
526458437957434 -0.000485 -0.006368 0.008720 
526458458528372 -0.000485 -0.006368 0.008720 
526458479099361 -0.000485 -0.006368 0.008720 
526458499672435 -0.000485 -0.006368 0.008720 
526458520243425 -0.000485 -0.006368 0.008720 
526458540813215 -0.000485 -0.006368 0.008720 
526458561384205 -0.000485 -0.006368 0.008720 
526458581954987 -0.000485 -0.006368 0.008720 
526458602525977 -0.000485 -0.006368 0.008720 
526458623097227 -0.000485 -0.006368 0.008720 
526458643668268 -0.000485 -0.006368 0.008720 
526458664238685 -0.000485 -0.006368 0.008720 
526458684809935 -0.000485 -0.006368 0.008720 
526458705381028 -0.000485 -0.006368 0.008720 
526458725951654 -0.000485 -0.006368 0.008720 
526458746522643 -0.000485 -0.006368 0.008720 
526458767093372 -0.000485 -0.006368 0.008720 
526458787665247 -0.000485 -0.006368 0.008720 
526458808236028 -0.000485 -0.006368 0.008720 
526458828807488 -0.000485 -0.006368 0.008720 
526458849378164 -0.000485 -0.006368 0.008720 
526458869948789 -0.000485 -0.006368 0.008720 
526458890520142 -0.000485 -0.006368 0.008720 
526458911091549 -0.000485 -0.006368 0.008720 
526458931661759 -0.000485 -0.006368 0.008720 
526458952233060 -0.000485 -0.006368 0.008720 
526458972804779 -0.000485 -0.006368 0.008720 
526458993374987 -0.000485 -0.006368 0.008720 
526459013946394 -0.000485 -0.006368 0.008720 
526459034516445 -0.000485 -0.006368 0.008720 
526459055087904 -0.000485 -0.006368 0.008720 
526459075658894 -0.000485 -0.006368 0.008720 
526459096229310 -0.000485 -0.006368 0.008720 
526459116800300 -0.000485 -0.006368 0.008720 
526459137372434 -0.000485 -0.006368 0.008720 
526459157943424 -0.000485 -0.006368 0.008720 
526459178514467 -0.000485 -0.006368 0.008720 
526459199085456 -0.000485 -0.006368 0.008720 
526459219656341 -0.000485 -0.006368 0.008720 
526459240227330 -0.000485 -0.006368 0.008720 
526459260798320 -0.000485 -0.006368 0.008720 
526459281369309 -0.000485 -0.006368 0.008720 
526459301940872 -0.000485 -0.006368 0.008720 
526459322511862 -0.000485 -0.006368 0.008720 
526459343082174 -0.000485 -0.006368 0.008720 
526459363653112 -0.000485 -0.006368 0.008720 
526459384224987 -0.000485 -0.006368 0.008720 
526459404795977 -0.000485 -0.006368 0.008720 
526459425366548 -0.000485 -0.006368 0.008720 
526459445938528 -0.000485 -0.006368 0.008720 
526459466507956 -0.000485 -0.006368 0.008720 
526459487079257 -0.000485 -0.006368 0.008720 
526459507650091 -0.000485 -0.006368 0.008720 
526459528221913 -0.000485 -0.006368 0.008720 
526459548792903 -0.000485 -0.006368 0.008720 
526459569363944 -0.000485 -0.006368 0.008720 
526459589934518 -0.000485 -0.006368 0.008720 
526459610505404 -0.000485 -0.006368 0.008720 
526459631076965 -0.000485 -0.006368 0.008720 
526459651647435 -0.000485 -0.006368 0.008720 
526459672218788 -0.000485 -0.006368 0.008720 
526459692790403 -0.000485 -0.006368 0.008720 
526459713360715 -0.000485 -0.006368 0.008720 
526459733931654 -0.000485 -0.006368 0.008720 
526459754502122 -0.000485 -0.006368 0.008720 
526459775072955 -0.000485 -0.006368 0.008720 
526459795643945 -0.000485 -0.006368 0.008720 
526459816214986 -0.000485 -0.006368 0.008720 
526459836785976 -0.000485 -0.006368 0.008720 
526459857358007 -0.000485 -0.006368 0.008720 
526459877928945 -0.000485 -0.006368 0.008720 
526459898500039 -0.000485 -0.006368 0.008720 
526459919071028 -0.000485 -0.006368 0.008720 
526459939641289 -0.000485 -0.006368 0.008720 
526459960212226 -0.000485 -0.006368 0.008720 
526459980783476 -0.000485 -0.006368 0.008720 
526460001354465 -0.000485 -0.006368 0.008720 
526460021924935 -0.000485 -0.006368 0.008720 
526460042495924 -0.000485 -0.006368 0.008720 
526460063066185 -0.000485 -0.006368 0.008720 
526460083637175 -0.000485 -0.006368 0.008720 
526460104210194 -0.000485 -0.006368 0.008720 
526460124781184 -0.000485 -0.006368 0.008720 
526460145349934 -0.000485 -0.006368 0.008720 
526460165920820 -0.000485 -0.006368 0.008720 
526460186492070 -0.000485 -0.006368 0.008720 
526460207062851 -0.000485 -0.006368 0.008720 
526460227633684 -0.000485 -0.006368 0.008720 
526460248204361 -0.000485 -0.006368 0.008720 
526460268775925 -0.000485 -0.006368 0.008720 
526460289346914 -0.000485 -0.006368 0.008720 
526460309917852 -0.000485 -0.006368 0.008720 
526460330489049 -0.000485 -0.006368 0.008720 
526460351059518 -0.000485 -0.006368 0.008720 
