# Created at Thu Nov 07 18:05:26 EST 2019 in Burnaby Canada 
521170770918231 45.002232 190.324265 -6.960118 
521170790918544 45.002232 190.324265 -6.960118 
521170810918544 45.002232 190.324265 -6.960118 
521170830918283 45.002232 190.324265 -6.960118 
521170850918856 45.002232 190.324265 -6.960118 
521170870919170 45.002232 190.324265 -6.960118 
521170890925524 45.002232 190.324265 -6.960118 
521170910925054 45.002232 190.324265 -6.960118 
521170930918752 45.002232 190.324265 -6.960118 
521170951128544 45.002232 190.324265 -6.960118 
521170970918023 45.002232 190.324265 -6.960118 
521170990918128 45.002232 190.324265 -6.960118 
521171010917920 45.002232 190.324265 -6.960118 
521171030965211 45.002232 190.324265 -6.960118 
521171050965211 45.002232 190.324265 -6.960118 
521171070919689 45.002232 190.324265 -6.960118 
521171090918336 45.002232 190.324265 -6.960118 
521171110918076 45.002232 190.324265 -6.960118 
521171130917919 45.002232 190.324265 -6.960118 
521171150918128 45.002232 190.324265 -6.960118 
521171170918752 45.002232 190.324265 -6.960118 
521171190918179 45.002232 190.324265 -6.960118 
521171210918440 45.002232 190.324265 -6.960118 
521171230918180 45.002232 190.324265 -6.960118 
521171250918180 45.002232 190.324265 -6.960118 
521171270918700 45.002232 190.324265 -6.960118 
521171290917971 45.002232 190.324265 -6.960118 
521171310917867 45.002232 190.324265 -6.960118 
521171330918128 45.002232 190.324265 -6.960118 
521171350920054 45.002232 190.324265 -6.960118 
521171370919012 45.002232 190.324265 -6.960118 
521171390919169 45.002232 190.324265 -6.960118 
521171410918596 45.002232 190.324265 -6.960118 
521171430918649 45.002232 190.324265 -6.960118 
521171450918231 45.002232 190.324265 -6.960118 
521171470918701 45.002232 190.324265 -6.960118 
521171490918075 45.002232 190.324265 -6.960118 
521171510919064 45.002232 190.324265 -6.960118 
521171530919377 45.002232 190.324265 -6.960118 
521171550919273 45.002232 190.324265 -6.960118 
521171570918909 45.002232 190.324265 -6.960118 
521171590920419 45.002232 190.324265 -6.960118 
521171610925263 45.002232 190.324265 -6.960118 
521171630919117 45.002232 190.324265 -6.960118 
521171650921617 45.002232 190.324265 -6.960118 
521171670919012 45.002232 190.324265 -6.960118 
521171690919012 45.002232 190.324265 -6.960118 
521171710921669 45.002232 190.324265 -6.960118 
521171730918856 45.002232 190.324265 -6.960118 
521171750919012 45.002232 190.324265 -6.960118 
521171770919012 45.002232 190.324265 -6.960118 
521171790918335 45.002232 190.324265 -6.960118 
521171810918596 45.002232 190.324265 -6.960118 
521171830920055 45.002232 190.324265 -6.960118 
521171850920210 45.002232 190.324265 -6.960118 
521171870921669 45.002232 190.324265 -6.960118 
521171890921356 45.002232 190.324265 -6.960118 
521171910918909 45.002232 190.324265 -6.960118 
521171930925731 45.002232 190.324265 -6.960118 
521171951128856 45.002232 190.324265 -6.960118 
521171970919741 45.002232 190.324265 -6.960118 
521171990918856 45.002232 190.324265 -6.960118 
521172010918856 45.002232 190.324265 -6.960118 
521172030918700 45.002232 190.324265 -6.960118 
521172050918752 45.002232 190.324265 -6.960118 
521172070919220 45.002232 190.324265 -6.960118 
521172090918752 45.002232 190.324265 -6.960118 
521172110951773 45.002232 190.324265 -6.960118 
521172130951200 45.002232 190.324265 -6.960118 
521172150919168 45.002232 190.324265 -6.960118 
521172170919221 45.002232 190.324265 -6.960118 
521172190922450 45.002232 190.324265 -6.960118 
521172210918752 45.002232 190.324265 -6.960118 
521172230919221 45.002232 190.324265 -6.960118 
521172250922867 45.002232 190.324265 -6.960118 
521172270919116 45.002232 190.324265 -6.960118 
521172290918856 45.002232 190.324265 -6.960118 
521172310919116 45.002232 190.324265 -6.960118 
521172330919377 45.002232 190.324265 -6.960118 
521172350919898 45.002232 190.324265 -6.960118 
521172370919794 45.002232 190.324265 -6.960118 
521172390921824 45.002232 190.324265 -6.960118 
521172410920053 45.002232 190.324265 -6.960118 
521172430918127 45.002232 190.324265 -6.960118 
521172450919012 45.002232 190.324265 -6.960118 
521172470917815 45.002232 190.324265 -6.960118 
521172490917815 45.002232 190.324265 -6.960118 
521172510919429 45.002232 190.324265 -6.960118 
521172530918753 45.002232 190.324265 -6.960118 
521172550920211 45.002232 190.324265 -6.960118 
521172570918335 45.002232 190.324265 -6.960118 
521172590919533 45.002232 190.324265 -6.960118 
521172610917815 45.002232 190.324265 -6.960118 
521172630918700 45.002232 190.324265 -6.960118 
521172650918700 45.002232 190.324265 -6.960118 
521172670919742 45.002232 190.324265 -6.960118 
521172690918178 45.002232 190.324265 -6.960118 
521172710919325 45.002232 190.324265 -6.960118 
521172730919169 45.002232 190.324265 -6.960118 
521172750918232 45.002232 190.324265 -6.960118 
521172770918388 45.002232 190.324265 -6.960118 
521172790919742 45.002232 190.324265 -6.960118 
521172810918544 45.002232 190.324265 -6.960118 
521172830948178 45.002232 190.324265 -6.960118 
521172850949741 45.002232 190.324265 -6.960118 
521172870920158 45.002232 190.324265 -6.960118 
521172890919324 45.002232 190.324265 -6.960118 
521172910919949 45.002232 190.324265 -6.960118 
521172930918595 45.002232 190.324265 -6.960118 
521172951125887 45.002232 190.324265 -6.960118 
521172970918335 45.002232 190.324265 -6.960118 
521172990918699 45.002232 190.324265 -6.960118 
521173010918491 45.002232 190.324265 -6.960118 
521173030919533 45.002232 190.324265 -6.960118 
521173050918387 45.002232 190.324265 -6.960118 
521173070918075 45.002232 190.324265 -6.960118 
521173090917763 45.002232 190.324265 -6.960118 
521173110918907 45.002232 190.324265 -6.960118 
521173130918282 45.002232 190.324265 -6.960118 
521173150917763 45.002232 190.324265 -6.960118 
521173170918283 45.002232 190.324265 -6.960118 
521173190918543 45.002232 190.324265 -6.960118 
521173210918543 45.002232 190.324265 -6.960118 
521173230920210 45.002232 190.324265 -6.960118 
521173250955366 45.002232 190.324265 -6.960118 
521173270919376 45.002232 190.324265 -6.960118 
521173290930471 45.002232 190.324265 -6.960118 
521173310918699 45.002232 190.324265 -6.960118 
521173330918543 45.002232 190.324265 -6.960118 
521173350920471 45.002232 190.324265 -6.960118 
521173370922449 45.002232 190.324265 -6.960118 
521173390920522 45.002232 190.324265 -6.960118 
521173410920574 45.002232 190.324265 -6.960118 
521173430918283 45.002232 190.324265 -6.960118 
521173450917970 45.002232 190.324265 -6.960118 
521173470919220 45.002232 190.324265 -6.960118 
521173490919272 45.002232 190.324265 -6.960118 
521173510918544 45.002232 190.324265 -6.960118 
521173530923699 45.002232 190.324265 -6.960118 
521173550938022 45.002232 190.324265 -6.960118 
521173571296824 45.002232 190.324265 -6.960118 
521173590919272 45.002232 190.324265 -6.960118 
521173610927710 45.002232 190.324265 -6.960118 
521173630918178 45.002232 190.324265 -6.960118 
521173650929324 45.002232 190.324265 -6.960118 
521173670918231 45.002232 190.324265 -6.960118 
521173690918491 45.002232 190.324265 -6.960118 
521173710920366 45.002232 190.324265 -6.960118 
521173730919897 45.002232 190.324265 -6.960118 
521173750920210 45.002232 190.324265 -6.960118 
521173770920053 45.002232 190.324265 -6.960118 
521173790922345 45.002232 190.324265 -6.960118 
521173810919793 45.002232 190.324265 -6.960118 
521173830921355 45.002232 190.324265 -6.960118 
521173850921095 45.002232 190.324265 -6.960118 
521173870919636 45.002232 190.324265 -6.960118 
521173890918959 45.002232 190.324265 -6.960118 
521173910944793 45.002232 190.324265 -6.960118 
521173931269741 45.002232 190.324265 -6.960118 
521173951268022 45.002232 190.324265 -6.960118 
521173970928438 45.002232 190.324265 -6.960118 
521173990920002 45.002232 190.324265 -6.960118 
521174010919272 45.002232 190.324265 -6.960118 
521174030919064 45.002232 190.324265 -6.960118 
521174050920210 45.002232 190.324265 -6.960118 
521174070918647 45.002232 190.324265 -6.960118 
521174090918855 45.002232 190.324265 -6.960118 
521174110918803 45.002232 190.324265 -6.960118 
521174130919949 45.002232 190.324265 -6.960118 
521174150919168 45.002232 190.324265 -6.960118 
521174170919532 45.002232 190.324265 -6.960118 
521174190920054 45.002232 190.324265 -6.960118 
521174210926199 45.002232 190.324265 -6.960118 
521174230921876 45.002232 190.324265 -6.960118 
521174250919011 45.002232 190.324265 -6.960118 
521174270933438 45.002232 190.324265 -6.960118 
521174291238595 45.002232 190.324265 -6.960118 
521174310917710 45.002232 190.324265 -6.960118 
521174330920002 45.002232 190.324265 -6.960118 
521174350922605 45.002232 190.324265 -6.960118 
521174370920053 45.002232 190.324265 -6.960118 
521174390920001 45.002232 190.324265 -6.960118 
521174410920731 45.002232 190.324265 -6.960118 
521174430919167 45.002232 190.324265 -6.960118 
521174450919636 45.002232 190.324265 -6.960118 
521174470920209 45.002232 190.324265 -6.960118 
521174490926303 45.002232 190.324265 -6.960118 
521174510918438 45.002232 190.324265 -6.960118 
521174530918021 45.002232 190.324265 -6.960118 
521174550919323 45.002232 190.324265 -6.960118 
521174570919428 45.002232 190.324265 -6.960118 
521174590918959 45.002232 190.324265 -6.960118 
521174610918699 45.002232 190.324265 -6.960118 
521174630919376 45.002232 190.324265 -6.960118 
521174651239793 45.002232 190.324265 -6.960118 
521174670918751 45.002232 190.324265 -6.960118 
521174690918438 45.002232 190.324265 -6.960118 
521174710920731 45.002232 190.324265 -6.960118 
521174730918647 45.002232 190.324265 -6.960118 
521174750920678 45.002232 190.324265 -6.960118 
521174770918334 45.002232 190.324265 -6.960118 
521174790919324 45.002232 190.324265 -6.960118 
521174810918751 45.002232 190.324265 -6.960118 
521174830920574 45.002232 190.324265 -6.960118 
521174850920313 45.002232 190.324265 -6.960118 
521174870920782 45.002232 190.324265 -6.960118 
521174890919949 45.002232 190.324265 -6.960118 
521174910918751 45.002232 190.324265 -6.960118 
521174930919741 45.002232 190.324265 -6.960118 
521174951126459 45.002232 190.324265 -6.960118 
521174970918595 45.002232 190.324265 -6.960118 
521174990920001 45.002232 190.324265 -6.960118 
521175011203490 45.002232 190.324265 -6.960118 
521175030965730 45.002232 190.324265 -6.960118 
521175050918438 45.002232 190.324265 -6.960118 
521175070917969 45.002232 190.324265 -6.960118 
521175090923334 45.002232 190.324265 -6.960118 
521175110918334 45.002232 190.324265 -6.960118 
521175130917917 45.002232 190.324265 -6.960118 
521175150918595 45.002232 190.324265 -6.960118 
521175170918491 45.002232 190.324265 -6.960118 
521175190918074 45.002232 190.324265 -6.960118 
521175210917918 45.002232 190.324265 -6.960118 
521175230917709 45.002232 190.324265 -6.960118 
521175250918334 45.002232 190.324265 -6.960118 
521175270918856 45.002232 190.324265 -6.960118 
521175290921564 45.002232 190.324265 -6.960118 
521175310917917 45.002232 190.324265 -6.960118 
521175330917605 45.002232 190.324265 -6.960118 
521175350919324 45.002232 190.324265 -6.960118 
521175371176407 45.002232 190.324265 -6.960118 
521175390966355 45.002232 190.324265 -6.960118 
521175410931512 45.002232 190.324265 -6.960118 
521175430918646 45.002232 190.324265 -6.960118 
521175450918594 45.002232 190.324265 -6.960118 
521175470918126 45.002232 190.324265 -6.960118 
521175490919845 45.002232 190.324265 -6.960118 
521175510917969 45.002232 190.324265 -6.960118 
521175530918021 45.002232 190.324265 -6.960118 
521175550919584 45.002232 190.324265 -6.960118 
521175570917709 45.002232 190.324265 -6.960118 
521175590918022 45.002232 190.324265 -6.960118 
521175610919272 45.002232 190.324265 -6.960118 
521175630918698 45.002232 190.324265 -6.960118 
521175650917656 45.002232 190.324265 -6.960118 
521175670920730 45.002232 190.324265 -6.960118 
521175690918334 45.002232 190.324265 -6.960118 
521175710918542 45.002232 190.324265 -6.960118 
521175731142866 45.002232 190.324265 -6.960118 
521175750966927 45.002232 190.324265 -6.960118 
521175770917969 45.002232 190.324265 -6.960118 
521175790926355 45.002232 190.324265 -6.960118 
521175810918126 45.002232 190.324265 -6.960118 
521175830919792 45.002232 190.324265 -6.960118 
521175850920313 45.002232 190.324265 -6.960118 
521175870920886 45.002232 190.324265 -6.960118 
521175890920053 45.002232 190.324265 -6.960118 
521175910917864 45.002232 190.324265 -6.960118 
521175930924531 45.002232 190.324265 -6.960118 
521175951125105 45.002232 190.324265 -6.960118 
521175970918022 45.002232 190.324265 -6.960118 
521175990918125 45.002232 190.324265 -6.960118 
521176010917917 45.002232 190.324265 -6.960118 
521176030917500 45.002232 190.324265 -6.960118 
521176050917448 45.002232 190.324265 -6.960118 
521176070938230 45.002232 190.324265 -6.960118 
521176091115991 45.002232 190.324265 -6.960118 
521176110965886 45.002232 190.324265 -6.960118 
521176130965782 45.002232 190.324265 -6.960118 
521176150919114 45.002232 190.324265 -6.960118 
521176170917866 45.002232 190.324265 -6.960118 
521176190920105 45.002232 190.324265 -6.960118 
521176210918281 45.002232 190.324265 -6.960118 
521176230919531 45.002232 190.324265 -6.960118 
521176250976979 45.002232 190.324265 -6.960118 
521176270919427 45.002232 190.324265 -6.960118 
521176290924844 45.002232 190.324265 -6.960118 
521176310920261 45.002232 190.324265 -6.960118 
521176330920938 45.002232 190.324265 -6.960118 
521176350918750 45.002232 190.324265 -6.960118 
521176370919167 45.002232 190.324265 -6.960118 
521176390919063 45.002232 190.324265 -6.960118 
521176410918282 45.002232 190.324265 -6.960118 
521176430931980 45.002232 190.324265 -6.960118 
521176451086146 45.002232 190.324265 -6.960118 
521176471086251 45.002232 190.324265 -6.960118 
521176490965313 45.002232 190.324265 -6.960118 
521176510918074 45.002232 190.324265 -6.960118 
521176530918073 45.002232 190.324265 -6.960118 
521176550917813 45.002232 190.324265 -6.960118 
521176570918334 45.002232 190.324265 -6.960118 
521176590917865 45.002232 190.324265 -6.960118 
521176610918177 45.002232 190.324265 -6.960118 
521176630918489 45.002232 190.324265 -6.960118 
521176650918281 45.002232 190.324265 -6.960118 
521176670917552 45.002232 190.324265 -6.960118 
521176690924167 45.002232 190.324265 -6.960118 
521176710918542 45.002232 190.324265 -6.960118 
521176730919323 45.002232 190.324265 -6.960118 
521176750917865 45.002232 190.324265 -6.960118 
521176770918230 45.002232 190.324265 -6.960118 
