# Created at Thu Nov 07 17:57:59 EST 2019 in Burnaby Canada 
520723551028559 0.003797 -0.003950 0.006214 
520723571596267 0.003797 -0.003950 0.006214 
520723592164964 0.003797 -0.003950 0.006214 
520723612732257 0.003797 -0.003950 0.006214 
520723633300486 0.003797 -0.003950 0.006214 
520723653868350 0.003797 -0.003950 0.006214 
520723674436631 0.003797 -0.003950 0.006214 
520723695004601 0.003797 -0.003950 0.006214 
520723715572986 0.003797 -0.003950 0.006214 
520723736141007 0.003797 -0.003950 0.006214 
520723756708766 0.003797 -0.003950 0.006214 
520723777276579 0.003797 -0.003950 0.006214 
520723797844808 0.003797 -0.003950 0.006214 
520723818412777 0.003797 -0.003950 0.006214 
520723838980850 0.003797 -0.003950 0.006214 
520723859548819 0.003797 -0.003950 0.006214 
520723880117048 0.003797 -0.003950 0.006214 
520723900684965 0.003797 -0.003950 0.006214 
520723921253454 0.003797 -0.003950 0.006214 
520723941821371 0.003797 -0.003950 0.006214 
520723962389444 0.003797 -0.003950 0.006214 
520723982957100 0.003797 -0.003950 0.006214 
520724003525642 0.003797 -0.003950 0.006214 
520724024093298 0.003797 -0.003950 0.006214 
520724044661528 0.003797 -0.003950 0.006214 
520724065229444 0.003797 -0.003950 0.006214 
520724085797412 0.003797 -0.003950 0.006214 
520724106365381 0.003797 -0.003950 0.006214 
520724126933506 0.003797 -0.003950 0.006214 
520724147501632 0.003797 -0.003950 0.006214 
520724168069496 0.003797 -0.003950 0.006214 
520724188637882 0.003797 -0.003950 0.006214 
520724209205694 0.003797 -0.003950 0.006214 
520724229774236 0.003797 -0.003950 0.006214 
520724250341944 0.003797 -0.003950 0.006214 
520724270910121 0.003797 -0.003950 0.006214 
520724291477881 0.003797 -0.003950 0.006214 
520724312046266 0.003797 -0.003950 0.006214 
520724332613923 0.003797 -0.003950 0.006214 
520724353182881 0.003797 -0.003950 0.006214 
520724373750382 0.003797 -0.003950 0.006214 
520724394319757 0.003797 -0.003950 0.006214 
520724414887778 0.003797 -0.003950 0.006214 
520724435455850 0.003797 -0.003950 0.006214 
520724456022881 0.003797 -0.003950 0.006214 
520724476590798 0.003797 -0.003950 0.006214 
520724497158402 0.003797 -0.003950 0.006214 
520724517727100 0.003797 -0.003950 0.006214 
520724538295173 0.003797 -0.003950 0.006214 
520724558864288 0.003797 -0.003950 0.006214 
520724579432777 0.003797 -0.003950 0.006214 
520724600000381 0.003797 -0.003950 0.006214 
520724620567881 0.003797 -0.003950 0.006214 
520724641136423 0.003797 -0.003950 0.006214 
520724661704756 0.003797 -0.003950 0.006214 
520724682271319 0.003797 -0.003950 0.006214 
520724702839496 0.003797 -0.003950 0.006214 
520724723409184 0.003797 -0.003950 0.006214 
520724743975850 0.003797 -0.003950 0.006214 
520724764543299 0.003797 -0.003950 0.006214 
520724785111371 0.003797 -0.003950 0.006214 
520724805679965 0.003797 -0.003950 0.006214 
520724826248245 0.003797 -0.003950 0.006214 
520724846817047 0.003797 -0.003950 0.006214 
520724867385381 0.003797 -0.003950 0.006214 
520724887953350 0.003797 -0.003950 0.006214 
520724908521736 0.003797 -0.003950 0.006214 
520724929089496 0.003797 -0.003950 0.006214 
520724949657048 0.003797 -0.003950 0.006214 
520724970225069 0.003797 -0.003950 0.006214 
520724990793715 0.003797 -0.003950 0.006214 
520725011361579 0.003797 -0.003950 0.006214 
520725031929704 0.003797 -0.003950 0.006214 
520725052497777 0.003797 -0.003950 0.006214 
520725073065068 0.003797 -0.003950 0.006214 
520725093633037 0.003797 -0.003950 0.006214 
520725114201892 0.003797 -0.003950 0.006214 
520725134769913 0.003797 -0.003950 0.006214 
520725155338818 0.003797 -0.003950 0.006214 
520725175905954 0.003797 -0.003950 0.006214 
520725196474183 0.003797 -0.003950 0.006214 
520725217041996 0.003797 -0.003950 0.006214 
520725237610642 0.003797 -0.003950 0.006214 
520725258178351 0.003797 -0.003950 0.006214 
520725278747100 0.003797 -0.003950 0.006214 
520725299314703 0.003797 -0.003950 0.006214 
520725319882881 0.003797 -0.003950 0.006214 
520725340450902 0.003797 -0.003950 0.006214 
520725361018922 0.003797 -0.003950 0.006214 
520725381587256 0.003797 -0.003950 0.006214 
520725402155068 0.003797 -0.003950 0.006214 
520725422723090 0.003797 -0.003950 0.006214 
520725443291318 0.003797 -0.003950 0.006214 
520725463859600 0.003797 -0.003950 0.006214 
520725484427464 0.003797 -0.003950 0.006214 
520725504995069 0.003797 -0.003950 0.006214 
520725525563766 0.003797 -0.003950 0.006214 
520725546132360 0.003797 -0.003950 0.006214 
520725566700120 0.003797 -0.003950 0.006214 
520725587267673 0.003797 -0.003950 0.006214 
520725607835902 0.003797 -0.003950 0.006214 
520725628403871 0.003797 -0.003950 0.006214 
520725648971838 0.003797 -0.003950 0.006214 
520725669541995 0.003797 -0.003950 0.006214 
520725690108089 0.003797 -0.003950 0.006214 
520725710675380 0.003797 -0.003950 0.006214 
520725731243037 0.003797 -0.003950 0.006214 
520725751813557 0.003797 -0.003950 0.006214 
520725772381109 0.003797 -0.003950 0.006214 
520725792947933 0.003797 -0.003950 0.006214 
520725813515797 0.003797 -0.003950 0.006214 
520725834087047 0.003797 -0.003950 0.006214 
520725854652985 0.003797 -0.003950 0.006214 
520725875221683 0.003797 -0.003950 0.006214 
520725895788871 0.003797 -0.003950 0.006214 
520725916357777 0.003797 -0.003950 0.006214 
520725936925433 0.003797 -0.003950 0.006214 
520725957493142 0.003797 -0.003950 0.006214 
520725978060798 0.003797 -0.003950 0.006214 
520725998628141 0.003797 -0.003950 0.006214 
520726019196423 0.003797 -0.003950 0.006214 
520726039764860 0.003797 -0.003950 0.006214 
520726060332568 0.003797 -0.003950 0.006214 
520726080901163 0.003797 -0.003950 0.006214 
520726101469235 0.003797 -0.003950 0.006214 
520726122038245 0.003797 -0.003950 0.006214 
520726142606422 0.003797 -0.003950 0.006214 
520726163174964 0.003797 -0.003950 0.006214 
520726183742411 0.003797 -0.003950 0.006214 
520726204311266 0.003797 -0.003950 0.006214 
520726224878661 0.003797 -0.003950 0.006214 
520726245446474 0.003797 -0.003950 0.006214 
520726266014079 0.003797 -0.003950 0.006214 
520726286581631 0.003797 -0.003950 0.006214 
520726307149704 0.003797 -0.003950 0.006214 
520726327720068 0.003797 -0.003950 0.006214 
520726348288245 0.003797 -0.003950 0.006214 
520726368856161 0.003797 -0.003950 0.006214 
520726389424078 0.003797 -0.003950 0.006214 
520726409992047 0.003797 -0.003950 0.006214 
520726430560745 0.003797 -0.003950 0.006214 
520726451127464 0.003797 -0.003950 0.006214 
520726471696786 0.003797 -0.003950 0.006214 
520726492264912 0.003797 -0.003950 0.006214 
520726512832828 0.003797 -0.003950 0.006214 
520726533401005 0.003797 -0.003950 0.006214 
520726553969756 0.003797 -0.003950 0.006214 
520726574537047 0.003797 -0.003950 0.006214 
520726595105641 0.003797 -0.003950 0.006214 
520726615673036 0.003797 -0.003950 0.006214 
520726636242047 0.003797 -0.003950 0.006214 
520726656809547 0.003797 -0.003950 0.006214 
520726677380172 0.003797 -0.003950 0.006214 
520726697946630 0.003797 -0.003950 0.006214 
520726718513088 0.003797 -0.003950 0.006214 
520726739081161 0.003797 -0.003950 0.006214 
520726759648974 0.003797 -0.003950 0.006214 
520726780217255 0.003797 -0.003950 0.006214 
520726800785849 0.003797 -0.003950 0.006214 
520726821353610 0.003797 -0.003950 0.006214 
520726841921942 0.003797 -0.003950 0.006214 
520726862489964 0.003797 -0.003950 0.006214 
520726883058088 0.003797 -0.003950 0.006214 
520726903625953 0.003797 -0.003950 0.006214 
520726924195067 0.003797 -0.003950 0.006214 
520726944762619 0.003797 -0.003950 0.006214 
520726965331421 0.003797 -0.003950 0.006214 
520726985898610 0.003797 -0.003950 0.006214 
520727006467256 0.003797 -0.003950 0.006214 
520727027034808 0.003797 -0.003950 0.006214 
520727047602985 0.003797 -0.003950 0.006214 
520727068171214 0.003797 -0.003950 0.006214 
520727088739287 0.003797 -0.003950 0.006214 
520727109307620 0.003797 -0.003950 0.006214 
520727129875589 0.003797 -0.003950 0.006214 
520727150443870 0.003797 -0.003950 0.006214 
520727171011683 0.003797 -0.003950 0.006214 
520727191580641 0.003797 -0.003950 0.006214 
520727212148454 0.003797 -0.003950 0.006214 
520727232717256 0.003797 -0.003950 0.006214 
520727253284755 0.003797 -0.003950 0.006214 
520727273853088 0.003797 -0.003950 0.006214 
520727294420797 0.003797 -0.003950 0.006214 
520727314988922 0.003797 -0.003950 0.006214 
520727335556995 0.003797 -0.003950 0.006214 
520727356126057 0.003797 -0.003950 0.006214 
520727376693870 0.003797 -0.003950 0.006214 
520727397262672 0.003797 -0.003950 0.006214 
520727417830745 0.003797 -0.003950 0.006214 
520727438399964 0.003797 -0.003950 0.006214 
520727458967151 0.003797 -0.003950 0.006214 
520727479534755 0.003797 -0.003950 0.006214 
520727500103504 0.003797 -0.003950 0.006214 
520727520670327 0.003797 -0.003950 0.006214 
520727541238349 0.003797 -0.003950 0.006214 
520727561807255 0.003797 -0.003950 0.006214 
520727582374964 0.003797 -0.003950 0.006214 
520727602944183 0.003797 -0.003950 0.006214 
520727623511422 0.003797 -0.003950 0.006214 
520727644080849 0.003797 -0.003950 0.006214 
520727664649078 0.003797 -0.003950 0.006214 
520727685216735 0.003797 -0.003950 0.006214 
520727705784859 0.003797 -0.003950 0.006214 
520727726353193 0.003797 -0.003950 0.006214 
520727746922151 0.003797 -0.003950 0.006214 
520727767489338 0.003797 -0.003950 0.006214 
520727788056838 0.003797 -0.003950 0.006214 
520727808624859 0.003797 -0.003950 0.006214 
520727829193297 0.003797 -0.003950 0.006214 
520727849761681 0.003797 -0.003950 0.006214 
520727870328661 0.003797 -0.003950 0.006214 
520727890896682 0.003797 -0.003950 0.006214 
520727911465223 0.003797 -0.003950 0.006214 
520727932032985 0.003797 -0.003950 0.006214 
520727952601474 0.003797 -0.003950 0.006214 
520727973169235 0.003797 -0.003950 0.006214 
520727993738037 0.003797 -0.003950 0.006214 
520728014305693 0.003797 -0.003950 0.006214 
520728034874078 0.003797 -0.003950 0.006214 
520728055441890 0.003797 -0.003950 0.006214 
520728076010797 0.003797 -0.003950 0.006214 
520728096578192 0.003797 -0.003950 0.006214 
520728117148088 0.003797 -0.003950 0.006214 
520728137716005 0.003797 -0.003950 0.006214 
520728158284077 0.003797 -0.003950 0.006214 
520728178851630 0.003797 -0.003950 0.006214 
520728199420692 0.003797 -0.003950 0.006214 
520728219987985 0.003797 -0.003950 0.006214 
520728240556370 0.003797 -0.003950 0.006214 
520728261124338 0.003797 -0.003950 0.006214 
520728281693036 0.003797 -0.003950 0.006214 
520728302262098 0.003797 -0.003950 0.006214 
520728322828765 0.003797 -0.003950 0.006214 
520728343396318 0.003797 -0.003950 0.006214 
520728363965432 0.003797 -0.003950 0.006214 
520728384532724 0.003797 -0.003950 0.006214 
520728405100952 0.003797 -0.003950 0.006214 
520728425669130 0.003797 -0.003950 0.006214 
520728446237567 0.003797 -0.003950 0.006214 
520728466806108 0.003797 -0.003950 0.006214 
520728487374651 0.003797 -0.003950 0.006214 
520728507941839 0.003797 -0.003950 0.006214 
520728528510641 0.003797 -0.003950 0.006214 
520728549078296 0.003797 -0.003950 0.006214 
520728569646421 0.003797 -0.003950 0.006214 
520728590214911 0.003797 -0.003950 0.006214 
520728610782827 0.003797 -0.003950 0.006214 
520728631351733 0.003797 -0.003950 0.006214 
520728651919650 0.003797 -0.003950 0.006214 
520728672488764 0.003797 -0.003950 0.006214 
520728693056160 0.003797 -0.003950 0.006214 
520728713624182 0.003797 -0.003950 0.006214 
520728734191891 0.003797 -0.003950 0.006214 
520728754760380 0.003797 -0.003950 0.006214 
520728775328140 0.003797 -0.003950 0.006214 
520728795896473 0.003797 -0.003950 0.006214 
520728816464807 0.003797 -0.003950 0.006214 
520728837032931 0.003797 -0.003950 0.006214 
520728857601056 0.003797 -0.003950 0.006214 
520728878169025 0.003797 -0.003950 0.006214 
520728898738192 0.003797 -0.003950 0.006214 
520728919306526 0.003797 -0.003950 0.006214 
520728939874598 0.003797 -0.003950 0.006214 
520728960442203 0.003797 -0.003950 0.006214 
520728981010536 0.003797 -0.003950 0.006214 
520729001578661 0.003797 -0.003950 0.006214 
520729022147202 0.003797 -0.003950 0.006214 
520729042715744 0.003797 -0.003950 0.006214 
520729063284650 0.003797 -0.003950 0.006214 
520729083853191 0.003797 -0.003950 0.006214 
520729104419858 0.003797 -0.003950 0.006214 
520729124989182 0.003797 -0.003950 0.006214 
520729145557463 0.003797 -0.003950 0.006214 
520729166125744 0.003797 -0.003950 0.006214 
520729186693921 0.003797 -0.003950 0.006214 
520729207262411 0.003797 -0.003950 0.006214 
520729227830588 0.003797 -0.003950 0.006214 
520729248397514 0.003797 -0.003950 0.006214 
520729268965275 0.003797 -0.003950 0.006214 
520729289533296 0.003797 -0.003950 0.006214 
520729310103244 0.003797 -0.003950 0.006214 
520729330670327 0.003797 -0.003950 0.006214 
520729351238192 0.003797 -0.003950 0.006214 
520729371806005 0.003797 -0.003950 0.006214 
520729392374234 0.003797 -0.003950 0.006214 
520729412942150 0.003797 -0.003950 0.006214 
520729433511941 0.003797 -0.003950 0.006214 
520729454079129 0.003797 -0.003950 0.006214 
520729474647099 0.003797 -0.003950 0.006214 
520729495214911 0.003797 -0.003950 0.006214 
520729515783556 0.003797 -0.003950 0.006214 
520729536351317 0.003797 -0.003950 0.006214 
520729556919702 0.003797 -0.003950 0.006214 
