# Created at Thu Nov 07 17:57:59 EST 2019 in Burnaby Canada 
520723550918871 45.002232 190.324265 -6.960118 
520723570917204 45.002232 190.324265 -6.960118 
520723590917465 45.002232 190.324265 -6.960118 
520723610916997 45.002232 190.324265 -6.960118 
520723630925591 45.002232 190.324265 -6.960118 
520723650953767 45.002232 190.324265 -6.960118 
520723670921527 45.002232 190.324265 -6.960118 
520723690916840 45.002232 190.324265 -6.960118 
520723710917101 45.002232 190.324265 -6.960118 
520723730917517 45.002232 190.324265 -6.960118 
520723750917986 45.002232 190.324265 -6.960118 
520723770916527 45.002232 190.324265 -6.960118 
520723790916996 45.002232 190.324265 -6.960118 
520723810918819 45.002232 190.324265 -6.960118 
520723831267621 45.002232 190.324265 -6.960118 
520723850916683 45.002232 190.324265 -6.960118 
520723870916840 45.002232 190.324265 -6.960118 
520723890921944 45.002232 190.324265 -6.960118 
520723910917465 45.002232 190.324265 -6.960118 
520723930975225 45.002232 190.324265 -6.960118 
520723951124340 45.002232 190.324265 -6.960118 
520723970917101 45.002232 190.324265 -6.960118 
520723990919704 45.002232 190.324265 -6.960118 
520724010917986 45.002232 190.324265 -6.960118 
520724030916996 45.002232 190.324265 -6.960118 
520724050919601 45.002232 190.324265 -6.960118 
520724070919287 45.002232 190.324265 -6.960118 
520724090920694 45.002232 190.324265 -6.960118 
520724110920329 45.002232 190.324265 -6.960118 
520724130917777 45.002232 190.324265 -6.960118 
520724150917361 45.002232 190.324265 -6.960118 
520724170920538 45.002232 190.324265 -6.960118 
520724191190434 45.002232 190.324265 -6.960118 
520724211022308 45.002232 190.324265 -6.960118 
520724230921267 45.002232 190.324265 -6.960118 
520724250917204 45.002232 190.324265 -6.960118 
520724270917829 45.002232 190.324265 -6.960118 
520724290924444 45.002232 190.324265 -6.960118 
520724310917152 45.002232 190.324265 -6.960118 
520724330916892 45.002232 190.324265 -6.960118 
520724350916840 45.002232 190.324265 -6.960118 
520724370925642 45.002232 190.324265 -6.960118 
520724390917257 45.002232 190.324265 -6.960118 
520724410918559 45.002232 190.324265 -6.960118 
520724430918559 45.002232 190.324265 -6.960118 
520724450925538 45.002232 190.324265 -6.960118 
520724470917465 45.002232 190.324265 -6.960118 
520724490920590 45.002232 190.324265 -6.960118 
520724510916996 45.002232 190.324265 -6.960118 
520724530997308 45.002232 190.324265 -6.960118 
520724551115642 45.002232 190.324265 -6.960118 
520724570963975 45.002232 190.324265 -6.960118 
520724590919287 45.002232 190.324265 -6.960118 
520724610919599 45.002232 190.324265 -6.960118 
520724630917829 45.002232 190.324265 -6.960118 
520724650918455 45.002232 190.324265 -6.960118 
520724670918871 45.002232 190.324265 -6.960118 
520724690917361 45.002232 190.324265 -6.960118 
520724710917517 45.002232 190.324265 -6.960118 
520724730918767 45.002232 190.324265 -6.960118 
520724750917516 45.002232 190.324265 -6.960118 
520724770917205 45.002232 190.324265 -6.960118 
520724790974600 45.002232 190.324265 -6.960118 
520724810917412 45.002232 190.324265 -6.960118 
520724830917620 45.002232 190.324265 -6.960118 
520724850918506 45.002232 190.324265 -6.960118 
520724870918350 45.002232 190.324265 -6.960118 
520724890927621 45.002232 190.324265 -6.960118 
520724911069392 45.002232 190.324265 -6.960118 
520724931069392 45.002232 190.324265 -6.960118 
520724951131267 45.002232 190.324265 -6.960118 
520724970917673 45.002232 190.324265 -6.960118 
520724990917725 45.002232 190.324265 -6.960118 
520725010918193 45.002232 190.324265 -6.960118 
520725030918297 45.002232 190.324265 -6.960118 
520725050921579 45.002232 190.324265 -6.960118 
520725070920069 45.002232 190.324265 -6.960118 
520725090917204 45.002232 190.324265 -6.960118 
520725110922516 45.002232 190.324265 -6.960118 
520725130917726 45.002232 190.324265 -6.960118 
520725150918090 45.002232 190.324265 -6.960118 
520725170918298 45.002232 190.324265 -6.960118 
520725190918350 45.002232 190.324265 -6.960118 
520725210918610 45.002232 190.324265 -6.960118 
520725230918037 45.002232 190.324265 -6.960118 
520725250932048 45.002232 190.324265 -6.960118 
520725270993455 45.002232 190.324265 -6.960118 
520725290994132 45.002232 190.324265 -6.960118 
520725310918974 45.002232 190.324265 -6.960118 
520725330919027 45.002232 190.324265 -6.960118 
520725350918506 45.002232 190.324265 -6.960118 
520725370918662 45.002232 190.324265 -6.960118 
520725390918767 45.002232 190.324265 -6.960118 
520725410918766 45.002232 190.324265 -6.960118 
520725430926736 45.002232 190.324265 -6.960118 
520725450918766 45.002232 190.324265 -6.960118 
520725470918714 45.002232 190.324265 -6.960118 
520725490918766 45.002232 190.324265 -6.960118 
520725510918142 45.002232 190.324265 -6.960118 
520725530918818 45.002232 190.324265 -6.960118 
520725550918714 45.002232 190.324265 -6.960118 
520725570920015 45.002232 190.324265 -6.960118 
520725590918141 45.002232 190.324265 -6.960118 
520725610923350 45.002232 190.324265 -6.960118 
520725630935382 45.002232 190.324265 -6.960118 
520725650935120 45.002232 190.324265 -6.960118 
520725670918557 45.002232 190.324265 -6.960118 
520725690917829 45.002232 190.324265 -6.960118 
520725710918193 45.002232 190.324265 -6.960118 
520725730917777 45.002232 190.324265 -6.960118 
520725750916943 45.002232 190.324265 -6.960118 
520725770918140 45.002232 190.324265 -6.960118 
520725790918661 45.002232 190.324265 -6.960118 
520725810925172 45.002232 190.324265 -6.960118 
520725830917880 45.002232 190.324265 -6.960118 
520725850918766 45.002232 190.324265 -6.960118 
520725870918506 45.002232 190.324265 -6.960118 
520725890918402 45.002232 190.324265 -6.960118 
520725910918610 45.002232 190.324265 -6.960118 
520725930918818 45.002232 190.324265 -6.960118 
520725951125068 45.002232 190.324265 -6.960118 
520725970917308 45.002232 190.324265 -6.960118 
520725990917256 45.002232 190.324265 -6.960118 
520726010916683 45.002232 190.324265 -6.960118 
520726030917308 45.002232 190.324265 -6.960118 
520726050917516 45.002232 190.324265 -6.960118 
520726070916995 45.002232 190.324265 -6.960118 
520726090917048 45.002232 190.324265 -6.960118 
520726110917672 45.002232 190.324265 -6.960118 
520726130918766 45.002232 190.324265 -6.960118 
520726150918662 45.002232 190.324265 -6.960118 
520726170918454 45.002232 190.324265 -6.960118 
520726190918245 45.002232 190.324265 -6.960118 
520726210918714 45.002232 190.324265 -6.960118 
520726230920224 45.002232 190.324265 -6.960118 
520726250927099 45.002232 190.324265 -6.960118 
520726270916996 45.002232 190.324265 -6.960118 
520726290916892 45.002232 190.324265 -6.960118 
520726310917152 45.002232 190.324265 -6.960118 
520726330919131 45.002232 190.324265 -6.960118 
520726350931787 45.002232 190.324265 -6.960118 
520726370931630 45.002232 190.324265 -6.960118 
520726390918870 45.002232 190.324265 -6.960118 
520726410918141 45.002232 190.324265 -6.960118 
520726430919808 45.002232 190.324265 -6.960118 
520726450923975 45.002232 190.324265 -6.960118 
520726470917933 45.002232 190.324265 -6.960118 
520726490919131 45.002232 190.324265 -6.960118 
520726510918558 45.002232 190.324265 -6.960118 
520726530920484 45.002232 190.324265 -6.960118 
520726550918922 45.002232 190.324265 -6.960118 
520726570918610 45.002232 190.324265 -6.960118 
520726590917620 45.002232 190.324265 -6.960118 
520726610918349 45.002232 190.324265 -6.960118 
520726630919182 45.002232 190.324265 -6.960118 
520726650918349 45.002232 190.324265 -6.960118 
520726670921839 45.002232 190.324265 -6.960118 
520726690919443 45.002232 190.324265 -6.960118 
520726710938609 45.002232 190.324265 -6.960118 
520726731328349 45.002232 190.324265 -6.960118 
520726750955380 45.002232 190.324265 -6.960118 
520726770917412 45.002232 190.324265 -6.960118 
520726790986370 45.002232 190.324265 -6.960118 
520726810917412 45.002232 190.324265 -6.960118 
520726830917360 45.002232 190.324265 -6.960118 
520726850918765 45.002232 190.324265 -6.960118 
520726870917673 45.002232 190.324265 -6.960118 
520726890917620 45.002232 190.324265 -6.960118 
520726910917412 45.002232 190.324265 -6.960118 
520726930919547 45.002232 190.324265 -6.960118 
520726951124807 45.002232 190.324265 -6.960118 
520726970918765 45.002232 190.324265 -6.960118 
520726990917516 45.002232 190.324265 -6.960118 
520727010917933 45.002232 190.324265 -6.960118 
520727030917880 45.002232 190.324265 -6.960118 
520727050917464 45.002232 190.324265 -6.960118 
520727070917880 45.002232 190.324265 -6.960118 
520727091294964 45.002232 190.324265 -6.960118 
520727110917412 45.002232 190.324265 -6.960118 
520727130917776 45.002232 190.324265 -6.960118 
520727150917724 45.002232 190.324265 -6.960118 
520727170917516 45.002232 190.324265 -6.960118 
520727190918037 45.002232 190.324265 -6.960118 
520727210917933 45.002232 190.324265 -6.960118 
520727230918089 45.002232 190.324265 -6.960118 
520727250917984 45.002232 190.324265 -6.960118 
520727270917672 45.002232 190.324265 -6.960118 
520727290917307 45.002232 190.324265 -6.960118 
520727310917464 45.002232 190.324265 -6.960118 
520727330985641 45.002232 190.324265 -6.960118 
520727350917620 45.002232 190.324265 -6.960118 
520727370917828 45.002232 190.324265 -6.960118 
520727390917933 45.002232 190.324265 -6.960118 
520727410935901 45.002232 190.324265 -6.960118 
520727430925120 45.002232 190.324265 -6.960118 
520727451219183 45.002232 190.324265 -6.960118 
520727470918349 45.002232 190.324265 -6.960118 
520727490918037 45.002232 190.324265 -6.960118 
520727510918504 45.002232 190.324265 -6.960118 
520727530917775 45.002232 190.324265 -6.960118 
520727550917204 45.002232 190.324265 -6.960118 
520727570918036 45.002232 190.324265 -6.960118 
520727590917984 45.002232 190.324265 -6.960118 
520727610918766 45.002232 190.324265 -6.960118 
520727630917672 45.002232 190.324265 -6.960118 
520727650919286 45.002232 190.324265 -6.960118 
520727670919442 45.002232 190.324265 -6.960118 
520727690918714 45.002232 190.324265 -6.960118 
520727710918661 45.002232 190.324265 -6.960118 
520727730918714 45.002232 190.324265 -6.960118 
520727750919130 45.002232 190.324265 -6.960118 
520727770918765 45.002232 190.324265 -6.960118 
520727790919651 45.002232 190.324265 -6.960118 
520727811172255 45.002232 190.324265 -6.960118 
520727830964390 45.002232 190.324265 -6.960118 
520727850918140 45.002232 190.324265 -6.960118 
520727870918140 45.002232 190.324265 -6.960118 
520727890916943 45.002232 190.324265 -6.960118 
520727910917307 45.002232 190.324265 -6.960118 
520727930916735 45.002232 190.324265 -6.960118 
520727951127047 45.002232 190.324265 -6.960118 
520727970916735 45.002232 190.324265 -6.960118 
520727990916422 45.002232 190.324265 -6.960118 
520728010916787 45.002232 190.324265 -6.960118 
520728030916787 45.002232 190.324265 -6.960118 
520728050919234 45.002232 190.324265 -6.960118 
520728070916473 45.002232 190.324265 -6.960118 
520728090916734 45.002232 190.324265 -6.960118 
520728110916577 45.002232 190.324265 -6.960118 
520728130919599 45.002232 190.324265 -6.960118 
520728150918141 45.002232 190.324265 -6.960118 
520728171099286 45.002232 190.324265 -6.960118 
520728190963453 45.002232 190.324265 -6.960118 
520728210966370 45.002232 190.324265 -6.960118 
520728230917516 45.002232 190.324265 -6.960118 
520728250917568 45.002232 190.324265 -6.960118 
520728270917098 45.002232 190.324265 -6.960118 
520728290918244 45.002232 190.324265 -6.960118 
520728310918817 45.002232 190.324265 -6.960118 
520728330925536 45.002232 190.324265 -6.960118 
520728350917464 45.002232 190.324265 -6.960118 
520728370917828 45.002232 190.324265 -6.960118 
520728390916891 45.002232 190.324265 -6.960118 
520728410917046 45.002232 190.324265 -6.960118 
520728430916318 45.002232 190.324265 -6.960118 
520728450917151 45.002232 190.324265 -6.960118 
520728470916265 45.002232 190.324265 -6.960118 
520728490917880 45.002232 190.324265 -6.960118 
520728510919442 45.002232 190.324265 -6.960118 
520728531042776 45.002232 190.324265 -6.960118 
520728551042776 45.002232 190.324265 -6.960118 
520728570951421 45.002232 190.324265 -6.960118 
520728590916994 45.002232 190.324265 -6.960118 
520728610916681 45.002232 190.324265 -6.960118 
520728630917254 45.002232 190.324265 -6.960118 
520728650917359 45.002232 190.324265 -6.960118 
520728670917202 45.002232 190.324265 -6.960118 
520728690917254 45.002232 190.324265 -6.960118 
520728710917567 45.002232 190.324265 -6.960118 
520728730917568 45.002232 190.324265 -6.960118 
520728750917359 45.002232 190.324265 -6.960118 
520728770917150 45.002232 190.324265 -6.960118 
520728790916629 45.002232 190.324265 -6.960118 
520728810916786 45.002232 190.324265 -6.960118 
520728830916630 45.002232 190.324265 -6.960118 
520728850917931 45.002232 190.324265 -6.960118 
520728870916837 45.002232 190.324265 -6.960118 
520728890989390 45.002232 190.324265 -6.960118 
520728910990380 45.002232 190.324265 -6.960118 
520728930917619 45.002232 190.324265 -6.960118 
520728951124962 45.002232 190.324265 -6.960118 
520728970917359 45.002232 190.324265 -6.960118 
520728990917359 45.002232 190.324265 -6.960118 
520729010917203 45.002232 190.324265 -6.960118 
520729030976317 45.002232 190.324265 -6.960118 
520729050917723 45.002232 190.324265 -6.960118 
520729070918504 45.002232 190.324265 -6.960118 
520729090919910 45.002232 190.324265 -6.960118 
520729110917358 45.002232 190.324265 -6.960118 
520729130918452 45.002232 190.324265 -6.960118 
520729150918869 45.002232 190.324265 -6.960118 
520729170919025 45.002232 190.324265 -6.960118 
520729190919703 45.002232 190.324265 -6.960118 
520729210919442 45.002232 190.324265 -6.960118 
520729230924651 45.002232 190.324265 -6.960118 
520729250932983 45.002232 190.324265 -6.960118 
520729270932983 45.002232 190.324265 -6.960118 
520729290917463 45.002232 190.324265 -6.960118 
520729310916786 45.002232 190.324265 -6.960118 
520729330917723 45.002232 190.324265 -6.960118 
520729350917723 45.002232 190.324265 -6.960118 
520729370917047 45.002232 190.324265 -6.960118 
520729390918870 45.002232 190.324265 -6.960118 
520729410916681 45.002232 190.324265 -6.960118 
520729430916681 45.002232 190.324265 -6.960118 
520729450917932 45.002232 190.324265 -6.960118 
520729470917411 45.002232 190.324265 -6.960118 
520729490916838 45.002232 190.324265 -6.960118 
520729510916890 45.002232 190.324265 -6.960118 
520729530917098 45.002232 190.324265 -6.960118 
520729550916629 45.002232 190.324265 -6.960118 
520729570916317 45.002232 190.324265 -6.960118 
