# Created at Thu Nov 07 19:53:36 EST 2019 in Burnaby Canada 
527660104582913 -0.001878 -0.002344 0.006000 
527660125151352 -0.001878 -0.002344 0.006000 
527660145719215 -0.001878 -0.002344 0.006000 
527660166287393 -0.001878 -0.002344 0.006000 
527660186855465 -0.001878 -0.002344 0.006000 
527660207424007 -0.001878 -0.002344 0.006000 
527660227992653 -0.001878 -0.002344 0.006000 
527660248560518 -0.001878 -0.002344 0.006000 
527660269128695 -0.001878 -0.002344 0.006000 
527660289697132 -0.001878 -0.002344 0.006000 
527660310265414 -0.001878 -0.002344 0.006000 
527660330833487 -0.001878 -0.002344 0.006000 
527660351402028 -0.001878 -0.002344 0.006000 
527660371970049 -0.001878 -0.002344 0.006000 
527660392538486 -0.001878 -0.002344 0.006000 
527660413106664 -0.001878 -0.002344 0.006000 
527660433674788 -0.001878 -0.002344 0.006000 
527660454243069 -0.001878 -0.002344 0.006000 
527660474811768 -0.001878 -0.002344 0.006000 
527660495379477 -0.001878 -0.002344 0.006000 
527660515948070 -0.001878 -0.002344 0.006000 
527660536516142 -0.001878 -0.002344 0.006000 
527660557084475 -0.001878 -0.002344 0.006000 
527660577652757 -0.001878 -0.002344 0.006000 
527660598221455 -0.001878 -0.002344 0.006000 
527660618789059 -0.001878 -0.002344 0.006000 
527660639357392 -0.001878 -0.002344 0.006000 
527660659925674 -0.001878 -0.002344 0.006000 
527660680494059 -0.001878 -0.002344 0.006000 
527660701062132 -0.001878 -0.002344 0.006000 
527660721630622 -0.001878 -0.002344 0.006000 
527660742198851 -0.001878 -0.002344 0.006000 
527660762767079 -0.001878 -0.002344 0.006000 
527660783338174 -0.001878 -0.002344 0.006000 
527660803904112 -0.001878 -0.002344 0.006000 
527660824472027 -0.001878 -0.002344 0.006000 
527660845041662 -0.001878 -0.002344 0.006000 
527660865608435 -0.001878 -0.002344 0.006000 
527660886177652 -0.001878 -0.002344 0.006000 
527660906745882 -0.001878 -0.002344 0.006000 
527660927313903 -0.001878 -0.002344 0.006000 
527660947881402 -0.001878 -0.002344 0.006000 
527660968449580 -0.001878 -0.002344 0.006000 
527660989019059 -0.001878 -0.002344 0.006000 
527661009586611 -0.001878 -0.002344 0.006000 
527661030157079 -0.001878 -0.002344 0.006000 
527661050725414 -0.001878 -0.002344 0.006000 
527661071294996 -0.001878 -0.002344 0.006000 
527661091860049 -0.001878 -0.002344 0.006000 
527661112432184 -0.001878 -0.002344 0.006000 
527661132998902 -0.001878 -0.002344 0.006000 
527661153564163 -0.001878 -0.002344 0.006000 
527661174132288 -0.001878 -0.002344 0.006000 
527661194701090 -0.001878 -0.002344 0.006000 
527661215269163 -0.001878 -0.002344 0.006000 
527661235837288 -0.001878 -0.002344 0.006000 
527661256405361 -0.001878 -0.002344 0.006000 
527661276975465 -0.001878 -0.002344 0.006000 
527661297543381 -0.001878 -0.002344 0.006000 
527661318111611 -0.001878 -0.002344 0.006000 
527661338679528 -0.001878 -0.002344 0.006000 
527661359248486 -0.001878 -0.002344 0.006000 
527661379817027 -0.001878 -0.002344 0.006000 
527661400384788 -0.001878 -0.002344 0.006000 
527661420952340 -0.001878 -0.002344 0.006000 
527661441520361 -0.001878 -0.002344 0.006000 
527661462088225 -0.001878 -0.002344 0.006000 
527661482658799 -0.001878 -0.002344 0.006000 
527661503226923 -0.001878 -0.002344 0.006000 
527661523793798 -0.001878 -0.002344 0.006000 
527661544361975 -0.001878 -0.002344 0.006000 
527661564930517 -0.001878 -0.002344 0.006000 
527661585498694 -0.001878 -0.002344 0.006000 
527661606066246 -0.001878 -0.002344 0.006000 
527661626634475 -0.001878 -0.002344 0.006000 
527661647203382 -0.001878 -0.002344 0.006000 
527661667771246 -0.001878 -0.002344 0.006000 
527661688339475 -0.001878 -0.002344 0.006000 
527661708910725 -0.001878 -0.002344 0.006000 
527661729478382 -0.001878 -0.002344 0.006000 
527661750046247 -0.001878 -0.002344 0.006000 
527661770614059 -0.001878 -0.002344 0.006000 
527661791182600 -0.001878 -0.002344 0.006000 
527661811752705 -0.001878 -0.002344 0.006000 
527661832318381 -0.001878 -0.002344 0.006000 
527661852886194 -0.001878 -0.002344 0.006000 
527661873454163 -0.001878 -0.002344 0.006000 
527661894022080 -0.001878 -0.002344 0.006000 
527661914590778 -0.001878 -0.002344 0.006000 
527661935158746 -0.001878 -0.002344 0.006000 
527661955727027 -0.001878 -0.002344 0.006000 
527661976295465 -0.001878 -0.002344 0.006000 
527661996866559 -0.001878 -0.002344 0.006000 
527662017435360 -0.001878 -0.002344 0.006000 
527662038001455 -0.001878 -0.002344 0.006000 
527662058569736 -0.001878 -0.002344 0.006000 
527662079137184 -0.001878 -0.002344 0.006000 
527662099705151 -0.001878 -0.002344 0.006000 
527662120273434 -0.001878 -0.002344 0.006000 
527662140842080 -0.001878 -0.002344 0.006000 
527662161409996 -0.001878 -0.002344 0.006000 
527662181978330 -0.001878 -0.002344 0.006000 
527662202547079 -0.001878 -0.002344 0.006000 
527662223114996 -0.001878 -0.002344 0.006000 
527662243683381 -0.001878 -0.002344 0.006000 
527662264251871 -0.001878 -0.002344 0.006000 
527662284820360 -0.001878 -0.002344 0.006000 
527662305388277 -0.001878 -0.002344 0.006000 
527662325957236 -0.001878 -0.002344 0.006000 
527662346526246 -0.001878 -0.002344 0.006000 
527662367094215 -0.001878 -0.002344 0.006000 
527662387662027 -0.001878 -0.002344 0.006000 
527662408229944 -0.001878 -0.002344 0.006000 
527662428797808 -0.001878 -0.002344 0.006000 
527662449366350 -0.001878 -0.002344 0.006000 
527662469934735 -0.001878 -0.002344 0.006000 
527662490503068 -0.001878 -0.002344 0.006000 
527662511071558 -0.001878 -0.002344 0.006000 
527662531640204 -0.001878 -0.002344 0.006000 
527662552208798 -0.001878 -0.002344 0.006000 
527662572776922 -0.001878 -0.002344 0.006000 
527662593345360 -0.001878 -0.002344 0.006000 
527662613913016 -0.001878 -0.002344 0.006000 
527662634481818 -0.001878 -0.002344 0.006000 
527662655049735 -0.001878 -0.002344 0.006000 
527662675617913 -0.001878 -0.002344 0.006000 
527662696186038 -0.001878 -0.002344 0.006000 
527662716755100 -0.001878 -0.002344 0.006000 
527662737322755 -0.001878 -0.002344 0.006000 
527662757895100 -0.001878 -0.002344 0.006000 
527662778460100 -0.001878 -0.002344 0.006000 
527662799029839 -0.001878 -0.002344 0.006000 
527662819596923 -0.001878 -0.002344 0.006000 
527662840165152 -0.001878 -0.002344 0.006000 
527662860731975 -0.001878 -0.002344 0.006000 
527662881301975 -0.001878 -0.002344 0.006000 
527662901869944 -0.001878 -0.002344 0.006000 
527662922438381 -0.001878 -0.002344 0.006000 
527662943006611 -0.001878 -0.002344 0.006000 
527662963575464 -0.001878 -0.002344 0.006000 
527662984143121 -0.001878 -0.002344 0.006000 
527663004711454 -0.001878 -0.002344 0.006000 
527663025279423 -0.001878 -0.002344 0.006000 
527663045847860 -0.001878 -0.002344 0.006000 
527663066415985 -0.001878 -0.002344 0.006000 
527663086984840 -0.001878 -0.002344 0.006000 
527663107553433 -0.001878 -0.002344 0.006000 
527663128121506 -0.001878 -0.002344 0.006000 
527663148689423 -0.001878 -0.002344 0.006000 
527663169257860 -0.001878 -0.002344 0.006000 
527663189826974 -0.001878 -0.002344 0.006000 
527663210394788 -0.001878 -0.002344 0.006000 
527663230963537 -0.001878 -0.002344 0.006000 
527663251531297 -0.001878 -0.002344 0.006000 
527663272100933 -0.001878 -0.002344 0.006000 
527663292669943 -0.001878 -0.002344 0.006000 
527663313237860 -0.001878 -0.002344 0.006000 
527663333806454 -0.001878 -0.002344 0.006000 
527663354374162 -0.001878 -0.002344 0.006000 
527663374942130 -0.001878 -0.002344 0.006000 
527663395510934 -0.001878 -0.002344 0.006000 
527663416079006 -0.001878 -0.002344 0.006000 
527663436648380 -0.001878 -0.002344 0.006000 
527663457215465 -0.001878 -0.002344 0.006000 
527663477784422 -0.001878 -0.002344 0.006000 
527663498352547 -0.001878 -0.002344 0.006000 
527663518920152 -0.001878 -0.002344 0.006000 
527663539488589 -0.001878 -0.002344 0.006000 
527663560057026 -0.001878 -0.002344 0.006000 
527663580624787 -0.001878 -0.002344 0.006000 
527663601193016 -0.001878 -0.002344 0.006000 
527663621761297 -0.001878 -0.002344 0.006000 
527663642329840 -0.001878 -0.002344 0.006000 
527663662898068 -0.001878 -0.002344 0.006000 
527663683467078 -0.001878 -0.002344 0.006000 
527663704034788 -0.001878 -0.002344 0.006000 
527663724603694 -0.001878 -0.002344 0.006000 
527663745172547 -0.001878 -0.002344 0.006000 
527663765740933 -0.001878 -0.002344 0.006000 
527663786309891 -0.001878 -0.002344 0.006000 
527663806877807 -0.001878 -0.002344 0.006000 
527663827445725 -0.001878 -0.002344 0.006000 
527663848013693 -0.001878 -0.002344 0.006000 
527663868582963 -0.001878 -0.002344 0.006000 
527663889150152 -0.001878 -0.002344 0.006000 
527663909718016 -0.001878 -0.002344 0.006000 
527663930287286 -0.001878 -0.002344 0.006000 
527663950856714 -0.001878 -0.002344 0.006000 
527663971422443 -0.001878 -0.002344 0.006000 
527663991991609 -0.001878 -0.002344 0.006000 
527664012559996 -0.001878 -0.002344 0.006000 
527664033129110 -0.001878 -0.002344 0.006000 
527664053697130 -0.001878 -0.002344 0.006000 
527664074265777 -0.001878 -0.002344 0.006000 
527664094834474 -0.001878 -0.002344 0.006000 
527664115403225 -0.001878 -0.002344 0.006000 
527664135971089 -0.001878 -0.002344 0.006000 
527664156539057 -0.001878 -0.002344 0.006000 
527664177106610 -0.001878 -0.002344 0.006000 
527664197675933 -0.001878 -0.002344 0.006000 
527664218244213 -0.001878 -0.002344 0.006000 
527664238813120 -0.001878 -0.002344 0.006000 
527664259381506 -0.001878 -0.002344 0.006000 
527664279949474 -0.001878 -0.002344 0.006000 
527664300517548 -0.001878 -0.002344 0.006000 
527664321088901 -0.001878 -0.002344 0.006000 
527664341654317 -0.001878 -0.002344 0.006000 
527664362222964 -0.001878 -0.002344 0.006000 
527664382791297 -0.001878 -0.002344 0.006000 
527664403359578 -0.001878 -0.002344 0.006000 
527664423927964 -0.001878 -0.002344 0.006000 
527664444494630 -0.001878 -0.002344 0.006000 
527664465063171 -0.001878 -0.002344 0.006000 
527664485631142 -0.001878 -0.002344 0.006000 
527664506199526 -0.001878 -0.002344 0.006000 
527664526769005 -0.001878 -0.002344 0.006000 
527664547336870 -0.001878 -0.002344 0.006000 
527664567905203 -0.001878 -0.002344 0.006000 
527664588473016 -0.001878 -0.002344 0.006000 
527664609041557 -0.001878 -0.002344 0.006000 
527664629609734 -0.001878 -0.002344 0.006000 
527664650178224 -0.001878 -0.002344 0.006000 
527664670747235 -0.001878 -0.002344 0.006000 
527664691314786 -0.001878 -0.002344 0.006000 
527664711883016 -0.001878 -0.002344 0.006000 
527664732451036 -0.001878 -0.002344 0.006000 
527664753021037 -0.001878 -0.002344 0.006000 
527664773589110 -0.001878 -0.002344 0.006000 
527664794158119 -0.001878 -0.002344 0.006000 
527664814726452 -0.001878 -0.002344 0.006000 
527664835293954 -0.001878 -0.002344 0.006000 
527664855862338 -0.001878 -0.002344 0.006000 
527664876430359 -0.001878 -0.002344 0.006000 
527664896998016 -0.001878 -0.002344 0.006000 
527664917566713 -0.001878 -0.002344 0.006000 
527664938134578 -0.001878 -0.002344 0.006000 
527664958703484 -0.001878 -0.002344 0.006000 
527664979271296 -0.001878 -0.002344 0.006000 
527664999839631 -0.001878 -0.002344 0.006000 
527665020407964 -0.001878 -0.002344 0.006000 
527665040976401 -0.001878 -0.002344 0.006000 
527665061544631 -0.001878 -0.002344 0.006000 
527665082113380 -0.001878 -0.002344 0.006000 
527665102681296 -0.001878 -0.002344 0.006000 
527665123249891 -0.001878 -0.002344 0.006000 
527665143818068 -0.001878 -0.002344 0.006000 
527665164386453 -0.001878 -0.002344 0.006000 
527665184954839 -0.001878 -0.002344 0.006000 
527665205523536 -0.001878 -0.002344 0.006000 
527665226091921 -0.001878 -0.002344 0.006000 
527665246662911 -0.001878 -0.002344 0.006000 
527665267231661 -0.001878 -0.002344 0.006000 
527665287799214 -0.001878 -0.002344 0.006000 
527665308366818 -0.001878 -0.002344 0.006000 
527665328934891 -0.001878 -0.002344 0.006000 
527665349503224 -0.001878 -0.002344 0.006000 
527665370072651 -0.001878 -0.002344 0.006000 
527665390639839 -0.001878 -0.002344 0.006000 
527665411208016 -0.001878 -0.002344 0.006000 
527665431776037 -0.001878 -0.002344 0.006000 
527665452343692 -0.001878 -0.002344 0.006000 
527665472911974 -0.001878 -0.002344 0.006000 
527665493479890 -0.001878 -0.002344 0.006000 
527665514048224 -0.001878 -0.002344 0.006000 
527665534616714 -0.001878 -0.002344 0.006000 
527665555184942 -0.001878 -0.002344 0.006000 
527665575753223 -0.001878 -0.002344 0.006000 
527665596322859 -0.001878 -0.002344 0.006000 
527665616889994 -0.001878 -0.002344 0.006000 
527665637458848 -0.001878 -0.002344 0.006000 
527665658026610 -0.001878 -0.002344 0.006000 
527665678596349 -0.001878 -0.002344 0.006000 
527665699164318 -0.001878 -0.002344 0.006000 
527665719732235 -0.001878 -0.002344 0.006000 
527665740299994 -0.001878 -0.002344 0.006000 
527665760871193 -0.001878 -0.002344 0.006000 
527665781439162 -0.001878 -0.002344 0.006000 
527665802006713 -0.001878 -0.002344 0.006000 
527665822575255 -0.001878 -0.002344 0.006000 
527665843142390 -0.001878 -0.002344 0.006000 
527665863709942 -0.001878 -0.002344 0.006000 
527665884278901 -0.001878 -0.002344 0.006000 
527665904846661 -0.001878 -0.002344 0.006000 
527665925415254 -0.001878 -0.002344 0.006000 
527665945983380 -0.001878 -0.002344 0.006000 
527665966552234 -0.001878 -0.002344 0.006000 
527665987120098 -0.001878 -0.002344 0.006000 
527666007688432 -0.001878 -0.002344 0.006000 
527666028256870 -0.001878 -0.002344 0.006000 
527666048825098 -0.001878 -0.002344 0.006000 
527666069393693 -0.001878 -0.002344 0.006000 
527666089961661 -0.001878 -0.002344 0.006000 
527666110530099 -0.001878 -0.002344 0.006000 
527666131098484 -0.001878 -0.002344 0.006000 
527666151667077 -0.001878 -0.002344 0.006000 
527666172235306 -0.001878 -0.002344 0.006000 
527666192803432 -0.001878 -0.002344 0.006000 
527666213372025 -0.001878 -0.002344 0.006000 
527666233940723 -0.001878 -0.002344 0.006000 
527666254509682 -0.001878 -0.002344 0.006000 
527666275078224 -0.001878 -0.002344 0.006000 
527666295645775 -0.001878 -0.002344 0.006000 
527666316215463 -0.001878 -0.002344 0.006000 
527666336783744 -0.001878 -0.002344 0.006000 
527666357352755 -0.001878 -0.002344 0.006000 
527666377920412 -0.001878 -0.002344 0.006000 
527666398488796 -0.001878 -0.002344 0.006000 
527666419057182 -0.001878 -0.002344 0.006000 
527666439624109 -0.001878 -0.002344 0.006000 
527666460192077 -0.001878 -0.002344 0.006000 
527666480760203 -0.001878 -0.002344 0.006000 
527666501328588 -0.001878 -0.002344 0.006000 
527666521899682 -0.001878 -0.002344 0.006000 
527666542466036 -0.001878 -0.002344 0.006000 
527666563034734 -0.001878 -0.002344 0.006000 
527666583602910 -0.001878 -0.002344 0.006000 
527666604170515 -0.001878 -0.002344 0.006000 
527666624738848 -0.001878 -0.002344 0.006000 
527666645306973 -0.001878 -0.002344 0.006000 
527666665875307 -0.001878 -0.002344 0.006000 
527666686443796 -0.001878 -0.002344 0.006000 
527666707011921 -0.001878 -0.002344 0.006000 
527666727580671 -0.001878 -0.002344 0.006000 
527666748148901 -0.001878 -0.002344 0.006000 
527666768717234 -0.001878 -0.002344 0.006000 
527666789287130 -0.001878 -0.002344 0.006000 
527666809855827 -0.001878 -0.002344 0.006000 
527666830424056 -0.001878 -0.002344 0.006000 
527666850992182 -0.001878 -0.002344 0.006000 
527666871559056 -0.001878 -0.002344 0.006000 
527666892127546 -0.001878 -0.002344 0.006000 
527666912697025 -0.001878 -0.002344 0.006000 
527666933265514 -0.001878 -0.002344 0.006000 
527666953832077 -0.001878 -0.002344 0.006000 
527666974400307 -0.001878 -0.002344 0.006000 
527666994969161 -0.001878 -0.002344 0.006000 
527667015537026 -0.001878 -0.002344 0.006000 
527667036105411 -0.001878 -0.002344 0.006000 
527667056673744 -0.001878 -0.002344 0.006000 
527667077242130 -0.001878 -0.002344 0.006000 
527667097810462 -0.001878 -0.002344 0.006000 
527667118380619 -0.001878 -0.002344 0.006000 
527667138947807 -0.001878 -0.002344 0.006000 
527667159517650 -0.001878 -0.002344 0.006000 
527667180086192 -0.001878 -0.002344 0.006000 
527667200652963 -0.001878 -0.002344 0.006000 
527667221221036 -0.001878 -0.002344 0.006000 
527667241790774 -0.001878 -0.002344 0.006000 
527667262358953 -0.001878 -0.002344 0.006000 
527667282928952 -0.001878 -0.002344 0.006000 
527667303495254 -0.001878 -0.002344 0.006000 
527667324062546 -0.001878 -0.002344 0.006000 
527667344631400 -0.001878 -0.002344 0.006000 
527667365199108 -0.001878 -0.002344 0.006000 
527667385767338 -0.001878 -0.002344 0.006000 
527667406335775 -0.001878 -0.002344 0.006000 
527667426903431 -0.001878 -0.002344 0.006000 
527667447473380 -0.001878 -0.002344 0.006000 
527667468041192 -0.001878 -0.002344 0.006000 
527667488610306 -0.001878 -0.002344 0.006000 
527667509177442 -0.001878 -0.002344 0.006000 
527667529745931 -0.001878 -0.002344 0.006000 
527667550314213 -0.001878 -0.002344 0.006000 
527667570882442 -0.001878 -0.002344 0.006000 
527667591450723 -0.001878 -0.002344 0.006000 
527667612019264 -0.001878 -0.002344 0.006000 
527667632587754 -0.001878 -0.002344 0.006000 
527667653155931 -0.001878 -0.002344 0.006000 
527667673724525 -0.001878 -0.002344 0.006000 
527667694292807 -0.001878 -0.002344 0.006000 
527667714861244 -0.001878 -0.002344 0.006000 
527667735429473 -0.001878 -0.002344 0.006000 
527667755997859 -0.001878 -0.002344 0.006000 
527667776566608 -0.001878 -0.002344 0.006000 
527667797135098 -0.001878 -0.002344 0.006000 
527667817703431 -0.001878 -0.002344 0.006000 
527667838272077 -0.001878 -0.002344 0.006000 
527667858839576 -0.001878 -0.002344 0.006000 
527667879409161 -0.001878 -0.002344 0.006000 
