# Created at Thu Nov 07 19:53:36 EST 2019 in Burnaby Canada 
527660110915465 40.773468 185.543625 -10.365678 
527660130917497 40.773468 185.543625 -10.365678 
527660150915725 40.773468 185.543625 -10.365678 
527660170915466 40.773468 185.543625 -10.365678 
527660190914996 40.773468 185.543625 -10.365678 
527660210915570 40.773468 185.543625 -10.365678 
527660230914893 40.773468 185.543625 -10.365678 
527660251093799 40.773468 185.543625 -10.365678 
527660270965778 40.773468 185.543625 -10.365678 
527660290998903 40.773468 185.543625 -10.365678 
527660310915778 40.773468 185.543625 -10.365678 
527660330914997 40.773468 185.543625 -10.365678 
527660350914997 40.773468 185.543625 -10.365678 
527660370915414 40.773468 185.543625 -10.365678 
527660390915466 40.773468 185.543625 -10.365678 
527660410915778 40.773468 185.543625 -10.365678 
527660430922132 40.773468 185.543625 -10.365678 
527660445249424 40.773468 185.543625 -10.365678 
527660450921507 40.773468 185.543625 -10.365678 
527660470915934 40.773468 185.543625 -10.365678 
527660490914997 40.773468 185.543625 -10.365678 
527660510915570 40.773468 185.543625 -10.365678 
527660530915100 40.773468 185.543625 -10.365678 
527660550915048 40.773468 185.543625 -10.365678 
527660570914841 40.773468 185.543625 -10.365678 
527660590915257 40.773468 185.543625 -10.365678 
527660611042236 40.773468 185.543625 -10.365678 
527660631041559 40.773468 185.543625 -10.365678 
527660650946507 40.773468 185.543625 -10.365678 
527660670915414 40.773468 185.543625 -10.365678 
527660690915673 40.773468 185.543625 -10.365678 
527660710914944 40.773468 185.543625 -10.365678 
527660730915256 40.773468 185.543625 -10.365678 
527660750915622 40.773468 185.543625 -10.365678 
527660770915518 40.773468 185.543625 -10.365678 
527660790918434 40.773468 185.543625 -10.365678 
527660810917132 40.773468 185.543625 -10.365678 
527660830915204 40.773468 185.543625 -10.365678 
527660850916038 40.773468 185.543625 -10.365678 
527660870915101 40.773468 185.543625 -10.365678 
527660890917236 40.773468 185.543625 -10.365678 
527660910916507 40.773468 185.543625 -10.365678 
527660930924580 40.773468 185.543625 -10.365678 
527660945249268 40.773468 185.543625 -10.365678 
527660951123226 40.773468 185.543625 -10.365678 
527660971100725 40.773468 185.543625 -10.365678 
527660991100725 40.773468 185.543625 -10.365678 
527661010920934 40.773468 185.543625 -10.365678 
527661030916038 40.773468 185.543625 -10.365678 
527661050960726 40.773468 185.543625 -10.365678 
527661070918434 40.773468 185.543625 -10.365678 
527661090915830 40.773468 185.543625 -10.365678 
527661110916195 40.773468 185.543625 -10.365678 
527661130919007 40.773468 185.543625 -10.365678 
527661150918121 40.773468 185.543625 -10.365678 
527661170915621 40.773468 185.543625 -10.365678 
527661190915205 40.773468 185.543625 -10.365678 
527661210915778 40.773468 185.543625 -10.365678 
527661230916090 40.773468 185.543625 -10.365678 
527661250915257 40.773468 185.543625 -10.365678 
527661270916246 40.773468 185.543625 -10.365678 
527661290917131 40.773468 185.543625 -10.365678 
527661310916558 40.773468 185.543625 -10.365678 
527661330940778 40.773468 185.543625 -10.365678 
527661350940778 40.773468 185.543625 -10.365678 
527661370918225 40.773468 185.543625 -10.365678 
527661390917548 40.773468 185.543625 -10.365678 
527661410916402 40.773468 185.543625 -10.365678 
527661430916090 40.773468 185.543625 -10.365678 
527661450915100 40.773468 185.543625 -10.365678 
527661470914996 40.773468 185.543625 -10.365678 
527661490915257 40.773468 185.543625 -10.365678 
527661510917339 40.773468 185.543625 -10.365678 
527661530916664 40.773468 185.543625 -10.365678 
527661550916350 40.773468 185.543625 -10.365678 
527661570953277 40.773468 185.543625 -10.365678 
527661590916402 40.773468 185.543625 -10.365678 
527661610916924 40.773468 185.543625 -10.365678 
527661630914996 40.773468 185.543625 -10.365678 
527661650915621 40.773468 185.543625 -10.365678 
527661670915621 40.773468 185.543625 -10.365678 
527661690925465 40.773468 185.543625 -10.365678 
527661710925465 40.773468 185.543625 -10.365678 
527661730917861 40.773468 185.543625 -10.365678 
527661750927392 40.773468 185.543625 -10.365678 
527661770919997 40.773468 185.543625 -10.365678 
527661790916976 40.773468 185.543625 -10.365678 
527661810918642 40.773468 185.543625 -10.365678 
527661830918590 40.773468 185.543625 -10.365678 
527661850916350 40.773468 185.543625 -10.365678 
527661870922236 40.773468 185.543625 -10.365678 
527661890916403 40.773468 185.543625 -10.365678 
527661910914476 40.773468 185.543625 -10.365678 
527661930915100 40.773468 185.543625 -10.365678 
527661951122496 40.773468 185.543625 -10.365678 
527661970915517 40.773468 185.543625 -10.365678 
527661990915204 40.773468 185.543625 -10.365678 
527662010918642 40.773468 185.543625 -10.365678 
527662030918537 40.773468 185.543625 -10.365678 
527662050938590 40.773468 185.543625 -10.365678 
527662070938590 40.773468 185.543625 -10.365678 
527662090915413 40.773468 185.543625 -10.365678 
527662110915151 40.773468 185.543625 -10.365678 
527662130915674 40.773468 185.543625 -10.365678 
527662150915622 40.773468 185.543625 -10.365678 
527662170915621 40.773468 185.543625 -10.365678 
527662190915777 40.773468 185.543625 -10.365678 
527662210915673 40.773468 185.543625 -10.365678 
527662230915517 40.773468 185.543625 -10.365678 
527662250915569 40.773468 185.543625 -10.365678 
527662270915725 40.773468 185.543625 -10.365678 
527662290915621 40.773468 185.543625 -10.365678 
527662310914631 40.773468 185.543625 -10.365678 
527662330915881 40.773468 185.543625 -10.365678 
527662350919683 40.773468 185.543625 -10.365678 
527662370916403 40.773468 185.543625 -10.365678 
527662390915569 40.773468 185.543625 -10.365678 
527662410929058 40.773468 185.543625 -10.365678 
527662430929058 40.773468 185.543625 -10.365678 
527662445301350 40.773468 185.543625 -10.365678 
527662450915517 40.773468 185.543625 -10.365678 
527662470915986 40.773468 185.543625 -10.365678 
527662490915203 40.773468 185.543625 -10.365678 
527662510915672 40.773468 185.543625 -10.365678 
527662530915986 40.773468 185.543625 -10.365678 
527662550916142 40.773468 185.543625 -10.365678 
527662570917651 40.773468 185.543625 -10.365678 
527662590916714 40.773468 185.543625 -10.365678 
527662610921766 40.773468 185.543625 -10.365678 
527662630915880 40.773468 185.543625 -10.365678 
527662650915621 40.773468 185.543625 -10.365678 
527662670916089 40.773468 185.543625 -10.365678 
527662690915413 40.773468 185.543625 -10.365678 
527662710914944 40.773468 185.543625 -10.365678 
527662730915464 40.773468 185.543625 -10.365678 
527662750915099 40.773468 185.543625 -10.365678 
527662770919579 40.773468 185.543625 -10.365678 
527662791290829 40.773468 185.543625 -10.365678 
527662810917496 40.773468 185.543625 -10.365678 
527662830917808 40.773468 185.543625 -10.365678 
527662850921871 40.773468 185.543625 -10.365678 
527662870915100 40.773468 185.543625 -10.365678 
527662890917184 40.773468 185.543625 -10.365678 
527662910915934 40.773468 185.543625 -10.365678 
527662930922235 40.773468 185.543625 -10.365678 
527662945481767 40.773468 185.543625 -10.365678 
527662951123642 40.773468 185.543625 -10.365678 
527662970916922 40.773468 185.543625 -10.365678 
527662990915934 40.773468 185.543625 -10.365678 
527663010916194 40.773468 185.543625 -10.365678 
527663030916246 40.773468 185.543625 -10.365678 
527663050917235 40.773468 185.543625 -10.365678 
527663070914944 40.773468 185.543625 -10.365678 
527663090916767 40.773468 185.543625 -10.365678 
527663110916402 40.773468 185.543625 -10.365678 
527663130916454 40.773468 185.543625 -10.365678 
527663151228850 40.773468 185.543625 -10.365678 
527663170917443 40.773468 185.543625 -10.365678 
527663190915568 40.773468 185.543625 -10.365678 
527663210916298 40.773468 185.543625 -10.365678 
527663230915986 40.773468 185.543625 -10.365678 
527663250916037 40.773468 185.543625 -10.365678 
527663270916297 40.773468 185.543625 -10.365678 
527663290917912 40.773468 185.543625 -10.365678 
527663310924214 40.773468 185.543625 -10.365678 
527663330917912 40.773468 185.543625 -10.365678 
527663350917912 40.773468 185.543625 -10.365678 
527663370916714 40.773468 185.543625 -10.365678 
527663390916922 40.773468 185.543625 -10.365678 
527663410925777 40.773468 185.543625 -10.365678 
527663430917287 40.773468 185.543625 -10.365678 
527663445375360 40.773468 185.543625 -10.365678 
527663450923433 40.773468 185.543625 -10.365678 
527663470917131 40.773468 185.543625 -10.365678 
527663490941766 40.773468 185.543625 -10.365678 
527663511188068 40.773468 185.543625 -10.365678 
527663530963485 40.773468 185.543625 -10.365678 
527663550916662 40.773468 185.543625 -10.365678 
527663570916922 40.773468 185.543625 -10.365678 
527663590918016 40.773468 185.543625 -10.365678 
527663610916350 40.773468 185.543625 -10.365678 
527663630916349 40.773468 185.543625 -10.365678 
527663650916298 40.773468 185.543625 -10.365678 
527663670915933 40.773468 185.543625 -10.365678 
527663690920255 40.773468 185.543625 -10.365678 
527663710916246 40.773468 185.543625 -10.365678 
527663730922599 40.773468 185.543625 -10.365678 
527663750917183 40.773468 185.543625 -10.365678 
527663770924891 40.773468 185.543625 -10.365678 
527663790917704 40.773468 185.543625 -10.365678 
527663810923017 40.773468 185.543625 -10.365678 
527663830916349 40.773468 185.543625 -10.365678 
527663850916766 40.773468 185.543625 -10.365678 
527663871140308 40.773468 185.543625 -10.365678 
527663890964058 40.773468 185.543625 -10.365678 
527663910916714 40.773468 185.543625 -10.365678 
527663930916922 40.773468 185.543625 -10.365678 
527663945493432 40.773468 185.543625 -10.365678 
527663951124630 40.773468 185.543625 -10.365678 
527663970914943 40.773468 185.543625 -10.365678 
527663990915464 40.773468 185.543625 -10.365678 
527664010916662 40.773468 185.543625 -10.365678 
527664030916142 40.773468 185.543625 -10.365678 
527664050917860 40.773468 185.543625 -10.365678 
527664070916505 40.773468 185.543625 -10.365678 
527664090917235 40.773468 185.543625 -10.365678 
527664110917599 40.773468 185.543625 -10.365678 
527664130916766 40.773468 185.543625 -10.365678 
527664150917235 40.773468 185.543625 -10.365678 
527664170916141 40.773468 185.543625 -10.365678 
527664190916245 40.773468 185.543625 -10.365678 
527664210916765 40.773468 185.543625 -10.365678 
527664231063745 40.773468 185.543625 -10.365678 
527664251064371 40.773468 185.543625 -10.365678 
527664270964579 40.773468 185.543625 -10.365678 
527664290918537 40.773468 185.543625 -10.365678 
527664310916714 40.773468 185.543625 -10.365678 
527664330953745 40.773468 185.543625 -10.365678 
527664350917338 40.773468 185.543625 -10.365678 
527664370917964 40.773468 185.543625 -10.365678 
527664390917443 40.773468 185.543625 -10.365678 
527664410917338 40.773468 185.543625 -10.365678 
527664430917651 40.773468 185.543625 -10.365678 
527664450916922 40.773468 185.543625 -10.365678 
527664470919474 40.773468 185.543625 -10.365678 
527664490916350 40.773468 185.543625 -10.365678 
527664510919943 40.773468 185.543625 -10.365678 
527664530919839 40.773468 185.543625 -10.365678 
527664550916401 40.773468 185.543625 -10.365678 
527664570916141 40.773468 185.543625 -10.365678 
527664591007234 40.773468 185.543625 -10.365678 
527664611006869 40.773468 185.543625 -10.365678 
527664630915724 40.773468 185.543625 -10.365678 
527664650915672 40.773468 185.543625 -10.365678 
527664670915567 40.773468 185.543625 -10.365678 
527664690916193 40.773468 185.543625 -10.365678 
527664710915880 40.773468 185.543625 -10.365678 
527664730915307 40.773468 185.543625 -10.365678 
527664750915515 40.773468 185.543625 -10.365678 
527664770916610 40.773468 185.543625 -10.365678 
527664790916870 40.773468 185.543625 -10.365678 
527664810917077 40.773468 185.543625 -10.365678 
527664830917755 40.773468 185.543625 -10.365678 
527664850916349 40.773468 185.543625 -10.365678 
527664870916817 40.773468 185.543625 -10.365678 
527664890917235 40.773468 185.543625 -10.365678 
527664910915776 40.773468 185.543625 -10.365678 
527664930915723 40.773468 185.543625 -10.365678 
527664945547182 40.773468 185.543625 -10.365678 
527664950953536 40.773468 185.543625 -10.365678 
527664970953484 40.773468 185.543625 -10.365678 
527664990915567 40.773468 185.543625 -10.365678 
527665010916088 40.773468 185.543625 -10.365678 
527665030919787 40.773468 185.543625 -10.365678 
527665050915829 40.773468 185.543625 -10.365678 
527665070915204 40.773468 185.543625 -10.365678 
527665090915724 40.773468 185.543625 -10.365678 
527665110915307 40.773468 185.543625 -10.365678 
527665130917703 40.773468 185.543625 -10.365678 
527665150915256 40.773468 185.543625 -10.365678 
527665170916141 40.773468 185.543625 -10.365678 
527665190915255 40.773468 185.543625 -10.365678 
527665210915359 40.773468 185.543625 -10.365678 
527665230917546 40.773468 185.543625 -10.365678 
527665250915515 40.773468 185.543625 -10.365678 
527665270917703 40.773468 185.543625 -10.365678 
527665290945307 40.773468 185.543625 -10.365678 
527665310929161 40.773468 185.543625 -10.365678 
527665330928172 40.773468 185.543625 -10.365678 
527665350916818 40.773468 185.543625 -10.365678 
527665370918224 40.773468 185.543625 -10.365678 
527665390918224 40.773468 185.543625 -10.365678 
527665410916870 40.773468 185.543625 -10.365678 
527665430952859 40.773468 185.543625 -10.365678 
527665445816349 40.773468 185.543625 -10.365678 
527665450915619 40.773468 185.543625 -10.365678 
527665470915619 40.773468 185.543625 -10.365678 
527665490918953 40.773468 185.543625 -10.365678 
527665510915307 40.773468 185.543625 -10.365678 
527665530915620 40.773468 185.543625 -10.365678 
527665550915568 40.773468 185.543625 -10.365678 
527665570914994 40.773468 185.543625 -10.365678 
527665590914942 40.773468 185.543625 -10.365678 
527665610914786 40.773468 185.543625 -10.365678 
527665630915202 40.773468 185.543625 -10.365678 
527665650915672 40.773468 185.543625 -10.365678 
527665670926818 40.773468 185.543625 -10.365678 
527665690928224 40.773468 185.543625 -10.365678 
527665710916713 40.773468 185.543625 -10.365678 
527665730915620 40.773468 185.543625 -10.365678 
527665750914890 40.773468 185.543625 -10.365678 
527665770917599 40.773468 185.543625 -10.365678 
527665790918016 40.773468 185.543625 -10.365678 
527665810918536 40.773468 185.543625 -10.365678 
527665830918067 40.773468 185.543625 -10.365678 
527665850915567 40.773468 185.543625 -10.365678 
527665870914734 40.773468 185.543625 -10.365678 
527665890923849 40.773468 185.543625 -10.365678 
527665910915255 40.773468 185.543625 -10.365678 
527665930917183 40.773468 185.543625 -10.365678 
527665945351140 40.773468 185.543625 -10.365678 
527665951124005 40.773468 185.543625 -10.365678 
527665970919995 40.773468 185.543625 -10.365678 
527665990915463 40.773468 185.543625 -10.365678 
527666010914994 40.773468 185.543625 -10.365678 
527666030915359 40.773468 185.543625 -10.365678 
527666050915307 40.773468 185.543625 -10.365678 
527666070914786 40.773468 185.543625 -10.365678 
527666090915671 40.773468 185.543625 -10.365678 
527666110915619 40.773468 185.543625 -10.365678 
527666130915984 40.773468 185.543625 -10.365678 
527666150915515 40.773468 185.543625 -10.365678 
527666170920306 40.773468 185.543625 -10.365678 
527666190915723 40.773468 185.543625 -10.365678 
527666210915358 40.773468 185.543625 -10.365678 
527666230915358 40.773468 185.543625 -10.365678 
527666250916661 40.773468 185.543625 -10.365678 
527666270916921 40.773468 185.543625 -10.365678 
527666290916453 40.773468 185.543625 -10.365678 
527666310918744 40.773468 185.543625 -10.365678 
527666330917390 40.773468 185.543625 -10.365678 
527666350917598 40.773468 185.543625 -10.365678 
527666370917704 40.773468 185.543625 -10.365678 
527666390941922 40.773468 185.543625 -10.365678 
527666411331192 40.773468 185.543625 -10.365678 
527666430929629 40.773468 185.543625 -10.365678 
527666445357286 40.773468 185.543625 -10.365678 
527666450915619 40.773468 185.543625 -10.365678 
527666470915827 40.773468 185.543625 -10.365678 
527666490915672 40.773468 185.543625 -10.365678 
527666510915775 40.773468 185.543625 -10.365678 
527666530916817 40.773468 185.543625 -10.365678 
527666550916036 40.773468 185.543625 -10.365678 
527666570917078 40.773468 185.543625 -10.365678 
527666590916452 40.773468 185.543625 -10.365678 
527666610917859 40.773468 185.543625 -10.365678 
527666630915619 40.773468 185.543625 -10.365678 
527666650917651 40.773468 185.543625 -10.365678 
527666670915932 40.773468 185.543625 -10.365678 
527666690915827 40.773468 185.543625 -10.365678 
527666710914942 40.773468 185.543625 -10.365678 
527666730915202 40.773468 185.543625 -10.365678 
527666750940098 40.773468 185.543625 -10.365678 
527666771256922 40.773468 185.543625 -10.365678 
527666790915464 40.773468 185.543625 -10.365678 
527666810921765 40.773468 185.543625 -10.365678 
527666831003900 40.773468 185.543625 -10.365678 
527666850917338 40.773468 185.543625 -10.365678 
527666870917546 40.773468 185.543625 -10.365678 
527666890916764 40.773468 185.543625 -10.365678 
527666910915879 40.773468 185.543625 -10.365678 
527666930917337 40.773468 185.543625 -10.365678 
527666951131191 40.773468 185.543625 -10.365678 
527666970918588 40.773468 185.543625 -10.365678 
527666990914838 40.773468 185.543625 -10.365678 
527667010922182 40.773468 185.543625 -10.365678 
527667030915567 40.773468 185.543625 -10.365678 
527667050918067 40.773468 185.543625 -10.365678 
527667070915098 40.773468 185.543625 -10.365678 
527667090983743 40.773468 185.543625 -10.365678 
527667110915566 40.773468 185.543625 -10.365678 
527667131198171 40.773468 185.543625 -10.365678 
527667151024734 40.773468 185.543625 -10.365678 
527667170919733 40.773468 185.543625 -10.365678 
527667190918067 40.773468 185.543625 -10.365678 
527667210916399 40.773468 185.543625 -10.365678 
527667230916244 40.773468 185.543625 -10.365678 
527667250916452 40.773468 185.543625 -10.365678 
527667270917390 40.773468 185.543625 -10.365678 
527667290921712 40.773468 185.543625 -10.365678 
527667310916452 40.773468 185.543625 -10.365678 
527667330915983 40.773468 185.543625 -10.365678 
527667350916348 40.773468 185.543625 -10.365678 
527667370916452 40.773468 185.543625 -10.365678 
527667390920879 40.773468 185.543625 -10.365678 
527667410915775 40.773468 185.543625 -10.365678 
527667430914838 40.773468 185.543625 -10.365678 
527667450915984 40.773468 185.543625 -10.365678 
527667470930619 40.773468 185.543625 -10.365678 
527667491168379 40.773468 185.543625 -10.365678 
527667510963744 40.773468 185.543625 -10.365678 
527667530915358 40.773468 185.543625 -10.365678 
527667550915514 40.773468 185.543625 -10.365678 
527667570915619 40.773468 185.543625 -10.365678 
527667590915671 40.773468 185.543625 -10.365678 
527667610915254 40.773468 185.543625 -10.365678 
527667630915566 40.773468 185.543625 -10.365678 
527667650915619 40.773468 185.543625 -10.365678 
527667670921764 40.773468 185.543625 -10.365678 
527667690916140 40.773468 185.543625 -10.365678 
527667710922286 40.773468 185.543625 -10.365678 
527667730916192 40.773468 185.543625 -10.365678 
527667750916192 40.773468 185.543625 -10.365678 
527667770916764 40.773468 185.543625 -10.365678 
527667790916608 40.773468 185.543625 -10.365678 
527667810915983 40.773468 185.543625 -10.365678 
527667830916712 40.773468 185.543625 -10.365678 
527667851090670 40.773468 185.543625 -10.365678 
527667870967129 40.773468 185.543625 -10.365678 
527667890965046 40.773468 185.543625 -10.365678 
