# Created at Thu Nov 07 19:35:57 EST 2019 in Burnaby Canada 
526600870579359 -0.000485 -0.006368 0.008720 
526600891150141 -0.000485 -0.006368 0.008720 
526600911720871 -0.000485 -0.006368 0.008720 
526600932291964 -0.000485 -0.006368 0.008720 
526600952862537 -0.000485 -0.006368 0.008720 
526600973433526 -0.000485 -0.006368 0.008720 
526600994003943 -0.000485 -0.006368 0.008720 
526601014574933 -0.000485 -0.006368 0.008720 
526601035145714 -0.000485 -0.006368 0.008720 
526601055717277 -0.000485 -0.006368 0.008720 
526601076287224 -0.000485 -0.006368 0.008720 
526601096858057 -0.000485 -0.006368 0.008720 
526601117428943 -0.000485 -0.006368 0.008720 
526601137999829 -0.000485 -0.006368 0.008720 
526601158570505 -0.000485 -0.006368 0.008720 
526601179141704 -0.000485 -0.006368 0.008720 
526601199712069 -0.000485 -0.006368 0.008720 
526601220282953 -0.000485 -0.006368 0.008720 
526601240853682 -0.000485 -0.006368 0.008720 
526601261424725 -0.000485 -0.006368 0.008720 
526601281995974 -0.000485 -0.006368 0.008720 
526601302566079 -0.000485 -0.006368 0.008720 
526601323136964 -0.000485 -0.006368 0.008720 
526601343708110 -0.000485 -0.006368 0.008720 
526601364278474 -0.000485 -0.006368 0.008720 
526601384849673 -0.000485 -0.006368 0.008720 
526601405420141 -0.000485 -0.006368 0.008720 
526601425991079 -0.000485 -0.006368 0.008720 
526601446561860 -0.000485 -0.006368 0.008720 
526601467133474 -0.000485 -0.006368 0.008720 
526601487703474 -0.000485 -0.006368 0.008720 
526601508274463 -0.000485 -0.006368 0.008720 
526601528845037 -0.000485 -0.006368 0.008720 
526601549415818 -0.000485 -0.006368 0.008720 
526601569986599 -0.000485 -0.006368 0.008720 
526601590557744 -0.000485 -0.006368 0.008720 
526601611128214 -0.000485 -0.006368 0.008720 
526601631699047 -0.000485 -0.006368 0.008720 
526601652270609 -0.000485 -0.006368 0.008720 
526601672840974 -0.000485 -0.006368 0.008720 
526601693413370 -0.000485 -0.006368 0.008720 
526601713983057 -0.000485 -0.006368 0.008720 
526601734553631 -0.000485 -0.006368 0.008720 
526601755124308 -0.000485 -0.006368 0.008720 
526601775695141 -0.000485 -0.006368 0.008720 
526601796265609 -0.000485 -0.006368 0.008720 
526601816837381 -0.000485 -0.006368 0.008720 
526601837407172 -0.000485 -0.006368 0.008720 
526601857979046 -0.000485 -0.006368 0.008720 
526601878549673 -0.000485 -0.006368 0.008720 
526601899119776 -0.000485 -0.006368 0.008720 
526601919690557 -0.000485 -0.006368 0.008720 
526601940262952 -0.000485 -0.006368 0.008720 
526601960833630 -0.000485 -0.006368 0.008720 
526601981404932 -0.000485 -0.006368 0.008720 
526602001975765 -0.000485 -0.006368 0.008720 
526602022545141 -0.000485 -0.006368 0.008720 
526602043115505 -0.000485 -0.006368 0.008720 
526602063686182 -0.000485 -0.006368 0.008720 
526602084256860 -0.000485 -0.006368 0.008720 
526602104828527 -0.000485 -0.006368 0.008720 
526602125398786 -0.000485 -0.006368 0.008720 
526602145970037 -0.000485 -0.006368 0.008720 
526602166540662 -0.000485 -0.006368 0.008720 
526602187111130 -0.000485 -0.006368 0.008720 
526602207681911 -0.000485 -0.006368 0.008720 
526602228253735 -0.000485 -0.006368 0.008720 
526602248824463 -0.000485 -0.006368 0.008720 
526602269395766 -0.000485 -0.006368 0.008720 
526602289965974 -0.000485 -0.006368 0.008720 
526602310536442 -0.000485 -0.006368 0.008720 
526602331107380 -0.000485 -0.006368 0.008720 
526602351678370 -0.000485 -0.006368 0.008720 
526602372248682 -0.000485 -0.006368 0.008720 
526602392819255 -0.000485 -0.006368 0.008720 
526602413391495 -0.000485 -0.006368 0.008720 
526602433962120 -0.000485 -0.006368 0.008720 
526602454534619 -0.000485 -0.006368 0.008720 
526602475104412 -0.000485 -0.006368 0.008720 
526602495674984 -0.000485 -0.006368 0.008720 
526602516246026 -0.000485 -0.006368 0.008720 
526602536815246 -0.000485 -0.006368 0.008720 
526602557386078 -0.000485 -0.006368 0.008720 
526602577956911 -0.000485 -0.006368 0.008720 
526602598527641 -0.000485 -0.006368 0.008720 
526602619098526 -0.000485 -0.006368 0.008720 
526602639669151 -0.000485 -0.006368 0.008720 
526602660239880 -0.000485 -0.006368 0.008720 
526602680812380 -0.000485 -0.006368 0.008720 
526602701382536 -0.000485 -0.006368 0.008720 
526602721953109 -0.000485 -0.006368 0.008720 
526602742523369 -0.000485 -0.006368 0.008720 
526602763094099 -0.000485 -0.006368 0.008720 
526602783664932 -0.000485 -0.006368 0.008720 
526602804236026 -0.000485 -0.006368 0.008720 
526602824807120 -0.000485 -0.006368 0.008720 
526602845377588 -0.000485 -0.006368 0.008720 
526602865948474 -0.000485 -0.006368 0.008720 
526602886519307 -0.000485 -0.006368 0.008720 
526602907091598 -0.000485 -0.006368 0.008720 
526602927661495 -0.000485 -0.006368 0.008720 
526602948232953 -0.000485 -0.006368 0.008720 
526602968803838 -0.000485 -0.006368 0.008720 
526602989376130 -0.000485 -0.006368 0.008720 
526603009945453 -0.000485 -0.006368 0.008720 
526603030514932 -0.000485 -0.006368 0.008720 
526603051086859 -0.000485 -0.006368 0.008720 
526603071656703 -0.000485 -0.006368 0.008720 
526603092228526 -0.000485 -0.006368 0.008720 
526603112799307 -0.000485 -0.006368 0.008720 
526603133369359 -0.000485 -0.006368 0.008720 
526603153940036 -0.000485 -0.006368 0.008720 
526603174510922 -0.000485 -0.006368 0.008720 
526603195081703 -0.000485 -0.006368 0.008720 
526603215653005 -0.000485 -0.006368 0.008720 
526603236223317 -0.000485 -0.006368 0.008720 
526603256794567 -0.000485 -0.006368 0.008720 
526603277365088 -0.000485 -0.006368 0.008720 
526603297936651 -0.000485 -0.006368 0.008720 
526603318506650 -0.000485 -0.006368 0.008720 
526603339079775 -0.000485 -0.006368 0.008720 
526603359649098 -0.000485 -0.006368 0.008720 
526603380219723 -0.000485 -0.006368 0.008720 
526603400790349 -0.000485 -0.006368 0.008720 
526603421362484 -0.000485 -0.006368 0.008720 
526603441933056 -0.000485 -0.006368 0.008720 
526603462503838 -0.000485 -0.006368 0.008720 
526603483075557 -0.000485 -0.006368 0.008720 
526603503646755 -0.000485 -0.006368 0.008720 
526603524216130 -0.000485 -0.006368 0.008720 
526603544786807 -0.000485 -0.006368 0.008720 
526603565356964 -0.000485 -0.006368 0.008720 
526603585928786 -0.000485 -0.006368 0.008720 
526603606500348 -0.000485 -0.006368 0.008720 
526603627070609 -0.000485 -0.006368 0.008720 
526603647640921 -0.000485 -0.006368 0.008720 
526603668212692 -0.000485 -0.006368 0.008720 
526603688782953 -0.000485 -0.006368 0.008720 
526603709353213 -0.000485 -0.006368 0.008720 
526603729924099 -0.000485 -0.006368 0.008720 
526603750494880 -0.000485 -0.006368 0.008720 
526603771066338 -0.000485 -0.006368 0.008720 
526603791637432 -0.000485 -0.006368 0.008720 
526603812208317 -0.000485 -0.006368 0.008720 
526603832778734 -0.000485 -0.006368 0.008720 
526603853349463 -0.000485 -0.006368 0.008720 
526603873919828 -0.000485 -0.006368 0.008720 
526603894490661 -0.000485 -0.006368 0.008720 
526603915061495 -0.000485 -0.006368 0.008720 
526603935633942 -0.000485 -0.006368 0.008720 
526603956204932 -0.000485 -0.006368 0.008720 
526603976776129 -0.000485 -0.006368 0.008720 
526603997346389 -0.000485 -0.006368 0.008720 
526604017917172 -0.000485 -0.006368 0.008720 
526604038487588 -0.000485 -0.006368 0.008720 
526604059058941 -0.000485 -0.006368 0.008720 
526604079628942 -0.000485 -0.006368 0.008720 
526604100200921 -0.000485 -0.006368 0.008720 
526604120772536 -0.000485 -0.006368 0.008720 
526604141342171 -0.000485 -0.006368 0.008720 
526604161912952 -0.000485 -0.006368 0.008720 
526604182483995 -0.000485 -0.006368 0.008720 
526604203056442 -0.000485 -0.006368 0.008720 
526604223626493 -0.000485 -0.006368 0.008720 
526604244196963 -0.000485 -0.006368 0.008720 
526604264768264 -0.000485 -0.006368 0.008720 
526604285338630 -0.000485 -0.006368 0.008720 
526604305909358 -0.000485 -0.006368 0.008720 
526604326479358 -0.000485 -0.006368 0.008720 
526604347051598 -0.000485 -0.006368 0.008720 
526604367622223 -0.000485 -0.006368 0.008720 
526604388191859 -0.000485 -0.006368 0.008720 
526604408764098 -0.000485 -0.006368 0.008720 
526604429334671 -0.000485 -0.006368 0.008720 
526604449905660 -0.000485 -0.006368 0.008720 
526604470476755 -0.000485 -0.006368 0.008720 
526604491048316 -0.000485 -0.006368 0.008720 
526604511618629 -0.000485 -0.006368 0.008720 
526604532190035 -0.000485 -0.006368 0.008720 
526604552760557 -0.000485 -0.006368 0.008720 
526604573330400 -0.000485 -0.006368 0.008720 
526604593900712 -0.000485 -0.006368 0.008720 
526604614472119 -0.000485 -0.006368 0.008720 
526604635042275 -0.000485 -0.006368 0.008720 
526604655613682 -0.000485 -0.006368 0.008720 
526604676184203 -0.000485 -0.006368 0.008720 
526604696754879 -0.000485 -0.006368 0.008720 
526604717325505 -0.000485 -0.006368 0.008720 
526604737896963 -0.000485 -0.006368 0.008720 
526604758467378 -0.000485 -0.006368 0.008720 
526604779038369 -0.000485 -0.006368 0.008720 
526604799608785 -0.000485 -0.006368 0.008720 
526604820179567 -0.000485 -0.006368 0.008720 
526604840750296 -0.000485 -0.006368 0.008720 
526604861321702 -0.000485 -0.006368 0.008720 
526604881892640 -0.000485 -0.006368 0.008720 
526604902463108 -0.000485 -0.006368 0.008720 
526604923036337 -0.000485 -0.006368 0.008720 
526604943606650 -0.000485 -0.006368 0.008720 
526604964178525 -0.000485 -0.006368 0.008720 
526604984747952 -0.000485 -0.006368 0.008720 
526605005319358 -0.000485 -0.006368 0.008720 
526605025889410 -0.000485 -0.006368 0.008720 
526605046460400 -0.000485 -0.006368 0.008720 
526605067030817 -0.000485 -0.006368 0.008720 
526605087601963 -0.000485 -0.006368 0.008720 
526605108172796 -0.000485 -0.006368 0.008720 
526605128743368 -0.000485 -0.006368 0.008720 
526605149313525 -0.000485 -0.006368 0.008720 
526605169884619 -0.000485 -0.006368 0.008720 
526605190455661 -0.000485 -0.006368 0.008720 
526605211025920 -0.000485 -0.006368 0.008720 
526605231597274 -0.000485 -0.006368 0.008720 
526605252168109 -0.000485 -0.006368 0.008720 
526605272738993 -0.000485 -0.006368 0.008720 
526605293310608 -0.000485 -0.006368 0.008720 
526605313880608 -0.000485 -0.006368 0.008720 
526605334451754 -0.000485 -0.006368 0.008720 
526605355022276 -0.000485 -0.006368 0.008720 
526605375594827 -0.000485 -0.006368 0.008720 
526605396164670 -0.000485 -0.006368 0.008720 
526605416735452 -0.000485 -0.006368 0.008720 
526605437306546 -0.000485 -0.006368 0.008720 
526605457878942 -0.000485 -0.006368 0.008720 
526605478450244 -0.000485 -0.006368 0.008720 
526605499021962 -0.000485 -0.006368 0.008720 
526605519590765 -0.000485 -0.006368 0.008720 
526605540163160 -0.000485 -0.006368 0.008720 
526605560732327 -0.000485 -0.006368 0.008720 
526605581302692 -0.000485 -0.006368 0.008720 
526605601873212 -0.000485 -0.006368 0.008720 
526605622444463 -0.000485 -0.006368 0.008720 
526605643014827 -0.000485 -0.006368 0.008720 
526605663585973 -0.000485 -0.006368 0.008720 
526605684156650 -0.000485 -0.006368 0.008720 
526605704727847 -0.000485 -0.006368 0.008720 
526605725298369 -0.000485 -0.006368 0.008720 
526605745868785 -0.000485 -0.006368 0.008720 
526605766439774 -0.000485 -0.006368 0.008720 
526605787011337 -0.000485 -0.006368 0.008720 
526605807581806 -0.000485 -0.006368 0.008720 
526605828152482 -0.000485 -0.006368 0.008720 
526605848723056 -0.000485 -0.006368 0.008720 
526605869293785 -0.000485 -0.006368 0.008720 
526605889865348 -0.000485 -0.006368 0.008720 
526605910435973 -0.000485 -0.006368 0.008720 
526605931006597 -0.000485 -0.006368 0.008720 
526605951580713 -0.000485 -0.006368 0.008720 
526605972147951 -0.000485 -0.006368 0.008720 
526605992718680 -0.000485 -0.006368 0.008720 
526606013291337 -0.000485 -0.006368 0.008720 
526606033861129 -0.000485 -0.006368 0.008720 
526606054431546 -0.000485 -0.006368 0.008720 
526606075002170 -0.000485 -0.006368 0.008720 
526606095573107 -0.000485 -0.006368 0.008720 
526606116143994 -0.000485 -0.006368 0.008720 
526606136715712 -0.000485 -0.006368 0.008720 
526606157285765 -0.000485 -0.006368 0.008720 
526606177857118 -0.000485 -0.006368 0.008720 
526606198428055 -0.000485 -0.006368 0.008720 
526606218998786 -0.000485 -0.006368 0.008720 
526606239569202 -0.000485 -0.006368 0.008720 
526606260140191 -0.000485 -0.006368 0.008720 
526606280710816 -0.000485 -0.006368 0.008720 
526606301282899 -0.000485 -0.006368 0.008720 
526606321853056 -0.000485 -0.006368 0.008720 
526606342424149 -0.000485 -0.006368 0.008720 
526606362995555 -0.000485 -0.006368 0.008720 
526606383565504 -0.000485 -0.006368 0.008720 
526606404136650 -0.000485 -0.006368 0.008720 
526606424708108 -0.000485 -0.006368 0.008720 
526606445279305 -0.000485 -0.006368 0.008720 
526606465851076 -0.000485 -0.006368 0.008720 
526606486421129 -0.000485 -0.006368 0.008720 
526606506991077 -0.000485 -0.006368 0.008720 
526606527562795 -0.000485 -0.006368 0.008720 
526606548132952 -0.000485 -0.006368 0.008720 
526606568703732 -0.000485 -0.006368 0.008720 
526606589274566 -0.000485 -0.006368 0.008720 
526606609845191 -0.000485 -0.006368 0.008720 
526606630416493 -0.000485 -0.006368 0.008720 
526606650986910 -0.000485 -0.006368 0.008720 
526606671556962 -0.000485 -0.006368 0.008720 
526606692128003 -0.000485 -0.006368 0.008720 
526606712698733 -0.000485 -0.006368 0.008720 
526606733269774 -0.000485 -0.006368 0.008720 
526606753840503 -0.000485 -0.006368 0.008720 
526606774412014 -0.000485 -0.006368 0.008720 
526606794982327 -0.000485 -0.006368 0.008720 
526606815553525 -0.000485 -0.006368 0.008720 
526606836123785 -0.000485 -0.006368 0.008720 
526606856694982 -0.000485 -0.006368 0.008720 
526606877265607 -0.000485 -0.006368 0.008720 
526606897836545 -0.000485 -0.006368 0.008720 
526606918407378 -0.000485 -0.006368 0.008720 
526606938978421 -0.000485 -0.006368 0.008720 
526606959549201 -0.000485 -0.006368 0.008720 
526606980119826 -0.000485 -0.006368 0.008720 
526607000690868 -0.000485 -0.006368 0.008720 
526607021263264 -0.000485 -0.006368 0.008720 
526607041833056 -0.000485 -0.006368 0.008720 
526607062403368 -0.000485 -0.006368 0.008720 
526607082974773 -0.000485 -0.006368 0.008720 
526607103545347 -0.000485 -0.006368 0.008720 
526607124115972 -0.000485 -0.006368 0.008720 
526607144687430 -0.000485 -0.006368 0.008720 
526607165257795 -0.000485 -0.006368 0.008720 
526607185828680 -0.000485 -0.006368 0.008720 
526607206400452 -0.000485 -0.006368 0.008720 
526607226970555 -0.000485 -0.006368 0.008720 
526607247542273 -0.000485 -0.006368 0.008720 
526607268114306 -0.000485 -0.006368 0.008720 
526607288684409 -0.000485 -0.006368 0.008720 
526607309255399 -0.000485 -0.006368 0.008720 
526607329827118 -0.000485 -0.006368 0.008720 
526607350397014 -0.000485 -0.006368 0.008720 
526607370968003 -0.000485 -0.006368 0.008720 
526607391538785 -0.000485 -0.006368 0.008720 
526607412111128 -0.000485 -0.006368 0.008720 
526607432681546 -0.000485 -0.006368 0.008720 
526607453251337 -0.000485 -0.006368 0.008720 
526607473822534 -0.000485 -0.006368 0.008720 
526607494393524 -0.000485 -0.006368 0.008720 
526607514964044 -0.000485 -0.006368 0.008720 
526607535533472 -0.000485 -0.006368 0.008720 
526607556104513 -0.000485 -0.006368 0.008720 
526607576677951 -0.000485 -0.006368 0.008720 
526607597247691 -0.000485 -0.006368 0.008720 
526607617818628 -0.000485 -0.006368 0.008720 
526607638389722 -0.000485 -0.006368 0.008720 
526607658960712 -0.000485 -0.006368 0.008720 
526607679531024 -0.000485 -0.006368 0.008720 
