# Created at Thu Nov 07 19:35:57 EST 2019 in Burnaby Canada 
526600890922746 40.773468 185.543625 -10.365678 
526600910922589 40.773468 185.543625 -10.365678 
526600930916079 40.773468 185.543625 -10.365678 
526600951129881 40.773468 185.543625 -10.365678 
526600970922850 40.773468 185.543625 -10.365678 
526600990922641 40.773468 185.543625 -10.365678 
526601010922328 40.773468 185.543625 -10.365678 
526601030916183 40.773468 185.543625 -10.365678 
526601050915975 40.773468 185.543625 -10.365678 
526601070922693 40.773468 185.543625 -10.365678 
526601090922849 40.773468 185.543625 -10.365678 
526601110922901 40.773468 185.543625 -10.365678 
526601130915974 40.773468 185.543625 -10.365678 
526601150933474 40.773468 185.543625 -10.365678 
526601170933474 40.773468 185.543625 -10.365678 
526601190922901 40.773468 185.543625 -10.365678 
526601210922694 40.773468 185.543625 -10.365678 
526601230915974 40.773468 185.543625 -10.365678 
526601250922328 40.773468 185.543625 -10.365678 
526601270922745 40.773468 185.543625 -10.365678 
526601290923057 40.773468 185.543625 -10.365678 
526601310922381 40.773468 185.543625 -10.365678 
526601330922641 40.773468 185.543625 -10.365678 
526601350923214 40.773468 185.543625 -10.365678 
526601370922589 40.773468 185.543625 -10.365678 
526601390923527 40.773468 185.543625 -10.365678 
526601410922745 40.773468 185.543625 -10.365678 
526601430916600 40.773468 185.543625 -10.365678 
526601450922902 40.773468 185.543625 -10.365678 
526601470923109 40.773468 185.543625 -10.365678 
526601490922484 40.773468 185.543625 -10.365678 
526601510946807 40.773468 185.543625 -10.365678 
526601530946599 40.773468 185.543625 -10.365678 
526601550922694 40.773468 185.543625 -10.365678 
526601570922016 40.773468 185.543625 -10.365678 
526601590922120 40.773468 185.543625 -10.365678 
526601610922328 40.773468 185.543625 -10.365678 
526601630922432 40.773468 185.543625 -10.365678 
526601650922641 40.773468 185.543625 -10.365678 
526601670922797 40.773468 185.543625 -10.365678 
526601690922692 40.773468 185.543625 -10.365678 
526601710923109 40.773468 185.543625 -10.365678 
526601730916026 40.773468 185.543625 -10.365678 
526601750922849 40.773468 185.543625 -10.365678 
526601770922693 40.773468 185.543625 -10.365678 
526601790922224 40.773468 185.543625 -10.365678 
526601810921911 40.773468 185.543625 -10.365678 
526601830921807 40.773468 185.543625 -10.365678 
526601850915766 40.773468 185.543625 -10.365678 
526601870917796 40.773468 185.543625 -10.365678 
526601890917589 40.773468 185.543625 -10.365678 
526601910918786 40.773468 185.543625 -10.365678 
526601930916130 40.773468 185.543625 -10.365678 
526601951125557 40.773468 185.543625 -10.365678 
526601970917484 40.773468 185.543625 -10.365678 
526601990917641 40.773468 185.543625 -10.365678 
526602010924203 40.773468 185.543625 -10.365678 
526602030916287 40.773468 185.543625 -10.365678 
526602050921963 40.773468 185.543625 -10.365678 
526602070922224 40.773468 185.543625 -10.365678 
526602090915297 40.773468 185.543625 -10.365678 
526602110917173 40.773468 185.543625 -10.365678 
526602130916807 40.773468 185.543625 -10.365678 
526602150922797 40.773468 185.543625 -10.365678 
526602170916495 40.773468 185.543625 -10.365678 
526602190915766 40.773468 185.543625 -10.365678 
526602210915714 40.773468 185.543625 -10.365678 
526602230962849 40.773468 185.543625 -10.365678 
526602250962744 40.773468 185.543625 -10.365678 
526602270917537 40.773468 185.543625 -10.365678 
526602290917015 40.773468 185.543625 -10.365678 
526602310916859 40.773468 185.543625 -10.365678 
526602330916651 40.773468 185.543625 -10.365678 
526602350923370 40.773468 185.543625 -10.365678 
526602370922640 40.773468 185.543625 -10.365678 
526602390922068 40.773468 185.543625 -10.365678 
526602410922224 40.773468 185.543625 -10.365678 
526602430917016 40.773468 185.543625 -10.365678 
526602450923266 40.773468 185.543625 -10.365678 
526602470918474 40.773468 185.543625 -10.365678 
526602490917797 40.773468 185.543625 -10.365678 
526602510917589 40.773468 185.543625 -10.365678 
526602530917849 40.773468 185.543625 -10.365678 
526602550922536 40.773468 185.543625 -10.365678 
526602570916547 40.773468 185.543625 -10.365678 
526602590940349 40.773468 185.543625 -10.365678 
526602610940349 40.773468 185.543625 -10.365678 
526602630917328 40.773468 185.543625 -10.365678 
526602650915766 40.773468 185.543625 -10.365678 
526602670915974 40.773468 185.543625 -10.365678 
526602690917536 40.773468 185.543625 -10.365678 
526602710916703 40.773468 185.543625 -10.365678 
526602730916912 40.773468 185.543625 -10.365678 
526602750922796 40.773468 185.543625 -10.365678 
526602770922120 40.773468 185.543625 -10.365678 
526602790922276 40.773468 185.543625 -10.365678 
526602810916390 40.773468 185.543625 -10.365678 
526602830916599 40.773468 185.543625 -10.365678 
526602850916338 40.773468 185.543625 -10.365678 
526602870916547 40.773468 185.543625 -10.365678 
526602890922745 40.773468 185.543625 -10.365678 
526602910917432 40.773468 185.543625 -10.365678 
526602930933057 40.773468 185.543625 -10.365678 
526602951126078 40.773468 185.543625 -10.365678 
526602971349984 40.773468 185.543625 -10.365678 
526602990919412 40.773468 185.543625 -10.365678 
526603010917745 40.773468 185.543625 -10.365678 
526603030916025 40.773468 185.543625 -10.365678 
526603050923421 40.773468 185.543625 -10.365678 
526603070922380 40.773468 185.543625 -10.365678 
526603090922016 40.773468 185.543625 -10.365678 
526603110922901 40.773468 185.543625 -10.365678 
526603130916755 40.773468 185.543625 -10.365678 
526603150922119 40.773468 185.543625 -10.365678 
526603170922223 40.773468 185.543625 -10.365678 
526603190921703 40.773468 185.543625 -10.365678 
526603210922120 40.773468 185.543625 -10.365678 
526603230915609 40.773468 185.543625 -10.365678 
526603250922015 40.773468 185.543625 -10.365678 
526603270916181 40.773468 185.543625 -10.365678 
526603290916233 40.773468 185.543625 -10.365678 
526603310917432 40.773468 185.543625 -10.365678 
526603330916546 40.773468 185.543625 -10.365678 
526603350919202 40.773468 185.543625 -10.365678 
526603370916546 40.773468 185.543625 -10.365678 
526603390917640 40.773468 185.543625 -10.365678 
526603410917120 40.773468 185.543625 -10.365678 
526603430917067 40.773468 185.543625 -10.365678 
526603450923629 40.773468 185.543625 -10.365678 
526603470923369 40.773468 185.543625 -10.365678 
526603490924359 40.773468 185.543625 -10.365678 
526603510924255 40.773468 185.543625 -10.365678 
526603530917328 40.773468 185.543625 -10.365678 
526603550916911 40.773468 185.543625 -10.365678 
526603570916443 40.773468 185.543625 -10.365678 
526603590917067 40.773468 185.543625 -10.365678 
526603610917953 40.773468 185.543625 -10.365678 
526603630917223 40.773468 185.543625 -10.365678 
526603650916442 40.773468 185.543625 -10.365678 
526603670917640 40.773468 185.543625 -10.365678 
526603690917067 40.773468 185.543625 -10.365678 
526603710916858 40.773468 185.543625 -10.365678 
526603730916130 40.773468 185.543625 -10.365678 
526603750923317 40.773468 185.543625 -10.365678 
526603770916963 40.773468 185.543625 -10.365678 
526603790923317 40.773468 185.543625 -10.365678 
526603810923421 40.773468 185.543625 -10.365678 
526603830917068 40.773468 185.543625 -10.365678 
526603850923109 40.773468 185.543625 -10.365678 
526603870922536 40.773468 185.543625 -10.365678 
526603890922224 40.773468 185.543625 -10.365678 
526603910922589 40.773468 185.543625 -10.365678 
526603930915557 40.773468 185.543625 -10.365678 
526603951131234 40.773468 185.543625 -10.365678 
526603970917640 40.773468 185.543625 -10.365678 
526603990920035 40.773468 185.543625 -10.365678 
526604010918733 40.773468 185.543625 -10.365678 
526604030930296 40.773468 185.543625 -10.365678 
526604050930296 40.773468 185.543625 -10.365678 
526604070917223 40.773468 185.543625 -10.365678 
526604090923369 40.773468 185.543625 -10.365678 
526604110918161 40.773468 185.543625 -10.365678 
526604130917848 40.773468 185.543625 -10.365678 
526604150916546 40.773468 185.543625 -10.365678 
526604170923369 40.773468 185.543625 -10.365678 
526604190923630 40.773468 185.543625 -10.365678 
526604210924828 40.773468 185.543625 -10.365678 
526604230917900 40.773468 185.543625 -10.365678 
526604250918057 40.773468 185.543625 -10.365678 
526604270918629 40.773468 185.543625 -10.365678 
526604290918005 40.773468 185.543625 -10.365678 
526604310917691 40.773468 185.543625 -10.365678 
526604330916702 40.773468 185.543625 -10.365678 
526604350924410 40.773468 185.543625 -10.365678 
526604370918786 40.773468 185.543625 -10.365678 
526604390916546 40.773468 185.543625 -10.365678 
526604411298942 40.773468 185.543625 -10.365678 
526604430919775 40.773468 185.543625 -10.365678 
526604450917118 40.773468 185.543625 -10.365678 
526604470918005 40.773468 185.543625 -10.365678 
526604490924306 40.773468 185.543625 -10.365678 
526604510924306 40.773468 185.543625 -10.365678 
526604530918004 40.773468 185.543625 -10.365678 
526604550924463 40.773468 185.543625 -10.365678 
526604570925348 40.773468 185.543625 -10.365678 
526604590923056 40.773468 185.543625 -10.365678 
526604610922796 40.773468 185.543625 -10.365678 
526604630922431 40.773468 185.543625 -10.365678 
526604650916806 40.773468 185.543625 -10.365678 
526604670917015 40.773468 185.543625 -10.365678 
526604690916963 40.773468 185.543625 -10.365678 
526604710916025 40.773468 185.543625 -10.365678 
526604730921859 40.773468 185.543625 -10.365678 
526604750917015 40.773468 185.543625 -10.365678 
526604771292951 40.773468 185.543625 -10.365678 
526604790920921 40.773468 185.543625 -10.365678 
526604810916598 40.773468 185.543625 -10.365678 
526604830916598 40.773468 185.543625 -10.365678 
526604850916129 40.773468 185.543625 -10.365678 
526604870916182 40.773468 185.543625 -10.365678 
526604890923161 40.773468 185.543625 -10.365678 
526604910922275 40.773468 185.543625 -10.365678 
526604930918264 40.773468 185.543625 -10.365678 
526604951126077 40.773468 185.543625 -10.365678 
526604970918734 40.773468 185.543625 -10.365678 
526604990917170 40.773468 185.543625 -10.365678 
526605010918473 40.773468 185.543625 -10.365678 
526605030916702 40.773468 185.543625 -10.365678 
526605050917535 40.773468 185.543625 -10.365678 
526605070917328 40.773468 185.543625 -10.365678 
526605090917171 40.773468 185.543625 -10.365678 
526605110928838 40.773468 185.543625 -10.365678 
526605131288160 40.773468 185.543625 -10.365678 
526605150917222 40.773468 185.543625 -10.365678 
526605170916286 40.773468 185.543625 -10.365678 
526605190917170 40.773468 185.543625 -10.365678 
526605210916076 40.773468 185.543625 -10.365678 
526605230916389 40.773468 185.543625 -10.365678 
526605250922535 40.773468 185.543625 -10.365678 
526605270922639 40.773468 185.543625 -10.365678 
526605290922795 40.773468 185.543625 -10.365678 
526605310922900 40.773468 185.543625 -10.365678 
526605330916754 40.773468 185.543625 -10.365678 
526605350922536 40.773468 185.543625 -10.365678 
526605370916286 40.773468 185.543625 -10.365678 
526605390916545 40.773468 185.543625 -10.365678 
526605410916389 40.773468 185.543625 -10.365678 
526605430916755 40.773468 185.543625 -10.365678 
526605450919463 40.773468 185.543625 -10.365678 
526605470918889 40.773468 185.543625 -10.365678 
526605491269463 40.773468 185.543625 -10.365678 
526605510920191 40.773468 185.543625 -10.365678 
526605530977015 40.773468 185.543625 -10.365678 
526605550918264 40.773468 185.543625 -10.365678 
526605570917952 40.773468 185.543625 -10.365678 
526605590916702 40.773468 185.543625 -10.365678 
526605610923056 40.773468 185.543625 -10.365678 
526605630916754 40.773468 185.543625 -10.365678 
526605650922692 40.773468 185.543625 -10.365678 
526605670923578 40.773468 185.543625 -10.365678 
526605690916702 40.773468 185.543625 -10.365678 
526605710916649 40.773468 185.543625 -10.365678 
526605730916858 40.773468 185.543625 -10.365678 
526605750916441 40.773468 185.543625 -10.365678 
526605770916910 40.773468 185.543625 -10.365678 
526605790917326 40.773468 185.543625 -10.365678 
526605810918056 40.773468 185.543625 -10.365678 
526605830916232 40.773468 185.543625 -10.365678 
526605851268577 40.773468 185.543625 -10.365678 
526605870916285 40.773468 185.543625 -10.365678 
526605890916233 40.773468 185.543625 -10.365678 
526605910917015 40.773468 185.543625 -10.365678 
526605930916129 40.773468 185.543625 -10.365678 
526605951133786 40.773468 185.543625 -10.365678 
526605970926442 40.773468 185.543625 -10.365678 
526605990922170 40.773468 185.543625 -10.365678 
526606010922430 40.773468 185.543625 -10.365678 
526606030916963 40.773468 185.543625 -10.365678 
526606050922900 40.773468 185.543625 -10.365678 
526606070922847 40.773468 185.543625 -10.365678 
526606090916076 40.773468 185.543625 -10.365678 
526606110915921 40.773468 185.543625 -10.365678 
526606130916181 40.773468 185.543625 -10.365678 
526606150922431 40.773468 185.543625 -10.365678 
526606170922431 40.773468 185.543625 -10.365678 
526606190942899 40.773468 185.543625 -10.365678 
526606211248159 40.773468 185.543625 -10.365678 
526606230915921 40.773468 185.543625 -10.365678 
526606250922275 40.773468 185.543625 -10.365678 
526606270917743 40.773468 185.543625 -10.365678 
526606290915764 40.773468 185.543625 -10.365678 
526606310917952 40.773468 185.543625 -10.365678 
526606330918264 40.773468 185.543625 -10.365678 
526606350922951 40.773468 185.543625 -10.365678 
526606370923680 40.773468 185.543625 -10.365678 
526606390922587 40.773468 185.543625 -10.365678 
526606410916181 40.773468 185.543625 -10.365678 
526606430917067 40.773468 185.543625 -10.365678 
526606450917794 40.773468 185.543625 -10.365678 
526606470919566 40.773468 185.543625 -10.365678 
526606490918004 40.773468 185.543625 -10.365678 
526606510916650 40.773468 185.543625 -10.365678 
526606530917587 40.773468 185.543625 -10.365678 
526606550943889 40.773468 185.543625 -10.365678 
526606571263888 40.773468 185.543625 -10.365678 
526606590918004 40.773468 185.543625 -10.365678 
526606610920035 40.773468 185.543625 -10.365678 
526606630916806 40.773468 185.543625 -10.365678 
526606650916597 40.773468 185.543625 -10.365678 
526606670922014 40.773468 185.543625 -10.365678 
526606690921910 40.773468 185.543625 -10.365678 
526606710946753 40.773468 185.543625 -10.365678 
526606730916649 40.773468 185.543625 -10.365678 
526606750922326 40.773468 185.543625 -10.365678 
526606770922222 40.773468 185.543625 -10.365678 
526606790921963 40.773468 185.543625 -10.365678 
526606810916233 40.773468 185.543625 -10.365678 
526606830915712 40.773468 185.543625 -10.365678 
526606850915556 40.773468 185.543625 -10.365678 
526606870915711 40.773468 185.543625 -10.365678 
526606890916232 40.773468 185.543625 -10.365678 
526606910927743 40.773468 185.543625 -10.365678 
526606931229878 40.773468 185.543625 -10.365678 
526606950916493 40.773468 185.543625 -10.365678 
526606970915972 40.773468 185.543625 -10.365678 
526606990916337 40.773468 185.543625 -10.365678 
526607010916076 40.773468 185.543625 -10.365678 
526607030916597 40.773468 185.543625 -10.365678 
526607050922847 40.773468 185.543625 -10.365678 
526607070921962 40.773468 185.543625 -10.365678 
526607090922482 40.773468 185.543625 -10.365678 
526607110916180 40.773468 185.543625 -10.365678 
526607130915660 40.773468 185.543625 -10.365678 
526607150916180 40.773468 185.543625 -10.365678 
526607170916389 40.773468 185.543625 -10.365678 
526607190916545 40.773468 185.543625 -10.365678 
526607210916702 40.773468 185.543625 -10.365678 
526607230915555 40.773468 185.543625 -10.365678 
526607250917169 40.773468 185.543625 -10.365678 
526607270920868 40.773468 185.543625 -10.365678 
526607291219721 40.773468 185.543625 -10.365678 
526607310922690 40.773468 185.543625 -10.365678 
526607330918576 40.773468 185.543625 -10.365678 
526607350918056 40.773468 185.543625 -10.365678 
526607370917274 40.773468 185.543625 -10.365678 
526607390923577 40.773468 185.543625 -10.365678 
526607410923629 40.773468 185.543625 -10.365678 
526607430921129 40.773468 185.543625 -10.365678 
526607450918368 40.773468 185.543625 -10.365678 
526607470924045 40.773468 185.543625 -10.365678 
526607490924357 40.773468 185.543625 -10.365678 
526607510917638 40.773468 185.543625 -10.365678 
526607530924044 40.773468 185.543625 -10.365678 
526607550922794 40.773468 185.543625 -10.365678 
526607570916492 40.773468 185.543625 -10.365678 
526607590917482 40.773468 185.543625 -10.365678 
526607610924670 40.773468 185.543625 -10.365678 
526607630941962 40.773468 185.543625 -10.365678 
526607651222274 40.773468 185.543625 -10.365678 
526607670918160 40.773468 185.543625 -10.365678 
526607690924357 40.773468 185.543625 -10.365678 
