# Created at Thu Nov 07 18:08:51 EST 2019 in Burnaby Canada 
521375210924925 45.002232 190.324265 -6.960118 
521375230924664 45.002232 190.324265 -6.960118 
521375250917998 45.002232 190.324265 -6.960118 
521375270925029 45.002232 190.324265 -6.960118 
521375290925237 45.002232 190.324265 -6.960118 
521375310924664 45.002232 190.324265 -6.960118 
521375330924300 45.002232 190.324265 -6.960118 
521375350924611 45.002232 190.324265 -6.960118 
521375370925028 45.002232 190.324265 -6.960118 
521375390923987 45.002232 190.324265 -6.960118 
521375410924455 45.002232 190.324265 -6.960118 
521375430924559 45.002232 190.324265 -6.960118 
521375450924664 45.002232 190.324265 -6.960118 
521375470924716 45.002232 190.324265 -6.960118 
521375490924299 45.002232 190.324265 -6.960118 
521375510924456 45.002232 190.324265 -6.960118 
521375530924508 45.002232 190.324265 -6.960118 
521375550924091 45.002232 190.324265 -6.960118 
521375570925654 45.002232 190.324265 -6.960118 
521375590924039 45.002232 190.324265 -6.960118 
521375610924560 45.002232 190.324265 -6.960118 
521375630923935 45.002232 190.324265 -6.960118 
521375650923987 45.002232 190.324265 -6.960118 
521375670924299 45.002232 190.324265 -6.960118 
521375690924299 45.002232 190.324265 -6.960118 
521375710924299 45.002232 190.324265 -6.960118 
521375730923674 45.002232 190.324265 -6.960118 
521375750924039 45.002232 190.324265 -6.960118 
521375770924143 45.002232 190.324265 -6.960118 
521375790923882 45.002232 190.324265 -6.960118 
521375810924144 45.002232 190.324265 -6.960118 
521375830924196 45.002232 190.324265 -6.960118 
521375850923986 45.002232 190.324265 -6.960118 
521375870924403 45.002232 190.324265 -6.960118 
521375890924403 45.002232 190.324265 -6.960118 
521375910923726 45.002232 190.324265 -6.960118 
521375930924091 45.002232 190.324265 -6.960118 
521375951131643 45.002232 190.324265 -6.960118 
521375970925654 45.002232 190.324265 -6.960118 
521375990935237 45.002232 190.324265 -6.960118 
521376010935549 45.002232 190.324265 -6.960118 
521376030924455 45.002232 190.324265 -6.960118 
521376050924768 45.002232 190.324265 -6.960118 
521376070924455 45.002232 190.324265 -6.960118 
521376090924560 45.002232 190.324265 -6.960118 
521376110926070 45.002232 190.324265 -6.960118 
521376130924143 45.002232 190.324265 -6.960118 
521376150925757 45.002232 190.324265 -6.960118 
521376170924404 45.002232 190.324265 -6.960118 
521376190926123 45.002232 190.324265 -6.960118 
521376210926070 45.002232 190.324265 -6.960118 
521376230926330 45.002232 190.324265 -6.960118 
521376250925653 45.002232 190.324265 -6.960118 
521376270926070 45.002232 190.324265 -6.960118 
521376290927373 45.002232 190.324265 -6.960118 
521376310925914 45.002232 190.324265 -6.960118 
521376330923518 45.002232 190.324265 -6.960118 
521376350926174 45.002232 190.324265 -6.960118 
521376370925809 45.002232 190.324265 -6.960118 
521376390925758 45.002232 190.324265 -6.960118 
521376410925653 45.002232 190.324265 -6.960118 
521376430926122 45.002232 190.324265 -6.960118 
521376450925132 45.002232 190.324265 -6.960118 
521376470924976 45.002232 190.324265 -6.960118 
521376490924195 45.002232 190.324265 -6.960118 
521376510924038 45.002232 190.324265 -6.960118 
521376530926695 45.002232 190.324265 -6.960118 
521376550927060 45.002232 190.324265 -6.960118 
521376570926070 45.002232 190.324265 -6.960118 
521376590926226 45.002232 190.324265 -6.960118 
521376610926227 45.002232 190.324265 -6.960118 
521376630926071 45.002232 190.324265 -6.960118 
521376650926017 45.002232 190.324265 -6.960118 
521376670926381 45.002232 190.324265 -6.960118 
521376690919039 45.002232 190.324265 -6.960118 
521376710925393 45.002232 190.324265 -6.960118 
521376730925966 45.002232 190.324265 -6.960118 
521376750925810 45.002232 190.324265 -6.960118 
521376770926643 45.002232 190.324265 -6.960118 
521376790926018 45.002232 190.324265 -6.960118 
521376810925497 45.002232 190.324265 -6.960118 
521376830925653 45.002232 190.324265 -6.960118 
521376850925601 45.002232 190.324265 -6.960118 
521376870925393 45.002232 190.324265 -6.960118 
521376890926017 45.002232 190.324265 -6.960118 
521376910926747 45.002232 190.324265 -6.960118 
521376930927215 45.002232 190.324265 -6.960118 
521376951134090 45.002232 190.324265 -6.960118 
521376970926487 45.002232 190.324265 -6.960118 
521376990926383 45.002232 190.324265 -6.960118 
521377010926278 45.002232 190.324265 -6.960118 
521377030925913 45.002232 190.324265 -6.960118 
521377050938257 45.002232 190.324265 -6.960118 
521377070926747 45.002232 190.324265 -6.960118 
521377090928153 45.002232 190.324265 -6.960118 
521377110926694 45.002232 190.324265 -6.960118 
521377130927632 45.002232 190.324265 -6.960118 
521377150926383 45.002232 190.324265 -6.960118 
521377170925809 45.002232 190.324265 -6.960118 
521377190925756 45.002232 190.324265 -6.960118 
521377210925861 45.002232 190.324265 -6.960118 
521377230925966 45.002232 190.324265 -6.960118 
521377250924507 45.002232 190.324265 -6.960118 
521377270924559 45.002232 190.324265 -6.960118 
521377290923829 45.002232 190.324265 -6.960118 
521377310923517 45.002232 190.324265 -6.960118 
521377330924247 45.002232 190.324265 -6.960118 
521377350924247 45.002232 190.324265 -6.960118 
521377370924611 45.002232 190.324265 -6.960118 
521377390924038 45.002232 190.324265 -6.960118 
521377410917632 45.002232 190.324265 -6.960118 
521377430924611 45.002232 190.324265 -6.960118 
521377450924611 45.002232 190.324265 -6.960118 
521377470924038 45.002232 190.324265 -6.960118 
521377490924090 45.002232 190.324265 -6.960118 
521377510923986 45.002232 190.324265 -6.960118 
521377530924247 45.002232 190.324265 -6.960118 
521377550923466 45.002232 190.324265 -6.960118 
521377570923829 45.002232 190.324265 -6.960118 
521377590924247 45.002232 190.324265 -6.960118 
521377610924560 45.002232 190.324265 -6.960118 
521377630924455 45.002232 190.324265 -6.960118 
521377650924038 45.002232 190.324265 -6.960118 
521377670924247 45.002232 190.324265 -6.960118 
521377690924194 45.002232 190.324265 -6.960118 
521377710923048 45.002232 190.324265 -6.960118 
521377730924194 45.002232 190.324265 -6.960118 
521377750923830 45.002232 190.324265 -6.960118 
521377770924038 45.002232 190.324265 -6.960118 
521377790949611 45.002232 190.324265 -6.960118 
521377811323517 45.002232 190.324265 -6.960118 
521377830923934 45.002232 190.324265 -6.960118 
521377850924559 45.002232 190.324265 -6.960118 
521377870924559 45.002232 190.324265 -6.960118 
521377890924559 45.002232 190.324265 -6.960118 
521377910924351 45.002232 190.324265 -6.960118 
521377930924351 45.002232 190.324265 -6.960118 
521377951131434 45.002232 190.324265 -6.960118 
521377970925079 45.002232 190.324265 -6.960118 
521377990924923 45.002232 190.324265 -6.960118 
521378010925184 45.002232 190.324265 -6.960118 
521378030925028 45.002232 190.324265 -6.960118 
521378050924194 45.002232 190.324265 -6.960118 
521378070924663 45.002232 190.324265 -6.960118 
521378090925080 45.002232 190.324265 -6.960118 
521378110924923 45.002232 190.324265 -6.960118 
521378130918361 45.002232 190.324265 -6.960118 
521378150925913 45.002232 190.324265 -6.960118 
521378171304402 45.002232 190.324265 -6.960118 
521378190924402 45.002232 190.324265 -6.960118 
521378210924871 45.002232 190.324265 -6.960118 
521378230923726 45.002232 190.324265 -6.960118 
521378250924247 45.002232 190.324265 -6.960118 
521378270923673 45.002232 190.324265 -6.960118 
521378290923986 45.002232 190.324265 -6.960118 
521378310924090 45.002232 190.324265 -6.960118 
521378330924402 45.002232 190.324265 -6.960118 
521378350924610 45.002232 190.324265 -6.960118 
521378370923726 45.002232 190.324265 -6.960118 
521378390924559 45.002232 190.324265 -6.960118 
521378410924142 45.002232 190.324265 -6.960118 
521378430924403 45.002232 190.324265 -6.960118 
521378450924037 45.002232 190.324265 -6.960118 
521378470924247 45.002232 190.324265 -6.960118 
521378490924090 45.002232 190.324265 -6.960118 
521378510949402 45.002232 190.324265 -6.960118 
521378531282892 45.002232 190.324265 -6.960118 
521378550924195 45.002232 190.324265 -6.960118 
521378570923777 45.002232 190.324265 -6.960118 
521378590923777 45.002232 190.324265 -6.960118 
521378610924975 45.002232 190.324265 -6.960118 
521378630924246 45.002232 190.324265 -6.960118 
521378650924142 45.002232 190.324265 -6.960118 
521378670925079 45.002232 190.324265 -6.960118 
521378690924454 45.002232 190.324265 -6.960118 
521378710924558 45.002232 190.324265 -6.960118 
521378730926069 45.002232 190.324265 -6.960118 
521378750926434 45.002232 190.324265 -6.960118 
521378770925601 45.002232 190.324265 -6.960118 
521378790925757 45.002232 190.324265 -6.960118 
521378810925079 45.002232 190.324265 -6.960118 
521378830925340 45.002232 190.324265 -6.960118 
521378850924298 45.002232 190.324265 -6.960118 
521378870937579 45.002232 190.324265 -6.960118 
521378891264142 45.002232 190.324265 -6.960118 
521378910924662 45.002232 190.324265 -6.960118 
521378930924767 45.002232 190.324265 -6.960118 
521378951131746 45.002232 190.324265 -6.960118 
521378970924818 45.002232 190.324265 -6.960118 
521378990927215 45.002232 190.324265 -6.960118 
521379010926068 45.002232 190.324265 -6.960118 
521379030924715 45.002232 190.324265 -6.960118 
521379050924350 45.002232 190.324265 -6.960118 
521379070924558 45.002232 190.324265 -6.960118 
521379090925809 45.002232 190.324265 -6.960118 
521379110925028 45.002232 190.324265 -6.960118 
521379130924923 45.002232 190.324265 -6.960118 
521379150924924 45.002232 190.324265 -6.960118 
521379170925808 45.002232 190.324265 -6.960118 
521379190925131 45.002232 190.324265 -6.960118 
521379210927579 45.002232 190.324265 -6.960118 
521379230937841 45.002232 190.324265 -6.960118 
521379251244454 45.002232 190.324265 -6.960118 
521379270924350 45.002232 190.324265 -6.960118 
521379290925028 45.002232 190.324265 -6.960118 
521379310924818 45.002232 190.324265 -6.960118 
521379330923985 45.002232 190.324265 -6.960118 
521379350924715 45.002232 190.324265 -6.960118 
521379370924767 45.002232 190.324265 -6.960118 
521379390924715 45.002232 190.324265 -6.960118 
521379410925756 45.002232 190.324265 -6.960118 
521379430925808 45.002232 190.324265 -6.960118 
521379450924402 45.002232 190.324265 -6.960118 
521379470924298 45.002232 190.324265 -6.960118 
521379490925965 45.002232 190.324265 -6.960118 
521379510925548 45.002232 190.324265 -6.960118 
521379530924090 45.002232 190.324265 -6.960118 
521379550923777 45.002232 190.324265 -6.960118 
521379570924246 45.002232 190.324265 -6.960118 
521379590924350 45.002232 190.324265 -6.960118 
521379611238829 45.002232 190.324265 -6.960118 
521379630975912 45.002232 190.324265 -6.960118 
521379650925444 45.002232 190.324265 -6.960118 
521379670925027 45.002232 190.324265 -6.960118 
521379690926173 45.002232 190.324265 -6.960118 
521379710924402 45.002232 190.324265 -6.960118 
521379730923569 45.002232 190.324265 -6.960118 
521379750924089 45.002232 190.324265 -6.960118 
521379770923881 45.002232 190.324265 -6.960118 
521379790924038 45.002232 190.324265 -6.960118 
521379810924975 45.002232 190.324265 -6.960118 
521379830924298 45.002232 190.324265 -6.960118 
521379850924090 45.002232 190.324265 -6.960118 
521379870924350 45.002232 190.324265 -6.960118 
521379890924559 45.002232 190.324265 -6.960118 
521379910924089 45.002232 190.324265 -6.960118 
521379930924037 45.002232 190.324265 -6.960118 
521379951131538 45.002232 190.324265 -6.960118 
521379971209714 45.002232 190.324265 -6.960118 
521379990971121 45.002232 190.324265 -6.960118 
521380010924611 45.002232 190.324265 -6.960118 
521380030924350 45.002232 190.324265 -6.960118 
521380050924142 45.002232 190.324265 -6.960118 
521380070924454 45.002232 190.324265 -6.960118 
521380090926537 45.002232 190.324265 -6.960118 
521380110926850 45.002232 190.324265 -6.960118 
521380130926433 45.002232 190.324265 -6.960118 
521380150926224 45.002232 190.324265 -6.960118 
521380170925079 45.002232 190.324265 -6.960118 
521380190924663 45.002232 190.324265 -6.960118 
521380210924766 45.002232 190.324265 -6.960118 
521380230924819 45.002232 190.324265 -6.960118 
521380250924089 45.002232 190.324265 -6.960118 
521380270924246 45.002232 190.324265 -6.960118 
521380290917891 45.002232 190.324265 -6.960118 
521380310948256 45.002232 190.324265 -6.960118 
521380331181589 45.002232 190.324265 -6.960118 
521380350971954 45.002232 190.324265 -6.960118 
521380370925548 45.002232 190.324265 -6.960118 
521380390924558 45.002232 190.324265 -6.960118 
521380410924923 45.002232 190.324265 -6.960118 
521380430924506 45.002232 190.324265 -6.960118 
521380450925339 45.002232 190.324265 -6.960118 
521380470925391 45.002232 190.324265 -6.960118 
521380490924974 45.002232 190.324265 -6.960118 
521380510924506 45.002232 190.324265 -6.960118 
521380530925705 45.002232 190.324265 -6.960118 
521380550926225 45.002232 190.324265 -6.960118 
521380570926015 45.002232 190.324265 -6.960118 
521380590928152 45.002232 190.324265 -6.960118 
521380610925651 45.002232 190.324265 -6.960118 
521380630925235 45.002232 190.324265 -6.960118 
521380650920391 45.002232 190.324265 -6.960118 
521380670936693 45.002232 190.324265 -6.960118 
521380691177943 45.002232 190.324265 -6.960118 
521380710973568 45.002232 190.324265 -6.960118 
521380730925808 45.002232 190.324265 -6.960118 
521380750928308 45.002232 190.324265 -6.960118 
521380770926068 45.002232 190.324265 -6.960118 
521380790925287 45.002232 190.324265 -6.960118 
521380810925599 45.002232 190.324265 -6.960118 
521380830925599 45.002232 190.324265 -6.960118 
521380850925027 45.002232 190.324265 -6.960118 
521380870925392 45.002232 190.324265 -6.960118 
521380890925912 45.002232 190.324265 -6.960118 
521380910925704 45.002232 190.324265 -6.960118 
521380930924298 45.002232 190.324265 -6.960118 
521380951131745 45.002232 190.324265 -6.960118 
521380970925235 45.002232 190.324265 -6.960118 
521380990925027 45.002232 190.324265 -6.960118 
521381010924662 45.002232 190.324265 -6.960118 
521381030937630 45.002232 190.324265 -6.960118 
521381051145392 45.002232 190.324265 -6.960118 
521381070971694 45.002232 190.324265 -6.960118 
521381090923984 45.002232 190.324265 -6.960118 
521381110924298 45.002232 190.324265 -6.960118 
521381130924245 45.002232 190.324265 -6.960118 
521381150924298 45.002232 190.324265 -6.960118 
521381170923880 45.002232 190.324265 -6.960118 
521381190924090 45.002232 190.324265 -6.960118 
521381210925286 45.002232 190.324265 -6.960118 
521381230924089 45.002232 190.324265 -6.960118 
521381250924661 45.002232 190.324265 -6.960118 
521381270924609 45.002232 190.324265 -6.960118 
