# Created at Thu Nov 07 18:39:54 EST 2019 in Burnaby Canada 
523238657742494 0.002262 -0.021670 0.010883 
523238678310879 0.002262 -0.021670 0.010883 
523238698879526 0.002262 -0.021670 0.010883 
523238719445827 0.002262 -0.021670 0.010883 
523238740014629 0.002262 -0.021670 0.010883 
523238760581816 0.002262 -0.021670 0.010883 
523238781149838 0.002262 -0.021670 0.010883 
523238801717962 0.002262 -0.021670 0.010883 
523238822286192 0.002262 -0.021670 0.010883 
523238842853900 0.002262 -0.021670 0.010883 
523238863421972 0.002262 -0.021670 0.010883 
523238883989941 0.002262 -0.021670 0.010883 
523238904557910 0.002262 -0.021670 0.010883 
523238925126087 0.002262 -0.021670 0.010883 
523238945694109 0.002262 -0.021670 0.010883 
523238966262338 0.002262 -0.021670 0.010883 
523238986830202 0.002262 -0.021670 0.010883 
523239007398222 0.002262 -0.021670 0.010883 
523239027966295 0.002262 -0.021670 0.010883 
523239048534368 0.002262 -0.021670 0.010883 
523239069102442 0.002262 -0.021670 0.010883 
523239089670462 0.002262 -0.021670 0.010883 
523239110238431 0.002262 -0.021670 0.010883 
523239130806453 0.002262 -0.021670 0.010883 
523239151374576 0.002262 -0.021670 0.010883 
523239171942701 0.002262 -0.021670 0.010883 
523239192510566 0.002262 -0.021670 0.010883 
523239213078848 0.002262 -0.021670 0.010883 
523239233646608 0.002262 -0.021670 0.010883 
523239254215046 0.002262 -0.021670 0.010883 
523239274782650 0.002262 -0.021670 0.010883 
523239295351086 0.002262 -0.021670 0.010883 
523239315918639 0.002262 -0.021670 0.010883 
523239336487129 0.002262 -0.021670 0.010883 
523239357054733 0.002262 -0.021670 0.010883 
523239377623118 0.002262 -0.021670 0.010883 
523239398190879 0.002262 -0.021670 0.010883 
523239418759004 0.002262 -0.021670 0.010883 
523239439326972 0.002262 -0.021670 0.010883 
523239459894993 0.002262 -0.021670 0.010883 
523239480463171 0.002262 -0.021670 0.010883 
523239501031712 0.002262 -0.021670 0.010883 
523239521599212 0.002262 -0.021670 0.010883 
523239542167702 0.002262 -0.021670 0.010883 
523239562737494 0.002262 -0.021670 0.010883 
523239583305462 0.002262 -0.021670 0.010883 
523239603871868 0.002262 -0.021670 0.010883 
523239624439785 0.002262 -0.021670 0.010883 
523239645007806 0.002262 -0.021670 0.010883 
523239665575202 0.002262 -0.021670 0.010883 
523239686143744 0.002262 -0.021670 0.010883 
523239706711713 0.002262 -0.021670 0.010883 
523239727280096 0.002262 -0.021670 0.010883 
523239747847649 0.002262 -0.021670 0.010883 
523239768416139 0.002262 -0.021670 0.010883 
523239788983900 0.002262 -0.021670 0.010883 
523239809552285 0.002262 -0.021670 0.010883 
523239830120931 0.002262 -0.021670 0.010883 
523239850690358 0.002262 -0.021670 0.010883 
523239871258171 0.002262 -0.021670 0.010883 
523239891825045 0.002262 -0.021670 0.010883 
523239912393951 0.002262 -0.021670 0.010883 
523239932963639 0.002262 -0.021670 0.010883 
523239953530827 0.002262 -0.021670 0.010883 
523239974097545 0.002262 -0.021670 0.010883 
523239994665150 0.002262 -0.021670 0.010883 
523240015233170 0.002262 -0.021670 0.010883 
523240035800722 0.002262 -0.021670 0.010883 
523240056371346 0.002262 -0.021670 0.010883 
523240076938326 0.002262 -0.021670 0.010883 
523240097506399 0.002262 -0.021670 0.010883 
523240118075983 0.002262 -0.021670 0.010883 
523240138642232 0.002262 -0.021670 0.010883 
523240159210254 0.002262 -0.021670 0.010883 
523240179778431 0.002262 -0.021670 0.010883 
523240200346765 0.002262 -0.021670 0.010883 
523240220914681 0.002262 -0.021670 0.010883 
523240241482909 0.002262 -0.021670 0.010883 
523240262050462 0.002262 -0.021670 0.010883 
523240282618378 0.002262 -0.021670 0.010883 
523240303186503 0.002262 -0.021670 0.010883 
523240323755410 0.002262 -0.021670 0.010883 
523240344322806 0.002262 -0.021670 0.010883 
523240364890723 0.002262 -0.021670 0.010883 
523240385458900 0.002262 -0.021670 0.010883 
523240406027390 0.002262 -0.021670 0.010883 
523240426595045 0.002262 -0.021670 0.010883 
523240447163482 0.002262 -0.021670 0.010883 
523240467731399 0.002262 -0.021670 0.010883 
523240488299367 0.002262 -0.021670 0.010883 
523240508866764 0.002262 -0.021670 0.010883 
523240529435670 0.002262 -0.021670 0.010883 
523240550003535 0.002262 -0.021670 0.010883 
523240570573691 0.002262 -0.021670 0.010883 
523240591139368 0.002262 -0.021670 0.010883 
523240611708744 0.002262 -0.021670 0.010883 
523240632275878 0.002262 -0.021670 0.010883 
523240652843430 0.002262 -0.021670 0.010883 
523240673411712 0.002262 -0.021670 0.010883 
523240693979733 0.002262 -0.021670 0.010883 
523240714546347 0.002262 -0.021670 0.010883 
523240735117909 0.002262 -0.021670 0.010883 
523240755684681 0.002262 -0.021670 0.010883 
523240776251034 0.002262 -0.021670 0.010883 
523240796818378 0.002262 -0.021670 0.010883 
523240817388430 0.002262 -0.021670 0.010883 
523240837955514 0.002262 -0.021670 0.010883 
523240858526450 0.002262 -0.021670 0.010883 
523240879090878 0.002262 -0.021670 0.010883 
523240899660201 0.002262 -0.021670 0.010883 
523240920228535 0.002262 -0.021670 0.010883 
523240940796659 0.002262 -0.021670 0.010883 
523240961365670 0.002262 -0.021670 0.010883 
523240981932336 0.002262 -0.021670 0.010883 
523241002500722 0.002262 -0.021670 0.010883 
523241023068066 0.002262 -0.021670 0.010883 
523241043636347 0.002262 -0.021670 0.010883 
523241064204264 0.002262 -0.021670 0.010883 
523241084772909 0.002262 -0.021670 0.010883 
523241105340879 0.002262 -0.021670 0.010883 
523241125908221 0.002262 -0.021670 0.010883 
523241146477075 0.002262 -0.021670 0.010883 
523241167044627 0.002262 -0.021670 0.010883 
523241187611920 0.002262 -0.021670 0.010883 
523241208180878 0.002262 -0.021670 0.010883 
523241228748378 0.002262 -0.021670 0.010883 
523241249316242 0.002262 -0.021670 0.010883 
523241269884263 0.002262 -0.021670 0.010883 
523241290453743 0.002262 -0.021670 0.010883 
523241311021451 0.002262 -0.021670 0.010883 
523241331589472 0.002262 -0.021670 0.010883 
523241352157076 0.002262 -0.021670 0.010883 
523241372725878 0.002262 -0.021670 0.010883 
523241393293691 0.002262 -0.021670 0.010883 
523241413864108 0.002262 -0.021670 0.010883 
523241434431035 0.002262 -0.021670 0.010883 
523241454999160 0.002262 -0.021670 0.010883 
523241475567545 0.002262 -0.021670 0.010883 
523241496136346 0.002262 -0.021670 0.010883 
523241516703795 0.002262 -0.021670 0.010883 
523241537271138 0.002262 -0.021670 0.010883 
523241557838481 0.002262 -0.021670 0.010883 
523241578407752 0.002262 -0.021670 0.010883 
523241598974524 0.002262 -0.021670 0.010883 
523241619542753 0.002262 -0.021670 0.010883 
523241640110774 0.002262 -0.021670 0.010883 
523241660678690 0.002262 -0.021670 0.010883 
523241681246763 0.002262 -0.021670 0.010883 
523241701814940 0.002262 -0.021670 0.010883 
523241722383013 0.002262 -0.021670 0.010883 
523241742951242 0.002262 -0.021670 0.010883 
523241763519993 0.002262 -0.021670 0.010883 
523241784087441 0.002262 -0.021670 0.010883 
523241804656295 0.002262 -0.021670 0.010883 
523241825223899 0.002262 -0.021670 0.010883 
523241845794212 0.002262 -0.021670 0.010883 
523241866361190 0.002262 -0.021670 0.010883 
523241886929680 0.002262 -0.021670 0.010883 
523241907495826 0.002262 -0.021670 0.010883 
523241928066868 0.002262 -0.021670 0.010883 
523241948633534 0.002262 -0.021670 0.010883 
523241969200826 0.002262 -0.021670 0.010883 
523241989768066 0.002262 -0.021670 0.010883 
523242010338222 0.002262 -0.021670 0.010883 
523242030906034 0.002262 -0.021670 0.010883 
523242051473066 0.002262 -0.021670 0.010883 
523242072040878 0.002262 -0.021670 0.010883 
523242092610253 0.002262 -0.021670 0.010883 
523242113177076 0.002262 -0.021670 0.010883 
523242133745565 0.002262 -0.021670 0.010883 
523242154313325 0.002262 -0.021670 0.010883 
523242174881607 0.002262 -0.021670 0.010883 
523242195448898 0.002262 -0.021670 0.010883 
523242216018169 0.002262 -0.021670 0.010883 
523242236584523 0.002262 -0.021670 0.010883 
523242257155253 0.002262 -0.021670 0.010883 
523242277721866 0.002262 -0.021670 0.010883 
523242298291398 0.002262 -0.021670 0.010883 
523242318858429 0.002262 -0.021670 0.010883 
523242339426814 0.002262 -0.021670 0.010883 
523242359994263 0.002262 -0.021670 0.010883 
523242380562700 0.002262 -0.021670 0.010883 
523242401130877 0.002262 -0.021670 0.010883 
523242421699315 0.002262 -0.021670 0.010883 
523242442267439 0.002262 -0.021670 0.010883 
523242462838325 0.002262 -0.021670 0.010883 
523242483403065 0.002262 -0.021670 0.010883 
523242503971554 0.002262 -0.021670 0.010883 
523242524539471 0.002262 -0.021670 0.010883 
523242545107387 0.002262 -0.021670 0.010883 
523242565675565 0.002262 -0.021670 0.010883 
523242586243690 0.002262 -0.021670 0.010883 
523242606813325 0.002262 -0.021670 0.010883 
523242627380304 0.002262 -0.021670 0.010883 
523242647948794 0.002262 -0.021670 0.010883 
523242668516502 0.002262 -0.021670 0.010883 
523242689085356 0.002262 -0.021670 0.010883 
523242709653221 0.002262 -0.021670 0.010883 
523242730220877 0.002262 -0.021670 0.010883 
523242750788845 0.002262 -0.021670 0.010883 
523242771357544 0.002262 -0.021670 0.010883 
523242791924888 0.002262 -0.021670 0.010883 
523242812494211 0.002262 -0.021670 0.010883 
523242833061346 0.002262 -0.021670 0.010883 
523242853629315 0.002262 -0.021670 0.010883 
523242874197597 0.002262 -0.021670 0.010883 
523242894765930 0.002262 -0.021670 0.010883 
523242915333951 0.002262 -0.021670 0.010883 
523242935902544 0.002262 -0.021670 0.010883 
523242956470044 0.002262 -0.021670 0.010883 
523242977038846 0.002262 -0.021670 0.010883 
523242997606711 0.002262 -0.021670 0.010883 
523243018174211 0.002262 -0.021670 0.010883 
523243038742128 0.002262 -0.021670 0.010883 
523243059310461 0.002262 -0.021670 0.010883 
523243079878534 0.002262 -0.021670 0.010883 
523243100446971 0.002262 -0.021670 0.010883 
523243121015044 0.002262 -0.021670 0.010883 
523243141582961 0.002262 -0.021670 0.010883 
523243162150929 0.002262 -0.021670 0.010883 
523243182719731 0.002262 -0.021670 0.010883 
523243203288013 0.002262 -0.021670 0.010883 
523243223857180 0.002262 -0.021670 0.010883 
523243244424003 0.002262 -0.021670 0.010883 
523243264991711 0.002262 -0.021670 0.010883 
523243285560356 0.002262 -0.021670 0.010883 
523243306128481 0.002262 -0.021670 0.010883 
523243326696815 0.002262 -0.021670 0.010883 
523243347265252 0.002262 -0.021670 0.010883 
523243367833116 0.002262 -0.021670 0.010883 
523243388400669 0.002262 -0.021670 0.010883 
523243408970252 0.002262 -0.021670 0.010883 
523243429536762 0.002262 -0.021670 0.010883 
523243450107908 0.002262 -0.021670 0.010883 
523243470675408 0.002262 -0.021670 0.010883 
523243491243064 0.002262 -0.021670 0.010883 
523243511811189 0.002262 -0.021670 0.010883 
523243532380095 0.002262 -0.021670 0.010883 
523243552947492 0.002262 -0.021670 0.010883 
523243573514420 0.002262 -0.021670 0.010883 
523243594082440 0.002262 -0.021670 0.010883 
523243614650408 0.002262 -0.021670 0.010883 
523243635218429 0.002262 -0.021670 0.010883 
523243655787023 0.002262 -0.021670 0.010883 
523243676354992 0.002262 -0.021670 0.010883 
523243696924575 0.002262 -0.021670 0.010883 
523243717491658 0.002262 -0.021670 0.010883 
523243738060044 0.002262 -0.021670 0.010883 
523243758627596 0.002262 -0.021670 0.010883 
523243779197180 0.002262 -0.021670 0.010883 
523243799763898 0.002262 -0.021670 0.010883 
523243820332439 0.002262 -0.021670 0.010883 
523243840900460 0.002262 -0.021670 0.010883 
523243861470877 0.002262 -0.021670 0.010883 
523243882037856 0.002262 -0.021670 0.010883 
523243902605929 0.002262 -0.021670 0.010883 
523243923173272 0.002262 -0.021670 0.010883 
523243943741450 0.002262 -0.021670 0.010883 
523243964309627 0.002262 -0.021670 0.010883 
523243984877751 0.002262 -0.021670 0.010883 
523244005445617 0.002262 -0.021670 0.010883 
523244026013794 0.002262 -0.021670 0.010883 
523244046582284 0.002262 -0.021670 0.010883 
523244067150096 0.002262 -0.021670 0.010883 
