# Created at Thu Nov 07 18:39:54 EST 2019 in Burnaby Canada 
523238670948327 45.002232 190.324265 -6.960118 
523238691138170 45.002232 190.324265 -6.960118 
523238710971192 45.002232 190.324265 -6.960118 
523238730922546 45.002232 190.324265 -6.960118 
523238750923431 45.002232 190.324265 -6.960118 
523238770922597 45.002232 190.324265 -6.960118 
523238790922962 45.002232 190.324265 -6.960118 
523238810922597 45.002232 190.324265 -6.960118 
523238830922545 45.002232 190.324265 -6.960118 
523238850922754 45.002232 190.324265 -6.960118 
523238870922858 45.002232 190.324265 -6.960118 
523238890922233 45.002232 190.324265 -6.960118 
523238910922493 45.002232 190.324265 -6.960118 
523238930922806 45.002232 190.324265 -6.960118 
523238951129630 45.002232 190.324265 -6.960118 
523238970922651 45.002232 190.324265 -6.960118 
523238990923118 45.002232 190.324265 -6.960118 
523239010922389 45.002232 190.324265 -6.960118 
523239030922649 45.002232 190.324265 -6.960118 
523239051079577 45.002232 190.324265 -6.960118 
523239071079630 45.002232 190.324265 -6.960118 
523239090969005 45.002232 190.324265 -6.960118 
523239110922441 45.002232 190.324265 -6.960118 
523239130923014 45.002232 190.324265 -6.960118 
523239150922701 45.002232 190.324265 -6.960118 
523239170922806 45.002232 190.324265 -6.960118 
523239190922285 45.002232 190.324265 -6.960118 
523239210922597 45.002232 190.324265 -6.960118 
523239230922702 45.002232 190.324265 -6.960118 
523239250922702 45.002232 190.324265 -6.960118 
523239270922650 45.002232 190.324265 -6.960118 
523239290922493 45.002232 190.324265 -6.960118 
523239310922962 45.002232 190.324265 -6.960118 
523239330922285 45.002232 190.324265 -6.960118 
523239350922962 45.002232 190.324265 -6.960118 
523239370922650 45.002232 190.324265 -6.960118 
523239390922806 45.002232 190.324265 -6.960118 
523239411020045 45.002232 190.324265 -6.960118 
523239431020045 45.002232 190.324265 -6.960118 
523239450922702 45.002232 190.324265 -6.960118 
523239470922858 45.002232 190.324265 -6.960118 
523239490922859 45.002232 190.324265 -6.960118 
523239510922545 45.002232 190.324265 -6.960118 
523239530922545 45.002232 190.324265 -6.960118 
523239550922754 45.002232 190.324265 -6.960118 
523239570922598 45.002232 190.324265 -6.960118 
523239590925254 45.002232 190.324265 -6.960118 
523239610924785 45.002232 190.324265 -6.960118 
523239630923014 45.002232 190.324265 -6.960118 
523239650923119 45.002232 190.324265 -6.960118 
523239670921973 45.002232 190.324265 -6.960118 
523239690922389 45.002232 190.324265 -6.960118 
523239710922702 45.002232 190.324265 -6.960118 
523239730922702 45.002232 190.324265 -6.960118 
523239750942858 45.002232 190.324265 -6.960118 
523239770961139 45.002232 190.324265 -6.960118 
523239790961296 45.002232 190.324265 -6.960118 
523239810922702 45.002232 190.324265 -6.960118 
523239830923587 45.002232 190.324265 -6.960118 
523239850923587 45.002232 190.324265 -6.960118 
523239870925150 45.002232 190.324265 -6.960118 
523239890924941 45.002232 190.324265 -6.960118 
523239910924160 45.002232 190.324265 -6.960118 
523239930924680 45.002232 190.324265 -6.960118 
523239951132129 45.002232 190.324265 -6.960118 
523239970925046 45.002232 190.324265 -6.960118 
523239990923483 45.002232 190.324265 -6.960118 
523240010923744 45.002232 190.324265 -6.960118 
523240030923169 45.002232 190.324265 -6.960118 
523240050922805 45.002232 190.324265 -6.960118 
523240070924212 45.002232 190.324265 -6.960118 
523240090924628 45.002232 190.324265 -6.960118 
523240110937337 45.002232 190.324265 -6.960118 
523240130933744 45.002232 190.324265 -6.960118 
523240150932285 45.002232 190.324265 -6.960118 
523240170924108 45.002232 190.324265 -6.960118 
523240190924681 45.002232 190.324265 -6.960118 
523240210924265 45.002232 190.324265 -6.960118 
523240230924316 45.002232 190.324265 -6.960118 
523240250924836 45.002232 190.324265 -6.960118 
523240270924420 45.002232 190.324265 -6.960118 
523240290924211 45.002232 190.324265 -6.960118 
523240310924628 45.002232 190.324265 -6.960118 
523240330924420 45.002232 190.324265 -6.960118 
523240350924525 45.002232 190.324265 -6.960118 
523240370924368 45.002232 190.324265 -6.960118 
523240390923639 45.002232 190.324265 -6.960118 
523240410923743 45.002232 190.324265 -6.960118 
523240430924160 45.002232 190.324265 -6.960118 
523240450924212 45.002232 190.324265 -6.960118 
523240470918274 45.002232 190.324265 -6.960118 
523240490937701 45.002232 190.324265 -6.960118 
523240510936972 45.002232 190.324265 -6.960118 
523240530923795 45.002232 190.324265 -6.960118 
523240550924524 45.002232 190.324265 -6.960118 
523240570924368 45.002232 190.324265 -6.960118 
523240590924055 45.002232 190.324265 -6.960118 
523240610924263 45.002232 190.324265 -6.960118 
523240630924941 45.002232 190.324265 -6.960118 
523240650924160 45.002232 190.324265 -6.960118 
523240670924629 45.002232 190.324265 -6.960118 
523240690924525 45.002232 190.324265 -6.960118 
523240710922597 45.002232 190.324265 -6.960118 
523240730923170 45.002232 190.324265 -6.960118 
523240750925723 45.002232 190.324265 -6.960118 
523240770924941 45.002232 190.324265 -6.960118 
523240790922492 45.002232 190.324265 -6.960118 
523240810922909 45.002232 190.324265 -6.960118 
523240830918014 45.002232 190.324265 -6.960118 
523240850923691 45.002232 190.324265 -6.960118 
523240870926555 45.002232 190.324265 -6.960118 
523240890922545 45.002232 190.324265 -6.960118 
523240910925618 45.002232 190.324265 -6.960118 
523240930924056 45.002232 190.324265 -6.960118 
523240951132389 45.002232 190.324265 -6.960118 
523240970925774 45.002232 190.324265 -6.960118 
523240990925201 45.002232 190.324265 -6.960118 
523241010924524 45.002232 190.324265 -6.960118 
523241030923743 45.002232 190.324265 -6.960118 
523241050923899 45.002232 190.324265 -6.960118 
523241070923430 45.002232 190.324265 -6.960118 
523241090924160 45.002232 190.324265 -6.960118 
523241110924264 45.002232 190.324265 -6.960118 
523241130924316 45.002232 190.324265 -6.960118 
523241150924263 45.002232 190.324265 -6.960118 
523241170924367 45.002232 190.324265 -6.960118 
523241190916660 45.002232 190.324265 -6.960118 
523241210934368 45.002232 190.324265 -6.960118 
523241231292805 45.002232 190.324265 -6.960118 
523241250922962 45.002232 190.324265 -6.960118 
523241270922857 45.002232 190.324265 -6.960118 
523241290922440 45.002232 190.324265 -6.960118 
523241310924211 45.002232 190.324265 -6.960118 
523241330923951 45.002232 190.324265 -6.960118 
523241350923222 45.002232 190.324265 -6.960118 
523241370923430 45.002232 190.324265 -6.960118 
523241390923587 45.002232 190.324265 -6.960118 
523241410923795 45.002232 190.324265 -6.960118 
523241430925462 45.002232 190.324265 -6.960118 
523241450925097 45.002232 190.324265 -6.960118 
523241470924992 45.002232 190.324265 -6.960118 
523241490924888 45.002232 190.324265 -6.960118 
523241510925098 45.002232 190.324265 -6.960118 
523241530925827 45.002232 190.324265 -6.960118 
523241550924106 45.002232 190.324265 -6.960118 
523241570934575 45.002232 190.324265 -6.960118 
523241591237804 45.002232 190.324265 -6.960118 
523241610923431 45.002232 190.324265 -6.960118 
523241630923013 45.002232 190.324265 -6.960118 
523241650923535 45.002232 190.324265 -6.960118 
523241670922857 45.002232 190.324265 -6.960118 
523241690922857 45.002232 190.324265 -6.960118 
523241710924576 45.002232 190.324265 -6.960118 
523241730923378 45.002232 190.324265 -6.960118 
523241750924002 45.002232 190.324265 -6.960118 
523241770923377 45.002232 190.324265 -6.960118 
523241790923743 45.002232 190.324265 -6.960118 
523241810923170 45.002232 190.324265 -6.960118 
523241830923743 45.002232 190.324265 -6.960118 
523241850923586 45.002232 190.324265 -6.960118 
523241870924575 45.002232 190.324265 -6.960118 
523241890924731 45.002232 190.324265 -6.960118 
523241910922701 45.002232 190.324265 -6.960118 
523241930916815 45.002232 190.324265 -6.960118 
523241951179315 45.002232 190.324265 -6.960118 
523241970972232 45.002232 190.324265 -6.960118 
523241990923274 45.002232 190.324265 -6.960118 
523242010923430 45.002232 190.324265 -6.960118 
523242030924940 45.002232 190.324265 -6.960118 
523242050924888 45.002232 190.324265 -6.960118 
523242070923325 45.002232 190.324265 -6.960118 
523242090923065 45.002232 190.324265 -6.960118 
523242110923430 45.002232 190.324265 -6.960118 
523242130923221 45.002232 190.324265 -6.960118 
523242150923117 45.002232 190.324265 -6.960118 
523242170923846 45.002232 190.324265 -6.960118 
523242190922961 45.002232 190.324265 -6.960118 
523242210922544 45.002232 190.324265 -6.960118 
523242230921919 45.002232 190.324265 -6.960118 
523242250922232 45.002232 190.324265 -6.960118 
523242270923585 45.002232 190.324265 -6.960118 
523242290923429 45.002232 190.324265 -6.960118 
523242311118690 45.002232 190.324265 -6.960118 
523242330970356 45.002232 190.324265 -6.960118 
523242350970877 45.002232 190.324265 -6.960118 
523242370923118 45.002232 190.324265 -6.960118 
523242390924055 45.002232 190.324265 -6.960118 
523242410923429 45.002232 190.324265 -6.960118 
523242430923690 45.002232 190.324265 -6.960118 
523242450924158 45.002232 190.324265 -6.960118 
523242470926659 45.002232 190.324265 -6.960118 
523242490927023 45.002232 190.324265 -6.960118 
523242510923117 45.002232 190.324265 -6.960118 
523242530923169 45.002232 190.324265 -6.960118 
523242550923064 45.002232 190.324265 -6.960118 
523242570923481 45.002232 190.324265 -6.960118 
523242590923117 45.002232 190.324265 -6.960118 
523242610923274 45.002232 190.324265 -6.960118 
523242630923690 45.002232 190.324265 -6.960118 
523242650937336 45.002232 190.324265 -6.960118 
523242671061450 45.002232 190.324265 -6.960118 
523242691061450 45.002232 190.324265 -6.960118 
523242710957649 45.002232 190.324265 -6.960118 
523242730924367 45.002232 190.324265 -6.960118 
523242750923168 45.002232 190.324265 -6.960118 
523242770923377 45.002232 190.324265 -6.960118 
523242790923326 45.002232 190.324265 -6.960118 
523242810923118 45.002232 190.324265 -6.960118 
523242830923325 45.002232 190.324265 -6.960118 
523242850923533 45.002232 190.324265 -6.960118 
523242870923794 45.002232 190.324265 -6.960118 
523242890923430 45.002232 190.324265 -6.960118 
523242910923742 45.002232 190.324265 -6.960118 
523242930923117 45.002232 190.324265 -6.960118 
523242951130096 45.002232 190.324265 -6.960118 
523242970922856 45.002232 190.324265 -6.960118 
523242990924002 45.002232 190.324265 -6.960118 
523243010923429 45.002232 190.324265 -6.960118 
523243031003012 45.002232 190.324265 -6.960118 
523243051002336 45.002232 190.324265 -6.960118 
523243070919471 45.002232 190.324265 -6.960118 
523243090922909 45.002232 190.324265 -6.960118 
523243110923482 45.002232 190.324265 -6.960118 
523243130923273 45.002232 190.324265 -6.960118 
523243150923012 45.002232 190.324265 -6.960118 
523243170923116 45.002232 190.324265 -6.960118 
523243190923273 45.002232 190.324265 -6.960118 
523243210923377 45.002232 190.324265 -6.960118 
523243230924263 45.002232 190.324265 -6.960118 
523243250924524 45.002232 190.324265 -6.960118 
523243270922596 45.002232 190.324265 -6.960118 
523243290922544 45.002232 190.324265 -6.960118 
523243310923325 45.002232 190.324265 -6.960118 
523243330923325 45.002232 190.324265 -6.960118 
523243350923898 45.002232 190.324265 -6.960118 
523243370917440 45.002232 190.324265 -6.960118 
523243390946138 45.002232 190.324265 -6.960118 
523243410946138 45.002232 190.324265 -6.960118 
523243430922491 45.002232 190.324265 -6.960118 
523243450922596 45.002232 190.324265 -6.960118 
523243470925096 45.002232 190.324265 -6.960118 
523243490924992 45.002232 190.324265 -6.960118 
523243510924523 45.002232 190.324265 -6.960118 
523243530924210 45.002232 190.324265 -6.960118 
523243550924784 45.002232 190.324265 -6.960118 
523243570924940 45.002232 190.324265 -6.960118 
523243590923325 45.002232 190.324265 -6.960118 
523243610923481 45.002232 190.324265 -6.960118 
523243630922856 45.002232 190.324265 -6.960118 
523243650922543 45.002232 190.324265 -6.960118 
523243670923065 45.002232 190.324265 -6.960118 
523243690923377 45.002232 190.324265 -6.960118 
523243710923897 45.002232 190.324265 -6.960118 
523243730917387 45.002232 190.324265 -6.960118 
523243750923117 45.002232 190.324265 -6.960118 
523243770923117 45.002232 190.324265 -6.960118 
523243790924628 45.002232 190.324265 -6.960118 
523243810923377 45.002232 190.324265 -6.960118 
523243830924836 45.002232 190.324265 -6.960118 
523243850923221 45.002232 190.324265 -6.960118 
523243870925565 45.002232 190.324265 -6.960118 
523243890924419 45.002232 190.324265 -6.960118 
523243910923898 45.002232 190.324265 -6.960118 
523243930924210 45.002232 190.324265 -6.960118 
523243951130513 45.002232 190.324265 -6.960118 
523243970922961 45.002232 190.324265 -6.960118 
523243990923220 45.002232 190.324265 -6.960118 
523244010923324 45.002232 190.324265 -6.960118 
523244030923169 45.002232 190.324265 -6.960118 
523244050923585 45.002232 190.324265 -6.960118 
523244070923429 45.002232 190.324265 -6.960118 
