# Created at Thu Nov 07 19:54:57 EST 2019 in Burnaby Canada 
527741031179705 -0.001878 -0.002344 0.006000 
527741051747102 -0.001878 -0.002344 0.006000 
527741072316372 -0.001878 -0.002344 0.006000 
527741092885069 -0.001878 -0.002344 0.006000 
527741113453612 -0.001878 -0.002344 0.006000 
527741134022518 -0.001878 -0.002344 0.006000 
527741154590955 -0.001878 -0.002344 0.006000 
527741175159706 -0.001878 -0.002344 0.006000 
527741195728195 -0.001878 -0.002344 0.006000 
527741216297153 -0.001878 -0.002344 0.006000 
527741236865643 -0.001878 -0.002344 0.006000 
527741257434393 -0.001878 -0.002344 0.006000 
527741278002778 -0.001878 -0.002344 0.006000 
527741298571685 -0.001878 -0.002344 0.006000 
527741319140226 -0.001878 -0.002344 0.006000 
527741339709132 -0.001878 -0.002344 0.006000 
527741360277414 -0.001878 -0.002344 0.006000 
527741380846007 -0.001878 -0.002344 0.006000 
527741401414653 -0.001878 -0.002344 0.006000 
527741421983299 -0.001878 -0.002344 0.006000 
527741442551944 -0.001878 -0.002344 0.006000 
527741463120590 -0.001878 -0.002344 0.006000 
527741483689236 -0.001878 -0.002344 0.006000 
527741504257831 -0.001878 -0.002344 0.006000 
527741524826477 -0.001878 -0.002344 0.006000 
527741545395123 -0.001878 -0.002344 0.006000 
527741565963768 -0.001878 -0.002344 0.006000 
527741586532362 -0.001878 -0.002344 0.006000 
527741607101008 -0.001878 -0.002344 0.006000 
527741627669705 -0.001878 -0.002344 0.006000 
527741648238351 -0.001878 -0.002344 0.006000 
527741668807153 -0.001878 -0.002344 0.006000 
527741689375799 -0.001878 -0.002344 0.006000 
527741709944809 -0.001878 -0.002344 0.006000 
527741730513455 -0.001878 -0.002344 0.006000 
527741751081632 -0.001878 -0.002344 0.006000 
527741771650278 -0.001878 -0.002344 0.006000 
527741792220591 -0.001878 -0.002344 0.006000 
527741812788143 -0.001878 -0.002344 0.006000 
527741833357934 -0.001878 -0.002344 0.006000 
527741853928247 -0.001878 -0.002344 0.006000 
527741874494028 -0.001878 -0.002344 0.006000 
527741895063299 -0.001878 -0.002344 0.006000 
527741915632153 -0.001878 -0.002344 0.006000 
527741936199705 -0.001878 -0.002344 0.006000 
527741956768194 -0.001878 -0.002344 0.006000 
527741977338559 -0.001878 -0.002344 0.006000 
527741997907257 -0.001878 -0.002344 0.006000 
527742018475591 -0.001878 -0.002344 0.006000 
527742039044132 -0.001878 -0.002344 0.006000 
527742059613403 -0.001878 -0.002344 0.006000 
527742080182361 -0.001878 -0.002344 0.006000 
527742100750434 -0.001878 -0.002344 0.006000 
527742121319132 -0.001878 -0.002344 0.006000 
527742141886841 -0.001878 -0.002344 0.006000 
527742162455487 -0.001878 -0.002344 0.006000 
527742183024653 -0.001878 -0.002344 0.006000 
527742203593299 -0.001878 -0.002344 0.006000 
527742224162986 -0.001878 -0.002344 0.006000 
527742244731632 -0.001878 -0.002344 0.006000 
527742265299393 -0.001878 -0.002344 0.006000 
527742285868039 -0.001878 -0.002344 0.006000 
527742306437570 -0.001878 -0.002344 0.006000 
527742327006216 -0.001878 -0.002344 0.006000 
527742347574393 -0.001878 -0.002344 0.006000 
527742368143038 -0.001878 -0.002344 0.006000 
527742388712361 -0.001878 -0.002344 0.006000 
527742409281007 -0.001878 -0.002344 0.006000 
527742429849549 -0.001878 -0.002344 0.006000 
527742450417830 -0.001878 -0.002344 0.006000 
527742470987309 -0.001878 -0.002344 0.006000 
527742491555330 -0.001878 -0.002344 0.006000 
527742512124653 -0.001878 -0.002344 0.006000 
527742532691996 -0.001878 -0.002344 0.006000 
527742553261111 -0.001878 -0.002344 0.006000 
527742573831268 -0.001878 -0.002344 0.006000 
527742594398663 -0.001878 -0.002344 0.006000 
527742614967934 -0.001878 -0.002344 0.006000 
527742635536059 -0.001878 -0.002344 0.006000 
527742656104445 -0.001878 -0.002344 0.006000 
527742676673975 -0.001878 -0.002344 0.006000 
527742697241476 -0.001878 -0.002344 0.006000 
527742717810122 -0.001878 -0.002344 0.006000 
527742738378715 -0.001878 -0.002344 0.006000 
527742758949861 -0.001878 -0.002344 0.006000 
527742779516528 -0.001878 -0.002344 0.006000 
527742800084809 -0.001878 -0.002344 0.006000 
527742820653715 -0.001878 -0.002344 0.006000 
527742841222360 -0.001878 -0.002344 0.006000 
527742861790954 -0.001878 -0.002344 0.006000 
527742882359652 -0.001878 -0.002344 0.006000 
527742902928819 -0.001878 -0.002344 0.006000 
527742923497517 -0.001878 -0.002344 0.006000 
527742944065903 -0.001878 -0.002344 0.006000 
527742964634549 -0.001878 -0.002344 0.006000 
527742985203143 -0.001878 -0.002344 0.006000 
527743005771841 -0.001878 -0.002344 0.006000 
527743026342569 -0.001878 -0.002344 0.006000 
527743046911214 -0.001878 -0.002344 0.006000 
527743067478454 -0.001878 -0.002344 0.006000 
527743088047152 -0.001878 -0.002344 0.006000 
527743108615642 -0.001878 -0.002344 0.006000 
527743129184340 -0.001878 -0.002344 0.006000 
527743149751893 -0.001878 -0.002344 0.006000 
527743170320591 -0.001878 -0.002344 0.006000 
527743190888454 -0.001878 -0.002344 0.006000 
527743211457465 -0.001878 -0.002344 0.006000 
527743232025903 -0.001878 -0.002344 0.006000 
527743252595485 -0.001878 -0.002344 0.006000 
527743273164600 -0.001878 -0.002344 0.006000 
527743293733714 -0.001878 -0.002344 0.006000 
527743314302673 -0.001878 -0.002344 0.006000 
527743334871527 -0.001878 -0.002344 0.006000 
527743355439131 -0.001878 -0.002344 0.006000 
527743376008090 -0.001878 -0.002344 0.006000 
527743396577048 -0.001878 -0.002344 0.006000 
527743417146371 -0.001878 -0.002344 0.006000 
527743437714497 -0.001878 -0.002344 0.006000 
527743458282778 -0.001878 -0.002344 0.006000 
527743478851267 -0.001878 -0.002344 0.006000 
527743499419443 -0.001878 -0.002344 0.006000 
527743519987672 -0.001878 -0.002344 0.006000 
527743540556267 -0.001878 -0.002344 0.006000 
527743561124965 -0.001878 -0.002344 0.006000 
527743581693819 -0.001878 -0.002344 0.006000 
527743602262517 -0.001878 -0.002344 0.006000 
527743622831840 -0.001878 -0.002344 0.006000 
527743643400590 -0.001878 -0.002344 0.006000 
527743663969705 -0.001878 -0.002344 0.006000 
527743684538403 -0.001878 -0.002344 0.006000 
527743705108142 -0.001878 -0.002344 0.006000 
527743725676840 -0.001878 -0.002344 0.006000 
527743746245955 -0.001878 -0.002344 0.006000 
527743766814653 -0.001878 -0.002344 0.006000 
527743787382412 -0.001878 -0.002344 0.006000 
527743807951735 -0.001878 -0.002344 0.006000 
527743828520381 -0.001878 -0.002344 0.006000 
527743849088975 -0.001878 -0.002344 0.006000 
527743869657517 -0.001878 -0.002344 0.006000 
527743890226215 -0.001878 -0.002344 0.006000 
527743910794340 -0.001878 -0.002344 0.006000 
527743931363559 -0.001878 -0.002344 0.006000 
527743951932829 -0.001878 -0.002344 0.006000 
527743972501423 -0.001878 -0.002344 0.006000 
527743993069809 -0.001878 -0.002344 0.006000 
527744013638454 -0.001878 -0.002344 0.006000 
527744034207361 -0.001878 -0.002344 0.006000 
527744054775902 -0.001878 -0.002344 0.006000 
527744075345173 -0.001878 -0.002344 0.006000 
527744095913350 -0.001878 -0.002344 0.006000 
527744116481944 -0.001878 -0.002344 0.006000 
527744137050382 -0.001878 -0.002344 0.006000 
527744157618403 -0.001878 -0.002344 0.006000 
527744178186632 -0.001878 -0.002344 0.006000 
527744198755329 -0.001878 -0.002344 0.006000 
527744219324287 -0.001878 -0.002344 0.006000 
527744239892621 -0.001878 -0.002344 0.006000 
527744260461996 -0.001878 -0.002344 0.006000 
527744281030694 -0.001878 -0.002344 0.006000 
527744301599547 -0.001878 -0.002344 0.006000 
527744322168297 -0.001878 -0.002344 0.006000 
527744342736943 -0.001878 -0.002344 0.006000 
527744363305693 -0.001878 -0.002344 0.006000 
527744383874756 -0.001878 -0.002344 0.006000 
527744404443506 -0.001878 -0.002344 0.006000 
527744425011839 -0.001878 -0.002344 0.006000 
527744445580589 -0.001878 -0.002344 0.006000 
527744466148766 -0.001878 -0.002344 0.006000 
527744486717516 -0.001878 -0.002344 0.006000 
527744507286266 -0.001878 -0.002344 0.006000 
527744527855016 -0.001878 -0.002344 0.006000 
527744548423506 -0.001878 -0.002344 0.006000 
527744568992256 -0.001878 -0.002344 0.006000 
527744589561944 -0.001878 -0.002344 0.006000 
527744610130694 -0.001878 -0.002344 0.006000 
527744630700381 -0.001878 -0.002344 0.006000 
527744651268350 -0.001878 -0.002344 0.006000 
527744671836788 -0.001878 -0.002344 0.006000 
527744692406267 -0.001878 -0.002344 0.006000 
527744712974392 -0.001878 -0.002344 0.006000 
527744733543246 -0.001878 -0.002344 0.006000 
527744754111840 -0.001878 -0.002344 0.006000 
527744774680797 -0.001878 -0.002344 0.006000 
527744795249548 -0.001878 -0.002344 0.006000 
527744815818402 -0.001878 -0.002344 0.006000 
527744836386631 -0.001878 -0.002344 0.006000 
527744856956215 -0.001878 -0.002344 0.006000 
527744877524757 -0.001878 -0.002344 0.006000 
527744898092985 -0.001878 -0.002344 0.006000 
527744918662151 -0.001878 -0.002344 0.006000 
527744939230589 -0.001878 -0.002344 0.006000 
527744959800277 -0.001878 -0.002344 0.006000 
527744980367985 -0.001878 -0.002344 0.006000 
527745000936735 -0.001878 -0.002344 0.006000 
527745021505069 -0.001878 -0.002344 0.006000 
527745042073819 -0.001878 -0.002344 0.006000 
527745062642725 -0.001878 -0.002344 0.006000 
527745083211475 -0.001878 -0.002344 0.006000 
527745103780538 -0.001878 -0.002344 0.006000 
527745124349288 -0.001878 -0.002344 0.006000 
527745144918089 -0.001878 -0.002344 0.006000 
527745165486839 -0.001878 -0.002344 0.006000 
527745186054860 -0.001878 -0.002344 0.006000 
527745206623610 -0.001878 -0.002344 0.006000 
527745227193298 -0.001878 -0.002344 0.006000 
527745247762048 -0.001878 -0.002344 0.006000 
527745268330590 -0.001878 -0.002344 0.006000 
527745288899340 -0.001878 -0.002344 0.006000 
527745309468245 -0.001878 -0.002344 0.006000 
527745330036995 -0.001878 -0.002344 0.006000 
527745350605902 -0.001878 -0.002344 0.006000 
527745371174652 -0.001878 -0.002344 0.006000 
527745391743089 -0.001878 -0.002344 0.006000 
527745412312152 -0.001878 -0.002344 0.006000 
527745432880798 -0.001878 -0.002344 0.006000 
527745453452256 -0.001878 -0.002344 0.006000 
527745474019339 -0.001878 -0.002344 0.006000 
527745494586839 -0.001878 -0.002344 0.006000 
527745515155328 -0.001878 -0.002344 0.006000 
527745535723714 -0.001878 -0.002344 0.006000 
527745556292517 -0.001878 -0.002344 0.006000 
527745576861787 -0.001878 -0.002344 0.006000 
527745597430068 -0.001878 -0.002344 0.006000 
527745617999287 -0.001878 -0.002344 0.006000 
527745638570016 -0.001878 -0.002344 0.006000 
527745659138141 -0.001878 -0.002344 0.006000 
527745679706786 -0.001878 -0.002344 0.006000 
527745700275537 -0.001878 -0.002344 0.006000 
527745720844339 -0.001878 -0.002344 0.006000 
527745741411890 -0.001878 -0.002344 0.006000 
527745761980640 -0.001878 -0.002344 0.006000 
527745782549078 -0.001878 -0.002344 0.006000 
527745803117828 -0.001878 -0.002344 0.006000 
527745823686735 -0.001878 -0.002344 0.006000 
527745844255537 -0.001878 -0.002344 0.006000 
527745864823713 -0.001878 -0.002344 0.006000 
527745885392516 -0.001878 -0.002344 0.006000 
527745905961475 -0.001878 -0.002344 0.006000 
527745926530225 -0.001878 -0.002344 0.006000 
527745947099235 -0.001878 -0.002344 0.006000 
527745967667985 -0.001878 -0.002344 0.006000 
527745988236475 -0.001878 -0.002344 0.006000 
527746008805277 -0.001878 -0.002344 0.006000 
527746029374391 -0.001878 -0.002344 0.006000 
527746049943193 -0.001878 -0.002344 0.006000 
527746070511631 -0.001878 -0.002344 0.006000 
527746091080381 -0.001878 -0.002344 0.006000 
527746111649599 -0.001878 -0.002344 0.006000 
527746132218089 -0.001878 -0.002344 0.006000 
527746152789339 -0.001878 -0.002344 0.006000 
527746173356058 -0.001878 -0.002344 0.006000 
527746193925640 -0.001878 -0.002344 0.006000 
527746214493297 -0.001878 -0.002344 0.006000 
527746235061995 -0.001878 -0.002344 0.006000 
527746255631370 -0.001878 -0.002344 0.006000 
527746276199443 -0.001878 -0.002344 0.006000 
527746296768401 -0.001878 -0.002344 0.006000 
527746317336994 -0.001878 -0.002344 0.006000 
527746337907567 -0.001878 -0.002344 0.006000 
527746358475172 -0.001878 -0.002344 0.006000 
527746379044078 -0.001878 -0.002344 0.006000 
527746399611994 -0.001878 -0.002344 0.006000 
527746420180850 -0.001878 -0.002344 0.006000 
527746440749600 -0.001878 -0.002344 0.006000 
527746461319756 -0.001878 -0.002344 0.006000 
527746481888558 -0.001878 -0.002344 0.006000 
527746502456318 -0.001878 -0.002344 0.006000 
527746523025120 -0.001878 -0.002344 0.006000 
527746543593974 -0.001878 -0.002344 0.006000 
527746564162776 -0.001878 -0.002344 0.006000 
527746584731318 -0.001878 -0.002344 0.006000 
527746605300068 -0.001878 -0.002344 0.006000 
527746625868713 -0.001878 -0.002344 0.006000 
527746646437515 -0.001878 -0.002344 0.006000 
527746667006631 -0.001878 -0.002344 0.006000 
527746687575433 -0.001878 -0.002344 0.006000 
527746708143766 -0.001878 -0.002344 0.006000 
527746728712516 -0.001878 -0.002344 0.006000 
527746749280796 -0.001878 -0.002344 0.006000 
527746769849598 -0.001878 -0.002344 0.006000 
527746790418921 -0.001878 -0.002344 0.006000 
527746810987724 -0.001878 -0.002344 0.006000 
527746831556475 -0.001878 -0.002344 0.006000 
527746852125433 -0.001878 -0.002344 0.006000 
527746872693923 -0.001878 -0.002344 0.006000 
527746893262777 -0.001878 -0.002344 0.006000 
527746913831630 -0.001878 -0.002344 0.006000 
527746934400484 -0.001878 -0.002344 0.006000 
527746954969182 -0.001878 -0.002344 0.006000 
527746975538349 -0.001878 -0.002344 0.006000 
527746996106526 -0.001878 -0.002344 0.006000 
527747016675797 -0.001878 -0.002344 0.006000 
527747037244391 -0.001878 -0.002344 0.006000 
527747057813244 -0.001878 -0.002344 0.006000 
527747078382046 -0.001878 -0.002344 0.006000 
527747098950745 -0.001878 -0.002344 0.006000 
527747119519547 -0.001878 -0.002344 0.006000 
527747140088349 -0.001878 -0.002344 0.006000 
527747160657203 -0.001878 -0.002344 0.006000 
527747181226422 -0.001878 -0.002344 0.006000 
527747201795224 -0.001878 -0.002344 0.006000 
527747222363765 -0.001878 -0.002344 0.006000 
527747242932567 -0.001878 -0.002344 0.006000 
527747263501266 -0.001878 -0.002344 0.006000 
527747284070068 -0.001878 -0.002344 0.006000 
527747304638974 -0.001878 -0.002344 0.006000 
527747325207776 -0.001878 -0.002344 0.006000 
527747345776266 -0.001878 -0.002344 0.006000 
527747366345068 -0.001878 -0.002344 0.006000 
527747386913923 -0.001878 -0.002344 0.006000 
527747407482725 -0.001878 -0.002344 0.006000 
527747428051526 -0.001878 -0.002344 0.006000 
527747448620328 -0.001878 -0.002344 0.006000 
527747469189130 -0.001878 -0.002344 0.006000 
527747489757932 -0.001878 -0.002344 0.006000 
527747510326682 -0.001878 -0.002344 0.006000 
527747530895745 -0.001878 -0.002344 0.006000 
527747551464287 -0.001878 -0.002344 0.006000 
527747572033817 -0.001878 -0.002344 0.006000 
527747592601942 -0.001878 -0.002344 0.006000 
527747613171212 -0.001878 -0.002344 0.006000 
527747633739600 -0.001878 -0.002344 0.006000 
527747654308922 -0.001878 -0.002344 0.006000 
527747674877151 -0.001878 -0.002344 0.006000 
527747695446161 -0.001878 -0.002344 0.006000 
527747716014651 -0.001878 -0.002344 0.006000 
527747736583661 -0.001878 -0.002344 0.006000 
