# Created at Thu Nov 07 19:54:57 EST 2019 in Burnaby Canada 
527741050916476 40.773468 185.543625 -10.365678 
527741070915799 40.773468 185.543625 -10.365678 
527741090916008 40.773468 185.543625 -10.365678 
527741110920851 40.773468 185.543625 -10.365678 
527741130915591 40.773468 185.543625 -10.365678 
527741150915122 40.773468 185.543625 -10.365678 
527741170915486 40.773468 185.543625 -10.365678 
527741190916164 40.773468 185.543625 -10.365678 
527741210915591 40.773468 185.543625 -10.365678 
527741230915643 40.773468 185.543625 -10.365678 
527741250915539 40.773468 185.543625 -10.365678 
527741270918039 40.773468 185.543625 -10.365678 
527741290920174 40.773468 185.543625 -10.365678 
527741310920435 40.773468 185.543625 -10.365678 
527741330915279 40.773468 185.543625 -10.365678 
527741350915955 40.773468 185.543625 -10.365678 
527741370915279 40.773468 185.543625 -10.365678 
527741390916372 40.773468 185.543625 -10.365678 
527741410915226 40.773468 185.543625 -10.365678 
527741430915330 40.773468 185.543625 -10.365678 
527741445622986 40.773468 185.543625 -10.365678 
527741450921840 40.773468 185.543625 -10.365678 
527741470915122 40.773468 185.543625 -10.365678 
527741490915538 40.773468 185.543625 -10.365678 
527741510921529 40.773468 185.543625 -10.365678 
527741530915383 40.773468 185.543625 -10.365678 
527741550915800 40.773468 185.543625 -10.365678 
527741570918143 40.773468 185.543625 -10.365678 
527741590914966 40.773468 185.543625 -10.365678 
527741610915383 40.773468 185.543625 -10.365678 
527741630915226 40.773468 185.543625 -10.365678 
527741650915486 40.773468 185.543625 -10.365678 
527741670915590 40.773468 185.543625 -10.365678 
527741690918559 40.773468 185.543625 -10.365678 
527741710916112 40.773468 185.543625 -10.365678 
527741730915330 40.773468 185.543625 -10.365678 
527741750915487 40.773468 185.543625 -10.365678 
527741770915174 40.773468 185.543625 -10.365678 
527741790916163 40.773468 185.543625 -10.365678 
527741810916737 40.773468 185.543625 -10.365678 
527741830915903 40.773468 185.543625 -10.365678 
527741850917466 40.773468 185.543625 -10.365678 
527741870918456 40.773468 185.543625 -10.365678 
527741890915695 40.773468 185.543625 -10.365678 
527741910916788 40.773468 185.543625 -10.365678 
527741930916580 40.773468 185.543625 -10.365678 
527741945358663 40.773468 185.543625 -10.365678 
527741951123819 40.773468 185.543625 -10.365678 
527741970915486 40.773468 185.543625 -10.365678 
527741990917205 40.773468 185.543625 -10.365678 
527742010916840 40.773468 185.543625 -10.365678 
527742031295383 40.773468 185.543625 -10.365678 
527742050916371 40.773468 185.543625 -10.365678 
527742070917778 40.773468 185.543625 -10.365678 
527742090917570 40.773468 185.543625 -10.365678 
527742110917153 40.773468 185.543625 -10.365678 
527742130916788 40.773468 185.543625 -10.365678 
527742150915643 40.773468 185.543625 -10.365678 
527742170915799 40.773468 185.543625 -10.365678 
527742190925486 40.773468 185.543625 -10.365678 
527742210922517 40.773468 185.543625 -10.365678 
527742230917466 40.773468 185.543625 -10.365678 
527742250917153 40.773468 185.543625 -10.365678 
527742270916737 40.773468 185.543625 -10.365678 
527742290916216 40.773468 185.543625 -10.365678 
527742310925747 40.773468 185.543625 -10.365678 
527742330920174 40.773468 185.543625 -10.365678 
527742350929965 40.773468 185.543625 -10.365678 
527742370930278 40.773468 185.543625 -10.365678 
527742391247205 40.773468 185.543625 -10.365678 
527742411023663 40.773468 185.543625 -10.365678 
527742430917362 40.773468 185.543625 -10.365678 
527742445433768 40.773468 185.543625 -10.365678 
527742450922414 40.773468 185.543625 -10.365678 
527742470917205 40.773468 185.543625 -10.365678 
527742490918298 40.773468 185.543625 -10.365678 
527742510917465 40.773468 185.543625 -10.365678 
527742530918351 40.773468 185.543625 -10.365678 
527742550916423 40.773468 185.543625 -10.365678 
527742570917101 40.773468 185.543625 -10.365678 
527742590918508 40.773468 185.543625 -10.365678 
527742610917621 40.773468 185.543625 -10.365678 
527742630918142 40.773468 185.543625 -10.365678 
527742650917517 40.773468 185.543625 -10.365678 
527742670917257 40.773468 185.543625 -10.365678 
527742690917673 40.773468 185.543625 -10.365678 
527742710917310 40.773468 185.543625 -10.365678 
527742730927935 40.773468 185.543625 -10.365678 
527742751208559 40.773468 185.543625 -10.365678 
527742770966267 40.773468 185.543625 -10.365678 
527742790916840 40.773468 185.543625 -10.365678 
527742810916840 40.773468 185.543625 -10.365678 
527742830916996 40.773468 185.543625 -10.365678 
527742850917621 40.773468 185.543625 -10.365678 
527742870916840 40.773468 185.543625 -10.365678 
527742890922777 40.773468 185.543625 -10.365678 
527742910918715 40.773468 185.543625 -10.365678 
527742930917205 40.773468 185.543625 -10.365678 
527742951124861 40.773468 185.543625 -10.365678 
527742970916632 40.773468 185.543625 -10.365678 
527742990916580 40.773468 185.543625 -10.365678 
527743010919549 40.773468 185.543625 -10.365678 
527743030927256 40.773468 185.543625 -10.365678 
527743050919808 40.773468 185.543625 -10.365678 
527743070917569 40.773468 185.543625 -10.365678 
527743090918090 40.773468 185.543625 -10.365678 
527743111151736 40.773468 185.543625 -10.365678 
527743130963923 40.773468 185.543625 -10.365678 
527743150918247 40.773468 185.543625 -10.365678 
527743170916737 40.773468 185.543625 -10.365678 
527743190915486 40.773468 185.543625 -10.365678 
527743210915850 40.773468 185.543625 -10.365678 
527743230915329 40.773468 185.543625 -10.365678 
527743250915173 40.773468 185.543625 -10.365678 
527743270916163 40.773468 185.543625 -10.365678 
527743290916371 40.773468 185.543625 -10.365678 
527743310917204 40.773468 185.543625 -10.365678 
527743330918038 40.773468 185.543625 -10.365678 
527743350917517 40.773468 185.543625 -10.365678 
527743370917673 40.773468 185.543625 -10.365678 
527743390917100 40.773468 185.543625 -10.365678 
527743410917204 40.773468 185.543625 -10.365678 
527743430917412 40.773468 185.543625 -10.365678 
527743450952205 40.773468 185.543625 -10.365678 
527743471101111 40.773468 185.543625 -10.365678 
527743490968454 40.773468 185.543625 -10.365678 
527743510963143 40.773468 185.543625 -10.365678 
527743530915745 40.773468 185.543625 -10.365678 
527743550915174 40.773468 185.543625 -10.365678 
527743570920330 40.773468 185.543625 -10.365678 
527743590927152 40.773468 185.543625 -10.365678 
527743610915590 40.773468 185.543625 -10.365678 
527743630916632 40.773468 185.543625 -10.365678 
527743650915955 40.773468 185.543625 -10.365678 
527743670916788 40.773468 185.543625 -10.365678 
527743690917674 40.773468 185.543625 -10.365678 
527743710960954 40.773468 185.543625 -10.365678 
527743730918090 40.773468 185.543625 -10.365678 
527743750917153 40.773468 185.543625 -10.365678 
527743770917934 40.773468 185.543625 -10.365678 
527743790917465 40.773468 185.543625 -10.365678 
527743810928037 40.773468 185.543625 -10.365678 
527743831056006 40.773468 185.543625 -10.365678 
527743851055902 40.773468 185.543625 -10.365678 
527743870961059 40.773468 185.543625 -10.365678 
527743890916892 40.773468 185.543625 -10.365678 
527743910916683 40.773468 185.543625 -10.365678 
527743930916892 40.773468 185.543625 -10.365678 
527743945523194 40.773468 185.543625 -10.365678 
527743951124444 40.773468 185.543625 -10.365678 
527743970917517 40.773468 185.543625 -10.365678 
527743990917569 40.773468 185.543625 -10.365678 
527744010917621 40.773468 185.543625 -10.365678 
527744030916996 40.773468 185.543625 -10.365678 
527744050917413 40.773468 185.543625 -10.365678 
527744070916891 40.773468 185.543625 -10.365678 
527744090917308 40.773468 185.543625 -10.365678 
527744110917049 40.773468 185.543625 -10.365678 
527744130917100 40.773468 185.543625 -10.365678 
527744150916163 40.773468 185.543625 -10.365678 
527744170930798 40.773468 185.543625 -10.365678 
527744191018923 40.773468 185.543625 -10.365678 
527744211018870 40.773468 185.543625 -10.365678 
527744230916475 40.773468 185.543625 -10.365678 
527744250915330 40.773468 185.543625 -10.365678 
527744270915538 40.773468 185.543625 -10.365678 
527744290923403 40.773468 185.543625 -10.365678 
527744310916162 40.773468 185.543625 -10.365678 
527744330929027 40.773468 185.543625 -10.365678 
527744350915589 40.773468 185.543625 -10.365678 
527744370916527 40.773468 185.543625 -10.365678 
527744390916215 40.773468 185.543625 -10.365678 
527744410922985 40.773468 185.543625 -10.365678 
527744430915850 40.773468 185.543625 -10.365678 
527744445404912 40.773468 185.543625 -10.365678 
527744450915433 40.773468 185.543625 -10.365678 
527744470915381 40.773468 185.543625 -10.365678 
527744490914652 40.773468 185.543625 -10.365678 
527744510915641 40.773468 185.543625 -10.365678 
527744530915433 40.773468 185.543625 -10.365678 
527744550983194 40.773468 185.543625 -10.365678 
527744570983194 40.773468 185.543625 -10.365678 
527744590915433 40.773468 185.543625 -10.365678 
527744610916684 40.773468 185.543625 -10.365678 
527744630916214 40.773468 185.543625 -10.365678 
527744650917308 40.773468 185.543625 -10.365678 
527744670916058 40.773468 185.543625 -10.365678 
527744690916163 40.773468 185.543625 -10.365678 
527744710917048 40.773468 185.543625 -10.365678 
527744730916163 40.773468 185.543625 -10.365678 
527744750916944 40.773468 185.543625 -10.365678 
527744770916059 40.773468 185.543625 -10.365678 
527744790916526 40.773468 185.543625 -10.365678 
527744810916787 40.773468 185.543625 -10.365678 
527744830916423 40.773468 185.543625 -10.365678 
527744850915850 40.773468 185.543625 -10.365678 
527744870924288 40.773468 185.543625 -10.365678 
527744890916528 40.773468 185.543625 -10.365678 
527744910916007 40.773468 185.543625 -10.365678 
527744930916474 40.773468 185.543625 -10.365678 
527744945386162 40.773468 185.543625 -10.365678 
527744951123871 40.773468 185.543625 -10.365678 
527744970917985 40.773468 185.543625 -10.365678 
527744990916110 40.773468 185.543625 -10.365678 
527745010916631 40.773468 185.543625 -10.365678 
527745030915121 40.773468 185.543625 -10.365678 
527745050915433 40.773468 185.543625 -10.365678 
527745070915902 40.773468 185.543625 -10.365678 
527745090915485 40.773468 185.543625 -10.365678 
527745110916475 40.773468 185.543625 -10.365678 
527745130922777 40.773468 185.543625 -10.365678 
527745150916578 40.773468 185.543625 -10.365678 
527745170915953 40.773468 185.543625 -10.365678 
527745190915537 40.773468 185.543625 -10.365678 
527745210915120 40.773468 185.543625 -10.365678 
527745230916423 40.773468 185.543625 -10.365678 
527745250916371 40.773468 185.543625 -10.365678 
527745270916787 40.773468 185.543625 -10.365678 
527745290916579 40.773468 185.543625 -10.365678 
527745310918297 40.773468 185.543625 -10.365678 
527745330915953 40.773468 185.543625 -10.365678 
527745350919444 40.773468 185.543625 -10.365678 
527745370915902 40.773468 185.543625 -10.365678 
527745390917099 40.773468 185.543625 -10.365678 
527745410916266 40.773468 185.543625 -10.365678 
527745430916839 40.773468 185.543625 -10.365678 
527745445640173 40.773468 185.543625 -10.365678 
527745450916371 40.773468 185.543625 -10.365678 
527745470919027 40.773468 185.543625 -10.365678 
527745490917777 40.773468 185.543625 -10.365678 
527745510915849 40.773468 185.543625 -10.365678 
527745530915797 40.773468 185.543625 -10.365678 
527745550915693 40.773468 185.543625 -10.365678 
527745570915538 40.773468 185.543625 -10.365678 
527745590915902 40.773468 185.543625 -10.365678 
527745610915381 40.773468 185.543625 -10.365678 
527745630927881 40.773468 185.543625 -10.365678 
527745650929808 40.773468 185.543625 -10.365678 
527745670920329 40.773468 185.543625 -10.365678 
527745690917567 40.773468 185.543625 -10.365678 
527745710917256 40.773468 185.543625 -10.365678 
527745730917204 40.773468 185.543625 -10.365678 
527745750917307 40.773468 185.543625 -10.365678 
527745770915849 40.773468 185.543625 -10.365678 
527745790915797 40.773468 185.543625 -10.365678 
527745810922047 40.773468 185.543625 -10.365678 
527745830915954 40.773468 185.543625 -10.365678 
527745850916215 40.773468 185.543625 -10.365678 
527745870914807 40.773468 185.543625 -10.365678 
527745890915068 40.773468 185.543625 -10.365678 
527745910916162 40.773468 185.543625 -10.365678 
527745930915589 40.773468 185.543625 -10.365678 
527745951123349 40.773468 185.543625 -10.365678 
527745970915745 40.773468 185.543625 -10.365678 
527745990916058 40.773468 185.543625 -10.365678 
527746010915641 40.773468 185.543625 -10.365678 
527746030915901 40.773468 185.543625 -10.365678 
527746050916005 40.773468 185.543625 -10.365678 
527746070915745 40.773468 185.543625 -10.365678 
527746090915433 40.773468 185.543625 -10.365678 
527746110916475 40.773468 185.543625 -10.365678 
527746130916370 40.773468 185.543625 -10.365678 
527746150915745 40.773468 185.543625 -10.365678 
527746170918193 40.773468 185.543625 -10.365678 
527746190916006 40.773468 185.543625 -10.365678 
527746210923296 40.773468 185.543625 -10.365678 
527746230916370 40.773468 185.543625 -10.365678 
527746250915485 40.773468 185.543625 -10.365678 
527746270916422 40.773468 185.543625 -10.365678 
527746290915589 40.773468 185.543625 -10.365678 
527746310915641 40.773468 185.543625 -10.365678 
527746330915536 40.773468 185.543625 -10.365678 
527746350917516 40.773468 185.543625 -10.365678 
527746370916370 40.773468 185.543625 -10.365678 
527746390916109 40.773468 185.543625 -10.365678 
527746410915901 40.773468 185.543625 -10.365678 
527746430915485 40.773468 185.543625 -10.365678 
527746445541214 40.773468 185.543625 -10.365678 
527746450916318 40.773468 185.543625 -10.365678 
527746470917620 40.773468 185.543625 -10.365678 
527746490917047 40.773468 185.543625 -10.365678 
527746510916370 40.773468 185.543625 -10.365678 
527746530916422 40.773468 185.543625 -10.365678 
527746550915797 40.773468 185.543625 -10.365678 
527746570915849 40.773468 185.543625 -10.365678 
527746590916110 40.773468 185.543625 -10.365678 
527746610918662 40.773468 185.543625 -10.365678 
527746630915796 40.773468 185.543625 -10.365678 
527746650916890 40.773468 185.543625 -10.365678 
527746670917204 40.773468 185.543625 -10.365678 
527746690916631 40.773468 185.543625 -10.365678 
527746710926370 40.773468 185.543625 -10.365678 
527746731272516 40.773468 185.543625 -10.365678 
527746750920849 40.773468 185.543625 -10.365678 
527746770918296 40.773468 185.543625 -10.365678 
527746790915641 40.773468 185.543625 -10.365678 
527746810915849 40.773468 185.543625 -10.365678 
527746830916891 40.773468 185.543625 -10.365678 
527746850974808 40.773468 185.543625 -10.365678 
527746870918506 40.773468 185.543625 -10.365678 
527746890915329 40.773468 185.543625 -10.365678 
527746910915797 40.773468 185.543625 -10.365678 
527746930915797 40.773468 185.543625 -10.365678 
527746945117464 40.773468 185.543625 -10.365678 
527746951129807 40.773468 185.543625 -10.365678 
527746970916109 40.773468 185.543625 -10.365678 
527746990916109 40.773468 185.543625 -10.365678 
527747010915484 40.773468 185.543625 -10.365678 
527747030922151 40.773468 185.543625 -10.365678 
527747050915954 40.773468 185.543625 -10.365678 
527747070915745 40.773468 185.543625 -10.365678 
527747091201369 40.773468 185.543625 -10.365678 
527747110964182 40.773468 185.543625 -10.365678 
527747130915224 40.773468 185.543625 -10.365678 
527747150915796 40.773468 185.543625 -10.365678 
527747170915849 40.773468 185.543625 -10.365678 
527747190916318 40.773468 185.543625 -10.365678 
527747210915745 40.773468 185.543625 -10.365678 
527747230916369 40.773468 185.543625 -10.365678 
527747250915744 40.773468 185.543625 -10.365678 
527747270915745 40.773468 185.543625 -10.365678 
527747290915745 40.773468 185.543625 -10.365678 
527747310922568 40.773468 185.543625 -10.365678 
527747330916214 40.773468 185.543625 -10.365678 
527747350915485 40.773468 185.543625 -10.365678 
527747370915746 40.773468 185.543625 -10.365678 
527747390915537 40.773468 185.543625 -10.365678 
527747410915641 40.773468 185.543625 -10.365678 
527747430931317 40.773468 185.543625 -10.365678 
527747445387411 40.773468 185.543625 -10.365678 
527747451155328 40.773468 185.543625 -10.365678 
527747470962984 40.773468 185.543625 -10.365678 
527747490915692 40.773468 185.543625 -10.365678 
527747510915483 40.773468 185.543625 -10.365678 
527747530915901 40.773468 185.543625 -10.365678 
527747550917308 40.773468 185.543625 -10.365678 
527747570915329 40.773468 185.543625 -10.365678 
527747590916109 40.773468 185.543625 -10.365678 
527747610915901 40.773468 185.543625 -10.365678 
527747630915796 40.773468 185.543625 -10.365678 
527747650915381 40.773468 185.543625 -10.365678 
527747670916161 40.773468 185.543625 -10.365678 
527747690915328 40.773468 185.543625 -10.365678 
527747710915952 40.773468 185.543625 -10.365678 
527747730916161 40.773468 185.543625 -10.365678 
527747750915171 40.773468 185.543625 -10.365678 
