# Created at Thu Nov 07 18:47:27 EST 2019 in Burnaby Canada 
523691407345394 -0.006126 -0.005372 0.007798 
523691427912946 -0.006126 -0.005372 0.007798 
523691448481123 -0.006126 -0.005372 0.007798 
523691469049561 -0.006126 -0.005372 0.007798 
523691489618675 -0.006126 -0.005372 0.007798 
523691510187164 -0.006126 -0.005372 0.007798 
523691530756175 -0.006126 -0.005372 0.007798 
523691551324873 -0.006126 -0.005372 0.007798 
523691571894456 -0.006126 -0.005372 0.007798 
523691592463207 -0.006126 -0.005372 0.007798 
523691613031279 -0.006126 -0.005372 0.007798 
523691633600029 -0.006126 -0.005372 0.007798 
523691654168726 -0.006126 -0.005372 0.007798 
523691674737476 -0.006126 -0.005372 0.007798 
523691695306070 -0.006126 -0.005372 0.007798 
523691715874820 -0.006126 -0.005372 0.007798 
523691736443936 -0.006126 -0.005372 0.007798 
523691757012738 -0.006126 -0.005372 0.007798 
523691777581383 -0.006126 -0.005372 0.007798 
523691798150133 -0.006126 -0.005372 0.007798 
523691818718988 -0.006126 -0.005372 0.007798 
523691839287790 -0.006126 -0.005372 0.007798 
523691859856488 -0.006126 -0.005372 0.007798 
523691880425290 -0.006126 -0.005372 0.007798 
523691900994040 -0.006126 -0.005372 0.007798 
523691921562842 -0.006126 -0.005372 0.007798 
523691942131591 -0.006126 -0.005372 0.007798 
523691962700393 -0.006126 -0.005372 0.007798 
523691983269039 -0.006126 -0.005372 0.007798 
523692003837841 -0.006126 -0.005372 0.007798 
523692024406904 -0.006126 -0.005372 0.007798 
523692044975705 -0.006126 -0.005372 0.007798 
523692065544352 -0.006126 -0.005372 0.007798 
523692086113362 -0.006126 -0.005372 0.007798 
523692106682112 -0.006126 -0.005372 0.007798 
523692127251123 -0.006126 -0.005372 0.007798 
523692147820185 -0.006126 -0.005372 0.007798 
523692168389040 -0.006126 -0.005372 0.007798 
523692188957790 -0.006126 -0.005372 0.007798 
523692209526799 -0.006126 -0.005372 0.007798 
523692230094924 -0.006126 -0.005372 0.007798 
523692250663675 -0.006126 -0.005372 0.007798 
523692271233206 -0.006126 -0.005372 0.007798 
523692291802737 -0.006126 -0.005372 0.007798 
523692312371122 -0.006126 -0.005372 0.007798 
523692332939873 -0.006126 -0.005372 0.007798 
523692353507580 -0.006126 -0.005372 0.007798 
523692374076644 -0.006126 -0.005372 0.007798 
523692394644978 -0.006126 -0.005372 0.007798 
523692415213831 -0.006126 -0.005372 0.007798 
523692435782633 -0.006126 -0.005372 0.007798 
523692456351383 -0.006126 -0.005372 0.007798 
523692476920185 -0.006126 -0.005372 0.007798 
523692497489456 -0.006126 -0.005372 0.007798 
523692518058258 -0.006126 -0.005372 0.007798 
523692538627008 -0.006126 -0.005372 0.007798 
523692559195810 -0.006126 -0.005372 0.007798 
523692579764716 -0.006126 -0.005372 0.007798 
523692600333518 -0.006126 -0.005372 0.007798 
523692620902477 -0.006126 -0.005372 0.007798 
523692641471280 -0.006126 -0.005372 0.007798 
523692662040029 -0.006126 -0.005372 0.007798 
523692682608831 -0.006126 -0.005372 0.007798 
523692703177373 -0.006126 -0.005372 0.007798 
523692723746175 -0.006126 -0.005372 0.007798 
523692744314873 -0.006126 -0.005372 0.007798 
523692764883675 -0.006126 -0.005372 0.007798 
523692785453258 -0.006126 -0.005372 0.007798 
523692806023205 -0.006126 -0.005372 0.007798 
523692826591383 -0.006126 -0.005372 0.007798 
523692847159872 -0.006126 -0.005372 0.007798 
523692867728726 -0.006126 -0.005372 0.007798 
523692888297582 -0.006126 -0.005372 0.007798 
523692908865758 -0.006126 -0.005372 0.007798 
523692929434040 -0.006126 -0.005372 0.007798 
523692950004247 -0.006126 -0.005372 0.007798 
523692970571852 -0.006126 -0.005372 0.007798 
523692991140966 -0.006126 -0.005372 0.007798 
523693011709560 -0.006126 -0.005372 0.007798 
523693032278466 -0.006126 -0.005372 0.007798 
523693052847111 -0.006126 -0.005372 0.007798 
523693073416487 -0.006126 -0.005372 0.007798 
523693093984977 -0.006126 -0.005372 0.007798 
523693114554143 -0.006126 -0.005372 0.007798 
523693135122476 -0.006126 -0.005372 0.007798 
523693155691278 -0.006126 -0.005372 0.007798 
523693176260914 -0.006126 -0.005372 0.007798 
523693196829716 -0.006126 -0.005372 0.007798 
523693217397789 -0.006126 -0.005372 0.007798 
523693237966591 -0.006126 -0.005372 0.007798 
523693258536174 -0.006126 -0.005372 0.007798 
523693279105029 -0.006126 -0.005372 0.007798 
523693299674196 -0.006126 -0.005372 0.007798 
523693320242998 -0.006126 -0.005372 0.007798 
523693340811487 -0.006126 -0.005372 0.007798 
523693361380289 -0.006126 -0.005372 0.007798 
523693381950445 -0.006126 -0.005372 0.007798 
523693402519299 -0.006126 -0.005372 0.007798 
523693423086955 -0.006126 -0.005372 0.007798 
523693443655757 -0.006126 -0.005372 0.007798 
523693464225029 -0.006126 -0.005372 0.007798 
523693484793831 -0.006126 -0.005372 0.007798 
523693505363154 -0.006126 -0.005372 0.007798 
523693525931695 -0.006126 -0.005372 0.007798 
523693546499039 -0.006126 -0.005372 0.007798 
523693567068466 -0.006126 -0.005372 0.007798 
523693587636226 -0.006126 -0.005372 0.007798 
523693608205757 -0.006126 -0.005372 0.007798 
523693628773830 -0.006126 -0.005372 0.007798 
523693649342998 -0.006126 -0.005372 0.007798 
523693669912268 -0.006126 -0.005372 0.007798 
523693690480706 -0.006126 -0.005372 0.007798 
523693711049091 -0.006126 -0.005372 0.007798 
523693731618727 -0.006126 -0.005372 0.007798 
523693752186956 -0.006126 -0.005372 0.007798 
523693772757059 -0.006126 -0.005372 0.007798 
523693793326799 -0.006126 -0.005372 0.007798 
523693813894820 -0.006126 -0.005372 0.007798 
523693834463830 -0.006126 -0.005372 0.007798 
523693855031383 -0.006126 -0.005372 0.007798 
523693875600237 -0.006126 -0.005372 0.007798 
523693896168778 -0.006126 -0.005372 0.007798 
523693916737580 -0.006126 -0.005372 0.007798 
523693937306174 -0.006126 -0.005372 0.007798 
523693957874976 -0.006126 -0.005372 0.007798 
523693978445289 -0.006126 -0.005372 0.007798 
523693999014143 -0.006126 -0.005372 0.007798 
523694019584299 -0.006126 -0.005372 0.007798 
523694040153101 -0.006126 -0.005372 0.007798 
523694060720132 -0.006126 -0.005372 0.007798 
523694081288986 -0.006126 -0.005372 0.007798 
523694101857736 -0.006126 -0.005372 0.007798 
523694122426591 -0.006126 -0.005372 0.007798 
523694142995653 -0.006126 -0.005372 0.007798 
523694163564455 -0.006126 -0.005372 0.007798 
523694184132737 -0.006126 -0.005372 0.007798 
523694204701539 -0.006126 -0.005372 0.007798 
523694225270236 -0.006126 -0.005372 0.007798 
523694245839715 -0.006126 -0.005372 0.007798 
523694266407893 -0.006126 -0.005372 0.007798 
523694286977216 -0.006126 -0.005372 0.007798 
523694307546278 -0.006126 -0.005372 0.007798 
523694328115705 -0.006126 -0.005372 0.007798 
523694348683413 -0.006126 -0.005372 0.007798 
523694369251903 -0.006126 -0.005372 0.007798 
523694389820756 -0.006126 -0.005372 0.007798 
523694410390289 -0.006126 -0.005372 0.007798 
523694430959716 -0.006126 -0.005372 0.007798 
523694451531435 -0.006126 -0.005372 0.007798 
523694472098049 -0.006126 -0.005372 0.007798 
523694492666330 -0.006126 -0.005372 0.007798 
523694513234715 -0.006126 -0.005372 0.007798 
523694533804038 -0.006126 -0.005372 0.007798 
523694554372059 -0.006126 -0.005372 0.007798 
523694574940654 -0.006126 -0.005372 0.007798 
523694595509508 -0.006126 -0.005372 0.007798 
523694616078361 -0.006126 -0.005372 0.007798 
523694636647163 -0.006126 -0.005372 0.007798 
523694657216590 -0.006126 -0.005372 0.007798 
523694677785444 -0.006126 -0.005372 0.007798 
523694698353987 -0.006126 -0.005372 0.007798 
523694718922789 -0.006126 -0.005372 0.007798 
523694739492215 -0.006126 -0.005372 0.007798 
523694760061069 -0.006126 -0.005372 0.007798 
523694780629507 -0.006126 -0.005372 0.007798 
523694801198361 -0.006126 -0.005372 0.007798 
523694821768258 -0.006126 -0.005372 0.007798 
523694842337060 -0.006126 -0.005372 0.007798 
523694862905862 -0.006126 -0.005372 0.007798 
523694883474716 -0.006126 -0.005372 0.007798 
523694904042996 -0.006126 -0.005372 0.007798 
523694924611850 -0.006126 -0.005372 0.007798 
523694945182892 -0.006126 -0.005372 0.007798 
523694965748309 -0.006126 -0.005372 0.007798 
523694986317528 -0.006126 -0.005372 0.007798 
523695006886330 -0.006126 -0.005372 0.007798 
523695027455549 -0.006126 -0.005372 0.007798 
523695048025340 -0.006126 -0.005372 0.007798 
523695068592788 -0.006126 -0.005372 0.007798 
523695089163049 -0.006126 -0.005372 0.007798 
523695109731330 -0.006126 -0.005372 0.007798 
523695130299507 -0.006126 -0.005372 0.007798 
523695150867736 -0.006126 -0.005372 0.007798 
523695171437268 -0.006126 -0.005372 0.007798 
523695192006122 -0.006126 -0.005372 0.007798 
523695212574507 -0.006126 -0.005372 0.007798 
523695233143258 -0.006126 -0.005372 0.007798 
523695253712632 -0.006126 -0.005372 0.007798 
523695274281643 -0.006126 -0.005372 0.007798 
523695294852215 -0.006126 -0.005372 0.007798 
523695315421069 -0.006126 -0.005372 0.007798 
523695335989559 -0.006126 -0.005372 0.007798 
523695356558414 -0.006126 -0.005372 0.007798 
523695377125653 -0.006126 -0.005372 0.007798 
523695397694507 -0.006126 -0.005372 0.007798 
523695418263726 -0.006126 -0.005372 0.007798 
523695438832580 -0.006126 -0.005372 0.007798 
523695459402215 -0.006126 -0.005372 0.007798 
523695479971069 -0.006126 -0.005372 0.007798 
523695500539351 -0.006126 -0.005372 0.007798 
523695521108205 -0.006126 -0.005372 0.007798 
523695541677320 -0.006126 -0.005372 0.007798 
523695562246174 -0.006126 -0.005372 0.007798 
523695582814610 -0.006126 -0.005372 0.007798 
523695603383464 -0.006126 -0.005372 0.007798 
523695623952267 -0.006126 -0.005372 0.007798 
523695644521121 -0.006126 -0.005372 0.007798 
523695665089143 -0.006126 -0.005372 0.007798 
523695685659351 -0.006126 -0.005372 0.007798 
523695706227059 -0.006126 -0.005372 0.007798 
523695726796589 -0.006126 -0.005372 0.007798 
523695747365549 -0.006126 -0.005372 0.007798 
523695767934194 -0.006126 -0.005372 0.007798 
523695788503049 -0.006126 -0.005372 0.007798 
523695809073361 -0.006126 -0.005372 0.007798 
523695829642110 -0.006126 -0.005372 0.007798 
523695850210912 -0.006126 -0.005372 0.007798 
523695870779924 -0.006126 -0.005372 0.007798 
523695891347424 -0.006126 -0.005372 0.007798 
523695911916538 -0.006126 -0.005372 0.007798 
523695932487215 -0.006126 -0.005372 0.007798 
523695953054350 -0.006126 -0.005372 0.007798 
523695973622787 -0.006126 -0.005372 0.007798 
523695994191643 -0.006126 -0.005372 0.007798 
523696014761018 -0.006126 -0.005372 0.007798 
523696035329872 -0.006126 -0.005372 0.007798 
523696055897423 -0.006126 -0.005372 0.007798 
523696076466277 -0.006126 -0.005372 0.007798 
523696097035652 -0.006126 -0.005372 0.007798 
523696117604507 -0.006126 -0.005372 0.007798 
523696138173413 -0.006126 -0.005372 0.007798 
523696158742267 -0.006126 -0.005372 0.007798 
523696179311434 -0.006126 -0.005372 0.007798 
523696199880288 -0.006126 -0.005372 0.007798 
523696220448516 -0.006126 -0.005372 0.007798 
523696241017318 -0.006126 -0.005372 0.007798 
523696261586226 -0.006126 -0.005372 0.007798 
523696282155080 -0.006126 -0.005372 0.007798 
523696302724455 -0.006126 -0.005372 0.007798 
523696323293309 -0.006126 -0.005372 0.007798 
523696343863152 -0.006126 -0.005372 0.007798 
523696364432006 -0.006126 -0.005372 0.007798 
523696385000393 -0.006126 -0.005372 0.007798 
523696405569247 -0.006126 -0.005372 0.007798 
523696426138152 -0.006126 -0.005372 0.007798 
523696446708205 -0.006126 -0.005372 0.007798 
523696467275652 -0.006126 -0.005372 0.007798 
523696487846382 -0.006126 -0.005372 0.007798 
523696508414559 -0.006126 -0.005372 0.007798 
523696528982632 -0.006126 -0.005372 0.007798 
523696549551173 -0.006126 -0.005372 0.007798 
523696570121017 -0.006126 -0.005372 0.007798 
523696590688204 -0.006126 -0.005372 0.007798 
523696611257266 -0.006126 -0.005372 0.007798 
523696631826642 -0.006126 -0.005372 0.007798 
523696652396538 -0.006126 -0.005372 0.007798 
523696672965704 -0.006126 -0.005372 0.007798 
523696693534194 -0.006126 -0.005372 0.007798 
523696714101017 -0.006126 -0.005372 0.007798 
523696734669818 -0.006126 -0.005372 0.007798 
523696755238673 -0.006126 -0.005372 0.007798 
523696775807579 -0.006126 -0.005372 0.007798 
523696796376433 -0.006126 -0.005372 0.007798 
523696816947006 -0.006126 -0.005372 0.007798 
523696837515860 -0.006126 -0.005372 0.007798 
523696858084506 -0.006126 -0.005372 0.007798 
523696878653361 -0.006126 -0.005372 0.007798 
523696899219663 -0.006126 -0.005372 0.007798 
523696919788465 -0.006126 -0.005372 0.007798 
523696940358725 -0.006126 -0.005372 0.007798 
523696960927579 -0.006126 -0.005372 0.007798 
523696981496277 -0.006126 -0.005372 0.007798 
523697002065131 -0.006126 -0.005372 0.007798 
523697022633777 -0.006126 -0.005372 0.007798 
523697043202631 -0.006126 -0.005372 0.007798 
523697063771329 -0.006126 -0.005372 0.007798 
523697084340131 -0.006126 -0.005372 0.007798 
523697104910340 -0.006126 -0.005372 0.007798 
523697125479194 -0.006126 -0.005372 0.007798 
523697146046902 -0.006126 -0.005372 0.007798 
523697166615391 -0.006126 -0.005372 0.007798 
523697187184038 -0.006126 -0.005372 0.007798 
523697207753204 -0.006126 -0.005372 0.007798 
523697228321589 -0.006126 -0.005372 0.007798 
523697248890704 -0.006126 -0.005372 0.007798 
523697269459402 -0.006126 -0.005372 0.007798 
523697290028830 -0.006126 -0.005372 0.007798 
523697310596954 -0.006126 -0.005372 0.007798 
523697331166329 -0.006126 -0.005372 0.007798 
523697351735026 -0.006126 -0.005372 0.007798 
523697372303673 -0.006126 -0.005372 0.007798 
523697392872370 -0.006126 -0.005372 0.007798 
523697413441225 -0.006126 -0.005372 0.007798 
523697434010340 -0.006126 -0.005372 0.007798 
523697454579298 -0.006126 -0.005372 0.007798 
523697475148100 -0.006126 -0.005372 0.007798 
523697495718308 -0.006126 -0.005372 0.007798 
523697516287162 -0.006126 -0.005372 0.007798 
523697536855131 -0.006126 -0.005372 0.007798 
523697557423986 -0.006126 -0.005372 0.007798 
523697577992371 -0.006126 -0.005372 0.007798 
523697598561173 -0.006126 -0.005372 0.007798 
523697619130339 -0.006126 -0.005372 0.007798 
523697639699193 -0.006126 -0.005372 0.007798 
523697660267735 -0.006126 -0.005372 0.007798 
523697680836590 -0.006126 -0.005372 0.007798 
523697701406120 -0.006126 -0.005372 0.007798 
523697721974922 -0.006126 -0.005372 0.007798 
523697742543100 -0.006126 -0.005372 0.007798 
523697763111954 -0.006126 -0.005372 0.007798 
523697783681954 -0.006126 -0.005372 0.007798 
523697804250808 -0.006126 -0.005372 0.007798 
523697824820288 -0.006126 -0.005372 0.007798 
523697845389142 -0.006126 -0.005372 0.007798 
523697865957527 -0.006126 -0.005372 0.007798 
523697886526172 -0.006126 -0.005372 0.007798 
523697907094714 -0.006126 -0.005372 0.007798 
523697927663880 -0.006126 -0.005372 0.007798 
523697948232995 -0.006126 -0.005372 0.007798 
523697968801694 -0.006126 -0.005372 0.007798 
523697989370496 -0.006126 -0.005372 0.007798 
523698009938568 -0.006126 -0.005372 0.007798 
523698030507631 -0.006126 -0.005372 0.007798 
523698051076589 -0.006126 -0.005372 0.007798 
523698071645235 -0.006126 -0.005372 0.007798 
523698092215809 -0.006126 -0.005372 0.007798 
523698112782943 -0.006126 -0.005372 0.007798 
523698133352267 -0.006126 -0.005372 0.007798 
523698153921381 -0.006126 -0.005372 0.007798 
523698174493412 -0.006126 -0.005372 0.007798 
523698195058516 -0.006126 -0.005372 0.007798 
523698215628203 -0.006126 -0.005372 0.007798 
523698236197006 -0.006126 -0.005372 0.007798 
523698256765392 -0.006126 -0.005372 0.007798 
523698277334246 -0.006126 -0.005372 0.007798 
523698297903360 -0.006126 -0.005372 0.007798 
523698318472214 -0.006126 -0.005372 0.007798 
523698339041224 -0.006126 -0.005372 0.007798 
523698359610078 -0.006126 -0.005372 0.007798 
523698380178309 -0.006126 -0.005372 0.007798 
523698400747163 -0.006126 -0.005372 0.007798 
523698421314402 -0.006126 -0.005372 0.007798 
523698441883256 -0.006126 -0.005372 0.007798 
523698462452370 -0.006126 -0.005372 0.007798 
523698483021224 -0.006126 -0.005372 0.007798 
523698503590391 -0.006126 -0.005372 0.007798 
523698524159193 -0.006126 -0.005372 0.007798 
523698544729819 -0.006126 -0.005372 0.007798 
523698565298673 -0.006126 -0.005372 0.007798 
523698585865391 -0.006126 -0.005372 0.007798 
523698606434818 -0.006126 -0.005372 0.007798 
523698627003151 -0.006126 -0.005372 0.007798 
523698647572163 -0.006126 -0.005372 0.007798 
523698668141537 -0.006126 -0.005372 0.007798 
523698688709922 -0.006126 -0.005372 0.007798 
523698709280547 -0.006126 -0.005372 0.007798 
523698729848724 -0.006126 -0.005372 0.007798 
523698750416901 -0.006126 -0.005372 0.007798 
523698770987839 -0.006126 -0.005372 0.007798 
523698791557111 -0.006126 -0.005372 0.007798 
523698812125548 -0.006126 -0.005372 0.007798 
523698832693412 -0.006126 -0.005372 0.007798 
523698853261746 -0.006126 -0.005372 0.007798 
523698873830860 -0.006126 -0.005372 0.007798 
523698894399036 -0.006126 -0.005372 0.007798 
523698914967421 -0.006126 -0.005372 0.007798 
523698935536017 -0.006126 -0.005372 0.007798 
523698956104819 -0.006126 -0.005372 0.007798 
523698976673933 -0.006126 -0.005372 0.007798 
523698997242787 -0.006126 -0.005372 0.007798 
523699017812682 -0.006126 -0.005372 0.007798 
523699038381536 -0.006126 -0.005372 0.007798 
523699058949193 -0.006126 -0.005372 0.007798 
523699079517995 -0.006126 -0.005372 0.007798 
523699100088985 -0.006126 -0.005372 0.007798 
