# Created at Thu Nov 07 17:58:21 EST 2019 in Burnaby Canada 
520745229933446 0.003797 -0.003950 0.006214 
520745250500790 0.003797 -0.003950 0.006214 
520745271068447 0.003797 -0.003950 0.006214 
520745291636415 0.003797 -0.003950 0.006214 
520745312205321 0.003797 -0.003950 0.006214 
520745332773134 0.003797 -0.003950 0.006214 
520745353342457 0.003797 -0.003950 0.006214 
520745373910165 0.003797 -0.003950 0.006214 
520745394478134 0.003797 -0.003950 0.006214 
520745415045999 0.003797 -0.003950 0.006214 
520745435614748 0.003797 -0.003950 0.006214 
520745456182821 0.003797 -0.003950 0.006214 
520745476751259 0.003797 -0.003950 0.006214 
520745497319280 0.003797 -0.003950 0.006214 
520745517887873 0.003797 -0.003950 0.006214 
520745538455946 0.003797 -0.003950 0.006214 
520745559024487 0.003797 -0.003950 0.006214 
520745579592353 0.003797 -0.003950 0.006214 
520745600160790 0.003797 -0.003950 0.006214 
520745620729019 0.003797 -0.003950 0.006214 
520745641297561 0.003797 -0.003950 0.006214 
520745661865634 0.003797 -0.003950 0.006214 
520745682434488 0.003797 -0.003950 0.006214 
520745703002248 0.003797 -0.003950 0.006214 
520745723570687 0.003797 -0.003950 0.006214 
520745744138655 0.003797 -0.003950 0.006214 
520745764707613 0.003797 -0.003950 0.006214 
520745785275164 0.003797 -0.003950 0.006214 
520745805843707 0.003797 -0.003950 0.006214 
520745826411831 0.003797 -0.003950 0.006214 
520745846980529 0.003797 -0.003950 0.006214 
520745867548497 0.003797 -0.003950 0.006214 
520745888117092 0.003797 -0.003950 0.006214 
520745908685061 0.003797 -0.003950 0.006214 
520745929253603 0.003797 -0.003950 0.006214 
520745949821674 0.003797 -0.003950 0.006214 
520745970389853 0.003797 -0.003950 0.006214 
520745990958446 0.003797 -0.003950 0.006214 
520746011526467 0.003797 -0.003950 0.006214 
520746032094852 0.003797 -0.003950 0.006214 
520746052663030 0.003797 -0.003950 0.006214 
520746073234175 0.003797 -0.003950 0.006214 
520746093801935 0.003797 -0.003950 0.006214 
520746114370529 0.003797 -0.003950 0.006214 
520746134938654 0.003797 -0.003950 0.006214 
520746155506779 0.003797 -0.003950 0.006214 
520746176074487 0.003797 -0.003950 0.006214 
520746196642978 0.003797 -0.003950 0.006214 
520746217210217 0.003797 -0.003950 0.006214 
520746237780789 0.003797 -0.003950 0.006214 
520746258347716 0.003797 -0.003950 0.006214 
520746278916676 0.003797 -0.003950 0.006214 
520746299484384 0.003797 -0.003950 0.006214 
520746320051988 0.003797 -0.003950 0.006214 
520746340619591 0.003797 -0.003950 0.006214 
520746361187977 0.003797 -0.003950 0.006214 
520746381755998 0.003797 -0.003950 0.006214 
520746402325946 0.003797 -0.003950 0.006214 
520746422893290 0.003797 -0.003950 0.006214 
520746443462040 0.003797 -0.003950 0.006214 
520746464029436 0.003797 -0.003950 0.006214 
520746484598549 0.003797 -0.003950 0.006214 
520746505166310 0.003797 -0.003950 0.006214 
520746525735061 0.003797 -0.003950 0.006214 
520746546302299 0.003797 -0.003950 0.006214 
520746566871623 0.003797 -0.003950 0.006214 
520746587439644 0.003797 -0.003950 0.006214 
520746608007612 0.003797 -0.003950 0.006214 
520746628575530 0.003797 -0.003950 0.006214 
520746649146519 0.003797 -0.003950 0.006214 
520746669714591 0.003797 -0.003950 0.006214 
520746690282404 0.003797 -0.003950 0.006214 
520746710850633 0.003797 -0.003950 0.006214 
520746731418966 0.003797 -0.003950 0.006214 
520746751986102 0.003797 -0.003950 0.006214 
520746772553707 0.003797 -0.003950 0.006214 
520746793122091 0.003797 -0.003950 0.006214 
520746813690528 0.003797 -0.003950 0.006214 
520746834258863 0.003797 -0.003950 0.006214 
520746854826883 0.003797 -0.003950 0.006214 
520746875395373 0.003797 -0.003950 0.006214 
520746895963707 0.003797 -0.003950 0.006214 
520746916531987 0.003797 -0.003950 0.006214 
520746937100424 0.003797 -0.003950 0.006214 
520746957669384 0.003797 -0.003950 0.006214 
520746978236987 0.003797 -0.003950 0.006214 
520746998806206 0.003797 -0.003950 0.006214 
520747019373602 0.003797 -0.003950 0.006214 
520747039942509 0.003797 -0.003950 0.006214 
520747060510268 0.003797 -0.003950 0.006214 
520747081078706 0.003797 -0.003950 0.006214 
520747101646884 0.003797 -0.003950 0.006214 
520747122215685 0.003797 -0.003950 0.006214 
520747142783602 0.003797 -0.003950 0.006214 
520747163355894 0.003797 -0.003950 0.006214 
520747183922872 0.003797 -0.003950 0.006214 
520747204492612 0.003797 -0.003950 0.006214 
520747225058654 0.003797 -0.003950 0.006214 
520747245625112 0.003797 -0.003950 0.006214 
520747266193497 0.003797 -0.003950 0.006214 
520747286762039 0.003797 -0.003950 0.006214 
520747307330165 0.003797 -0.003950 0.006214 
520747327899539 0.003797 -0.003950 0.006214 
520747348466883 0.003797 -0.003950 0.006214 
520747369036101 0.003797 -0.003950 0.006214 
520747389604018 0.003797 -0.003950 0.006214 
520747410172091 0.003797 -0.003950 0.006214 
520747430740424 0.003797 -0.003950 0.006214 
520747451308705 0.003797 -0.003950 0.006214 
520747471877717 0.003797 -0.003950 0.006214 
520747492447403 0.003797 -0.003950 0.006214 
520747513014278 0.003797 -0.003950 0.006214 
520747533582561 0.003797 -0.003950 0.006214 
520747554150581 0.003797 -0.003950 0.006214 
520747574718550 0.003797 -0.003950 0.006214 
520747595288445 0.003797 -0.003950 0.006214 
520747615855216 0.003797 -0.003950 0.006214 
520747636423706 0.003797 -0.003950 0.006214 
520747656992091 0.003797 -0.003950 0.006214 
520747677561674 0.003797 -0.003950 0.006214 
520747698129175 0.003797 -0.003950 0.006214 
520747718697873 0.003797 -0.003950 0.006214 
520747739265841 0.003797 -0.003950 0.006214 
520747759833863 0.003797 -0.003950 0.006214 
520747780401935 0.003797 -0.003950 0.006214 
520747800970424 0.003797 -0.003950 0.006214 
520747821538602 0.003797 -0.003950 0.006214 
520747842107299 0.003797 -0.003950 0.006214 
520747862675372 0.003797 -0.003950 0.006214 
520747883244070 0.003797 -0.003950 0.006214 
520747903812143 0.003797 -0.003950 0.006214 
520747924381258 0.003797 -0.003950 0.006214 
520747944948758 0.003797 -0.003950 0.006214 
520747965518758 0.003797 -0.003950 0.006214 
520747986086310 0.003797 -0.003950 0.006214 
520748006655632 0.003797 -0.003950 0.006214 
520748027222768 0.003797 -0.003950 0.006214 
520748047792612 0.003797 -0.003950 0.006214 
520748068360789 0.003797 -0.003950 0.006214 
520748088928081 0.003797 -0.003950 0.006214 
520748109495998 0.003797 -0.003950 0.006214 
520748130065632 0.003797 -0.003950 0.006214 
520748150633965 0.003797 -0.003950 0.006214 
520748171202560 0.003797 -0.003950 0.006214 
520748191771935 0.003797 -0.003950 0.006214 
520748212339071 0.003797 -0.003950 0.006214 
520748232906518 0.003797 -0.003950 0.006214 
520748253475737 0.003797 -0.003950 0.006214 
520748274044175 0.003797 -0.003950 0.006214 
520748294612143 0.003797 -0.003950 0.006214 
520748315179851 0.003797 -0.003950 0.006214 
520748335748133 0.003797 -0.003950 0.006214 
520748356316206 0.003797 -0.003950 0.006214 
520748376885111 0.003797 -0.003950 0.006214 
520748397454071 0.003797 -0.003950 0.006214 
520748418021831 0.003797 -0.003950 0.006214 
520748438591414 0.003797 -0.003950 0.006214 
520748459158341 0.003797 -0.003950 0.006214 
520748479726986 0.003797 -0.003950 0.006214 
520748500294591 0.003797 -0.003950 0.006214 
520748520863133 0.003797 -0.003950 0.006214 
520748541432194 0.003797 -0.003950 0.006214 
520748562000164 0.003797 -0.003950 0.006214 
520748582568237 0.003797 -0.003950 0.006214 
520748603137768 0.003797 -0.003950 0.006214 
520748623705373 0.003797 -0.003950 0.006214 
520748644274226 0.003797 -0.003950 0.006214 
520748664842247 0.003797 -0.003950 0.006214 
520748685412299 0.003797 -0.003950 0.006214 
520748705979695 0.003797 -0.003950 0.006214 
520748726547977 0.003797 -0.003950 0.006214 
520748747116726 0.003797 -0.003950 0.006214 
520748767685424 0.003797 -0.003950 0.006214 
520748788252976 0.003797 -0.003950 0.006214 
520748808821101 0.003797 -0.003950 0.006214 
520748829388706 0.003797 -0.003950 0.006214 
520748849956987 0.003797 -0.003950 0.006214 
520748870525372 0.003797 -0.003950 0.006214 
520748891093653 0.003797 -0.003950 0.006214 
520748911662872 0.003797 -0.003950 0.006214 
520748932230840 0.003797 -0.003950 0.006214 
520748952798966 0.003797 -0.003950 0.006214 
520748973367091 0.003797 -0.003950 0.006214 
520748993935372 0.003797 -0.003950 0.006214 
520749014503706 0.003797 -0.003950 0.006214 
520749035073340 0.003797 -0.003950 0.006214 
520749055641102 0.003797 -0.003950 0.006214 
520749076209694 0.003797 -0.003950 0.006214 
520749096777559 0.003797 -0.003950 0.006214 
520749117347195 0.003797 -0.003950 0.006214 
520749137914174 0.003797 -0.003950 0.006214 
520749158483914 0.003797 -0.003950 0.006214 
520749179052038 0.003797 -0.003950 0.006214 
520749199620528 0.003797 -0.003950 0.006214 
520749220188914 0.003797 -0.003950 0.006214 
520749240758445 0.003797 -0.003950 0.006214 
520749261327091 0.003797 -0.003950 0.006214 
520749281894591 0.003797 -0.003950 0.006214 
520749302460163 0.003797 -0.003950 0.006214 
520749323032664 0.003797 -0.003950 0.006214 
520749343598913 0.003797 -0.003950 0.006214 
520749364168236 0.003797 -0.003950 0.006214 
520749384735632 0.003797 -0.003950 0.006214 
520749405302455 0.003797 -0.003950 0.006214 
520749425870372 0.003797 -0.003950 0.006214 
520749446438601 0.003797 -0.003950 0.006214 
520749467007246 0.003797 -0.003950 0.006214 
520749487577352 0.003797 -0.003950 0.006214 
520749508145111 0.003797 -0.003950 0.006214 
520749528713756 0.003797 -0.003950 0.006214 
520749549281362 0.003797 -0.003950 0.006214 
520749569849330 0.003797 -0.003950 0.006214 
520749590417872 0.003797 -0.003950 0.006214 
520749610985684 0.003797 -0.003950 0.006214 
520749631554538 0.003797 -0.003950 0.006214 
520749652122403 0.003797 -0.003950 0.006214 
520749672692039 0.003797 -0.003950 0.006214 
520749693260058 0.003797 -0.003950 0.006214 
520749713827924 0.003797 -0.003950 0.006214 
520749734396413 0.003797 -0.003950 0.006214 
520749754964435 0.003797 -0.003950 0.006214 
520749775532455 0.003797 -0.003950 0.006214 
520749796101621 0.003797 -0.003950 0.006214 
520749816670424 0.003797 -0.003950 0.006214 
520749837238184 0.003797 -0.003950 0.006214 
520749857806309 0.003797 -0.003950 0.006214 
520749878374851 0.003797 -0.003950 0.006214 
520749898942872 0.003797 -0.003950 0.006214 
520749919511102 0.003797 -0.003950 0.006214 
520749940079382 0.003797 -0.003950 0.006214 
520749960647976 0.003797 -0.003950 0.006214 
520749981216101 0.003797 -0.003950 0.006214 
520750001784799 0.003797 -0.003950 0.006214 
520750022352350 0.003797 -0.003950 0.006214 
520750042922455 0.003797 -0.003950 0.006214 
520750063490580 0.003797 -0.003950 0.006214 
520750084060163 0.003797 -0.003950 0.006214 
520750104627246 0.003797 -0.003950 0.006214 
520750125196778 0.003797 -0.003950 0.006214 
520750145763862 0.003797 -0.003950 0.006214 
520750166333861 0.003797 -0.003950 0.006214 
520750186902559 0.003797 -0.003950 0.006214 
520750207470112 0.003797 -0.003950 0.006214 
520750228038445 0.003797 -0.003950 0.006214 
520750248607663 0.003797 -0.003950 0.006214 
520750269175007 0.003797 -0.003950 0.006214 
520750289742976 0.003797 -0.003950 0.006214 
520750310311153 0.003797 -0.003950 0.006214 
520750330879277 0.003797 -0.003950 0.006214 
520750351447038 0.003797 -0.003950 0.006214 
520750372015164 0.003797 -0.003950 0.006214 
520750392583340 0.003797 -0.003950 0.006214 
520750413151830 0.003797 -0.003950 0.006214 
520750433720788 0.003797 -0.003950 0.006214 
520750454288444 0.003797 -0.003950 0.006214 
520750474857872 0.003797 -0.003950 0.006214 
520750495426621 0.003797 -0.003950 0.006214 
520750515995215 0.003797 -0.003950 0.006214 
520750536562663 0.003797 -0.003950 0.006214 
520750557132767 0.003797 -0.003950 0.006214 
520750577700788 0.003797 -0.003950 0.006214 
520750598269329 0.003797 -0.003950 0.006214 
520750618836881 0.003797 -0.003950 0.006214 
520750639406987 0.003797 -0.003950 0.006214 
520750659971777 0.003797 -0.003950 0.006214 
520750680543183 0.003797 -0.003950 0.006214 
520750701110424 0.003797 -0.003950 0.006214 
520750721679278 0.003797 -0.003950 0.006214 
520750742246933 0.003797 -0.003950 0.006214 
520750762815215 0.003797 -0.003950 0.006214 
520750783383444 0.003797 -0.003950 0.006214 
520750803951361 0.003797 -0.003950 0.006214 
520750824519174 0.003797 -0.003950 0.006214 
520750845089121 0.003797 -0.003950 0.006214 
520750865658601 0.003797 -0.003950 0.006214 
520750886224434 0.003797 -0.003950 0.006214 
520750906793912 0.003797 -0.003950 0.006214 
520750927362559 0.003797 -0.003950 0.006214 
520750947930163 0.003797 -0.003950 0.006214 
520750968500214 0.003797 -0.003950 0.006214 
520750989067402 0.003797 -0.003950 0.006214 
520751009635371 0.003797 -0.003950 0.006214 
520751030203653 0.003797 -0.003950 0.006214 
520751050772246 0.003797 -0.003950 0.006214 
520751071339850 0.003797 -0.003950 0.006214 
520751091907768 0.003797 -0.003950 0.006214 
520751112475892 0.003797 -0.003950 0.006214 
520751133044120 0.003797 -0.003950 0.006214 
520751153612819 0.003797 -0.003950 0.006214 
520751174181465 0.003797 -0.003950 0.006214 
520751194749746 0.003797 -0.003950 0.006214 
520751215317558 0.003797 -0.003950 0.006214 
520751235886308 0.003797 -0.003950 0.006214 
520751256454278 0.003797 -0.003950 0.006214 
520751277023132 0.003797 -0.003950 0.006214 
520751297590891 0.003797 -0.003950 0.006214 
520751318159486 0.003797 -0.003950 0.006214 
520751338727766 0.003797 -0.003950 0.006214 
520751359296881 0.003797 -0.003950 0.006214 
520751379864954 0.003797 -0.003950 0.006214 
