# Created at Thu Nov 07 17:58:21 EST 2019 in Burnaby Canada 
520745230919332 45.002232 190.324265 -6.960118 
520745250918238 45.002232 190.324265 -6.960118 
520745270917769 45.002232 190.324265 -6.960118 
520745290916988 45.002232 190.324265 -6.960118 
520745310917144 45.002232 190.324265 -6.960118 
520745330916623 45.002232 190.324265 -6.960118 
520745350953759 45.002232 190.324265 -6.960118 
520745370918186 45.002232 190.324265 -6.960118 
520745390917821 45.002232 190.324265 -6.960118 
520745410917301 45.002232 190.324265 -6.960118 
520745430917301 45.002232 190.324265 -6.960118 
520745450918706 45.002232 190.324265 -6.960118 
520745470917977 45.002232 190.324265 -6.960118 
520745490917040 45.002232 190.324265 -6.960118 
520745510922301 45.002232 190.324265 -6.960118 
520745530937977 45.002232 190.324265 -6.960118 
520745551290582 45.002232 190.324265 -6.960118 
520745570917144 45.002232 190.324265 -6.960118 
520745590917301 45.002232 190.324265 -6.960118 
520745610919957 45.002232 190.324265 -6.960118 
520745630917092 45.002232 190.324265 -6.960118 
520745650917768 45.002232 190.324265 -6.960118 
520745670916884 45.002232 190.324265 -6.960118 
520745690920634 45.002232 190.324265 -6.960118 
520745710917196 45.002232 190.324265 -6.960118 
520745730917248 45.002232 190.324265 -6.960118 
520745750985478 45.002232 190.324265 -6.960118 
520745770917769 45.002232 190.324265 -6.960118 
520745790917352 45.002232 190.324265 -6.960118 
520745810917665 45.002232 190.324265 -6.960118 
520745830916987 45.002232 190.324265 -6.960118 
520745850953759 45.002232 190.324265 -6.960118 
520745870916935 45.002232 190.324265 -6.960118 
520745890927040 45.002232 190.324265 -6.960118 
520745911216936 45.002232 190.324265 -6.960118 
520745930917664 45.002232 190.324265 -6.960118 
520745951125997 45.002232 190.324265 -6.960118 
520745970917196 45.002232 190.324265 -6.960118 
520745990916519 45.002232 190.324265 -6.960118 
520746010916988 45.002232 190.324265 -6.960118 
520746030925113 45.002232 190.324265 -6.960118 
520746050917196 45.002232 190.324265 -6.960118 
520746070927092 45.002232 190.324265 -6.960118 
520746090919123 45.002232 190.324265 -6.960118 
520746110919435 45.002232 190.324265 -6.960118 
520746130919852 45.002232 190.324265 -6.960118 
520746150919227 45.002232 190.324265 -6.960118 
520746170918706 45.002232 190.324265 -6.960118 
520746190918758 45.002232 190.324265 -6.960118 
520746210917925 45.002232 190.324265 -6.960118 
520746230917613 45.002232 190.324265 -6.960118 
520746250922769 45.002232 190.324265 -6.960118 
520746271179852 45.002232 190.324265 -6.960118 
520746290965634 45.002232 190.324265 -6.960118 
520746310918707 45.002232 190.324265 -6.960118 
520746330917978 45.002232 190.324265 -6.960118 
520746350917300 45.002232 190.324265 -6.960118 
520746370917612 45.002232 190.324265 -6.960118 
520746390917769 45.002232 190.324265 -6.960118 
520746410918394 45.002232 190.324265 -6.960118 
520746430917977 45.002232 190.324265 -6.960118 
520746450918655 45.002232 190.324265 -6.960118 
520746470917665 45.002232 190.324265 -6.960118 
520746490918602 45.002232 190.324265 -6.960118 
520746510917768 45.002232 190.324265 -6.960118 
520746530918238 45.002232 190.324265 -6.960118 
520746550917091 45.002232 190.324265 -6.960118 
520746570918967 45.002232 190.324265 -6.960118 
520746590925998 45.002232 190.324265 -6.960118 
520746610919227 45.002232 190.324265 -6.960118 
520746631123967 45.002232 190.324265 -6.960118 
520746650961362 45.002232 190.324265 -6.960118 
520746670918758 45.002232 190.324265 -6.960118 
520746690918758 45.002232 190.324265 -6.960118 
520746710918810 45.002232 190.324265 -6.960118 
520746730918706 45.002232 190.324265 -6.960118 
520746750919799 45.002232 190.324265 -6.960118 
520746770916832 45.002232 190.324265 -6.960118 
520746790916936 45.002232 190.324265 -6.960118 
520746810917091 45.002232 190.324265 -6.960118 
520746830917195 45.002232 190.324265 -6.960118 
520746850916675 45.002232 190.324265 -6.960118 
520746870917091 45.002232 190.324265 -6.960118 
520746890916675 45.002232 190.324265 -6.960118 
520746910917352 45.002232 190.324265 -6.960118 
520746930917612 45.002232 190.324265 -6.960118 
520746951124174 45.002232 190.324265 -6.960118 
520746970917665 45.002232 190.324265 -6.960118 
520746991055997 45.002232 190.324265 -6.960118 
520747011056883 45.002232 190.324265 -6.960118 
520747030975372 45.002232 190.324265 -6.960118 
520747050917665 45.002232 190.324265 -6.960118 
520747070917143 45.002232 190.324265 -6.960118 
520747090918081 45.002232 190.324265 -6.960118 
520747110916988 45.002232 190.324265 -6.960118 
520747130917612 45.002232 190.324265 -6.960118 
520747150916467 45.002232 190.324265 -6.960118 
520747170919851 45.002232 190.324265 -6.960118 
520747190919382 45.002232 190.324265 -6.960118 
520747210918758 45.002232 190.324265 -6.960118 
520747230918914 45.002232 190.324265 -6.960118 
520747250918029 45.002232 190.324265 -6.960118 
520747270916727 45.002232 190.324265 -6.960118 
520747290917248 45.002232 190.324265 -6.960118 
520747310917561 45.002232 190.324265 -6.960118 
520747330916831 45.002232 190.324265 -6.960118 
520747351011466 45.002232 190.324265 -6.960118 
520747371011935 45.002232 190.324265 -6.960118 
520747390976623 45.002232 190.324265 -6.960118 
520747410916622 45.002232 190.324265 -6.960118 
520747430985580 45.002232 190.324265 -6.960118 
520747450917091 45.002232 190.324265 -6.960118 
520747470916935 45.002232 190.324265 -6.960118 
520747490918757 45.002232 190.324265 -6.960118 
520747510919018 45.002232 190.324265 -6.960118 
520747530917561 45.002232 190.324265 -6.960118 
520747550917352 45.002232 190.324265 -6.960118 
520747570916883 45.002232 190.324265 -6.960118 
520747590916883 45.002232 190.324265 -6.960118 
520747610916883 45.002232 190.324265 -6.960118 
520747630917195 45.002232 190.324265 -6.960118 
520747650917403 45.002232 190.324265 -6.960118 
520747670917351 45.002232 190.324265 -6.960118 
520747690925060 45.002232 190.324265 -6.960118 
520747710945893 45.002232 190.324265 -6.960118 
520747730946049 45.002232 190.324265 -6.960118 
520747750916935 45.002232 190.324265 -6.960118 
520747770984956 45.002232 190.324265 -6.960118 
520747790917039 45.002232 190.324265 -6.960118 
520747810927143 45.002232 190.324265 -6.960118 
520747830917456 45.002232 190.324265 -6.960118 
520747850916935 45.002232 190.324265 -6.960118 
520747870917247 45.002232 190.324265 -6.960118 
520747890918237 45.002232 190.324265 -6.960118 
520747910925112 45.002232 190.324265 -6.960118 
520747930917612 45.002232 190.324265 -6.960118 
520747951124279 45.002232 190.324265 -6.960118 
520747970918185 45.002232 190.324265 -6.960118 
520747990917508 45.002232 190.324265 -6.960118 
520748010918654 45.002232 190.324265 -6.960118 
520748030918237 45.002232 190.324265 -6.960118 
520748050919279 45.002232 190.324265 -6.960118 
520748070918602 45.002232 190.324265 -6.960118 
520748090917612 45.002232 190.324265 -6.960118 
520748110926467 45.002232 190.324265 -6.960118 
520748130918549 45.002232 190.324265 -6.960118 
520748150918601 45.002232 190.324265 -6.960118 
520748170919070 45.002232 190.324265 -6.960118 
520748190918081 45.002232 190.324265 -6.960118 
520748210918602 45.002232 190.324265 -6.960118 
520748230920633 45.002232 190.324265 -6.960118 
520748250918602 45.002232 190.324265 -6.960118 
520748270917925 45.002232 190.324265 -6.960118 
520748290918081 45.002232 190.324265 -6.960118 
520748310918653 45.002232 190.324265 -6.960118 
520748330917872 45.002232 190.324265 -6.960118 
520748350918237 45.002232 190.324265 -6.960118 
520748370918028 45.002232 190.324265 -6.960118 
520748390918445 45.002232 190.324265 -6.960118 
520748410920217 45.002232 190.324265 -6.960118 
520748430931102 45.002232 190.324265 -6.960118 
520748450932351 45.002232 190.324265 -6.960118 
520748470917976 45.002232 190.324265 -6.960118 
520748490919278 45.002232 190.324265 -6.960118 
520748510917299 45.002232 190.324265 -6.960118 
520748530917716 45.002232 190.324265 -6.960118 
520748550918132 45.002232 190.324265 -6.960118 
520748570917873 45.002232 190.324265 -6.960118 
520748590917352 45.002232 190.324265 -6.960118 
520748610918549 45.002232 190.324265 -6.960118 
520748630917977 45.002232 190.324265 -6.960118 
520748650918341 45.002232 190.324265 -6.960118 
520748670918184 45.002232 190.324265 -6.960118 
520748690920112 45.002232 190.324265 -6.960118 
520748710918497 45.002232 190.324265 -6.960118 
520748730920059 45.002232 190.324265 -6.960118 
520748750918601 45.002232 190.324265 -6.960118 
520748770919486 45.002232 190.324265 -6.960118 
520748790963757 45.002232 190.324265 -6.960118 
520748811354591 45.002232 190.324265 -6.960118 
520748830918237 45.002232 190.324265 -6.960118 
520748850917508 45.002232 190.324265 -6.960118 
520748870917664 45.002232 190.324265 -6.960118 
520748890917299 45.002232 190.324265 -6.960118 
520748910917715 45.002232 190.324265 -6.960118 
520748930918288 45.002232 190.324265 -6.960118 
520748951124851 45.002232 190.324265 -6.960118 
520748970917404 45.002232 190.324265 -6.960118 
520748990917768 45.002232 190.324265 -6.960118 
520749010917248 45.002232 190.324265 -6.960118 
520749030917404 45.002232 190.324265 -6.960118 
520749050917977 45.002232 190.324265 -6.960118 
520749070917977 45.002232 190.324265 -6.960118 
520749090954174 45.002232 190.324265 -6.960118 
520749110917559 45.002232 190.324265 -6.960118 
520749130917976 45.002232 190.324265 -6.960118 
520749150933810 45.002232 190.324265 -6.960118 
520749171313549 45.002232 190.324265 -6.960118 
520749190918653 45.002232 190.324265 -6.960118 
520749210919278 45.002232 190.324265 -6.960118 
520749230919174 45.002232 190.324265 -6.960118 
520749250919903 45.002232 190.324265 -6.960118 
520749270923236 45.002232 190.324265 -6.960118 
520749290920424 45.002232 190.324265 -6.960118 
520749310916830 45.002232 190.324265 -6.960118 
520749330920007 45.002232 190.324265 -6.960118 
520749350919226 45.002232 190.324265 -6.960118 
520749370919174 45.002232 190.324265 -6.960118 
520749390919173 45.002232 190.324265 -6.960118 
520749410917716 45.002232 190.324265 -6.960118 
520749430916934 45.002232 190.324265 -6.960118 
520749450917976 45.002232 190.324265 -6.960118 
520749470917038 45.002232 190.324265 -6.960118 
520749490918393 45.002232 190.324265 -6.960118 
520749510931361 45.002232 190.324265 -6.960118 
520749531245893 45.002232 190.324265 -6.960118 
520749550920893 45.002232 190.324265 -6.960118 
520749570917299 45.002232 190.324265 -6.960118 
520749590917611 45.002232 190.324265 -6.960118 
520749610917351 45.002232 190.324265 -6.960118 
520749630916726 45.002232 190.324265 -6.960118 
520749650917038 45.002232 190.324265 -6.960118 
520749670917090 45.002232 190.324265 -6.960118 
520749690918236 45.002232 190.324265 -6.960118 
520749710918079 45.002232 190.324265 -6.960118 
520749730917924 45.002232 190.324265 -6.960118 
520749750918080 45.002232 190.324265 -6.960118 
520749770916882 45.002232 190.324265 -6.960118 
520749790917299 45.002232 190.324265 -6.960118 
520749810919122 45.002232 190.324265 -6.960118 
520749830922195 45.002232 190.324265 -6.960118 
520749850918600 45.002232 190.324265 -6.960118 
520749870916882 45.002232 190.324265 -6.960118 
520749891191309 45.002232 190.324265 -6.960118 
520749910966049 45.002232 190.324265 -6.960118 
520749930917871 45.002232 190.324265 -6.960118 
520749951123757 45.002232 190.324265 -6.960118 
520749970917455 45.002232 190.324265 -6.960118 
520749990917767 45.002232 190.324265 -6.960118 
520750010918288 45.002232 190.324265 -6.960118 
520750030916725 45.002232 190.324265 -6.960118 
520750050917820 45.002232 190.324265 -6.960118 
520750070917768 45.002232 190.324265 -6.960118 
520750090919590 45.002232 190.324265 -6.960118 
520750110918236 45.002232 190.324265 -6.960118 
520750130919382 45.002232 190.324265 -6.960118 
520750150917664 45.002232 190.324265 -6.960118 
520750170920631 45.002232 190.324265 -6.960118 
520750190919903 45.002232 190.324265 -6.960118 
520750210920528 45.002232 190.324265 -6.960118 
520750230930841 45.002232 190.324265 -6.960118 
520750251140110 45.002232 190.324265 -6.960118 
520750270966153 45.002232 190.324265 -6.960118 
520750290918393 45.002232 190.324265 -6.960118 
520750310918445 45.002232 190.324265 -6.960118 
520750330918079 45.002232 190.324265 -6.960118 
520750350917819 45.002232 190.324265 -6.960118 
520750370917351 45.002232 190.324265 -6.960118 
520750390916935 45.002232 190.324265 -6.960118 
520750410917142 45.002232 190.324265 -6.960118 
520750430917402 45.002232 190.324265 -6.960118 
520750450917298 45.002232 190.324265 -6.960118 
520750470918392 45.002232 190.324265 -6.960118 
520750490918808 45.002232 190.324265 -6.960118 
520750510919173 45.002232 190.324265 -6.960118 
520750530921465 45.002232 190.324265 -6.960118 
520750550918288 45.002232 190.324265 -6.960118 
520750570919747 45.002232 190.324265 -6.960118 
520750590919955 45.002232 190.324265 -6.960118 
520750611098341 45.002232 190.324265 -6.960118 
520750631097298 45.002232 190.324265 -6.960118 
520750650966987 45.002232 190.324265 -6.960118 
520750670916777 45.002232 190.324265 -6.960118 
520750690919590 45.002232 190.324265 -6.960118 
520750710923913 45.002232 190.324265 -6.960118 
520750730919694 45.002232 190.324265 -6.960118 
520750750918965 45.002232 190.324265 -6.960118 
520750770919330 45.002232 190.324265 -6.960118 
520750790918496 45.002232 190.324265 -6.960118 
520750810918340 45.002232 190.324265 -6.960118 
520750830917507 45.002232 190.324265 -6.960118 
520750850918183 45.002232 190.324265 -6.960118 
520750870920528 45.002232 190.324265 -6.960118 
520750890918496 45.002232 190.324265 -6.960118 
520750910919277 45.002232 190.324265 -6.960118 
520750930919746 45.002232 190.324265 -6.960118 
520750951130944 45.002232 190.324265 -6.960118 
520750971032403 45.002232 190.324265 -6.960118 
520750991032506 45.002232 190.324265 -6.960118 
520751010942038 45.002232 190.324265 -6.960118 
520751030918705 45.002232 190.324265 -6.960118 
520751050918652 45.002232 190.324265 -6.960118 
520751070921933 45.002232 190.324265 -6.960118 
520751090917455 45.002232 190.324265 -6.960118 
520751110917559 45.002232 190.324265 -6.960118 
520751130917350 45.002232 190.324265 -6.960118 
520751150917037 45.002232 190.324265 -6.960118 
520751170917819 45.002232 190.324265 -6.960118 
520751190917298 45.002232 190.324265 -6.960118 
520751210917193 45.002232 190.324265 -6.960118 
520751230917506 45.002232 190.324265 -6.960118 
520751250917298 45.002232 190.324265 -6.960118 
520751270922559 45.002232 190.324265 -6.960118 
520751290918600 45.002232 190.324265 -6.960118 
520751310917298 45.002232 190.324265 -6.960118 
520751331006777 45.002232 190.324265 -6.960118 
520751351006516 45.002232 190.324265 -6.960118 
520751370919121 45.002232 190.324265 -6.960118 
520751390918235 45.002232 190.324265 -6.960118 
