# Created at Thu Nov 07 19:54:32 EST 2019 in Burnaby Canada 
527716636837632 -0.001878 -0.002344 0.006000 
527716657406121 -0.001878 -0.002344 0.006000 
527716677974298 -0.001878 -0.002344 0.006000 
527716698542788 -0.001878 -0.002344 0.006000 
527716719111902 -0.001878 -0.002344 0.006000 
527716739680027 -0.001878 -0.002344 0.006000 
527716760248203 -0.001878 -0.002344 0.006000 
527716780816902 -0.001878 -0.002344 0.006000 
527716801385600 -0.001878 -0.002344 0.006000 
527716821955131 -0.001878 -0.002344 0.006000 
527716842522267 -0.001878 -0.002344 0.006000 
527716863090860 -0.001878 -0.002344 0.006000 
527716883659454 -0.001878 -0.002344 0.006000 
527716904228101 -0.001878 -0.002344 0.006000 
527716924796328 -0.001878 -0.002344 0.006000 
527716945364923 -0.001878 -0.002344 0.006000 
527716965933256 -0.001878 -0.002344 0.006000 
527716986502110 -0.001878 -0.002344 0.006000 
527717007070340 -0.001878 -0.002344 0.006000 
527717027638933 -0.001878 -0.002344 0.006000 
527717048207423 -0.001878 -0.002344 0.006000 
527717068775861 -0.001878 -0.002344 0.006000 
527717089344350 -0.001878 -0.002344 0.006000 
527717109912996 -0.001878 -0.002344 0.006000 
527717130481485 -0.001878 -0.002344 0.006000 
527717151049819 -0.001878 -0.002344 0.006000 
527717171618361 -0.001878 -0.002344 0.006000 
527717192186850 -0.001878 -0.002344 0.006000 
527717212755340 -0.001878 -0.002344 0.006000 
527717233323829 -0.001878 -0.002344 0.006000 
527717253892371 -0.001878 -0.002344 0.006000 
527717274460861 -0.001878 -0.002344 0.006000 
527717295029350 -0.001878 -0.002344 0.006000 
527717315597944 -0.001878 -0.002344 0.006000 
527717336166434 -0.001878 -0.002344 0.006000 
527717356735027 -0.001878 -0.002344 0.006000 
527717377303569 -0.001878 -0.002344 0.006000 
527717397872006 -0.001878 -0.002344 0.006000 
527717418441746 -0.001878 -0.002344 0.006000 
527717439011277 -0.001878 -0.002344 0.006000 
527717459579298 -0.001878 -0.002344 0.006000 
527717480146694 -0.001878 -0.002344 0.006000 
527717500714453 -0.001878 -0.002344 0.006000 
527717521282995 -0.001878 -0.002344 0.006000 
527717541851693 -0.001878 -0.002344 0.006000 
527717562420027 -0.001878 -0.002344 0.006000 
527717582989350 -0.001878 -0.002344 0.006000 
527717603557996 -0.001878 -0.002344 0.006000 
527717624126589 -0.001878 -0.002344 0.006000 
527717644694819 -0.001878 -0.002344 0.006000 
527717665264245 -0.001878 -0.002344 0.006000 
527717685832839 -0.001878 -0.002344 0.006000 
527717706399819 -0.001878 -0.002344 0.006000 
527717726968568 -0.001878 -0.002344 0.006000 
527717747536954 -0.001878 -0.002344 0.006000 
527717768105705 -0.001878 -0.002344 0.006000 
527717788674141 -0.001878 -0.002344 0.006000 
527717809242683 -0.001878 -0.002344 0.006000 
527717829811381 -0.001878 -0.002344 0.006000 
527717850379923 -0.001878 -0.002344 0.006000 
527717870947787 -0.001878 -0.002344 0.006000 
527717891516328 -0.001878 -0.002344 0.006000 
527717912086797 -0.001878 -0.002344 0.006000 
527717932655339 -0.001878 -0.002344 0.006000 
527717953222630 -0.001878 -0.002344 0.006000 
527717973791172 -0.001878 -0.002344 0.006000 
527717994359454 -0.001878 -0.002344 0.006000 
527718014927944 -0.001878 -0.002344 0.006000 
527718035496173 -0.001878 -0.002344 0.006000 
527718056064714 -0.001878 -0.002344 0.006000 
527718076633464 -0.001878 -0.002344 0.006000 
527718097202006 -0.001878 -0.002344 0.006000 
527718117770287 -0.001878 -0.002344 0.006000 
527718138338777 -0.001878 -0.002344 0.006000 
527718158907787 -0.001878 -0.002344 0.006000 
527718179476433 -0.001878 -0.002344 0.006000 
527718200044402 -0.001878 -0.002344 0.006000 
527718220612735 -0.001878 -0.002344 0.006000 
527718241181589 -0.001878 -0.002344 0.006000 
527718261750235 -0.001878 -0.002344 0.006000 
527718282318203 -0.001878 -0.002344 0.006000 
527718302886901 -0.001878 -0.002344 0.006000 
527718323455600 -0.001878 -0.002344 0.006000 
527718344024454 -0.001878 -0.002344 0.006000 
527718364593099 -0.001878 -0.002344 0.006000 
527718385162736 -0.001878 -0.002344 0.006000 
527718405731068 -0.001878 -0.002344 0.006000 
527718426299714 -0.001878 -0.002344 0.006000 
527718446868673 -0.001878 -0.002344 0.006000 
527718467437006 -0.001878 -0.002344 0.006000 
527718488005547 -0.001878 -0.002344 0.006000 
527718508573985 -0.001878 -0.002344 0.006000 
527718529142526 -0.001878 -0.002344 0.006000 
527718549710651 -0.001878 -0.002344 0.006000 
527718570279193 -0.001878 -0.002344 0.006000 
527718590846380 -0.001878 -0.002344 0.006000 
527718611414922 -0.001878 -0.002344 0.006000 
527718631983361 -0.001878 -0.002344 0.006000 
527718652551902 -0.001878 -0.002344 0.006000 
527718673120391 -0.001878 -0.002344 0.006000 
527718693688933 -0.001878 -0.002344 0.006000 
527718714258308 -0.001878 -0.002344 0.006000 
527718734826850 -0.001878 -0.002344 0.006000 
527718755394610 -0.001878 -0.002344 0.006000 
527718775963151 -0.001878 -0.002344 0.006000 
527718796532682 -0.001878 -0.002344 0.006000 
527718817101224 -0.001878 -0.002344 0.006000 
527718837668985 -0.001878 -0.002344 0.006000 
527718858237579 -0.001878 -0.002344 0.006000 
527718878806433 -0.001878 -0.002344 0.006000 
527718899375338 -0.001878 -0.002344 0.006000 
527718919943464 -0.001878 -0.002344 0.006000 
527718940512631 -0.001878 -0.002344 0.006000 
527718961081172 -0.001878 -0.002344 0.006000 
527718981649505 -0.001878 -0.002344 0.006000 
527719002217578 -0.001878 -0.002344 0.006000 
527719022786120 -0.001878 -0.002344 0.006000 
527719043354245 -0.001878 -0.002344 0.006000 
527719063923308 -0.001878 -0.002344 0.006000 
527719084491746 -0.001878 -0.002344 0.006000 
527719105060183 -0.001878 -0.002344 0.006000 
527719125628516 -0.001878 -0.002344 0.006000 
527719146197891 -0.001878 -0.002344 0.006000 
527719166765860 -0.001878 -0.002344 0.006000 
527719187334766 -0.001878 -0.002344 0.006000 
527719207902839 -0.001878 -0.002344 0.006000 
527719228471433 -0.001878 -0.002344 0.006000 
527719249040027 -0.001878 -0.002344 0.006000 
527719269608412 -0.001878 -0.002344 0.006000 
527719290176953 -0.001878 -0.002344 0.006000 
527719310745964 -0.001878 -0.002344 0.006000 
527719331314558 -0.001878 -0.002344 0.006000 
527719351882734 -0.001878 -0.002344 0.006000 
527719372451328 -0.001878 -0.002344 0.006000 
527719393020756 -0.001878 -0.002344 0.006000 
527719413589298 -0.001878 -0.002344 0.006000 
527719434158463 -0.001878 -0.002344 0.006000 
527719454727057 -0.001878 -0.002344 0.006000 
527719475295756 -0.001878 -0.002344 0.006000 
527719495864349 -0.001878 -0.002344 0.006000 
527719516432891 -0.001878 -0.002344 0.006000 
527719537001433 -0.001878 -0.002344 0.006000 
527719557569192 -0.001878 -0.002344 0.006000 
527719578137213 -0.001878 -0.002344 0.006000 
527719598706172 -0.001878 -0.002344 0.006000 
527719619274454 -0.001878 -0.002344 0.006000 
527719639842838 -0.001878 -0.002344 0.006000 
527719660411588 -0.001878 -0.002344 0.006000 
527719680979923 -0.001878 -0.002344 0.006000 
527719701549713 -0.001878 -0.002344 0.006000 
527719722117474 -0.001878 -0.002344 0.006000 
527719742686068 -0.001878 -0.002344 0.006000 
527719763254817 -0.001878 -0.002344 0.006000 
527719783822630 -0.001878 -0.002344 0.006000 
527719804391380 -0.001878 -0.002344 0.006000 
527719824960860 -0.001878 -0.002344 0.006000 
527719845528464 -0.001878 -0.002344 0.006000 
527719866097526 -0.001878 -0.002344 0.006000 
527719886666640 -0.001878 -0.002344 0.006000 
527719907235703 -0.001878 -0.002344 0.006000 
527719927804140 -0.001878 -0.002344 0.006000 
527719948373047 -0.001878 -0.002344 0.006000 
527719968941641 -0.001878 -0.002344 0.006000 
527719989509453 -0.001878 -0.002344 0.006000 
527720010078047 -0.001878 -0.002344 0.006000 
527720030645755 -0.001878 -0.002344 0.006000 
527720051214348 -0.001878 -0.002344 0.006000 
527720071782786 -0.001878 -0.002344 0.006000 
527720092351380 -0.001878 -0.002344 0.006000 
527720112920130 -0.001878 -0.002344 0.006000 
527720133488723 -0.001878 -0.002344 0.006000 
527720154056745 -0.001878 -0.002344 0.006000 
527720174625287 -0.001878 -0.002344 0.006000 
527720195193932 -0.001878 -0.002344 0.006000 
527720215762474 -0.001878 -0.002344 0.006000 
527720236330964 -0.001878 -0.002344 0.006000 
527720256899558 -0.001878 -0.002344 0.006000 
527720277468254 -0.001878 -0.002344 0.006000 
527720298036848 -0.001878 -0.002344 0.006000 
527720318605338 -0.001878 -0.002344 0.006000 
527720339173932 -0.001878 -0.002344 0.006000 
527720359742421 -0.001878 -0.002344 0.006000 
527720380311068 -0.001878 -0.002344 0.006000 
527720400879766 -0.001878 -0.002344 0.006000 
527720421448567 -0.001878 -0.002344 0.006000 
527720442016849 -0.001878 -0.002344 0.006000 
527720462585598 -0.001878 -0.002344 0.006000 
527720483153933 -0.001878 -0.002344 0.006000 
527720503722733 -0.001878 -0.002344 0.006000 
527720524291172 -0.001878 -0.002344 0.006000 
527720544860494 -0.001878 -0.002344 0.006000 
527720565428932 -0.001878 -0.002344 0.006000 
527720585997578 -0.001878 -0.002344 0.006000 
527720606565964 -0.001878 -0.002344 0.006000 
527720627134088 -0.001878 -0.002344 0.006000 
527720647703567 -0.001878 -0.002344 0.006000 
527720668271797 -0.001878 -0.002344 0.006000 
527720688840391 -0.001878 -0.002344 0.006000 
527720709408360 -0.001878 -0.002344 0.006000 
527720729976953 -0.001878 -0.002344 0.006000 
527720750545547 -0.001878 -0.002344 0.006000 
527720771114089 -0.001878 -0.002344 0.006000 
527720791682473 -0.001878 -0.002344 0.006000 
527720812251067 -0.001878 -0.002344 0.006000 
527720832819973 -0.001878 -0.002344 0.006000 
527720853388515 -0.001878 -0.002344 0.006000 
527720873957004 -0.001878 -0.002344 0.006000 
527720894525598 -0.001878 -0.002344 0.006000 
527720915094192 -0.001878 -0.002344 0.006000 
527720935662734 -0.001878 -0.002344 0.006000 
527720956231328 -0.001878 -0.002344 0.006000 
527720976799922 -0.001878 -0.002344 0.006000 
527720997368307 -0.001878 -0.002344 0.006000 
527721017936848 -0.001878 -0.002344 0.006000 
527721038505547 -0.001878 -0.002344 0.006000 
527721059074245 -0.001878 -0.002344 0.006000 
527721079643411 -0.001878 -0.002344 0.006000 
527721100211900 -0.001878 -0.002344 0.006000 
527721120780129 -0.001878 -0.002344 0.006000 
527721141348775 -0.001878 -0.002344 0.006000 
527721161917162 -0.001878 -0.002344 0.006000 
527721182486223 -0.001878 -0.002344 0.006000 
527721203053931 -0.001878 -0.002344 0.006000 
527721223622891 -0.001878 -0.002344 0.006000 
527721244191432 -0.001878 -0.002344 0.006000 
527721264760286 -0.001878 -0.002344 0.006000 
527721285328047 -0.001878 -0.002344 0.006000 
527721305897369 -0.001878 -0.002344 0.006000 
527721326465702 -0.001878 -0.002344 0.006000 
527721347034400 -0.001878 -0.002344 0.006000 
527721367602942 -0.001878 -0.002344 0.006000 
527721388171484 -0.001878 -0.002344 0.006000 
527721408740077 -0.001878 -0.002344 0.006000 
527721429310130 -0.001878 -0.002344 0.006000 
527721449878672 -0.001878 -0.002344 0.006000 
527721470448620 -0.001878 -0.002344 0.006000 
527721491017213 -0.001878 -0.002344 0.006000 
527721511582942 -0.001878 -0.002344 0.006000 
527721532151484 -0.001878 -0.002344 0.006000 
527721552720806 -0.001878 -0.002344 0.006000 
527721573289400 -0.001878 -0.002344 0.006000 
527721593857473 -0.001878 -0.002344 0.006000 
527721614426067 -0.001878 -0.002344 0.006000 
527721634994556 -0.001878 -0.002344 0.006000 
527721655563150 -0.001878 -0.002344 0.006000 
527721676131849 -0.001878 -0.002344 0.006000 
527721696700391 -0.001878 -0.002344 0.006000 
527721717269140 -0.001878 -0.002344 0.006000 
527721737837734 -0.001878 -0.002344 0.006000 
527721758406067 -0.001878 -0.002344 0.006000 
527721778974504 -0.001878 -0.002344 0.006000 
527721799543254 -0.001878 -0.002344 0.006000 
527721820111796 -0.001878 -0.002344 0.006000 
527721840680495 -0.001878 -0.002344 0.006000 
527721861248983 -0.001878 -0.002344 0.006000 
527721881817630 -0.001878 -0.002344 0.006000 
527721902386067 -0.001878 -0.002344 0.006000 
527721922954557 -0.001878 -0.002344 0.006000 
527721943523359 -0.001878 -0.002344 0.006000 
527721964091848 -0.001878 -0.002344 0.006000 
527721984660754 -0.001878 -0.002344 0.006000 
527722005228983 -0.001878 -0.002344 0.006000 
527722025797577 -0.001878 -0.002344 0.006000 
527722046366275 -0.001878 -0.002344 0.006000 
527722066934973 -0.001878 -0.002344 0.006000 
527722087503514 -0.001878 -0.002344 0.006000 
527722108072577 -0.001878 -0.002344 0.006000 
527722128641171 -0.001878 -0.002344 0.006000 
527722149209869 -0.001878 -0.002344 0.006000 
527722169778410 -0.001878 -0.002344 0.006000 
527722190346848 -0.001878 -0.002344 0.006000 
527722210915442 -0.001878 -0.002344 0.006000 
527722231483722 -0.001878 -0.002344 0.006000 
527722252052316 -0.001878 -0.002344 0.006000 
527722272621223 -0.001878 -0.002344 0.006000 
527722293189765 -0.001878 -0.002344 0.006000 
527722313757941 -0.001878 -0.002344 0.006000 
527722334326535 -0.001878 -0.002344 0.006000 
527722354895442 -0.001878 -0.002344 0.006000 
527722375463984 -0.001878 -0.002344 0.006000 
527722396032420 -0.001878 -0.002344 0.006000 
527722416601014 -0.001878 -0.002344 0.006000 
527722437168983 -0.001878 -0.002344 0.006000 
527722457737576 -0.001878 -0.002344 0.006000 
527722478306327 -0.001878 -0.002344 0.006000 
527722498874765 -0.001878 -0.002344 0.006000 
527722519443619 -0.001878 -0.002344 0.006000 
527722540011796 -0.001878 -0.002344 0.006000 
527722560580598 -0.001878 -0.002344 0.006000 
527722581149348 -0.001878 -0.002344 0.006000 
527722601717577 -0.001878 -0.002344 0.006000 
527722622286692 -0.001878 -0.002344 0.006000 
527722642854816 -0.001878 -0.002344 0.006000 
527722663423619 -0.001878 -0.002344 0.006000 
527722683992368 -0.001878 -0.002344 0.006000 
527722704560858 -0.001878 -0.002344 0.006000 
527722725129765 -0.001878 -0.002344 0.006000 
527722745697786 -0.001878 -0.002344 0.006000 
527722766266483 -0.001878 -0.002344 0.006000 
527722786835338 -0.001878 -0.002344 0.006000 
527722807403619 -0.001878 -0.002344 0.006000 
527722827972838 -0.001878 -0.002344 0.006000 
527722848541379 -0.001878 -0.002344 0.006000 
527722869109817 -0.001878 -0.002344 0.006000 
527722889678411 -0.001878 -0.002344 0.006000 
527722910247004 -0.001878 -0.002344 0.006000 
527722930815546 -0.001878 -0.002344 0.006000 
527722951384556 -0.001878 -0.002344 0.006000 
527722971953150 -0.001878 -0.002344 0.006000 
527722992522941 -0.001878 -0.002344 0.006000 
