# Created at Thu Nov 07 19:54:32 EST 2019 in Burnaby Canada 
527716650915340 40.773468 185.543625 -10.365678 
527716670921746 40.773468 185.543625 -10.365678 
527716690928829 40.773468 185.543625 -10.365678 
527716710929142 40.773468 185.543625 -10.365678 
527716730916850 40.773468 185.543625 -10.365678 
527716750922006 40.773468 185.543625 -10.365678 
527716770914922 40.773468 185.543625 -10.365678 
527716790923673 40.773468 185.543625 -10.365678 
527716810915756 40.773468 185.543625 -10.365678 
527716830921954 40.773468 185.543625 -10.365678 
527716850914923 40.773468 185.543625 -10.365678 
527716870921642 40.773468 185.543625 -10.365678 
527716890915444 40.773468 185.543625 -10.365678 
527716910920964 40.773468 185.543625 -10.365678 
527716930915287 40.773468 185.543625 -10.365678 
527716945264297 40.773468 185.543625 -10.365678 
527716951123048 40.773468 185.543625 -10.365678 
527716970917370 40.773468 185.543625 -10.365678 
527716990921381 40.773468 185.543625 -10.365678 
527717010914663 40.773468 185.543625 -10.365678 
527717030922528 40.773468 185.543625 -10.365678 
527717050931850 40.773468 185.543625 -10.365678 
527717071316329 40.773468 185.543625 -10.365678 
527717090916069 40.773468 185.543625 -10.365678 
527717110921954 40.773468 185.543625 -10.365678 
527717130915704 40.773468 185.543625 -10.365678 
527717150921745 40.773468 185.543625 -10.365678 
527717170916382 40.773468 185.543625 -10.365678 
527717190923152 40.773468 185.543625 -10.365678 
527717210915496 40.773468 185.543625 -10.365678 
527717230921590 40.773468 185.543625 -10.365678 
527717250915079 40.773468 185.543625 -10.365678 
527717270921433 40.773468 185.543625 -10.365678 
527717290916902 40.773468 185.543625 -10.365678 
527717310921850 40.773468 185.543625 -10.365678 
527717330914819 40.773468 185.543625 -10.365678 
527717350922371 40.773468 185.543625 -10.365678 
527717370915756 40.773468 185.543625 -10.365678 
527717390916069 40.773468 185.543625 -10.365678 
527717410915131 40.773468 185.543625 -10.365678 
527717431267683 40.773468 185.543625 -10.365678 
527717445595912 40.773468 185.543625 -10.365678 
527717450918100 40.773468 185.543625 -10.365678 
527717470923881 40.773468 185.543625 -10.365678 
527717490915965 40.773468 185.543625 -10.365678 
527717510921434 40.773468 185.543625 -10.365678 
527717530915235 40.773468 185.543625 -10.365678 
527717550921276 40.773468 185.543625 -10.365678 
527717570914975 40.773468 185.543625 -10.365678 
527717590924142 40.773468 185.543625 -10.365678 
527717610916225 40.773468 185.543625 -10.365678 
527717630924766 40.773468 185.543625 -10.365678 
527717650916173 40.773468 185.543625 -10.365678 
527717670923048 40.773468 185.543625 -10.365678 
527717690916589 40.773468 185.543625 -10.365678 
527717710923308 40.773468 185.543625 -10.365678 
527717730916120 40.773468 185.543625 -10.365678 
527717750922527 40.773468 185.543625 -10.365678 
527717770944246 40.773468 185.543625 -10.365678 
527717791242631 40.773468 185.543625 -10.365678 
527717810915756 40.773468 185.543625 -10.365678 
527717830922422 40.773468 185.543625 -10.365678 
527717850915652 40.773468 185.543625 -10.365678 
527717870922371 40.773468 185.543625 -10.365678 
527717890915339 40.773468 185.543625 -10.365678 
527717910924298 40.773468 185.543625 -10.365678 
527717930917578 40.773468 185.543625 -10.365678 
527717951124714 40.773468 185.543625 -10.365678 
527717970915911 40.773468 185.543625 -10.365678 
527717990917787 40.773468 185.543625 -10.365678 
527718010927527 40.773468 185.543625 -10.365678 
527718030923047 40.773468 185.543625 -10.365678 
527718050916381 40.773468 185.543625 -10.365678 
527718070922370 40.773468 185.543625 -10.365678 
527718090915704 40.773468 185.543625 -10.365678 
527718110922892 40.773468 185.543625 -10.365678 
527718130915183 40.773468 185.543625 -10.365678 
527718151189402 40.773468 185.543625 -10.365678 
527718170973620 40.773468 185.543625 -10.365678 
527718190915547 40.773468 185.543625 -10.365678 
527718210927110 40.773468 185.543625 -10.365678 
527718230921746 40.773468 185.543625 -10.365678 
527718250915652 40.773468 185.543625 -10.365678 
527718270922058 40.773468 185.543625 -10.365678 
527718290915130 40.773468 185.543625 -10.365678 
527718310921797 40.773468 185.543625 -10.365678 
527718330915600 40.773468 185.543625 -10.365678 
527718350923308 40.773468 185.543625 -10.365678 
527718370915912 40.773468 185.543625 -10.365678 
527718390917631 40.773468 185.543625 -10.365678 
527718410917162 40.773468 185.543625 -10.365678 
527718430924765 40.773468 185.543625 -10.365678 
527718450923777 40.773468 185.543625 -10.365678 
527718470925391 40.773468 185.543625 -10.365678 
527718490918621 40.773468 185.543625 -10.365678 
527718511139037 40.773468 185.543625 -10.365678 
527718530959193 40.773468 185.543625 -10.365678 
527718550971693 40.773468 185.543625 -10.365678 
527718570917266 40.773468 185.543625 -10.365678 
527718590915704 40.773468 185.543625 -10.365678 
527718610915026 40.773468 185.543625 -10.365678 
527718630922630 40.773468 185.543625 -10.365678 
527718650914923 40.773468 185.543625 -10.365678 
527718670923099 40.773468 185.543625 -10.365678 
527718690916172 40.773468 185.543625 -10.365678 
527718710925287 40.773468 185.543625 -10.365678 
527718730916225 40.773468 185.543625 -10.365678 
527718750922944 40.773468 185.543625 -10.365678 
527718770915495 40.773468 185.543625 -10.365678 
527718790923412 40.773468 185.543625 -10.365678 
527718810916849 40.773468 185.543625 -10.365678 
527718830922266 40.773468 185.543625 -10.365678 
527718850915444 40.773468 185.543625 -10.365678 
527718871089297 40.773468 185.543625 -10.365678 
527718891089558 40.773468 185.543625 -10.365678 
527718910964349 40.773468 185.543625 -10.365678 
527718930915652 40.773468 185.543625 -10.365678 
527718945848568 40.773468 185.543625 -10.365678 
527718951124036 40.773468 185.543625 -10.365678 
527718970915704 40.773468 185.543625 -10.365678 
527718990916276 40.773468 185.543625 -10.365678 
527719010922057 40.773468 185.543625 -10.365678 
527719030922527 40.773468 185.543625 -10.365678 
527719050915183 40.773468 185.543625 -10.365678 
527719070922370 40.773468 185.543625 -10.365678 
527719090915860 40.773468 185.543625 -10.365678 
527719110921901 40.773468 185.543625 -10.365678 
527719130915130 40.773468 185.543625 -10.365678 
527719150922161 40.773468 185.543625 -10.365678 
527719170915704 40.773468 185.543625 -10.365678 
527719190921744 40.773468 185.543625 -10.365678 
527719210915287 40.773468 185.543625 -10.365678 
527719231041017 40.773468 185.543625 -10.365678 
527719251041017 40.773468 185.543625 -10.365678 
527719270922057 40.773468 185.543625 -10.365678 
527719290915235 40.773468 185.543625 -10.365678 
527719310924401 40.773468 185.543625 -10.365678 
527719330915756 40.773468 185.543625 -10.365678 
527719350922578 40.773468 185.543625 -10.365678 
527719370915443 40.773468 185.543625 -10.365678 
527719390920183 40.773468 185.543625 -10.365678 
527719410915860 40.773468 185.543625 -10.365678 
527719430923985 40.773468 185.543625 -10.365678 
527719445785234 40.773468 185.543625 -10.365678 
527719450916901 40.773468 185.543625 -10.365678 
527719470923359 40.773468 185.543625 -10.365678 
527719490917318 40.773468 185.543625 -10.365678 
527719510935390 40.773468 185.543625 -10.365678 
527719530916589 40.773468 185.543625 -10.365678 
527719550923255 40.773468 185.543625 -10.365678 
527719570916328 40.773468 185.543625 -10.365678 
527719591012682 40.773468 185.543625 -10.365678 
527719611013047 40.773468 185.543625 -10.365678 
527719630922057 40.773468 185.543625 -10.365678 
527719650915547 40.773468 185.543625 -10.365678 
527719670923308 40.773468 185.543625 -10.365678 
527719690915131 40.773468 185.543625 -10.365678 
527719710981901 40.773468 185.543625 -10.365678 
527719730915912 40.773468 185.543625 -10.365678 
527719750922995 40.773468 185.543625 -10.365678 
527719770915547 40.773468 185.543625 -10.365678 
527719790924609 40.773468 185.543625 -10.365678 
527719810922109 40.773468 185.543625 -10.365678 
527719830922162 40.773468 185.543625 -10.365678 
527719850915235 40.773468 185.543625 -10.365678 
527719870922422 40.773468 185.543625 -10.365678 
527719890916327 40.773468 185.543625 -10.365678 
527719910923256 40.773468 185.543625 -10.365678 
527719930927473 40.773468 185.543625 -10.365678 
527719945760234 40.773468 185.543625 -10.365678 
527719951124505 40.773468 185.543625 -10.365678 
527719971475859 40.773468 185.543625 -10.365678 
527719990916745 40.773468 185.543625 -10.365678 
527720010916432 40.773468 185.543625 -10.365678 
527720030924141 40.773468 185.543625 -10.365678 
527720050915703 40.773468 185.543625 -10.365678 
527720070923360 40.773468 185.543625 -10.365678 
527720090915807 40.773468 185.543625 -10.365678 
527720110923099 40.773468 185.543625 -10.365678 
527720130916536 40.773468 185.543625 -10.365678 
527720150922787 40.773468 185.543625 -10.365678 
527720170915183 40.773468 185.543625 -10.365678 
527720190915547 40.773468 185.543625 -10.365678 
527720210915235 40.773468 185.543625 -10.365678 
527720230923204 40.773468 185.543625 -10.365678 
527720250916276 40.773468 185.543625 -10.365678 
527720270922370 40.773468 185.543625 -10.365678 
527720290915181 40.773468 185.543625 -10.365678 
527720310945754 40.773468 185.543625 -10.365678 
527720330945702 40.773468 185.543625 -10.365678 
527720350923933 40.773468 185.543625 -10.365678 
527720370914765 40.773468 185.543625 -10.365678 
527720390932056 40.773468 185.543625 -10.365678 
527720410915339 40.773468 185.543625 -10.365678 
527720430924245 40.773468 185.543625 -10.365678 
527720446295443 40.773468 185.543625 -10.365678 
527720450915443 40.773468 185.543625 -10.365678 
527720470923464 40.773468 185.543625 -10.365678 
527720490915651 40.773468 185.543625 -10.365678 
527720510921797 40.773468 185.543625 -10.365678 
527720530915860 40.773468 185.543625 -10.365678 
527720550922213 40.773468 185.543625 -10.365678 
527720570915807 40.773468 185.543625 -10.365678 
527720590915858 40.773468 185.543625 -10.365678 
527720610915756 40.773468 185.543625 -10.365678 
527720630923202 40.773468 185.543625 -10.365678 
527720650916119 40.773468 185.543625 -10.365678 
527720670915599 40.773468 185.543625 -10.365678 
527720690915599 40.773468 185.543625 -10.365678 
527720710923359 40.773468 185.543625 -10.365678 
527720730915599 40.773468 185.543625 -10.365678 
527720750922421 40.773468 185.543625 -10.365678 
527720770915443 40.773468 185.543625 -10.365678 
527720790921536 40.773468 185.543625 -10.365678 
527720810915182 40.773468 185.543625 -10.365678 
527720830922839 40.773468 185.543625 -10.365678 
527720850915754 40.773468 185.543625 -10.365678 
527720870921641 40.773468 185.543625 -10.365678 
527720890915338 40.773468 185.543625 -10.365678 
527720910922422 40.773468 185.543625 -10.365678 
527720930915077 40.773468 185.543625 -10.365678 
527720951123202 40.773468 185.543625 -10.365678 
527720970915235 40.773468 185.543625 -10.365678 
527720990922786 40.773468 185.543625 -10.365678 
527721010916953 40.773468 185.543625 -10.365678 
527721030915286 40.773468 185.543625 -10.365678 
527721050915235 40.773468 185.543625 -10.365678 
527721070922057 40.773468 185.543625 -10.365678 
527721090915650 40.773468 185.543625 -10.365678 
527721110922160 40.773468 185.543625 -10.365678 
527721130916067 40.773468 185.543625 -10.365678 
527721150922630 40.773468 185.543625 -10.365678 
527721170916224 40.773468 185.543625 -10.365678 
527721190916432 40.773468 185.543625 -10.365678 
527721210915233 40.773468 185.543625 -10.365678 
527721230921588 40.773468 185.543625 -10.365678 
527721250921171 40.773468 185.543625 -10.365678 
527721270921432 40.773468 185.543625 -10.365678 
527721290918203 40.773468 185.543625 -10.365678 
527721310922005 40.773468 185.543625 -10.365678 
527721330914817 40.773468 185.543625 -10.365678 
527721350921692 40.773468 185.543625 -10.365678 
527721370915181 40.773468 185.543625 -10.365678 
527721390914817 40.773468 185.543625 -10.365678 
527721411308098 40.773468 185.543625 -10.365678 
527721430925651 40.773468 185.543625 -10.365678 
527721445459557 40.773468 185.543625 -10.365678 
527721450916901 40.773468 185.543625 -10.365678 
527721470923046 40.773468 185.543625 -10.365678 
527721490917682 40.773468 185.543625 -10.365678 
527721510922369 40.773468 185.543625 -10.365678 
527721530915390 40.773468 185.543625 -10.365678 
527721550921640 40.773468 185.543625 -10.365678 
527721570915911 40.773468 185.543625 -10.365678 
527721590921223 40.773468 185.543625 -10.365678 
527721610915338 40.773468 185.543625 -10.365678 
527721630922109 40.773468 185.543625 -10.365678 
527721650915494 40.773468 185.543625 -10.365678 
527721670921952 40.773468 185.543625 -10.365678 
527721690915286 40.773468 185.543625 -10.365678 
527721710922370 40.773468 185.543625 -10.365678 
527721730915494 40.773468 185.543625 -10.365678 
527721750921536 40.773468 185.543625 -10.365678 
527721771234817 40.773468 185.543625 -10.365678 
527721790914973 40.773468 185.543625 -10.365678 
527721810915390 40.773468 185.543625 -10.365678 
527721830922265 40.773468 185.543625 -10.365678 
527721850915651 40.773468 185.543625 -10.365678 
527721870922161 40.773468 185.543625 -10.365678 
527721890915547 40.773468 185.543625 -10.365678 
527721910921952 40.773468 185.543625 -10.365678 
527721930915390 40.773468 185.543625 -10.365678 
527721946003619 40.773468 185.543625 -10.365678 
527721951122421 40.773468 185.543625 -10.365678 
527721970915442 40.773468 185.543625 -10.365678 
527721990916119 40.773468 185.543625 -10.365678 
527722010918462 40.773468 185.543625 -10.365678 
527722030922317 40.773468 185.543625 -10.365678 
527722050915546 40.773468 185.543625 -10.365678 
527722070921900 40.773468 185.543625 -10.365678 
527722090922733 40.773468 185.543625 -10.365678 
527722110922004 40.773468 185.543625 -10.365678 
527722131172681 40.773468 185.543625 -10.365678 
527722150970806 40.773468 185.543625 -10.365678 
527722170916067 40.773468 185.543625 -10.365678 
527722190922785 40.773468 185.543625 -10.365678 
527722210916223 40.773468 185.543625 -10.365678 
527722230922473 40.773468 185.543625 -10.365678 
527722250916587 40.773468 185.543625 -10.365678 
527722270922368 40.773468 185.543625 -10.365678 
527722290916327 40.773468 185.543625 -10.365678 
527722310922577 40.773468 185.543625 -10.365678 
527722330915441 40.773468 185.543625 -10.365678 
527722350922369 40.773468 185.543625 -10.365678 
527722370916119 40.773468 185.543625 -10.365678 
527722390917785 40.773468 185.543625 -10.365678 
527722410915702 40.773468 185.543625 -10.365678 
527722430922473 40.773468 185.543625 -10.365678 
527722445506639 40.773468 185.543625 -10.365678 
527722450921431 40.773468 185.543625 -10.365678 
527722470922056 40.773468 185.543625 -10.365678 
527722491142577 40.773468 185.543625 -10.365678 
527722510971119 40.773468 185.543625 -10.365678 
527722530915598 40.773468 185.543625 -10.365678 
527722550922004 40.773468 185.543625 -10.365678 
527722570914765 40.773468 185.543625 -10.365678 
527722590915858 40.773468 185.543625 -10.365678 
527722610915337 40.773468 185.543625 -10.365678 
527722630921795 40.773468 185.543625 -10.365678 
527722650915285 40.773468 185.543625 -10.365678 
527722670922421 40.773468 185.543625 -10.365678 
527722690916431 40.773468 185.543625 -10.365678 
527722710922629 40.773468 185.543625 -10.365678 
527722730916484 40.773468 185.543625 -10.365678 
527722750922473 40.773468 185.543625 -10.365678 
527722770915181 40.773468 185.543625 -10.365678 
527722790915338 40.773468 185.543625 -10.365678 
527722810915233 40.773468 185.543625 -10.365678 
527722830922213 40.773468 185.543625 -10.365678 
527722851075338 40.773468 185.543625 -10.365678 
527722870969244 40.773468 185.543625 -10.365678 
527722890965077 40.773468 185.543625 -10.365678 
527722910922369 40.773468 185.543625 -10.365678 
527722930920442 40.773468 185.543625 -10.365678 
527722945629452 40.773468 185.543625 -10.365678 
527722951124920 40.773468 185.543625 -10.365678 
527722970916639 40.773468 185.543625 -10.365678 
527722990925077 40.773468 185.543625 -10.365678 
527723010917785 40.773468 185.543625 -10.365678 
