# Created at Thu Nov 07 18:03:53 EST 2019 in Burnaby Canada 
521077313428944 0.003797 -0.003950 0.006214 
521077333997798 0.003797 -0.003950 0.006214 
521077354566965 0.003797 -0.003950 0.006214 
521077375137694 0.003797 -0.003950 0.006214 
521077395706131 0.003797 -0.003950 0.006214 
521077416275924 0.003797 -0.003950 0.006214 
521077436845194 0.003797 -0.003950 0.006214 
521077457415455 0.003797 -0.003950 0.006214 
521077477983424 0.003797 -0.003950 0.006214 
521077498552330 0.003797 -0.003950 0.006214 
521077519121809 0.003797 -0.003950 0.006214 
521077539690923 0.003797 -0.003950 0.006214 
521077560260350 0.003797 -0.003950 0.006214 
521077580829517 0.003797 -0.003950 0.006214 
521077601398840 0.003797 -0.003950 0.006214 
521077621968267 0.003797 -0.003950 0.006214 
521077642537590 0.003797 -0.003950 0.006214 
521077663106757 0.003797 -0.003950 0.006214 
521077683676080 0.003797 -0.003950 0.006214 
521077704245455 0.003797 -0.003950 0.006214 
521077724814778 0.003797 -0.003950 0.006214 
521077745384362 0.003797 -0.003950 0.006214 
521077765953685 0.003797 -0.003950 0.006214 
521077786522798 0.003797 -0.003950 0.006214 
521077807092121 0.003797 -0.003950 0.006214 
521077827661391 0.003797 -0.003950 0.006214 
521077848230714 0.003797 -0.003950 0.006214 
521077868800246 0.003797 -0.003950 0.006214 
521077889369569 0.003797 -0.003950 0.006214 
521077909939048 0.003797 -0.003950 0.006214 
521077930508371 0.003797 -0.003950 0.006214 
521077951077381 0.003797 -0.003950 0.006214 
521077971647642 0.003797 -0.003950 0.006214 
521077992216861 0.003797 -0.003950 0.006214 
521078012785872 0.003797 -0.003950 0.006214 
521078033355141 0.003797 -0.003950 0.006214 
521078053924673 0.003797 -0.003950 0.006214 
521078074494256 0.003797 -0.003950 0.006214 
521078095063579 0.003797 -0.003950 0.006214 
521078115632590 0.003797 -0.003950 0.006214 
521078136201704 0.003797 -0.003950 0.006214 
521078156770871 0.003797 -0.003950 0.006214 
521078177340820 0.003797 -0.003950 0.006214 
521078197910351 0.003797 -0.003950 0.006214 
521078218479778 0.003797 -0.003950 0.006214 
521078239048632 0.003797 -0.003950 0.006214 
521078259617851 0.003797 -0.003950 0.006214 
521078280187225 0.003797 -0.003950 0.006214 
521078300755194 0.003797 -0.003950 0.006214 
521078321324517 0.003797 -0.003950 0.006214 
521078341894986 0.003797 -0.003950 0.006214 
521078362464309 0.003797 -0.003950 0.006214 
521078383033840 0.003797 -0.003950 0.006214 
521078403603163 0.003797 -0.003950 0.006214 
521078424172538 0.003797 -0.003950 0.006214 
521078444741861 0.003797 -0.003950 0.006214 
521078465311184 0.003797 -0.003950 0.006214 
521078485880507 0.003797 -0.003950 0.006214 
521078506449778 0.003797 -0.003950 0.006214 
521078527019101 0.003797 -0.003950 0.006214 
521078547588788 0.003797 -0.003950 0.006214 
521078568158111 0.003797 -0.003950 0.006214 
521078588727226 0.003797 -0.003950 0.006214 
521078609296548 0.003797 -0.003950 0.006214 
521078629865923 0.003797 -0.003950 0.006214 
521078650435089 0.003797 -0.003950 0.006214 
521078671004568 0.003797 -0.003950 0.006214 
521078691573736 0.003797 -0.003950 0.006214 
521078712143214 0.003797 -0.003950 0.006214 
521078732712798 0.003797 -0.003950 0.006214 
521078753281965 0.003797 -0.003950 0.006214 
521078773851808 0.003797 -0.003950 0.006214 
521078794420767 0.003797 -0.003950 0.006214 
521078814990715 0.003797 -0.003950 0.006214 
521078835559204 0.003797 -0.003950 0.006214 
521078856129100 0.003797 -0.003950 0.006214 
521078876697799 0.003797 -0.003950 0.006214 
521078897267903 0.003797 -0.003950 0.006214 
521078917836757 0.003797 -0.003950 0.006214 
521078938406704 0.003797 -0.003950 0.006214 
521078958975402 0.003797 -0.003950 0.006214 
521078979545142 0.003797 -0.003950 0.006214 
521079000114413 0.003797 -0.003950 0.006214 
521079020683474 0.003797 -0.003950 0.006214 
521079041252849 0.003797 -0.003950 0.006214 
521079061821964 0.003797 -0.003950 0.006214 
521079082391339 0.003797 -0.003950 0.006214 
521079102960975 0.003797 -0.003950 0.006214 
521079123530350 0.003797 -0.003950 0.006214 
521079144099256 0.003797 -0.003950 0.006214 
521079164668631 0.003797 -0.003950 0.006214 
521079185238163 0.003797 -0.003950 0.006214 
521079205807486 0.003797 -0.003950 0.006214 
521079226377225 0.003797 -0.003950 0.006214 
521079246946548 0.003797 -0.003950 0.006214 
521079267515142 0.003797 -0.003950 0.006214 
521079288084517 0.003797 -0.003950 0.006214 
521079308654256 0.003797 -0.003950 0.006214 
521079329223631 0.003797 -0.003950 0.006214 
521079349792433 0.003797 -0.003950 0.006214 
521079370361808 0.003797 -0.003950 0.006214 
521079390931131 0.003797 -0.003950 0.006214 
521079411501236 0.003797 -0.003950 0.006214 
521079432070923 0.003797 -0.003950 0.006214 
521079452640611 0.003797 -0.003950 0.006214 
521079473208579 0.003797 -0.003950 0.006214 
521079493778891 0.003797 -0.003950 0.006214 
521079514347329 0.003797 -0.003950 0.006214 
521079534917121 0.003797 -0.003950 0.006214 
521079555486340 0.003797 -0.003950 0.006214 
521079576056808 0.003797 -0.003950 0.006214 
521079596625923 0.003797 -0.003950 0.006214 
521079617195767 0.003797 -0.003950 0.006214 
521079637765402 0.003797 -0.003950 0.006214 
521079658334361 0.003797 -0.003950 0.006214 
521079678904100 0.003797 -0.003950 0.006214 
521079699474621 0.003797 -0.003950 0.006214 
521079720042798 0.003797 -0.003950 0.006214 
521079740612173 0.003797 -0.003950 0.006214 
521079761181548 0.003797 -0.003950 0.006214 
521079781749621 0.003797 -0.003950 0.006214 
521079802318996 0.003797 -0.003950 0.006214 
521079822887954 0.003797 -0.003950 0.006214 
521079843457329 0.003797 -0.003950 0.006214 
521079864026704 0.003797 -0.003950 0.006214 
521079884596026 0.003797 -0.003950 0.006214 
521079905165193 0.003797 -0.003950 0.006214 
521079925734568 0.003797 -0.003950 0.006214 
521079946304101 0.003797 -0.003950 0.006214 
521079966873476 0.003797 -0.003950 0.006214 
521079987443319 0.003797 -0.003950 0.006214 
521080008012694 0.003797 -0.003950 0.006214 
521080028582121 0.003797 -0.003950 0.006214 
521080049151496 0.003797 -0.003950 0.006214 
521080069721079 0.003797 -0.003950 0.006214 
521080090290454 0.003797 -0.003950 0.006214 
521080110859881 0.003797 -0.003950 0.006214 
521080131429100 0.003797 -0.003950 0.006214 
521080151999777 0.003797 -0.003950 0.006214 
521080172568007 0.003797 -0.003950 0.006214 
521080193136756 0.003797 -0.003950 0.006214 
521080213707485 0.003797 -0.003950 0.006214 
521080234276132 0.003797 -0.003950 0.006214 
521080254845715 0.003797 -0.003950 0.006214 
521080275414829 0.003797 -0.003950 0.006214 
521080295984204 0.003797 -0.003950 0.006214 
521080316552850 0.003797 -0.003950 0.006214 
521080337122954 0.003797 -0.003950 0.006214 
521080357691756 0.003797 -0.003950 0.006214 
521080378261183 0.003797 -0.003950 0.006214 
521080398829829 0.003797 -0.003950 0.006214 
521080419399777 0.003797 -0.003950 0.006214 
521080439969464 0.003797 -0.003950 0.006214 
521080460538631 0.003797 -0.003950 0.006214 
521080481108006 0.003797 -0.003950 0.006214 
521080501677381 0.003797 -0.003950 0.006214 
521080522246808 0.003797 -0.003950 0.006214 
521080542816964 0.003797 -0.003950 0.006214 
521080563386339 0.003797 -0.003950 0.006214 
521080583958162 0.003797 -0.003950 0.006214 
521080604527537 0.003797 -0.003950 0.006214 
521080625094412 0.003797 -0.003950 0.006214 
521080645663787 0.003797 -0.003950 0.006214 
521080666233370 0.003797 -0.003950 0.006214 
521080686802797 0.003797 -0.003950 0.006214 
521080707375610 0.003797 -0.003950 0.006214 
521080727944985 0.003797 -0.003950 0.006214 
521080748510610 0.003797 -0.003950 0.006214 
521080769079985 0.003797 -0.003950 0.006214 
521080789649256 0.003797 -0.003950 0.006214 
521080810218683 0.003797 -0.003950 0.006214 
521080830788891 0.003797 -0.003950 0.006214 
521080851357797 0.003797 -0.003950 0.006214 
521080871927120 0.003797 -0.003950 0.006214 
521080892496234 0.003797 -0.003950 0.006214 
521080913066964 0.003797 -0.003950 0.006214 
521080933635505 0.003797 -0.003950 0.006214 
521080954204567 0.003797 -0.003950 0.006214 
521080974774464 0.003797 -0.003950 0.006214 
521080995343265 0.003797 -0.003950 0.006214 
521081015913005 0.003797 -0.003950 0.006214 
521081036483526 0.003797 -0.003950 0.006214 
521081057051598 0.003797 -0.003950 0.006214 
521081077623734 0.003797 -0.003950 0.006214 
521081098192745 0.003797 -0.003950 0.006214 
521081118762173 0.003797 -0.003950 0.006214 
521081139329308 0.003797 -0.003950 0.006214 
521081159898422 0.003797 -0.003950 0.006214 
521081180468110 0.003797 -0.003950 0.006214 
521081201037485 0.003797 -0.003950 0.006214 
521081221606756 0.003797 -0.003950 0.006214 
521081242176131 0.003797 -0.003950 0.006214 
521081262745922 0.003797 -0.003950 0.006214 
521081283315297 0.003797 -0.003950 0.006214 
521081303884360 0.003797 -0.003950 0.006214 
521081324453735 0.003797 -0.003950 0.006214 
521081345023058 0.003797 -0.003950 0.006214 
521081365592433 0.003797 -0.003950 0.006214 
521081386162276 0.003797 -0.003950 0.006214 
521081406731703 0.003797 -0.003950 0.006214 
521081427302172 0.003797 -0.003950 0.006214 
521081447871599 0.003797 -0.003950 0.006214 
521081468439516 0.003797 -0.003950 0.006214 
521081489008943 0.003797 -0.003950 0.006214 
521081509577224 0.003797 -0.003950 0.006214 
521081530146651 0.003797 -0.003950 0.006214 
521081550716963 0.003797 -0.003950 0.006214 
521081571286390 0.003797 -0.003950 0.006214 
521081591855870 0.003797 -0.003950 0.006214 
521081612425819 0.003797 -0.003950 0.006214 
521081632995089 0.003797 -0.003950 0.006214 
521081653564359 0.003797 -0.003950 0.006214 
521081674134203 0.003797 -0.003950 0.006214 
521081694703631 0.003797 -0.003950 0.006214 
521081715272224 0.003797 -0.003950 0.006214 
521081735841339 0.003797 -0.003950 0.006214 
521081756410870 0.003797 -0.003950 0.006214 
521081776981547 0.003797 -0.003950 0.006214 
521081797550244 0.003797 -0.003950 0.006214 
521081818120973 0.003797 -0.003950 0.006214 
521081838689724 0.003797 -0.003950 0.006214 
521081859258682 0.003797 -0.003950 0.006214 
521081879828213 0.003797 -0.003950 0.006214 
521081900397744 0.003797 -0.003950 0.006214 
521081920967119 0.003797 -0.003950 0.006214 
521081941535140 0.003797 -0.003950 0.006214 
521081962104567 0.003797 -0.003950 0.006214 
521081982673890 0.003797 -0.003950 0.006214 
521082003243317 0.003797 -0.003950 0.006214 
521082023812744 0.003797 -0.003950 0.006214 
521082044382171 0.003797 -0.003950 0.006214 
521082064952900 0.003797 -0.003950 0.006214 
521082085522328 0.003797 -0.003950 0.006214 
521082106092016 0.003797 -0.003950 0.006214 
521082126661443 0.003797 -0.003950 0.006214 
521082147231495 0.003797 -0.003950 0.006214 
521082167800922 0.003797 -0.003950 0.006214 
521082188368630 0.003797 -0.003950 0.006214 
521082208938057 0.003797 -0.003950 0.006214 
521082229507589 0.003797 -0.003950 0.006214 
521082250077016 0.003797 -0.003950 0.006214 
521082270646286 0.003797 -0.003950 0.006214 
521082291216026 0.003797 -0.003950 0.006214 
521082311785349 0.003797 -0.003950 0.006214 
521082332354202 0.003797 -0.003950 0.006214 
521082352923213 0.003797 -0.003950 0.006214 
521082373492693 0.003797 -0.003950 0.006214 
521082394062223 0.003797 -0.003950 0.006214 
521082414631442 0.003797 -0.003950 0.006214 
521082435200818 0.003797 -0.003950 0.006214 
521082455770452 0.003797 -0.003950 0.006214 
521082476339671 0.003797 -0.003950 0.006214 
521082496909098 0.003797 -0.003950 0.006214 
521082517479932 0.003797 -0.003950 0.006214 
521082538048109 0.003797 -0.003950 0.006214 
521082558617223 0.003797 -0.003950 0.006214 
521082579189515 0.003797 -0.003950 0.006214 
521082599758943 0.003797 -0.003950 0.006214 
521082620328005 0.003797 -0.003950 0.006214 
521082640897432 0.003797 -0.003950 0.006214 
521082661466026 0.003797 -0.003950 0.006214 
521082682035453 0.003797 -0.003950 0.006214 
521082702604880 0.003797 -0.003950 0.006214 
521082723174307 0.003797 -0.003950 0.006214 
521082743743734 0.003797 -0.003950 0.006214 
521082764313161 0.003797 -0.003950 0.006214 
521082784881234 0.003797 -0.003950 0.006214 
521082805450661 0.003797 -0.003950 0.006214 
521082826019307 0.003797 -0.003950 0.006214 
521082846588734 0.003797 -0.003950 0.006214 
521082867158266 0.003797 -0.003950 0.006214 
521082887727693 0.003797 -0.003950 0.006214 
521082908296963 0.003797 -0.003950 0.006214 
521082928866390 0.003797 -0.003950 0.006214 
521082949435817 0.003797 -0.003950 0.006214 
521082970005244 0.003797 -0.003950 0.006214 
521082990575140 0.003797 -0.003950 0.006214 
521083011144046 0.003797 -0.003950 0.006214 
521083031713942 0.003797 -0.003950 0.006214 
521083052283369 0.003797 -0.003950 0.006214 
521083072852276 0.003797 -0.003950 0.006214 
521083093422119 0.003797 -0.003950 0.006214 
521083113991495 0.003797 -0.003950 0.006214 
521083134560765 0.003797 -0.003950 0.006214 
521083155129724 0.003797 -0.003950 0.006214 
521083175699307 0.003797 -0.003950 0.006214 
521083196268630 0.003797 -0.003950 0.006214 
521083216838526 0.003797 -0.003950 0.006214 
521083237407640 0.003797 -0.003950 0.006214 
521083257977120 0.003797 -0.003950 0.006214 
521083278546234 0.003797 -0.003950 0.006214 
521083299115973 0.003797 -0.003950 0.006214 
521083319685036 0.003797 -0.003950 0.006214 
521083340254932 0.003797 -0.003950 0.006214 
521083360823838 0.003797 -0.003950 0.006214 
521083381393212 0.003797 -0.003950 0.006214 
521083401962639 0.003797 -0.003950 0.006214 
521083422532015 0.003797 -0.003950 0.006214 
521083443101442 0.003797 -0.003950 0.006214 
521083463670713 0.003797 -0.003950 0.006214 
