# Created at Thu Nov 07 18:03:53 EST 2019 in Burnaby Canada 
521077310918423 45.002232 190.324265 -6.960118 
521077330917486 45.002232 190.324265 -6.960118 
521077350917850 45.002232 190.324265 -6.960118 
521077370917434 45.002232 190.324265 -6.960118 
521077390918267 45.002232 190.324265 -6.960118 
521077410917798 45.002232 190.324265 -6.960118 
521077430918841 45.002232 190.324265 -6.960118 
521077450918475 45.002232 190.324265 -6.960118 
521077470918996 45.002232 190.324265 -6.960118 
521077490920455 45.002232 190.324265 -6.960118 
521077510920768 45.002232 190.324265 -6.960118 
521077530917121 45.002232 190.324265 -6.960118 
521077550917278 45.002232 190.324265 -6.960118 
521077570921652 45.002232 190.324265 -6.960118 
521077590916965 45.002232 190.324265 -6.960118 
521077610917017 45.002232 190.324265 -6.960118 
521077630917382 45.002232 190.324265 -6.960118 
521077650917434 45.002232 190.324265 -6.960118 
521077670917069 45.002232 190.324265 -6.960118 
521077690923684 45.002232 190.324265 -6.960118 
521077710923007 45.002232 190.324265 -6.960118 
521077730918319 45.002232 190.324265 -6.960118 
521077750917487 45.002232 190.324265 -6.960118 
521077770917122 45.002232 190.324265 -6.960118 
521077790917590 45.002232 190.324265 -6.960118 
521077810917434 45.002232 190.324265 -6.960118 
521077830917225 45.002232 190.324265 -6.960118 
521077850917225 45.002232 190.324265 -6.960118 
521077870917434 45.002232 190.324265 -6.960118 
521077890920454 45.002232 190.324265 -6.960118 
521077910917902 45.002232 190.324265 -6.960118 
521077930917590 45.002232 190.324265 -6.960118 
521077951124412 45.002232 190.324265 -6.960118 
521077970917589 45.002232 190.324265 -6.960118 
521077990920246 45.002232 190.324265 -6.960118 
521078010917746 45.002232 190.324265 -6.960118 
521078030918059 45.002232 190.324265 -6.960118 
521078050917537 45.002232 190.324265 -6.960118 
521078070917590 45.002232 190.324265 -6.960118 
521078090924725 45.002232 190.324265 -6.960118 
521078110917798 45.002232 190.324265 -6.960118 
521078130918371 45.002232 190.324265 -6.960118 
521078150917642 45.002232 190.324265 -6.960118 
521078170917694 45.002232 190.324265 -6.960118 
521078190918112 45.002232 190.324265 -6.960118 
521078210918372 45.002232 190.324265 -6.960118 
521078230918476 45.002232 190.324265 -6.960118 
521078250917538 45.002232 190.324265 -6.960118 
521078270918424 45.002232 190.324265 -6.960118 
521078290919672 45.002232 190.324265 -6.960118 
521078310916340 45.002232 190.324265 -6.960118 
521078330916132 45.002232 190.324265 -6.960118 
521078350917330 45.002232 190.324265 -6.960118 
521078370917851 45.002232 190.324265 -6.960118 
521078390920663 45.002232 190.324265 -6.960118 
521078410917746 45.002232 190.324265 -6.960118 
521078430924309 45.002232 190.324265 -6.960118 
521078450917798 45.002232 190.324265 -6.960118 
521078470918215 45.002232 190.324265 -6.960118 
521078490917955 45.002232 190.324265 -6.960118 
521078510920507 45.002232 190.324265 -6.960118 
521078530918736 45.002232 190.324265 -6.960118 
521078550918267 45.002232 190.324265 -6.960118 
521078570952486 45.002232 190.324265 -6.960118 
521078591271653 45.002232 190.324265 -6.960118 
521078610927798 45.002232 190.324265 -6.960118 
521078630918527 45.002232 190.324265 -6.960118 
521078650917746 45.002232 190.324265 -6.960118 
521078670917173 45.002232 190.324265 -6.960118 
521078690930297 45.002232 190.324265 -6.960118 
521078710918215 45.002232 190.324265 -6.960118 
521078730917641 45.002232 190.324265 -6.960118 
521078750917590 45.002232 190.324265 -6.960118 
521078770918319 45.002232 190.324265 -6.960118 
521078790918318 45.002232 190.324265 -6.960118 
521078810918527 45.002232 190.324265 -6.960118 
521078830918579 45.002232 190.324265 -6.960118 
521078850917589 45.002232 190.324265 -6.960118 
521078870918787 45.002232 190.324265 -6.960118 
521078890917538 45.002232 190.324265 -6.960118 
521078910918267 45.002232 190.324265 -6.960118 
521078930946028 45.002232 190.324265 -6.960118 
521078951246860 45.002232 190.324265 -6.960118 
521078970917641 45.002232 190.324265 -6.960118 
521078990918319 45.002232 190.324265 -6.960118 
521079010917902 45.002232 190.324265 -6.960118 
521079030917693 45.002232 190.324265 -6.960118 
521079050917745 45.002232 190.324265 -6.960118 
521079070918891 45.002232 190.324265 -6.960118 
521079090918527 45.002232 190.324265 -6.960118 
521079110921913 45.002232 190.324265 -6.960118 
521079130918059 45.002232 190.324265 -6.960118 
521079150917381 45.002232 190.324265 -6.960118 
521079170917277 45.002232 190.324265 -6.960118 
521079190917538 45.002232 190.324265 -6.960118 
521079210917330 45.002232 190.324265 -6.960118 
521079230918111 45.002232 190.324265 -6.960118 
521079250918267 45.002232 190.324265 -6.960118 
521079270917225 45.002232 190.324265 -6.960118 
521079290948475 45.002232 190.324265 -6.960118 
521079311184777 45.002232 190.324265 -6.960118 
521079330964360 45.002232 190.324265 -6.960118 
521079350917693 45.002232 190.324265 -6.960118 
521079370917433 45.002232 190.324265 -6.960118 
521079390917746 45.002232 190.324265 -6.960118 
521079410917016 45.002232 190.324265 -6.960118 
521079430918736 45.002232 190.324265 -6.960118 
521079450918735 45.002232 190.324265 -6.960118 
521079470919673 45.002232 190.324265 -6.960118 
521079490917433 45.002232 190.324265 -6.960118 
521079510918005 45.002232 190.324265 -6.960118 
521079530917225 45.002232 190.324265 -6.960118 
521079550918162 45.002232 190.324265 -6.960118 
521079570923892 45.002232 190.324265 -6.960118 
521079590918735 45.002232 190.324265 -6.960118 
521079610918162 45.002232 190.324265 -6.960118 
521079630919621 45.002232 190.324265 -6.960118 
521079650919933 45.002232 190.324265 -6.960118 
521079671176965 45.002232 190.324265 -6.960118 
521079690966600 45.002232 190.324265 -6.960118 
521079710919933 45.002232 190.324265 -6.960118 
521079730919256 45.002232 190.324265 -6.960118 
521079750919256 45.002232 190.324265 -6.960118 
521079770933370 45.002232 190.324265 -6.960118 
521079790918110 45.002232 190.324265 -6.960118 
521079810919256 45.002232 190.324265 -6.960118 
521079830924777 45.002232 190.324265 -6.960118 
521079850917486 45.002232 190.324265 -6.960118 
521079870917329 45.002232 190.324265 -6.960118 
521079890917329 45.002232 190.324265 -6.960118 
521079910917641 45.002232 190.324265 -6.960118 
521079930917433 45.002232 190.324265 -6.960118 
521079951124153 45.002232 190.324265 -6.960118 
521079970918371 45.002232 190.324265 -6.960118 
521079990917850 45.002232 190.324265 -6.960118 
521080010917537 45.002232 190.324265 -6.960118 
521080031122798 45.002232 190.324265 -6.960118 
521080050964933 45.002232 190.324265 -6.960118 
521080070925402 45.002232 190.324265 -6.960118 
521080090917745 45.002232 190.324265 -6.960118 
521080110919152 45.002232 190.324265 -6.960118 
521080130927016 45.002232 190.324265 -6.960118 
521080150923267 45.002232 190.324265 -6.960118 
521080170919620 45.002232 190.324265 -6.960118 
521080190919255 45.002232 190.324265 -6.960118 
521080210917120 45.002232 190.324265 -6.960118 
521080230919047 45.002232 190.324265 -6.960118 
521080250918267 45.002232 190.324265 -6.960118 
521080270918840 45.002232 190.324265 -6.960118 
521080290917902 45.002232 190.324265 -6.960118 
521080310918422 45.002232 190.324265 -6.960118 
521080330919360 45.002232 190.324265 -6.960118 
521080350917381 45.002232 190.324265 -6.960118 
521080370917016 45.002232 190.324265 -6.960118 
521080391084256 45.002232 190.324265 -6.960118 
521080410964204 45.002232 190.324265 -6.960118 
521080430964152 45.002232 190.324265 -6.960118 
521080450917380 45.002232 190.324265 -6.960118 
521080470920766 45.002232 190.324265 -6.960118 
521080490917485 45.002232 190.324265 -6.960118 
521080510917172 45.002232 190.324265 -6.960118 
521080530917537 45.002232 190.324265 -6.960118 
521080550918058 45.002232 190.324265 -6.960118 
521080570918266 45.002232 190.324265 -6.960118 
521080590927068 45.002232 190.324265 -6.960118 
521080610921027 45.002232 190.324265 -6.960118 
521080630919308 45.002232 190.324265 -6.960118 
521080650917693 45.002232 190.324265 -6.960118 
521080670918266 45.002232 190.324265 -6.960118 
521080690917849 45.002232 190.324265 -6.960118 
521080710921339 45.002232 190.324265 -6.960118 
521080730920975 45.002232 190.324265 -6.960118 
521080751043683 45.002232 190.324265 -6.960118 
521080771043683 45.002232 190.324265 -6.960118 
521080790954672 45.002232 190.324265 -6.960118 
521080810917954 45.002232 190.324265 -6.960118 
521080830918006 45.002232 190.324265 -6.960118 
521080850919204 45.002232 190.324265 -6.960118 
521080870918526 45.002232 190.324265 -6.960118 
521080890920037 45.002232 190.324265 -6.960118 
521080910922432 45.002232 190.324265 -6.960118 
521080930931391 45.002232 190.324265 -6.960118 
521080951127120 45.002232 190.324265 -6.960118 
521080970918057 45.002232 190.324265 -6.960118 
521080990918318 45.002232 190.324265 -6.960118 
521081010917953 45.002232 190.324265 -6.960118 
521081030918110 45.002232 190.324265 -6.960118 
521081050919568 45.002232 190.324265 -6.960118 
521081070917693 45.002232 190.324265 -6.960118 
521081090921078 45.002232 190.324265 -6.960118 
521081111015402 45.002232 190.324265 -6.960118 
521081131015402 45.002232 190.324265 -6.960118 
521081150919099 45.002232 190.324265 -6.960118 
521081170917797 45.002232 190.324265 -6.960118 
521081190918422 45.002232 190.324265 -6.960118 
521081210918214 45.002232 190.324265 -6.960118 
521081230918214 45.002232 190.324265 -6.960118 
521081250918527 45.002232 190.324265 -6.960118 
521081270918682 45.002232 190.324265 -6.960118 
521081290918474 45.002232 190.324265 -6.960118 
521081310918422 45.002232 190.324265 -6.960118 
521081330917849 45.002232 190.324265 -6.960118 
521081350917954 45.002232 190.324265 -6.960118 
521081370920610 45.002232 190.324265 -6.960118 
521081390918526 45.002232 190.324265 -6.960118 
521081410918682 45.002232 190.324265 -6.960118 
521081430920662 45.002232 190.324265 -6.960118 
521081450920662 45.002232 190.324265 -6.960118 
521081470998422 45.002232 190.324265 -6.960118 
521081490998422 45.002232 190.324265 -6.960118 
521081510932172 45.002232 190.324265 -6.960118 
521081530917016 45.002232 190.324265 -6.960118 
521081550921599 45.002232 190.324265 -6.960118 
521081570917797 45.002232 190.324265 -6.960118 
521081590920401 45.002232 190.324265 -6.960118 
521081610917850 45.002232 190.324265 -6.960118 
521081630921286 45.002232 190.324265 -6.960118 
521081650918109 45.002232 190.324265 -6.960118 
521081670917953 45.002232 190.324265 -6.960118 
521081690924515 45.002232 190.324265 -6.960118 
521081710918266 45.002232 190.324265 -6.960118 
521081730918057 45.002232 190.324265 -6.960118 
521081750917276 45.002232 190.324265 -6.960118 
521081770917276 45.002232 190.324265 -6.960118 
521081790918943 45.002232 190.324265 -6.960118 
521081810957484 45.002232 190.324265 -6.960118 
521081830956858 45.002232 190.324265 -6.960118 
521081850956234 45.002232 190.324265 -6.960118 
521081870917849 45.002232 190.324265 -6.960118 
521081890921911 45.002232 190.324265 -6.960118 
521081910918578 45.002232 190.324265 -6.960118 
521081930918525 45.002232 190.324265 -6.960118 
521081951124046 45.002232 190.324265 -6.960118 
521081970917119 45.002232 190.324265 -6.960118 
521081990916911 45.002232 190.324265 -6.960118 
521082010917224 45.002232 190.324265 -6.960118 
521082030917015 45.002232 190.324265 -6.960118 
521082050917224 45.002232 190.324265 -6.960118 
521082070921650 45.002232 190.324265 -6.960118 
521082090919775 45.002232 190.324265 -6.960118 
521082110918891 45.002232 190.324265 -6.960118 
521082130918891 45.002232 190.324265 -6.960118 
521082150919359 45.002232 190.324265 -6.960118 
521082170919932 45.002232 190.324265 -6.960118 
521082190930921 45.002232 190.324265 -6.960118 
521082210930921 45.002232 190.324265 -6.960118 
521082230918578 45.002232 190.324265 -6.960118 
521082250918266 45.002232 190.324265 -6.960118 
521082270918995 45.002232 190.324265 -6.960118 
521082290917432 45.002232 190.324265 -6.960118 
521082310917588 45.002232 190.324265 -6.960118 
521082330928995 45.002232 190.324265 -6.960118 
521082350917692 45.002232 190.324265 -6.960118 
521082370916598 45.002232 190.324265 -6.960118 
521082390919672 45.002232 190.324265 -6.960118 
521082410917588 45.002232 190.324265 -6.960118 
521082430917432 45.002232 190.324265 -6.960118 
521082450917172 45.002232 190.324265 -6.960118 
521082470953786 45.002232 190.324265 -6.960118 
521082490917796 45.002232 190.324265 -6.960118 
521082510916963 45.002232 190.324265 -6.960118 
521082530918995 45.002232 190.324265 -6.960118 
521082550943630 45.002232 190.324265 -6.960118 
521082570942640 45.002232 190.324265 -6.960118 
521082590981338 45.002232 190.324265 -6.960118 
521082610919724 45.002232 190.324265 -6.960118 
521082630919515 45.002232 190.324265 -6.960118 
521082650925765 45.002232 190.324265 -6.960118 
521082670918838 45.002232 190.324265 -6.960118 
521082690919307 45.002232 190.324265 -6.960118 
521082710919619 45.002232 190.324265 -6.960118 
521082730918734 45.002232 190.324265 -6.960118 
521082750919150 45.002232 190.324265 -6.960118 
521082770922744 45.002232 190.324265 -6.960118 
521082790917692 45.002232 190.324265 -6.960118 
521082810917536 45.002232 190.324265 -6.960118 
521082830916859 45.002232 190.324265 -6.960118 
521082850920974 45.002232 190.324265 -6.960118 
521082870918839 45.002232 190.324265 -6.960118 
521082890917329 45.002232 190.324265 -6.960118 
521082910940349 45.002232 190.324265 -6.960118 
521082930940349 45.002232 190.324265 -6.960118 
521082951173161 45.002232 190.324265 -6.960118 
521082970916911 45.002232 190.324265 -6.960118 
521082990917276 45.002232 190.324265 -6.960118 
521083010917692 45.002232 190.324265 -6.960118 
521083030918109 45.002232 190.324265 -6.960118 
521083050917276 45.002232 190.324265 -6.960118 
521083070916703 45.002232 190.324265 -6.960118 
521083090917536 45.002232 190.324265 -6.960118 
521083110917014 45.002232 190.324265 -6.960118 
521083130917536 45.002232 190.324265 -6.960118 
521083150917483 45.002232 190.324265 -6.960118 
521083170916286 45.002232 190.324265 -6.960118 
521083190917119 45.002232 190.324265 -6.960118 
521083210918057 45.002232 190.324265 -6.960118 
521083230918161 45.002232 190.324265 -6.960118 
521083250917432 45.002232 190.324265 -6.960118 
521083270937328 45.002232 190.324265 -6.960118 
521083290937015 45.002232 190.324265 -6.960118 
521083310917901 45.002232 190.324265 -6.960118 
521083330917119 45.002232 190.324265 -6.960118 
521083350922120 45.002232 190.324265 -6.960118 
521083370916963 45.002232 190.324265 -6.960118 
521083390916910 45.002232 190.324265 -6.960118 
521083410917118 45.002232 190.324265 -6.960118 
521083430916338 45.002232 190.324265 -6.960118 
521083450917067 45.002232 190.324265 -6.960118 
521083470917067 45.002232 190.324265 -6.960118 
521083490923578 45.002232 190.324265 -6.960118 
