# Created at Thu Nov 07 19:00:11 EST 2019 in Burnaby Canada 
524454833783487 0.000157 -0.004427 0.006636 
524454854354165 0.000157 -0.004427 0.006636 
524454874922030 0.000157 -0.004427 0.006636 
524454895490051 0.000157 -0.004427 0.006636 
524454916057914 0.000157 -0.004427 0.006636 
524454936626508 0.000157 -0.004427 0.006636 
524454957194373 0.000157 -0.004427 0.006636 
524454977763748 0.000157 -0.004427 0.006636 
524454998332706 0.000157 -0.004427 0.006636 
524455018901092 0.000157 -0.004427 0.006636 
524455039470049 0.000157 -0.004427 0.006636 
524455060038175 0.000157 -0.004427 0.006636 
524455080606820 0.000157 -0.004427 0.006636 
524455101175571 0.000157 -0.004427 0.006636 
524455121744737 0.000157 -0.004427 0.006636 
524455142312863 0.000157 -0.004427 0.006636 
524455162881455 0.000157 -0.004427 0.006636 
524455183450311 0.000157 -0.004427 0.006636 
524455204018852 0.000157 -0.004427 0.006636 
524455224587706 0.000157 -0.004427 0.006636 
524455245156300 0.000157 -0.004427 0.006636 
524455265725103 0.000157 -0.004427 0.006636 
524455286293487 0.000157 -0.004427 0.006636 
524455306862394 0.000157 -0.004427 0.006636 
524455327431144 0.000157 -0.004427 0.006636 
524455347999372 0.000157 -0.004427 0.006636 
524455368568228 0.000157 -0.004427 0.006636 
524455389136717 0.000157 -0.004427 0.006636 
524455409705935 0.000157 -0.004427 0.006636 
524455430273956 0.000157 -0.004427 0.006636 
524455450843122 0.000157 -0.004427 0.006636 
524455471411300 0.000157 -0.004427 0.006636 
524455491980050 0.000157 -0.004427 0.006636 
524455512548540 0.000157 -0.004427 0.006636 
524455533117394 0.000157 -0.004427 0.006636 
524455553686040 0.000157 -0.004427 0.006636 
524455574254893 0.000157 -0.004427 0.006636 
524455594823383 0.000157 -0.004427 0.006636 
524455615392706 0.000157 -0.004427 0.006636 
524455635960571 0.000157 -0.004427 0.006636 
524455656529112 0.000157 -0.004427 0.006636 
524455677097915 0.000157 -0.004427 0.006636 
524455697666872 0.000157 -0.004427 0.006636 
524455718235050 0.000157 -0.004427 0.006636 
524455738805050 0.000157 -0.004427 0.006636 
524455759373904 0.000157 -0.004427 0.006636 
524455779941925 0.000157 -0.004427 0.006636 
524455800510779 0.000157 -0.004427 0.006636 
524455821079008 0.000157 -0.004427 0.006636 
524455841647653 0.000157 -0.004427 0.006636 
524455862216404 0.000157 -0.004427 0.006636 
524455882784790 0.000157 -0.004427 0.006636 
524455903353331 0.000157 -0.004427 0.006636 
524455923922602 0.000157 -0.004427 0.006636 
524455944491611 0.000157 -0.004427 0.006636 
524455965060206 0.000157 -0.004427 0.006636 
524455985628175 0.000157 -0.004427 0.006636 
524456006198331 0.000157 -0.004427 0.006636 
524456026766404 0.000157 -0.004427 0.006636 
524456047338175 0.000157 -0.004427 0.006636 
524456067904634 0.000157 -0.004427 0.006636 
524456088473488 0.000157 -0.004427 0.006636 
524456109041560 0.000157 -0.004427 0.006636 
524456129610309 0.000157 -0.004427 0.006636 
524456150178696 0.000157 -0.004427 0.006636 
524456170747601 0.000157 -0.004427 0.006636 
524456191316196 0.000157 -0.004427 0.006636 
524456211885467 0.000157 -0.004427 0.006636 
524456232453487 0.000157 -0.004427 0.006636 
524456253022133 0.000157 -0.004427 0.006636 
524456273590570 0.000157 -0.004427 0.006636 
524456294159425 0.000157 -0.004427 0.006636 
524456314727550 0.000157 -0.004427 0.006636 
524456335296560 0.000157 -0.004427 0.006636 
524456355865363 0.000157 -0.004427 0.006636 
524456376434269 0.000157 -0.004427 0.006636 
524456397002914 0.000157 -0.004427 0.006636 
524456417571404 0.000157 -0.004427 0.006636 
524456438140257 0.000157 -0.004427 0.006636 
524456458708695 0.000157 -0.004427 0.006636 
524456479277393 0.000157 -0.004427 0.006636 
524456499846561 0.000157 -0.004427 0.006636 
524456520414790 0.000157 -0.004427 0.006636 
524456540983383 0.000157 -0.004427 0.006636 
524456561552028 0.000157 -0.004427 0.006636 
524456582120309 0.000157 -0.004427 0.006636 
524456602689373 0.000157 -0.004427 0.006636 
524456623258227 0.000157 -0.004427 0.006636 
524456643827289 0.000157 -0.004427 0.006636 
524456664395519 0.000157 -0.004427 0.006636 
524456684964685 0.000157 -0.004427 0.006636 
524456705532602 0.000157 -0.004427 0.006636 
524456726101820 0.000157 -0.004427 0.006636 
524456746670153 0.000157 -0.004427 0.006636 
524456767238956 0.000157 -0.004427 0.006636 
524456787807809 0.000157 -0.004427 0.006636 
524456808375883 0.000157 -0.004427 0.006636 
524456828944529 0.000157 -0.004427 0.006636 
524456849513956 0.000157 -0.004427 0.006636 
524456870082133 0.000157 -0.004427 0.006636 
524456890650883 0.000157 -0.004427 0.006636 
524456911219424 0.000157 -0.004427 0.006636 
524456931788382 0.000157 -0.004427 0.006636 
524456952356560 0.000157 -0.004427 0.006636 
524456972925466 0.000157 -0.004427 0.006636 
524456993493800 0.000157 -0.004427 0.006636 
524457014062497 0.000157 -0.004427 0.006636 
524457034630050 0.000157 -0.004427 0.006636 
524457055200102 0.000157 -0.004427 0.006636 
524457075767654 0.000157 -0.004427 0.006636 
524457096338279 0.000157 -0.004427 0.006636 
524457116905466 0.000157 -0.004427 0.006636 
524457137474892 0.000157 -0.004427 0.006636 
524457158043643 0.000157 -0.004427 0.006636 
524457178612028 0.000157 -0.004427 0.006636 
524457199181612 0.000157 -0.004427 0.006636 
524457219749372 0.000157 -0.004427 0.006636 
524457240318851 0.000157 -0.004427 0.006636 
524457260887289 0.000157 -0.004427 0.006636 
524457281456821 0.000157 -0.004427 0.006636 
524457302024008 0.000157 -0.004427 0.006636 
524457322593591 0.000157 -0.004427 0.006636 
524457343161976 0.000157 -0.004427 0.006636 
524457363729580 0.000157 -0.004427 0.006636 
524457384299580 0.000157 -0.004427 0.006636 
524457404868435 0.000157 -0.004427 0.006636 
524457425435570 0.000157 -0.004427 0.006636 
524457446004216 0.000157 -0.004427 0.006636 
524457466572393 0.000157 -0.004427 0.006636 
524457487143122 0.000157 -0.004427 0.006636 
524457507711299 0.000157 -0.004427 0.006636 
524457528279007 0.000157 -0.004427 0.006636 
524457548847549 0.000157 -0.004427 0.006636 
524457569418904 0.000157 -0.004427 0.006636 
524457589986403 0.000157 -0.004427 0.006636 
524457610554008 0.000157 -0.004427 0.006636 
524457631122705 0.000157 -0.004427 0.006636 
524457651693069 0.000157 -0.004427 0.006636 
524457672261403 0.000157 -0.004427 0.006636 
524457692830310 0.000157 -0.004427 0.006636 
524457713398538 0.000157 -0.004427 0.006636 
524457733967862 0.000157 -0.004427 0.006636 
524457754536143 0.000157 -0.004427 0.006636 
524457775105414 0.000157 -0.004427 0.006636 
524457795673174 0.000157 -0.004427 0.006636 
524457816242133 0.000157 -0.004427 0.006636 
524457836811039 0.000157 -0.004427 0.006636 
524457857378330 0.000157 -0.004427 0.006636 
524457877947706 0.000157 -0.004427 0.006636 
524457898516351 0.000157 -0.004427 0.006636 
524457919084840 0.000157 -0.004427 0.006636 
524457939654319 0.000157 -0.004427 0.006636 
524457960222236 0.000157 -0.004427 0.006636 
524457980791351 0.000157 -0.004427 0.006636 
524458001361716 0.000157 -0.004427 0.006636 
524458021930153 0.000157 -0.004427 0.006636 
524458042498121 0.000157 -0.004427 0.006636 
524458063067497 0.000157 -0.004427 0.006636 
524458083634320 0.000157 -0.004427 0.006636 
524458104202810 0.000157 -0.004427 0.006636 
524458124771455 0.000157 -0.004427 0.006636 
524458145340570 0.000157 -0.004427 0.006636 
524458165909528 0.000157 -0.004427 0.006636 
524458186478643 0.000157 -0.004427 0.006636 
524458207046768 0.000157 -0.004427 0.006636 
524458227615466 0.000157 -0.004427 0.006636 
524458248184112 0.000157 -0.004427 0.006636 
524458268752602 0.000157 -0.004427 0.006636 
524458289322028 0.000157 -0.004427 0.006636 
524458309890465 0.000157 -0.004427 0.006636 
524458330459319 0.000157 -0.004427 0.006636 
524458351028277 0.000157 -0.004427 0.006636 
524458371596768 0.000157 -0.004427 0.006636 
524458392165205 0.000157 -0.004427 0.006636 
524458412733851 0.000157 -0.004427 0.006636 
524458433302392 0.000157 -0.004427 0.006636 
524458453871402 0.000157 -0.004427 0.006636 
524458474440309 0.000157 -0.004427 0.006636 
524458495009683 0.000157 -0.004427 0.006636 
524458515577861 0.000157 -0.004427 0.006636 
524458536147080 0.000157 -0.004427 0.006636 
524458556715153 0.000157 -0.004427 0.006636 
524458577285882 0.000157 -0.004427 0.006636 
524458597854371 0.000157 -0.004427 0.006636 
524458618422601 0.000157 -0.004427 0.006636 
524458638990153 0.000157 -0.004427 0.006636 
524458659558799 0.000157 -0.004427 0.006636 
524458680129632 0.000157 -0.004427 0.006636 
524458700695934 0.000157 -0.004427 0.006636 
524458721264996 0.000157 -0.004427 0.006636 
524458741834111 0.000157 -0.004427 0.006636 
524458762403643 0.000157 -0.004427 0.006636 
524458782973122 0.000157 -0.004427 0.006636 
524458803541247 0.000157 -0.004427 0.006636 
524458824109788 0.000157 -0.004427 0.006636 
524458844677185 0.000157 -0.004427 0.006636 
524458865246299 0.000157 -0.004427 0.006636 
524458885814945 0.000157 -0.004427 0.006636 
524458906383278 0.000157 -0.004427 0.006636 
524458926952185 0.000157 -0.004427 0.006636 
524458947521038 0.000157 -0.004427 0.006636 
524458968089788 0.000157 -0.004427 0.006636 
524458988658851 0.000157 -0.004427 0.006636 
524459009228174 0.000157 -0.004427 0.006636 
524459029798799 0.000157 -0.004427 0.006636 
524459050366299 0.000157 -0.004427 0.006636 
524459070934371 0.000157 -0.004427 0.006636 
524459091503018 0.000157 -0.004427 0.006636 
524459112074371 0.000157 -0.004427 0.006636 
524459132639893 0.000157 -0.004427 0.006636 
524459153208018 0.000157 -0.004427 0.006636 
524459173776976 0.000157 -0.004427 0.006636 
524459194345362 0.000157 -0.004427 0.006636 
524459214914683 0.000157 -0.004427 0.006636 
524459235482758 0.000157 -0.004427 0.006636 
524459256052132 0.000157 -0.004427 0.006636 
524459276620258 0.000157 -0.004427 0.006636 
524459297189164 0.000157 -0.004427 0.006636 
524459317758643 0.000157 -0.004427 0.006636 
524459338326924 0.000157 -0.004427 0.006636 
524459358895570 0.000157 -0.004427 0.006636 
524459379464841 0.000157 -0.004427 0.006636 
524459400033955 0.000157 -0.004427 0.006636 
524459420603278 0.000157 -0.004427 0.006636 
524459441171091 0.000157 -0.004427 0.006636 
524459461740830 0.000157 -0.004427 0.006636 
524459482308746 0.000157 -0.004427 0.006636 
524459502879424 0.000157 -0.004427 0.006636 
524459523446924 0.000157 -0.004427 0.006636 
524459544015257 0.000157 -0.004427 0.006636 
524459564585100 0.000157 -0.004427 0.006636 
524459585152496 0.000157 -0.004427 0.006636 
524459605720725 0.000157 -0.004427 0.006636 
524459626289580 0.000157 -0.004427 0.006636 
524459646859424 0.000157 -0.004427 0.006636 
524459667427913 0.000157 -0.004427 0.006636 
524459687996143 0.000157 -0.004427 0.006636 
524459708564216 0.000157 -0.004427 0.006636 
524459729133226 0.000157 -0.004427 0.006636 
524459749701663 0.000157 -0.004427 0.006636 
524459770271038 0.000157 -0.004427 0.006636 
524459790839319 0.000157 -0.004427 0.006636 
524459811408799 0.000157 -0.004427 0.006636 
524459831977965 0.000157 -0.004427 0.006636 
524459852546767 0.000157 -0.004427 0.006636 
524459873114997 0.000157 -0.004427 0.006636 
524459893683329 0.000157 -0.004427 0.006636 
524459914252027 0.000157 -0.004427 0.006636 
524459934821090 0.000157 -0.004427 0.006636 
524459955389528 0.000157 -0.004427 0.006636 
524459975959319 0.000157 -0.004427 0.006636 
524459996527757 0.000157 -0.004427 0.006636 
524460017097705 0.000157 -0.004427 0.006636 
524460037666089 0.000157 -0.004427 0.006636 
524460058235257 0.000157 -0.004427 0.006636 
524460078803694 0.000157 -0.004427 0.006636 
524460099373330 0.000157 -0.004427 0.006636 
524460119940934 0.000157 -0.004427 0.006636 
524460140510621 0.000157 -0.004427 0.006636 
524460161079162 0.000157 -0.004427 0.006636 
524460181647288 0.000157 -0.004427 0.006636 
524460202215569 0.000157 -0.004427 0.006636 
524460222785205 0.000157 -0.004427 0.006636 
524460243352496 0.000157 -0.004427 0.006636 
524460263922079 0.000157 -0.004427 0.006636 
524460284490152 0.000157 -0.004427 0.006636 
524460305060047 0.000157 -0.004427 0.006636 
524460325627496 0.000157 -0.004427 0.006636 
524460346197027 0.000157 -0.004427 0.006636 
524460366764995 0.000157 -0.004427 0.006636 
524460387333694 0.000157 -0.004427 0.006636 
524460407902392 0.000157 -0.004427 0.006636 
524460428471037 0.000157 -0.004427 0.006636 
524460449040673 0.000157 -0.004427 0.006636 
524460469609162 0.000157 -0.004427 0.006636 
524460490180256 0.000157 -0.004427 0.006636 
524460510748225 0.000157 -0.004427 0.006636 
524460531317601 0.000157 -0.004427 0.006636 
524460551886142 0.000157 -0.004427 0.006636 
524460572453486 0.000157 -0.004427 0.006636 
524460593022444 0.000157 -0.004427 0.006636 
524460613591038 0.000157 -0.004427 0.006636 
524460634159059 0.000157 -0.004427 0.006636 
524460654729632 0.000157 -0.004427 0.006636 
524460675297548 0.000157 -0.004427 0.006636 
524460695865361 0.000157 -0.004427 0.006636 
524460716434006 0.000157 -0.004427 0.006636 
524460737002548 0.000157 -0.004427 0.006636 
524460757571454 0.000157 -0.004427 0.006636 
524460778140048 0.000157 -0.004427 0.006636 
524460798709007 0.000157 -0.004427 0.006636 
524460819277756 0.000157 -0.004427 0.006636 
524460839846193 0.000157 -0.004427 0.006636 
524460860415204 0.000157 -0.004427 0.006636 
524460880983849 0.000157 -0.004427 0.006636 
524460901552652 0.000157 -0.004427 0.006636 
524460922121402 0.000157 -0.004427 0.006636 
524460942691245 0.000157 -0.004427 0.006636 
524460963259839 0.000157 -0.004427 0.006636 
524460983828954 0.000157 -0.004427 0.006636 
524461004397548 0.000157 -0.004427 0.006636 
524461024966402 0.000157 -0.004427 0.006636 
524461045534944 0.000157 -0.004427 0.006636 
524461066103954 0.000157 -0.004427 0.006636 
524461086673382 0.000157 -0.004427 0.006636 
524461107241402 0.000157 -0.004427 0.006636 
524461127809892 0.000157 -0.004427 0.006636 
524461148378798 0.000157 -0.004427 0.006636 
