# Created at Thu Nov 07 19:00:11 EST 2019 in Burnaby Canada 
524454850922862 40.773468 185.543625 -10.365678 
524454870923644 40.773468 185.543625 -10.365678 
524454890923332 40.773468 185.543625 -10.365678 
524454910922237 40.773468 185.543625 -10.365678 
524454930922342 40.773468 185.543625 -10.365678 
524454951128644 40.773468 185.543625 -10.365678 
524454970921456 40.773468 185.543625 -10.365678 
524454990916508 40.773468 185.543625 -10.365678 
524455011162289 40.773468 185.543625 -10.365678 
524455030968279 40.773468 185.543625 -10.365678 
524455050922237 40.773468 185.543625 -10.365678 
524455070922029 40.773468 185.543625 -10.365678 
524455090922341 40.773468 185.543625 -10.365678 
524455110922133 40.773468 185.543625 -10.365678 
524455130922341 40.773468 185.543625 -10.365678 
524455150922550 40.773468 185.543625 -10.365678 
524455170921976 40.773468 185.543625 -10.365678 
524455190921978 40.773468 185.543625 -10.365678 
524455210922290 40.773468 185.543625 -10.365678 
524455230922133 40.773468 185.543625 -10.365678 
524455250922185 40.773468 185.543625 -10.365678 
524455270923436 40.773468 185.543625 -10.365678 
524455290922028 40.773468 185.543625 -10.365678 
524455310922342 40.773468 185.543625 -10.365678 
524455330922082 40.773468 185.543625 -10.365678 
524455350915726 40.773468 185.543625 -10.365678 
524455371112966 40.773468 185.543625 -10.365678 
524455390969738 40.773468 185.543625 -10.365678 
524455410969321 40.773468 185.543625 -10.365678 
524455430922186 40.773468 185.543625 -10.365678 
524455450921925 40.773468 185.543625 -10.365678 
524455470922290 40.773468 185.543625 -10.365678 
524455490922029 40.773468 185.543625 -10.365678 
524455510921873 40.773468 185.543625 -10.365678 
524455530922290 40.773468 185.543625 -10.365678 
524455550922185 40.773468 185.543625 -10.365678 
524455570922081 40.773468 185.543625 -10.365678 
524455590922446 40.773468 185.543625 -10.365678 
524455610922185 40.773468 185.543625 -10.365678 
524455630921925 40.773468 185.543625 -10.365678 
524455650921717 40.773468 185.543625 -10.365678 
524455670922237 40.773468 185.543625 -10.365678 
524455690922029 40.773468 185.543625 -10.365678 
524455710921509 40.773468 185.543625 -10.365678 
524455731064686 40.773468 185.543625 -10.365678 
524455751066040 40.773468 185.543625 -10.365678 
524455770962289 40.773468 185.543625 -10.365678 
524455790922966 40.773468 185.543625 -10.365678 
524455810922914 40.773468 185.543625 -10.365678 
524455830922706 40.773468 185.543625 -10.365678 
524455850922705 40.773468 185.543625 -10.365678 
524455870916039 40.773468 185.543625 -10.365678 
524455890922134 40.773468 185.543625 -10.365678 
524455910922237 40.773468 185.543625 -10.365678 
524455930922497 40.773468 185.543625 -10.365678 
524455951130466 40.773468 185.543625 -10.365678 
524455970917290 40.773468 185.543625 -10.365678 
524455990922967 40.773468 185.543625 -10.365678 
524456010922289 40.773468 185.543625 -10.365678 
524456030923123 40.773468 185.543625 -10.365678 
524456050923435 40.773468 185.543625 -10.365678 
524456070918540 40.773468 185.543625 -10.365678 
524456091018957 40.773468 185.543625 -10.365678 
524456111018592 40.773468 185.543625 -10.365678 
524456130924217 40.773468 185.543625 -10.365678 
524456150924321 40.773468 185.543625 -10.365678 
524456170923696 40.773468 185.543625 -10.365678 
524456190924164 40.773468 185.543625 -10.365678 
524456210924321 40.773468 185.543625 -10.365678 
524456230924164 40.773468 185.543625 -10.365678 
524456250923487 40.773468 185.543625 -10.365678 
524456270917549 40.773468 185.543625 -10.365678 
524456290923851 40.773468 185.543625 -10.365678 
524456310923904 40.773468 185.543625 -10.365678 
524456330923748 40.773468 185.543625 -10.365678 
524456350923696 40.773468 185.543625 -10.365678 
524456370923800 40.773468 185.543625 -10.365678 
524456390924894 40.773468 185.543625 -10.365678 
524456410924164 40.773468 185.543625 -10.365678 
524456430924059 40.773468 185.543625 -10.365678 
524456450968799 40.773468 185.543625 -10.365678 
524456470968591 40.773468 185.543625 -10.365678 
524456490923591 40.773468 185.543625 -10.365678 
524456510924477 40.773468 185.543625 -10.365678 
524456530923436 40.773468 185.543625 -10.365678 
524456550923695 40.773468 185.543625 -10.365678 
524456570917445 40.773468 185.543625 -10.365678 
524456590923590 40.773468 185.543625 -10.365678 
524456610923696 40.773468 185.543625 -10.365678 
524456630923852 40.773468 185.543625 -10.365678 
524456650924164 40.773468 185.543625 -10.365678 
524456670917394 40.773468 185.543625 -10.365678 
524456691017914 40.773468 185.543625 -10.365678 
524456710923591 40.773468 185.543625 -10.365678 
524456730923748 40.773468 185.543625 -10.365678 
524456750923903 40.773468 185.543625 -10.365678 
524456770923643 40.773468 185.543625 -10.365678 
524456790935205 40.773468 185.543625 -10.365678 
524456810923695 40.773468 185.543625 -10.365678 
524456830923123 40.773468 185.543625 -10.365678 
524456850923748 40.773468 185.543625 -10.365678 
524456870923591 40.773468 185.543625 -10.365678 
524456890924112 40.773468 185.543625 -10.365678 
524456910923539 40.773468 185.543625 -10.365678 
524456930923591 40.773468 185.543625 -10.365678 
524456951131039 40.773468 185.543625 -10.365678 
524456970917706 40.773468 185.543625 -10.365678 
524456990923279 40.773468 185.543625 -10.365678 
524457010923748 40.773468 185.543625 -10.365678 
524457030921977 40.773468 185.543625 -10.365678 
524457050922289 40.773468 185.543625 -10.365678 
524457070922602 40.773468 185.543625 -10.365678 
524457090922549 40.773468 185.543625 -10.365678 
524457110923071 40.773468 185.543625 -10.365678 
524457130919633 40.773468 185.543625 -10.365678 
524457150917601 40.773468 185.543625 -10.365678 
524457170917758 40.773468 185.543625 -10.365678 
524457190917445 40.773468 185.543625 -10.365678 
524457210924372 40.773468 185.543625 -10.365678 
524457230923330 40.773468 185.543625 -10.365678 
524457250924893 40.773468 185.543625 -10.365678 
524457270917601 40.773468 185.543625 -10.365678 
524457290925102 40.773468 185.543625 -10.365678 
524457310923070 40.773468 185.543625 -10.365678 
524457330924216 40.773468 185.543625 -10.365678 
524457350923851 40.773468 185.543625 -10.365678 
524457370916664 40.773468 185.543625 -10.365678 
524457390923903 40.773468 185.543625 -10.365678 
524457410924164 40.773468 185.543625 -10.365678 
524457430922549 40.773468 185.543625 -10.365678 
524457450922237 40.773468 185.543625 -10.365678 
524457470921455 40.773468 185.543625 -10.365678 
524457490922028 40.773468 185.543625 -10.365678 
524457510917965 40.773468 185.543625 -10.365678 
524457530934840 40.773468 185.543625 -10.365678 
524457550933694 40.773468 185.543625 -10.365678 
524457570922497 40.773468 185.543625 -10.365678 
524457590924112 40.773468 185.543625 -10.365678 
524457610924528 40.773468 185.543625 -10.365678 
524457630923330 40.773468 185.543625 -10.365678 
524457650923018 40.773468 185.543625 -10.365678 
524457670918278 40.773468 185.543625 -10.365678 
524457690924112 40.773468 185.543625 -10.365678 
524457710924059 40.773468 185.543625 -10.365678 
524457730985361 40.773468 185.543625 -10.365678 
524457750924320 40.773468 185.543625 -10.365678 
524457770919841 40.773468 185.543625 -10.365678 
524457790923486 40.773468 185.543625 -10.365678 
524457810924007 40.773468 185.543625 -10.365678 
524457830924111 40.773468 185.543625 -10.365678 
524457850924007 40.773468 185.543625 -10.365678 
524457870917081 40.773468 185.543625 -10.365678 
524457890957914 40.773468 185.543625 -10.365678 
524457911352185 40.773468 185.543625 -10.365678 
524457930922965 40.773468 185.543625 -10.365678 
524457951130726 40.773468 185.543625 -10.365678 
524457970923434 40.773468 185.543625 -10.365678 
524457990923487 40.773468 185.543625 -10.365678 
524458010924997 40.773468 185.543625 -10.365678 
524458030925101 40.773468 185.543625 -10.365678 
524458050924319 40.773468 185.543625 -10.365678 
524458070918018 40.773468 185.543625 -10.365678 
524458090922705 40.773468 185.543625 -10.365678 
524458110922758 40.773468 185.543625 -10.365678 
524458130921871 40.773468 185.543625 -10.365678 
524458150922705 40.773468 185.543625 -10.365678 
524458170923017 40.773468 185.543625 -10.365678 
524458190923903 40.773468 185.543625 -10.365678 
524458210923122 40.773468 185.543625 -10.365678 
524458230922809 40.773468 185.543625 -10.365678 
524458250933851 40.773468 185.543625 -10.365678 
524458271309945 40.773468 185.543625 -10.365678 
524458290922393 40.773468 185.543625 -10.365678 
524458310922912 40.773468 185.543625 -10.365678 
524458330922860 40.773468 185.543625 -10.365678 
524458350923382 40.773468 185.543625 -10.365678 
524458370923173 40.773468 185.543625 -10.365678 
524458390922810 40.773468 185.543625 -10.365678 
524458410922705 40.773468 185.543625 -10.365678 
524458430922601 40.773468 185.543625 -10.365678 
524458450923174 40.773468 185.543625 -10.365678 
524458470916611 40.773468 185.543625 -10.365678 
524458490922497 40.773468 185.543625 -10.365678 
524458510922861 40.773468 185.543625 -10.365678 
524458530923017 40.773468 185.543625 -10.365678 
524458550922601 40.773468 185.543625 -10.365678 
524458570923122 40.773468 185.543625 -10.365678 
524458590918121 40.773468 185.543625 -10.365678 
524458610935569 40.773468 185.543625 -10.365678 
524458631252341 40.773468 185.543625 -10.365678 
524458650922913 40.773468 185.543625 -10.365678 
524458670922757 40.773468 185.543625 -10.365678 
524458690924736 40.773468 185.543625 -10.365678 
524458710922549 40.773468 185.543625 -10.365678 
524458730922652 40.773468 185.543625 -10.365678 
524458750923017 40.773468 185.543625 -10.365678 
524458770917601 40.773468 185.543625 -10.365678 
524458790924736 40.773468 185.543625 -10.365678 
524458810924216 40.773468 185.543625 -10.365678 
524458830923798 40.773468 185.543625 -10.365678 
524458850922549 40.773468 185.543625 -10.365678 
524458870923070 40.773468 185.543625 -10.365678 
524458890923122 40.773468 185.543625 -10.365678 
524458910922861 40.773468 185.543625 -10.365678 
524458930922028 40.773468 185.543625 -10.365678 
524458951129527 40.773468 185.543625 -10.365678 
524458970920829 40.773468 185.543625 -10.365678 
524458991203799 40.773468 185.543625 -10.365678 
524459010970465 40.773468 185.543625 -10.365678 
524459030925101 40.773468 185.543625 -10.365678 
524459050925517 40.773468 185.543625 -10.365678 
524459070923694 40.773468 185.543625 -10.365678 
524459090923381 40.773468 185.543625 -10.365678 
524459110925673 40.773468 185.543625 -10.365678 
524459130926141 40.773468 185.543625 -10.365678 
524459150922028 40.773468 185.543625 -10.365678 
524459170917236 40.773468 185.543625 -10.365678 
524459190922028 40.773468 185.543625 -10.365678 
524459210922132 40.773468 185.543625 -10.365678 
524459230961455 40.773468 185.543625 -10.365678 
524459250922080 40.773468 185.543625 -10.365678 
524459270922185 40.773468 185.543625 -10.365678 
524459290922393 40.773468 185.543625 -10.365678 
524459310922393 40.773468 185.543625 -10.365678 
524459330916820 40.773468 185.543625 -10.365678 
524459351155621 40.773468 185.543625 -10.365678 
524459370968122 40.773468 185.543625 -10.365678 
524459390922966 40.773468 185.543625 -10.365678 
524459410923017 40.773468 185.543625 -10.365678 
524459430924007 40.773468 185.543625 -10.365678 
524459450922966 40.773468 185.543625 -10.365678 
524459470918277 40.773468 185.543625 -10.365678 
524459490922964 40.773468 185.543625 -10.365678 
524459510924684 40.773468 185.543625 -10.365678 
524459530924163 40.773468 185.543625 -10.365678 
524459550922704 40.773468 185.543625 -10.365678 
524459570918485 40.773468 185.543625 -10.365678 
524459590923433 40.773468 185.543625 -10.365678 
524459610922444 40.773468 185.543625 -10.365678 
524459630922705 40.773468 185.543625 -10.365678 
524459650922913 40.773468 185.543625 -10.365678 
524459670923329 40.773468 185.543625 -10.365678 
524459690932183 40.773468 185.543625 -10.365678 
524459711108695 40.773468 185.543625 -10.365678 
524459730967809 40.773468 185.543625 -10.365678 
524459750968433 40.773468 185.543625 -10.365678 
524459770921923 40.773468 185.543625 -10.365678 
524459790922340 40.773468 185.543625 -10.365678 
524459810922235 40.773468 185.543625 -10.365678 
524459830923381 40.773468 185.543625 -10.365678 
524459850923069 40.773468 185.543625 -10.365678 
524459870916351 40.773468 185.543625 -10.365678 
524459890922809 40.773468 185.543625 -10.365678 
524459910922652 40.773468 185.543625 -10.365678 
524459930922339 40.773468 185.543625 -10.365678 
524459951129267 40.773468 185.543625 -10.365678 
524459970922028 40.773468 185.543625 -10.365678 
524459990923173 40.773468 185.543625 -10.365678 
524460010923173 40.773468 185.543625 -10.365678 
524460030918120 40.773468 185.543625 -10.365678 
524460050917808 40.773468 185.543625 -10.365678 
524460071075881 40.773468 185.543625 -10.365678 
524460091075881 40.773468 185.543625 -10.365678 
524460110962236 40.773468 185.543625 -10.365678 
524460130923799 40.773468 185.543625 -10.365678 
524460150924475 40.773468 185.543625 -10.365678 
524460170918589 40.773468 185.543625 -10.365678 
524460190924007 40.773468 185.543625 -10.365678 
524460210923277 40.773468 185.543625 -10.365678 
524460230924111 40.773468 185.543625 -10.365678 
524460250923121 40.773468 185.543625 -10.365678 
524460270920517 40.773468 185.543625 -10.365678 
524460290922756 40.773468 185.543625 -10.365678 
524460310923849 40.773468 185.543625 -10.365678 
524460330922757 40.773468 185.543625 -10.365678 
524460350923433 40.773468 185.543625 -10.365678 
524460370923590 40.773468 185.543625 -10.365678 
524460390922444 40.773468 185.543625 -10.365678 
524460410922496 40.773468 185.543625 -10.365678 
524460431014839 40.773468 185.543625 -10.365678 
524460451014839 40.773468 185.543625 -10.365678 
524460470922652 40.773468 185.543625 -10.365678 
524460490922444 40.773468 185.543625 -10.365678 
524460510924266 40.773468 185.543625 -10.365678 
524460530924787 40.773468 185.543625 -10.365678 
524460550924839 40.773468 185.543625 -10.365678 
524460570921714 40.773468 185.543625 -10.365678 
524460590923537 40.773468 185.543625 -10.365678 
524460610923642 40.773468 185.543625 -10.365678 
524460630922392 40.773468 185.543625 -10.365678 
524460650922184 40.773468 185.543625 -10.365678 
524460670923850 40.773468 185.543625 -10.365678 
524460690924110 40.773468 185.543625 -10.365678 
524460710922652 40.773468 185.543625 -10.365678 
524460730922756 40.773468 185.543625 -10.365678 
524460750922287 40.773468 185.543625 -10.365678 
524460770922652 40.773468 185.543625 -10.365678 
524460790968330 40.773468 185.543625 -10.365678 
524460810968330 40.773468 185.543625 -10.365678 
524460830922652 40.773468 185.543625 -10.365678 
524460850921974 40.773468 185.543625 -10.365678 
524460870922079 40.773468 185.543625 -10.365678 
524460890921505 40.773468 185.543625 -10.365678 
524460910921975 40.773468 185.543625 -10.365678 
524460930921871 40.773468 185.543625 -10.365678 
524460951129995 40.773468 185.543625 -10.365678 
524460970923016 40.773468 185.543625 -10.365678 
524460990923382 40.773468 185.543625 -10.365678 
524461010923277 40.773468 185.543625 -10.365678 
524461030923381 40.773468 185.543625 -10.365678 
524461050922964 40.773468 185.543625 -10.365678 
524461070922860 40.773468 185.543625 -10.365678 
524461090922860 40.773468 185.543625 -10.365678 
524461110922339 40.773468 185.543625 -10.365678 
524461130916610 40.773468 185.543625 -10.365678 
524461150923850 40.773468 185.543625 -10.365678 
