# Created at Thu Nov 07 19:33:01 EST 2019 in Burnaby Canada 
526424968916510 -0.000485 -0.006368 0.008720 
526424989487500 -0.000485 -0.006368 0.008720 
526425010057760 -0.000485 -0.006368 0.008720 
526425030628542 -0.000485 -0.006368 0.008720 
526425051199428 -0.000485 -0.006368 0.008720 
526425071770729 -0.000485 -0.006368 0.008720 
526425092341407 -0.000485 -0.006368 0.008720 
526425112912447 -0.000485 -0.006368 0.008720 
526425133483385 -0.000485 -0.006368 0.008720 
526425154054479 -0.000485 -0.006368 0.008720 
526425174625313 -0.000485 -0.006368 0.008720 
526425195196406 -0.000485 -0.006368 0.008720 
526425215767188 -0.000485 -0.006368 0.008720 
526425236338124 -0.000485 -0.006368 0.008720 
526425256909166 -0.000485 -0.006368 0.008720 
526425277480469 -0.000485 -0.006368 0.008720 
526425298051093 -0.000485 -0.006368 0.008720 
526425318622396 -0.000485 -0.006368 0.008720 
526425339193229 -0.000485 -0.006368 0.008720 
526425359763906 -0.000485 -0.006368 0.008720 
526425380334843 -0.000485 -0.006368 0.008720 
526425400905729 -0.000485 -0.006368 0.008720 
526425421476666 -0.000485 -0.006368 0.008720 
526425442048177 -0.000485 -0.006368 0.008720 
526425462619114 -0.000485 -0.006368 0.008720 
526425483189688 -0.000485 -0.006368 0.008720 
526425503760625 -0.000485 -0.006368 0.008720 
526425524331510 -0.000485 -0.006368 0.008720 
526425544902500 -0.000485 -0.006368 0.008720 
526425565473646 -0.000485 -0.006368 0.008720 
526425586044636 -0.000485 -0.006368 0.008720 
526425606615416 -0.000485 -0.006368 0.008720 
526425627186406 -0.000485 -0.006368 0.008720 
526425647757291 -0.000485 -0.006368 0.008720 
526425668328229 -0.000485 -0.006368 0.008720 
526425688899322 -0.000485 -0.006368 0.008720 
526425709470260 -0.000485 -0.006368 0.008720 
526425730041301 -0.000485 -0.006368 0.008720 
526425750612239 -0.000485 -0.006368 0.008720 
526425771182447 -0.000485 -0.006368 0.008720 
526425791754218 -0.000485 -0.006368 0.008720 
526425812325520 -0.000485 -0.006368 0.008720 
526425832896770 -0.000485 -0.006368 0.008720 
526425853467761 -0.000485 -0.006368 0.008720 
526425874040625 -0.000485 -0.006368 0.008720 
526425894610729 -0.000485 -0.006368 0.008720 
526425915180416 -0.000485 -0.006368 0.008720 
526425935750781 -0.000485 -0.006368 0.008720 
526425956321822 -0.000485 -0.006368 0.008720 
526425976893073 -0.000485 -0.006368 0.008720 
526425997464843 -0.000485 -0.006368 0.008720 
526426018034844 -0.000485 -0.006368 0.008720 
526426038608124 -0.000485 -0.006368 0.008720 
526426059179114 -0.000485 -0.006368 0.008720 
526426079750051 -0.000485 -0.006368 0.008720 
526426100318541 -0.000485 -0.006368 0.008720 
526426120889322 -0.000485 -0.006368 0.008720 
526426141460312 -0.000485 -0.006368 0.008720 
526426162031406 -0.000485 -0.006368 0.008720 
526426182602395 -0.000485 -0.006368 0.008720 
526426203174740 -0.000485 -0.006368 0.008720 
526426223745677 -0.000485 -0.006368 0.008720 
526426244315103 -0.000485 -0.006368 0.008720 
526426264886040 -0.000485 -0.006368 0.008720 
526426285457552 -0.000485 -0.006368 0.008720 
526426306028489 -0.000485 -0.006368 0.008720 
526426326600885 -0.000485 -0.006368 0.008720 
526426347171822 -0.000485 -0.006368 0.008720 
526426367743124 -0.000485 -0.006368 0.008720 
526426388314061 -0.000485 -0.006368 0.008720 
526426408884531 -0.000485 -0.006368 0.008720 
526426429455469 -0.000485 -0.006368 0.008720 
526426450024791 -0.000485 -0.006368 0.008720 
526426470595937 -0.000485 -0.006368 0.008720 
526426491166822 -0.000485 -0.006368 0.008720 
526426511737969 -0.000485 -0.006368 0.008720 
526426532308593 -0.000485 -0.006368 0.008720 
526426552880312 -0.000485 -0.006368 0.008720 
526426573453280 -0.000485 -0.006368 0.008720 
526426594023593 -0.000485 -0.006368 0.008720 
526426614594063 -0.000485 -0.006368 0.008720 
526426635164062 -0.000485 -0.006368 0.008720 
526426655734635 -0.000485 -0.006368 0.008720 
526426676305519 -0.000485 -0.006368 0.008720 
526426696876458 -0.000485 -0.006368 0.008720 
526426717448957 -0.000485 -0.006368 0.008720 
526426738020521 -0.000485 -0.006368 0.008720 
526426758591509 -0.000485 -0.006368 0.008720 
526426779162395 -0.000485 -0.006368 0.008720 
526426799732708 -0.000485 -0.006368 0.008720 
526426820303645 -0.000485 -0.006368 0.008720 
526426840875000 -0.000485 -0.006368 0.008720 
526426861445989 -0.000485 -0.006368 0.008720 
526426882016770 -0.000485 -0.006368 0.008720 
526426902587707 -0.000485 -0.006368 0.008720 
526426923157396 -0.000485 -0.006368 0.008720 
526426943728385 -0.000485 -0.006368 0.008720 
526426964299322 -0.000485 -0.006368 0.008720 
526426984870260 -0.000485 -0.006368 0.008720 
526427005441718 -0.000485 -0.006368 0.008720 
526427026012708 -0.000485 -0.006368 0.008720 
526427046584687 -0.000485 -0.006368 0.008720 
526427067155677 -0.000485 -0.006368 0.008720 
526427087725102 -0.000485 -0.006368 0.008720 
526427108296040 -0.000485 -0.006368 0.008720 
526427128868125 -0.000485 -0.006368 0.008720 
526427149439114 -0.000485 -0.006368 0.008720 
526427170009635 -0.000485 -0.006368 0.008720 
526427190581770 -0.000485 -0.006368 0.008720 
526427211151718 -0.000485 -0.006368 0.008720 
526427231721977 -0.000485 -0.006368 0.008720 
526427252292864 -0.000485 -0.006368 0.008720 
526427272864062 -0.000485 -0.006368 0.008720 
526427293434946 -0.000485 -0.006368 0.008720 
526427314006718 -0.000485 -0.006368 0.008720 
526427334578228 -0.000485 -0.006368 0.008720 
526427355149634 -0.000485 -0.006368 0.008720 
526427375720467 -0.000485 -0.006368 0.008720 
526427396292239 -0.000485 -0.006368 0.008720 
526427416862395 -0.000485 -0.006368 0.008720 
526427437433853 -0.000485 -0.006368 0.008720 
526427458004478 -0.000485 -0.006368 0.008720 
526427478574999 -0.000485 -0.006368 0.008720 
526427499145937 -0.000485 -0.006368 0.008720 
526427519716406 -0.000485 -0.006368 0.008720 
526427540287395 -0.000485 -0.006368 0.008720 
526427560858801 -0.000485 -0.006368 0.008720 
526427581429790 -0.000485 -0.006368 0.008720 
526427602001717 -0.000485 -0.006368 0.008720 
526427622572707 -0.000485 -0.006368 0.008720 
526427643144322 -0.000485 -0.006368 0.008720 
526427663715312 -0.000485 -0.006368 0.008720 
526427684285051 -0.000485 -0.006368 0.008720 
526427704856041 -0.000485 -0.006368 0.008720 
526427725427655 -0.000485 -0.006368 0.008720 
526427745998644 -0.000485 -0.006368 0.008720 
526427766569322 -0.000485 -0.006368 0.008720 
526427787140311 -0.000485 -0.006368 0.008720 
526427807711666 -0.000485 -0.006368 0.008720 
526427828282708 -0.000485 -0.006368 0.008720 
526427848852707 -0.000485 -0.006368 0.008720 
526427869423697 -0.000485 -0.006368 0.008720 
526427889994269 -0.000485 -0.006368 0.008720 
526427910567655 -0.000485 -0.006368 0.008720 
526427931137968 -0.000485 -0.006368 0.008720 
526427951708749 -0.000485 -0.006368 0.008720 
526427972280103 -0.000485 -0.006368 0.008720 
526427992850728 -0.000485 -0.006368 0.008720 
526428013421822 -0.000485 -0.006368 0.008720 
526428033992916 -0.000485 -0.006368 0.008720 
526428054563905 -0.000485 -0.006368 0.008720 
526428075134426 -0.000485 -0.006368 0.008720 
526428095706457 -0.000485 -0.006368 0.008720 
526428116275415 -0.000485 -0.006368 0.008720 
526428136846093 -0.000485 -0.006368 0.008720 
526428157417655 -0.000485 -0.006368 0.008720 
526428177988072 -0.000485 -0.006368 0.008720 
526428198559478 -0.000485 -0.006368 0.008720 
526428219130571 -0.000485 -0.006368 0.008720 
526428239701769 -0.000485 -0.006368 0.008720 
526428260272810 -0.000485 -0.006368 0.008720 
526428280844218 -0.000485 -0.006368 0.008720 
526428301415260 -0.000485 -0.006368 0.008720 
526428321985832 -0.000485 -0.006368 0.008720 
526428342556874 -0.000485 -0.006368 0.008720 
526428363127550 -0.000485 -0.006368 0.008720 
526428383698592 -0.000485 -0.006368 0.008720 
526428404269843 -0.000485 -0.006368 0.008720 
526428424840884 -0.000485 -0.006368 0.008720 
526428445412238 -0.000485 -0.006368 0.008720 
526428465983280 -0.000485 -0.006368 0.008720 
526428486554217 -0.000485 -0.006368 0.008720 
526428507125259 -0.000485 -0.006368 0.008720 
526428527695935 -0.000485 -0.006368 0.008720 
526428548266977 -0.000485 -0.006368 0.008720 
526428568838332 -0.000485 -0.006368 0.008720 
526428589409373 -0.000485 -0.006368 0.008720 
526428609980259 -0.000485 -0.006368 0.008720 
526428630552239 -0.000485 -0.006368 0.008720 
526428651122550 -0.000485 -0.006368 0.008720 
526428671693541 -0.000485 -0.006368 0.008720 
526428692264061 -0.000485 -0.006368 0.008720 
526428712835154 -0.000485 -0.006368 0.008720 
526428733405989 -0.000485 -0.006368 0.008720 
526428753977655 -0.000485 -0.006368 0.008720 
526428774547967 -0.000485 -0.006368 0.008720 
526428795119999 -0.000485 -0.006368 0.008720 
526428815690467 -0.000485 -0.006368 0.008720 
526428836261457 -0.000485 -0.006368 0.008720 
526428856832030 -0.000485 -0.006368 0.008720 
526428877402810 -0.000485 -0.006368 0.008720 
526428897974478 -0.000485 -0.006368 0.008720 
526428918546456 -0.000485 -0.006368 0.008720 
526428939116092 -0.000485 -0.006368 0.008720 
526428959686925 -0.000485 -0.006368 0.008720 
526428980257966 -0.000485 -0.006368 0.008720 
526429000830310 -0.000485 -0.006368 0.008720 
526429021401300 -0.000485 -0.006368 0.008720 
526429041971300 -0.000485 -0.006368 0.008720 
526429062542342 -0.000485 -0.006368 0.008720 
526429083113957 -0.000485 -0.006368 0.008720 
526429103684946 -0.000485 -0.006368 0.008720 
526429124260676 -0.000485 -0.006368 0.008720 
526429144831718 -0.000485 -0.006368 0.008720 
526429165397238 -0.000485 -0.006368 0.008720 
526429185968228 -0.000485 -0.006368 0.008720 
526429206539529 -0.000485 -0.006368 0.008720 
526429227110571 -0.000485 -0.006368 0.008720 
526429247681457 -0.000485 -0.006368 0.008720 
526429268252446 -0.000485 -0.006368 0.008720 
526429288823748 -0.000485 -0.006368 0.008720 
526429309394790 -0.000485 -0.006368 0.008720 
526429329965779 -0.000485 -0.006368 0.008720 
526429350536769 -0.000485 -0.006368 0.008720 
526429371107134 -0.000485 -0.006368 0.008720 
526429391677966 -0.000485 -0.006368 0.008720 
526429412249477 -0.000485 -0.006368 0.008720 
526429432820207 -0.000485 -0.006368 0.008720 
526429453391717 -0.000485 -0.006368 0.008720 
526429473963592 -0.000485 -0.006368 0.008720 
526429494534895 -0.000485 -0.006368 0.008720 
526429515106300 -0.000485 -0.006368 0.008720 
526429535677185 -0.000485 -0.006368 0.008720 
526429556247082 -0.000485 -0.006368 0.008720 
526429576817810 -0.000485 -0.006368 0.008720 
526429597388488 -0.000485 -0.006368 0.008720 
526429617959373 -0.000485 -0.006368 0.008720 
526429638530831 -0.000485 -0.006368 0.008720 
526429659101769 -0.000485 -0.006368 0.008720 
526429679672603 -0.000485 -0.006368 0.008720 
526429700243644 -0.000485 -0.006368 0.008720 
526429720814582 -0.000485 -0.006368 0.008720 
526429741385571 -0.000485 -0.006368 0.008720 
526429761956821 -0.000485 -0.006368 0.008720 
526429782527863 -0.000485 -0.006368 0.008720 
526429803098800 -0.000485 -0.006368 0.008720 
526429823669842 -0.000485 -0.006368 0.008720 
526429844240884 -0.000485 -0.006368 0.008720 
526429864811925 -0.000485 -0.006368 0.008720 
526429885383123 -0.000485 -0.006368 0.008720 
526429905954165 -0.000485 -0.006368 0.008720 
526429926525830 -0.000485 -0.006368 0.008720 
526429947096872 -0.000485 -0.006368 0.008720 
526429967667186 -0.000485 -0.006368 0.008720 
526429988238227 -0.000485 -0.006368 0.008720 
526430008809686 -0.000485 -0.006368 0.008720 
526430029380728 -0.000485 -0.006368 0.008720 
526430049952029 -0.000485 -0.006368 0.008720 
526430070522445 -0.000485 -0.006368 0.008720 
526430091093332 -0.000485 -0.006368 0.008720 
526430111664998 -0.000485 -0.006368 0.008720 
526430132235467 -0.000485 -0.006368 0.008720 
526430152806561 -0.000485 -0.006368 0.008720 
526430173377601 -0.000485 -0.006368 0.008720 
526430193948748 -0.000485 -0.006368 0.008720 
526430214519789 -0.000485 -0.006368 0.008720 
526430235091248 -0.000485 -0.006368 0.008720 
526430255662446 -0.000485 -0.006368 0.008720 
526430276233487 -0.000485 -0.006368 0.008720 
526430296804841 -0.000485 -0.006368 0.008720 
526430317375675 -0.000485 -0.006368 0.008720 
526430337946873 -0.000485 -0.006368 0.008720 
526430358516873 -0.000485 -0.006368 0.008720 
526430379088070 -0.000485 -0.006368 0.008720 
526430399659061 -0.000485 -0.006368 0.008720 
526430420230102 -0.000485 -0.006368 0.008720 
526430440801196 -0.000485 -0.006368 0.008720 
526430461372238 -0.000485 -0.006368 0.008720 
526430481943175 -0.000485 -0.006368 0.008720 
526430502514216 -0.000485 -0.006368 0.008720 
526430523085258 -0.000485 -0.006368 0.008720 
526430543656300 -0.000485 -0.006368 0.008720 
526430564227290 -0.000485 -0.006368 0.008720 
526430584798332 -0.000485 -0.006368 0.008720 
526430605369425 -0.000485 -0.006368 0.008720 
526430625940466 -0.000485 -0.006368 0.008720 
526430646511404 -0.000485 -0.006368 0.008720 
526430667082446 -0.000485 -0.006368 0.008720 
526430687653747 -0.000485 -0.006368 0.008720 
526430708224789 -0.000485 -0.006368 0.008720 
526430728795623 -0.000485 -0.006368 0.008720 
526430749366664 -0.000485 -0.006368 0.008720 
526430769937862 -0.000485 -0.006368 0.008720 
526430790508905 -0.000485 -0.006368 0.008720 
526430811079893 -0.000485 -0.006368 0.008720 
526430831651247 -0.000485 -0.006368 0.008720 
526430852222082 -0.000485 -0.006368 0.008720 
526430872793123 -0.000485 -0.006368 0.008720 
526430893364060 -0.000485 -0.006368 0.008720 
526430913935414 -0.000485 -0.006368 0.008720 
526430934506247 -0.000485 -0.006368 0.008720 
526430955077601 -0.000485 -0.006368 0.008720 
526430975648332 -0.000485 -0.006368 0.008720 
526430996219580 -0.000485 -0.006368 0.008720 
526431016790414 -0.000485 -0.006368 0.008720 
526431037361508 -0.000485 -0.006368 0.008720 
526431057932549 -0.000485 -0.006368 0.008720 
526431078503747 -0.000485 -0.006368 0.008720 
526431099075050 -0.000485 -0.006368 0.008720 
526431119645675 -0.000485 -0.006368 0.008720 
526431140216716 -0.000485 -0.006368 0.008720 
526431160787758 -0.000485 -0.006368 0.008720 
526431181358852 -0.000485 -0.006368 0.008720 
526431201929998 -0.000485 -0.006368 0.008720 
526431222501040 -0.000485 -0.006368 0.008720 
526431243071925 -0.000485 -0.006368 0.008720 
526431263642966 -0.000485 -0.006368 0.008720 
526431284213434 -0.000485 -0.006368 0.008720 
526431304784476 -0.000485 -0.006368 0.008720 
526431325356039 -0.000485 -0.006368 0.008720 
526431345927081 -0.000485 -0.006368 0.008720 
526431366498331 -0.000485 -0.006368 0.008720 
526431387069372 -0.000485 -0.006368 0.008720 
526431407640414 -0.000485 -0.006368 0.008720 
526431428211508 -0.000485 -0.006368 0.008720 
526431448782446 -0.000485 -0.006368 0.008720 
526431469353487 -0.000485 -0.006368 0.008720 
526431489924685 -0.000485 -0.006368 0.008720 
526431510495675 -0.000485 -0.006368 0.008720 
526431531066820 -0.000485 -0.006368 0.008720 
526431551638331 -0.000485 -0.006368 0.008720 
526431572208956 -0.000485 -0.006368 0.008720 
526431592780050 -0.000485 -0.006368 0.008720 
526431613351247 -0.000485 -0.006368 0.008720 
526431633922549 -0.000485 -0.006368 0.008720 
526431654493174 -0.000485 -0.006368 0.008720 
526431675064267 -0.000485 -0.006368 0.008720 
526431695635414 -0.000485 -0.006368 0.008720 
526431716206299 -0.000485 -0.006368 0.008720 
526431736777549 -0.000485 -0.006368 0.008720 
526431757348799 -0.000485 -0.006368 0.008720 
526431777919789 -0.000485 -0.006368 0.008720 
526431798490935 -0.000485 -0.006368 0.008720 
526431819061612 -0.000485 -0.006368 0.008720 
526431839632862 -0.000485 -0.006368 0.008720 
526431860203903 -0.000485 -0.006368 0.008720 
526431880774841 -0.000485 -0.006368 0.008720 
526431901345935 -0.000485 -0.006368 0.008720 
526431921917133 -0.000485 -0.006368 0.008720 
526431942488226 -0.000485 -0.006368 0.008720 
526431963059008 -0.000485 -0.006368 0.008720 
526431983630050 -0.000485 -0.006368 0.008720 
526432004201299 -0.000485 -0.006368 0.008720 
526432024772341 -0.000485 -0.006368 0.008720 
526432045343175 -0.000485 -0.006368 0.008720 
526432065914268 -0.000485 -0.006368 0.008720 
526432086485466 -0.000485 -0.006368 0.008720 
526432107056560 -0.000485 -0.006368 0.008720 
526432127627810 -0.000485 -0.006368 0.008720 
526432148198903 -0.000485 -0.006368 0.008720 
526432168769945 -0.000485 -0.006368 0.008720 
526432189340987 -0.000485 -0.006368 0.008720 
526432209911819 -0.000485 -0.006368 0.008720 
526432230482862 -0.000485 -0.006368 0.008720 
526432251054164 -0.000485 -0.006368 0.008720 
526432271625205 -0.000485 -0.006368 0.008720 
526432292196612 -0.000485 -0.006368 0.008720 
526432312767706 -0.000485 -0.006368 0.008720 
526432333338330 -0.000485 -0.006368 0.008720 
526432353909476 -0.000485 -0.006368 0.008720 
526432374480518 -0.000485 -0.006368 0.008720 
526432395051456 -0.000485 -0.006368 0.008720 
526432415622861 -0.000485 -0.006368 0.008720 
526432436193591 -0.000485 -0.006368 0.008720 
526432456764997 -0.000485 -0.006368 0.008720 
526432477335622 -0.000485 -0.006368 0.008720 
526432497906768 -0.000485 -0.006368 0.008720 
526432518477810 -0.000485 -0.006368 0.008720 
526432539049060 -0.000485 -0.006368 0.008720 
526432559619685 -0.000485 -0.006368 0.008720 
526432580190779 -0.000485 -0.006368 0.008720 
526432600762289 -0.000485 -0.006368 0.008720 
526432621333382 -0.000485 -0.006368 0.008720 
526432641904164 -0.000485 -0.006368 0.008720 
526432662475206 -0.000485 -0.006368 0.008720 
526432683046404 -0.000485 -0.006368 0.008720 
526432703617445 -0.000485 -0.006368 0.008720 
526432724188435 -0.000485 -0.006368 0.008720 
526432744759477 -0.000485 -0.006368 0.008720 
526432765330673 -0.000485 -0.006368 0.008720 
526432785901767 -0.000485 -0.006368 0.008720 
526432806472914 -0.000485 -0.006368 0.008720 
526432827044007 -0.000485 -0.006368 0.008720 
526432847614788 -0.000485 -0.006368 0.008720 
526432868185882 -0.000485 -0.006368 0.008720 
526432888757081 -0.000485 -0.006368 0.008720 
526432909328122 -0.000485 -0.006368 0.008720 
526432929899163 -0.000485 -0.006368 0.008720 
526432950470310 -0.000485 -0.006368 0.008720 
526432971041194 -0.000485 -0.006368 0.008720 
526432991612289 -0.000485 -0.006368 0.008720 
526433012183227 -0.000485 -0.006368 0.008720 
526433032754632 -0.000485 -0.006368 0.008720 
526433053325517 -0.000485 -0.006368 0.008720 
526433073896872 -0.000485 -0.006368 0.008720 
526433094467602 -0.000485 -0.006368 0.008720 
526433115039111 -0.000485 -0.006368 0.008720 
526433135609789 -0.000485 -0.006368 0.008720 
526433156180987 -0.000485 -0.006368 0.008720 
526433176751976 -0.000485 -0.006368 0.008720 
526433197322913 -0.000485 -0.006368 0.008720 
526433217893800 -0.000485 -0.006368 0.008720 
526433238465048 -0.000485 -0.006368 0.008720 
526433259036090 -0.000485 -0.006368 0.008720 
526433279607185 -0.000485 -0.006368 0.008720 
526433300178279 -0.000485 -0.006368 0.008720 
526433320749215 -0.000485 -0.006368 0.008720 
526433341320257 -0.000485 -0.006368 0.008720 
526433361891507 -0.000485 -0.006368 0.008720 
526433382462548 -0.000485 -0.006368 0.008720 
526433403034007 -0.000485 -0.006368 0.008720 
526433423605101 -0.000485 -0.006368 0.008720 
526433444176090 -0.000485 -0.006368 0.008720 
526433464747132 -0.000485 -0.006368 0.008720 
526433485318330 -0.000485 -0.006368 0.008720 
526433505889371 -0.000485 -0.006368 0.008720 
526433526460413 -0.000485 -0.006368 0.008720 
526433547031507 -0.000485 -0.006368 0.008720 
526433567603070 -0.000485 -0.006368 0.008720 
526433588174111 -0.000485 -0.006368 0.008720 
526433608744944 -0.000485 -0.006368 0.008720 
526433629315986 -0.000485 -0.006368 0.008720 
526433649886663 -0.000485 -0.006368 0.008720 
526433670457861 -0.000485 -0.006368 0.008720 
526433691029163 -0.000485 -0.006368 0.008720 
526433711600465 -0.000485 -0.006368 0.008720 
526433732171142 -0.000485 -0.006368 0.008720 
526433752742028 -0.000485 -0.006368 0.008720 
526433773313590 -0.000485 -0.006368 0.008720 
526433793884476 -0.000485 -0.006368 0.008720 
526433814455153 -0.000485 -0.006368 0.008720 
526433835026507 -0.000485 -0.006368 0.008720 
526433855597340 -0.000485 -0.006368 0.008720 
526433876168642 -0.000485 -0.006368 0.008720 
526433896739424 -0.000485 -0.006368 0.008720 
526433917310517 -0.000485 -0.006368 0.008720 
526433937881715 -0.000485 -0.006368 0.008720 
526433958452705 -0.000485 -0.006368 0.008720 
526433979023851 -0.000485 -0.006368 0.008720 
526433999594736 -0.000485 -0.006368 0.008720 
526434020165830 -0.000485 -0.006368 0.008720 
526434040736767 -0.000485 -0.006368 0.008720 
526434061307809 -0.000485 -0.006368 0.008720 
526434081878903 -0.000485 -0.006368 0.008720 
526434102449997 -0.000485 -0.006368 0.008720 
526434123021403 -0.000485 -0.006368 0.008720 
526434143592445 -0.000485 -0.006368 0.008720 
526434164163122 -0.000485 -0.006368 0.008720 
526434184734215 -0.000485 -0.006368 0.008720 
526434205305309 -0.000485 -0.006368 0.008720 
526434225876351 -0.000485 -0.006368 0.008720 
526434246447392 -0.000485 -0.006368 0.008720 
526434267018486 -0.000485 -0.006368 0.008720 
526434287590152 -0.000485 -0.006368 0.008720 
526434308161193 -0.000485 -0.006368 0.008720 
