# Created at Thu Nov 07 17:59:55 EST 2019 in Burnaby Canada 
520839700937941 0.003797 -0.003950 0.006214 
520839721506328 0.003797 -0.003950 0.006214 
520839742074660 0.003797 -0.003950 0.006214 
520839762643463 0.003797 -0.003950 0.006214 
520839783211744 0.003797 -0.003950 0.006214 
520839803780805 0.003797 -0.003950 0.006214 
520839824348983 0.003797 -0.003950 0.006214 
520839844917525 0.003797 -0.003950 0.006214 
520839865486691 0.003797 -0.003950 0.006214 
520839886055233 0.003797 -0.003950 0.006214 
520839906623203 0.003797 -0.003950 0.006214 
520839927191483 0.003797 -0.003950 0.006214 
520839947760077 0.003797 -0.003950 0.006214 
520839968328514 0.003797 -0.003950 0.006214 
520839988897160 0.003797 -0.003950 0.006214 
520840009465702 0.003797 -0.003950 0.006214 
520840030034140 0.003797 -0.003950 0.006214 
520840050602941 0.003797 -0.003950 0.006214 
520840071171379 0.003797 -0.003950 0.006214 
520840091739816 0.003797 -0.003950 0.006214 
520840112308254 0.003797 -0.003950 0.006214 
520840132877160 0.003797 -0.003950 0.006214 
520840153445597 0.003797 -0.003950 0.006214 
520840174013931 0.003797 -0.003950 0.006214 
520840194582473 0.003797 -0.003950 0.006214 
520840215151066 0.003797 -0.003950 0.006214 
520840235719503 0.003797 -0.003950 0.006214 
520840256287994 0.003797 -0.003950 0.006214 
520840276856743 0.003797 -0.003950 0.006214 
520840297425077 0.003797 -0.003950 0.006214 
520840317993931 0.003797 -0.003950 0.006214 
520840338562264 0.003797 -0.003950 0.006214 
520840359131119 0.003797 -0.003950 0.006214 
520840379699557 0.003797 -0.003950 0.006214 
520840400267837 0.003797 -0.003950 0.006214 
520840420836275 0.003797 -0.003950 0.006214 
520840441404817 0.003797 -0.003950 0.006214 
520840461973357 0.003797 -0.003950 0.006214 
520840482542160 0.003797 -0.003950 0.006214 
520840503110441 0.003797 -0.003950 0.006214 
520840523681326 0.003797 -0.003950 0.006214 
520840544248254 0.003797 -0.003950 0.006214 
520840564818201 0.003797 -0.003950 0.006214 
520840585385961 0.003797 -0.003950 0.006214 
520840605953774 0.003797 -0.003950 0.006214 
520840626521951 0.003797 -0.003950 0.006214 
520840647090128 0.003797 -0.003950 0.006214 
520840667658775 0.003797 -0.003950 0.006214 
520840688227576 0.003797 -0.003950 0.006214 
520840708796431 0.003797 -0.003950 0.006214 
520840729364348 0.003797 -0.003950 0.006214 
520840749932785 0.003797 -0.003950 0.006214 
520840770501639 0.003797 -0.003950 0.006214 
520840791069920 0.003797 -0.003950 0.006214 
520840811638930 0.003797 -0.003950 0.006214 
520840832207369 0.003797 -0.003950 0.006214 
520840852776431 0.003797 -0.003950 0.006214 
520840873345128 0.003797 -0.003950 0.006214 
520840893913410 0.003797 -0.003950 0.006214 
520840914481951 0.003797 -0.003950 0.006214 
520840935051534 0.003797 -0.003950 0.006214 
520840955618774 0.003797 -0.003950 0.006214 
520840976187577 0.003797 -0.003950 0.006214 
520840996755336 0.003797 -0.003950 0.006214 
520841017323827 0.003797 -0.003950 0.006214 
520841037892472 0.003797 -0.003950 0.006214 
520841058460857 0.003797 -0.003950 0.006214 
520841079029920 0.003797 -0.003950 0.006214 
520841099598201 0.003797 -0.003950 0.006214 
520841120166691 0.003797 -0.003950 0.006214 
520841140735077 0.003797 -0.003950 0.006214 
520841161303774 0.003797 -0.003950 0.006214 
520841181872263 0.003797 -0.003950 0.006214 
520841202441014 0.003797 -0.003950 0.006214 
520841223009712 0.003797 -0.003950 0.006214 
520841243577993 0.003797 -0.003950 0.006214 
520841264146535 0.003797 -0.003950 0.006214 
520841284715389 0.003797 -0.003950 0.006214 
520841305283514 0.003797 -0.003950 0.006214 
520841325854139 0.003797 -0.003950 0.006214 
520841346420909 0.003797 -0.003950 0.006214 
520841366989348 0.003797 -0.003950 0.006214 
520841387557784 0.003797 -0.003950 0.006214 
520841408129035 0.003797 -0.003950 0.006214 
520841428696691 0.003797 -0.003950 0.006214 
520841449265857 0.003797 -0.003950 0.006214 
520841469834035 0.003797 -0.003950 0.006214 
520841490403097 0.003797 -0.003950 0.006214 
520841510971639 0.003797 -0.003950 0.006214 
520841531539191 0.003797 -0.003950 0.006214 
520841552106378 0.003797 -0.003950 0.006214 
520841572675546 0.003797 -0.003950 0.006214 
520841593243722 0.003797 -0.003950 0.006214 
520841613812108 0.003797 -0.003950 0.006214 
520841634380493 0.003797 -0.003950 0.006214 
520841654949086 0.003797 -0.003950 0.006214 
520841675517941 0.003797 -0.003950 0.006214 
520841696086222 0.003797 -0.003950 0.006214 
520841716655075 0.003797 -0.003950 0.006214 
520841737223357 0.003797 -0.003950 0.006214 
520841757791847 0.003797 -0.003950 0.006214 
520841778360702 0.003797 -0.003950 0.006214 
520841798929087 0.003797 -0.003950 0.006214 
520841819497576 0.003797 -0.003950 0.006214 
520841840067108 0.003797 -0.003950 0.006214 
520841860635753 0.003797 -0.003950 0.006214 
520841881204139 0.003797 -0.003950 0.006214 
520841901772472 0.003797 -0.003950 0.006214 
520841922342994 0.003797 -0.003950 0.006214 
520841942911170 0.003797 -0.003950 0.006214 
520841963478722 0.003797 -0.003950 0.006214 
520841984047993 0.003797 -0.003950 0.006214 
520842004615179 0.003797 -0.003950 0.006214 
520842025183148 0.003797 -0.003950 0.006214 
520842045752055 0.003797 -0.003950 0.006214 
520842066320389 0.003797 -0.003950 0.006214 
520842086889398 0.003797 -0.003950 0.006214 
520842107457576 0.003797 -0.003950 0.006214 
520842128027681 0.003797 -0.003950 0.006214 
520842148595648 0.003797 -0.003950 0.006214 
520842169164242 0.003797 -0.003950 0.006214 
520842189732576 0.003797 -0.003950 0.006214 
520842210301638 0.003797 -0.003950 0.006214 
520842230869659 0.003797 -0.003950 0.006214 
520842251438253 0.003797 -0.003950 0.006214 
520842272007055 0.003797 -0.003950 0.006214 
520842292576171 0.003797 -0.003950 0.006214 
520842313143565 0.003797 -0.003950 0.006214 
520842333713253 0.003797 -0.003950 0.006214 
520842354282055 0.003797 -0.003950 0.006214 
520842374849034 0.003797 -0.003950 0.006214 
520842395418305 0.003797 -0.003950 0.006214 
520842415986951 0.003797 -0.003950 0.006214 
520842436555597 0.003797 -0.003950 0.006214 
520842457123982 0.003797 -0.003950 0.006214 
520842477692628 0.003797 -0.003950 0.006214 
520842498261327 0.003797 -0.003950 0.006214 
520842518831378 0.003797 -0.003950 0.006214 
520842539399972 0.003797 -0.003950 0.006214 
520842559968774 0.003797 -0.003950 0.006214 
520842580536535 0.003797 -0.003950 0.006214 
520842601103826 0.003797 -0.003950 0.006214 
520842621672263 0.003797 -0.003950 0.006214 
520842642241795 0.003797 -0.003950 0.006214 
520842662809555 0.003797 -0.003950 0.006214 
520842683378304 0.003797 -0.003950 0.006214 
520842703946691 0.003797 -0.003950 0.006214 
520842724515805 0.003797 -0.003950 0.006214 
520842745084243 0.003797 -0.003950 0.006214 
520842765652731 0.003797 -0.003950 0.006214 
520842786221065 0.003797 -0.003950 0.006214 
520842806789660 0.003797 -0.003950 0.006214 
520842827358149 0.003797 -0.003950 0.006214 
520842847929607 0.003797 -0.003950 0.006214 
520842868495805 0.003797 -0.003950 0.006214 
520842889064815 0.003797 -0.003950 0.006214 
520842909633097 0.003797 -0.003950 0.006214 
520842930203252 0.003797 -0.003950 0.006214 
520842950771638 0.003797 -0.003950 0.006214 
520842971340597 0.003797 -0.003950 0.006214 
520842991907524 0.003797 -0.003950 0.006214 
520843012476638 0.003797 -0.003950 0.006214 
520843033044659 0.003797 -0.003950 0.006214 
520843053612107 0.003797 -0.003950 0.006214 
520843074180701 0.003797 -0.003950 0.006214 
520843094750752 0.003797 -0.003950 0.006214 
520843115320127 0.003797 -0.003950 0.006214 
520843135888877 0.003797 -0.003950 0.006214 
520843156457420 0.003797 -0.003950 0.006214 
520843177025076 0.003797 -0.003950 0.006214 
520843197593356 0.003797 -0.003950 0.006214 
520843218161794 0.003797 -0.003950 0.006214 
520843238731847 0.003797 -0.003950 0.006214 
520843259298825 0.003797 -0.003950 0.006214 
520843279868148 0.003797 -0.003950 0.006214 
520843300436743 0.003797 -0.003950 0.006214 
520843321005596 0.003797 -0.003950 0.006214 
520843341573513 0.003797 -0.003950 0.006214 
520843362141794 0.003797 -0.003950 0.006214 
520843382710648 0.003797 -0.003950 0.006214 
520843403279711 0.003797 -0.003950 0.006214 
520843423848461 0.003797 -0.003950 0.006214 
520843444420335 0.003797 -0.003950 0.006214 
520843464986430 0.003797 -0.003950 0.006214 
520843485554555 0.003797 -0.003950 0.006214 
520843506122054 0.003797 -0.003950 0.006214 
520843526690857 0.003797 -0.003950 0.006214 
520843547259138 0.003797 -0.003950 0.006214 
520843567828669 0.003797 -0.003950 0.006214 
520843588396899 0.003797 -0.003950 0.006214 
520843608967211 0.003797 -0.003950 0.006214 
520843629535387 0.003797 -0.003950 0.006214 
520843650102836 0.003797 -0.003950 0.006214 
520843670671117 0.003797 -0.003950 0.006214 
520843691240961 0.003797 -0.003950 0.006214 
520843711809502 0.003797 -0.003950 0.006214 
520843732379763 0.003797 -0.003950 0.006214 
520843752946639 0.003797 -0.003950 0.006214 
520843773515543 0.003797 -0.003950 0.006214 
520843794084242 0.003797 -0.003950 0.006214 
520843814652419 0.003797 -0.003950 0.006214 
520843835220128 0.003797 -0.003950 0.006214 
520843855788513 0.003797 -0.003950 0.006214 
520843876357732 0.003797 -0.003950 0.006214 
520843896925023 0.003797 -0.003950 0.006214 
520843917496170 0.003797 -0.003950 0.006214 
520843938064085 0.003797 -0.003950 0.006214 
520843958631169 0.003797 -0.003950 0.006214 
520843979199502 0.003797 -0.003950 0.006214 
520843999768149 0.003797 -0.003950 0.006214 
520844020336742 0.003797 -0.003950 0.006214 
520844040905492 0.003797 -0.003950 0.006214 
520844061473929 0.003797 -0.003950 0.006214 
520844082042523 0.003797 -0.003950 0.006214 
520844102611066 0.003797 -0.003950 0.006214 
520844123179658 0.003797 -0.003950 0.006214 
520844143748252 0.003797 -0.003950 0.006214 
520844164317002 0.003797 -0.003950 0.006214 
520844184885493 0.003797 -0.003950 0.006214 
520844205454762 0.003797 -0.003950 0.006214 
520844226022732 0.003797 -0.003950 0.006214 
520844246591378 0.003797 -0.003950 0.006214 
520844267159971 0.003797 -0.003950 0.006214 
520844287728618 0.003797 -0.003950 0.006214 
520844308297210 0.003797 -0.003950 0.006214 
520844328865908 0.003797 -0.003950 0.006214 
520844349434346 0.003797 -0.003950 0.006214 
520844370004607 0.003797 -0.003950 0.006214 
520844390571585 0.003797 -0.003950 0.006214 
520844411140700 0.003797 -0.003950 0.006214 
520844431709450 0.003797 -0.003950 0.006214 
520844452277627 0.003797 -0.003950 0.006214 
520844472846065 0.003797 -0.003950 0.006214 
520844493415440 0.003797 -0.003950 0.006214 
520844513983408 0.003797 -0.003950 0.006214 
520844534551638 0.003797 -0.003950 0.006214 
520844555120231 0.003797 -0.003950 0.006214 
520844575688929 0.003797 -0.003950 0.006214 
520844596257836 0.003797 -0.003950 0.006214 
520844616826169 0.003797 -0.003950 0.006214 
520844637394971 0.003797 -0.003950 0.006214 
520844657963512 0.003797 -0.003950 0.006214 
520844678532002 0.003797 -0.003950 0.006214 
520844699100700 0.003797 -0.003950 0.006214 
520844719670023 0.003797 -0.003950 0.006214 
520844740238460 0.003797 -0.003950 0.006214 
520844760806950 0.003797 -0.003950 0.006214 
520844781375700 0.003797 -0.003950 0.006214 
520844801944450 0.003797 -0.003950 0.006214 
520844822512783 0.003797 -0.003950 0.006214 
520844843081012 0.003797 -0.003950 0.006214 
520844863649606 0.003797 -0.003950 0.006214 
520844884218096 0.003797 -0.003950 0.006214 
520844904786741 0.003797 -0.003950 0.006214 
520844925357575 0.003797 -0.003950 0.006214 
520844945925752 0.003797 -0.003950 0.006214 
520844966492523 0.003797 -0.003950 0.006214 
520844987061064 0.003797 -0.003950 0.006214 
520845007629763 0.003797 -0.003950 0.006214 
520845028198200 0.003797 -0.003950 0.006214 
520845048767054 0.003797 -0.003950 0.006214 
520845069335387 0.003797 -0.003950 0.006214 
520845089904397 0.003797 -0.003950 0.006214 
520845110472731 0.003797 -0.003950 0.006214 
520845131043981 0.003797 -0.003950 0.006214 
520845151611378 0.003797 -0.003950 0.006214 
520845172178876 0.003797 -0.003950 0.006214 
520845192747106 0.003797 -0.003950 0.006214 
520845213315856 0.003797 -0.003950 0.006214 
520845233884346 0.003797 -0.003950 0.006214 
520845254452783 0.003797 -0.003950 0.006214 
520845275021377 0.003797 -0.003950 0.006214 
520845295589971 0.003797 -0.003950 0.006214 
520845316158929 0.003797 -0.003950 0.006214 
520845336727991 0.003797 -0.003950 0.006214 
520845357296950 0.003797 -0.003950 0.006214 
520845377864502 0.003797 -0.003950 0.006214 
520845398434450 0.003797 -0.003950 0.006214 
520845419002991 0.003797 -0.003950 0.006214 
520845439572522 0.003797 -0.003950 0.006214 
520845460140595 0.003797 -0.003950 0.006214 
520845480707939 0.003797 -0.003950 0.006214 
520845501276533 0.003797 -0.003950 0.006214 
520845521845283 0.003797 -0.003950 0.006214 
520845542413512 0.003797 -0.003950 0.006214 
520845562982523 0.003797 -0.003950 0.006214 
520845583550388 0.003797 -0.003950 0.006214 
520845604119501 0.003797 -0.003950 0.006214 
520845624687574 0.003797 -0.003950 0.006214 
520845645256221 0.003797 -0.003950 0.006214 
520845665824763 0.003797 -0.003950 0.006214 
520845686394033 0.003797 -0.003950 0.006214 
520845706962054 0.003797 -0.003950 0.006214 
520845727530908 0.003797 -0.003950 0.006214 
520845748099189 0.003797 -0.003950 0.006214 
520845768667887 0.003797 -0.003950 0.006214 
520845789236481 0.003797 -0.003950 0.006214 
520845809804606 0.003797 -0.003950 0.006214 
520845830373564 0.003797 -0.003950 0.006214 
520845850942366 0.003797 -0.003950 0.006214 
520845871510908 0.003797 -0.003950 0.006214 
520845892079970 0.003797 -0.003950 0.006214 
520845912648460 0.003797 -0.003950 0.006214 
520845933216742 0.003797 -0.003950 0.006214 
520845953785335 0.003797 -0.003950 0.006214 
520845974353981 0.003797 -0.003950 0.006214 
520845994922575 0.003797 -0.003950 0.006214 
520846015491273 0.003797 -0.003950 0.006214 
520846036059866 0.003797 -0.003950 0.006214 
520846056628304 0.003797 -0.003950 0.006214 
520846077198096 0.003797 -0.003950 0.006214 
520846097765804 0.003797 -0.003950 0.006214 
520846118336116 0.003797 -0.003950 0.006214 
520846138904084 0.003797 -0.003950 0.006214 
520846159472783 0.003797 -0.003950 0.006214 
520846180040491 0.003797 -0.003950 0.006214 
520846200608825 0.003797 -0.003950 0.006214 
520846221177731 0.003797 -0.003950 0.006214 
520846241747053 0.003797 -0.003950 0.006214 
520846262314502 0.003797 -0.003950 0.006214 
520846282883565 0.003797 -0.003950 0.006214 
520846303451688 0.003797 -0.003950 0.006214 
520846324021220 0.003797 -0.003950 0.006214 
520846344589189 0.003797 -0.003950 0.006214 
520846365158564 0.003797 -0.003950 0.006214 
520846385726429 0.003797 -0.003950 0.006214 
520846406295699 0.003797 -0.003950 0.006214 
520846426864137 0.003797 -0.003950 0.006214 
520846447432575 0.003797 -0.003950 0.006214 
520846468001325 0.003797 -0.003950 0.006214 
520846488569918 0.003797 -0.003950 0.006214 
520846509138304 0.003797 -0.003950 0.006214 
520846529707679 0.003797 -0.003950 0.006214 
520846550276168 0.003797 -0.003950 0.006214 
520846570845283 0.003797 -0.003950 0.006214 
520846591413407 0.003797 -0.003950 0.006214 
520846611981949 0.003797 -0.003950 0.006214 
520846632551168 0.003797 -0.003950 0.006214 
520846653119711 0.003797 -0.003950 0.006214 
520846673687835 0.003797 -0.003950 0.006214 
520846694257314 0.003797 -0.003950 0.006214 
520846714825908 0.003797 -0.003950 0.006214 
520846735393981 0.003797 -0.003950 0.006214 
520846755963252 0.003797 -0.003950 0.006214 
520846776531533 0.003797 -0.003950 0.006214 
520846797098876 0.003797 -0.003950 0.006214 
520846817667575 0.003797 -0.003950 0.006214 
520846838236220 0.003797 -0.003950 0.006214 
520846858804709 0.003797 -0.003950 0.006214 
520846879375282 0.003797 -0.003950 0.006214 
520846899943616 0.003797 -0.003950 0.006214 
