# Created at Thu Nov 07 18:05:01 EST 2019 in Burnaby Canada 
521145645445220 0.003797 -0.003950 0.006214 
521145666014648 0.003797 -0.003950 0.006214 
521145686584595 0.003797 -0.003950 0.006214 
521145707154231 0.003797 -0.003950 0.006214 
521145727723918 0.003797 -0.003950 0.006214 
521145748293501 0.003797 -0.003950 0.006214 
521145768863658 0.003797 -0.003950 0.006214 
521145789432459 0.003797 -0.003950 0.006214 
521145810002564 0.003797 -0.003950 0.006214 
521145830570741 0.003797 -0.003950 0.006214 
521145851142147 0.003797 -0.003950 0.006214 
521145871710846 0.003797 -0.003950 0.006214 
521145892280897 0.003797 -0.003950 0.006214 
521145912850012 0.003797 -0.003950 0.006214 
521145933419544 0.003797 -0.003950 0.006214 
521145953989126 0.003797 -0.003950 0.006214 
521145974558866 0.003797 -0.003950 0.006214 
521145995128657 0.003797 -0.003950 0.006214 
521146015697929 0.003797 -0.003950 0.006214 
521146036267980 0.003797 -0.003950 0.006214 
521146056837616 0.003797 -0.003950 0.006214 
521146077407825 0.003797 -0.003950 0.006214 
521146097977043 0.003797 -0.003950 0.006214 
521146118546835 0.003797 -0.003950 0.006214 
521146139115897 0.003797 -0.003950 0.006214 
521146159686106 0.003797 -0.003950 0.006214 
521146180255273 0.003797 -0.003950 0.006214 
521146200825533 0.003797 -0.003950 0.006214 
521146221394231 0.003797 -0.003950 0.006214 
521146241964283 0.003797 -0.003950 0.006214 
521146262533240 0.003797 -0.003950 0.006214 
521146283103397 0.003797 -0.003950 0.006214 
521146303672772 0.003797 -0.003950 0.006214 
521146324243293 0.003797 -0.003950 0.006214 
521146344812668 0.003797 -0.003950 0.006214 
521146365381991 0.003797 -0.003950 0.006214 
521146385951783 0.003797 -0.003950 0.006214 
521146406521053 0.003797 -0.003950 0.006214 
521146427090377 0.003797 -0.003950 0.006214 
521146447660272 0.003797 -0.003950 0.006214 
521146468229595 0.003797 -0.003950 0.006214 
521146488800845 0.003797 -0.003950 0.006214 
521146509369751 0.003797 -0.003950 0.006214 
521146529939387 0.003797 -0.003950 0.006214 
521146550508710 0.003797 -0.003950 0.006214 
521146571078449 0.003797 -0.003950 0.006214 
521146591648085 0.003797 -0.003950 0.006214 
521146612219282 0.003797 -0.003950 0.006214 
521146632788658 0.003797 -0.003950 0.006214 
521146653358293 0.003797 -0.003950 0.006214 
521146673926157 0.003797 -0.003950 0.006214 
521146694497617 0.003797 -0.003950 0.006214 
521146715070741 0.003797 -0.003950 0.006214 
521146735636731 0.003797 -0.003950 0.006214 
521146756206834 0.003797 -0.003950 0.006214 
521146776775167 0.003797 -0.003950 0.006214 
521146797344334 0.003797 -0.003950 0.006214 
521146817914230 0.003797 -0.003950 0.006214 
521146838483919 0.003797 -0.003950 0.006214 
521146859052981 0.003797 -0.003950 0.006214 
521146879622616 0.003797 -0.003950 0.006214 
521146900192407 0.003797 -0.003950 0.006214 
521146920763814 0.003797 -0.003950 0.006214 
521146941333085 0.003797 -0.003950 0.006214 
521146961901522 0.003797 -0.003950 0.006214 
521146982470792 0.003797 -0.003950 0.006214 
521147003040949 0.003797 -0.003950 0.006214 
521147023608969 0.003797 -0.003950 0.006214 
521147044180845 0.003797 -0.003950 0.006214 
521147064749907 0.003797 -0.003950 0.006214 
521147085319335 0.003797 -0.003950 0.006214 
521147105888969 0.003797 -0.003950 0.006214 
521147126459543 0.003797 -0.003950 0.006214 
521147147028345 0.003797 -0.003950 0.006214 
521147167599334 0.003797 -0.003950 0.006214 
521147188167929 0.003797 -0.003950 0.006214 
521147208736678 0.003797 -0.003950 0.006214 
521147229306210 0.003797 -0.003950 0.006214 
521147249877877 0.003797 -0.003950 0.006214 
521147270447095 0.003797 -0.003950 0.006214 
521147291016887 0.003797 -0.003950 0.006214 
521147311586104 0.003797 -0.003950 0.006214 
521147332156054 0.003797 -0.003950 0.006214 
521147352723397 0.003797 -0.003950 0.006214 
521147373292772 0.003797 -0.003950 0.006214 
521147393863501 0.003797 -0.003950 0.006214 
521147414433866 0.003797 -0.003950 0.006214 
521147435004021 0.003797 -0.003950 0.006214 
521147455572303 0.003797 -0.003950 0.006214 
521147476142720 0.003797 -0.003950 0.006214 
521147496712407 0.003797 -0.003950 0.006214 
521147517282303 0.003797 -0.003950 0.006214 
521147537851521 0.003797 -0.003950 0.006214 
521147558421573 0.003797 -0.003950 0.006214 
521147578991053 0.003797 -0.003950 0.006214 
521147599561052 0.003797 -0.003950 0.006214 
521147620130376 0.003797 -0.003950 0.006214 
521147640700531 0.003797 -0.003950 0.006214 
521147661272980 0.003797 -0.003950 0.006214 
521147681840220 0.003797 -0.003950 0.006214 
521147702409647 0.003797 -0.003950 0.006214 
521147722978345 0.003797 -0.003950 0.006214 
521147743548136 0.003797 -0.003950 0.006214 
521147764119334 0.003797 -0.003950 0.006214 
521147784688240 0.003797 -0.003950 0.006214 
521147805258918 0.003797 -0.003950 0.006214 
521147825827354 0.003797 -0.003950 0.006214 
521147846397095 0.003797 -0.003950 0.006214 
521147866967094 0.003797 -0.003950 0.006214 
521147887535480 0.003797 -0.003950 0.006214 
521147908105064 0.003797 -0.003950 0.006214 
521147928675428 0.003797 -0.003950 0.006214 
521147949244855 0.003797 -0.003950 0.006214 
521147969814595 0.003797 -0.003950 0.006214 
521147990385375 0.003797 -0.003950 0.006214 
521148010953448 0.003797 -0.003950 0.006214 
521148031523084 0.003797 -0.003950 0.006214 
521148052093084 0.003797 -0.003950 0.006214 
521148072662408 0.003797 -0.003950 0.006214 
521148093232616 0.003797 -0.003950 0.006214 
521148113801522 0.003797 -0.003950 0.006214 
521148134370792 0.003797 -0.003950 0.006214 
521148154941208 0.003797 -0.003950 0.006214 
521148175510897 0.003797 -0.003950 0.006214 
521148196081990 0.003797 -0.003950 0.006214 
521148216649855 0.003797 -0.003950 0.006214 
521148237221001 0.003797 -0.003950 0.006214 
521148257789490 0.003797 -0.003950 0.006214 
521148278360376 0.003797 -0.003950 0.006214 
521148298929751 0.003797 -0.003950 0.006214 
521148319499750 0.003797 -0.003950 0.006214 
521148340069283 0.003797 -0.003950 0.006214 
521148360638501 0.003797 -0.003950 0.006214 
521148381207928 0.003797 -0.003950 0.006214 
521148401780116 0.003797 -0.003950 0.006214 
521148422349593 0.003797 -0.003950 0.006214 
521148442916678 0.003797 -0.003950 0.006214 
521148463486000 0.003797 -0.003950 0.006214 
521148484056938 0.003797 -0.003950 0.006214 
521148504626209 0.003797 -0.003950 0.006214 
521148525194855 0.003797 -0.003950 0.006214 
521148545764490 0.003797 -0.003950 0.006214 
521148566334751 0.003797 -0.003950 0.006214 
521148586904386 0.003797 -0.003950 0.006214 
521148607474230 0.003797 -0.003950 0.006214 
521148628043292 0.003797 -0.003950 0.006214 
521148648612198 0.003797 -0.003950 0.006214 
521148669181885 0.003797 -0.003950 0.006214 
521148689754698 0.003797 -0.003950 0.006214 
521148710324334 0.003797 -0.003950 0.006214 
521148730892094 0.003797 -0.003950 0.006214 
521148751461365 0.003797 -0.003950 0.006214 
521148772032198 0.003797 -0.003950 0.006214 
521148792600948 0.003797 -0.003950 0.006214 
521148813170844 0.003797 -0.003950 0.006214 
521148833744126 0.003797 -0.003950 0.006214 
521148854312823 0.003797 -0.003950 0.006214 
521148874878709 0.003797 -0.003950 0.006214 
521148895448448 0.003797 -0.003950 0.006214 
521148916020845 0.003797 -0.003950 0.006214 
521148936589751 0.003797 -0.003950 0.006214 
521148957159907 0.003797 -0.003950 0.006214 
521148977729178 0.003797 -0.003950 0.006214 
521148998299334 0.003797 -0.003950 0.006214 
521149018868240 0.003797 -0.003950 0.006214 
521149039437876 0.003797 -0.003950 0.006214 
521149060007354 0.003797 -0.003950 0.006214 
521149080576156 0.003797 -0.003950 0.006214 
521149101145844 0.003797 -0.003950 0.006214 
521149121717251 0.003797 -0.003950 0.006214 
521149142286521 0.003797 -0.003950 0.006214 
521149162855115 0.003797 -0.003950 0.006214 
521149183425323 0.003797 -0.003950 0.006214 
521149203994385 0.003797 -0.003950 0.006214 
521149224563553 0.003797 -0.003950 0.006214 
521149245134125 0.003797 -0.003950 0.006214 
521149265703292 0.003797 -0.003950 0.006214 
521149286273812 0.003797 -0.003950 0.006214 
521149306843917 0.003797 -0.003950 0.006214 
521149327412302 0.003797 -0.003950 0.006214 
521149347981782 0.003797 -0.003950 0.006214 
521149368552198 0.003797 -0.003950 0.006214 
521149389121833 0.003797 -0.003950 0.006214 
521149409690792 0.003797 -0.003950 0.006214 
521149430260219 0.003797 -0.003950 0.006214 
521149450830479 0.003797 -0.003950 0.006214 
521149471399594 0.003797 -0.003950 0.006214 
521149491970583 0.003797 -0.003950 0.006214 
521149512539646 0.003797 -0.003950 0.006214 
521149533109073 0.003797 -0.003950 0.006214 
521149553678761 0.003797 -0.003950 0.006214 
521149574248552 0.003797 -0.003950 0.006214 
521149594818188 0.003797 -0.003950 0.006214 
521149615386677 0.003797 -0.003950 0.006214 
521149635958187 0.003797 -0.003950 0.006214 
521149656527406 0.003797 -0.003950 0.006214 
521149677096730 0.003797 -0.003950 0.006214 
521149697666000 0.003797 -0.003950 0.006214 
521149718237927 0.003797 -0.003950 0.006214 
521149738807094 0.003797 -0.003950 0.006214 
521149759377198 0.003797 -0.003950 0.006214 
521149779945636 0.003797 -0.003950 0.006214 
521149800516313 0.003797 -0.003950 0.006214 
521149821085791 0.003797 -0.003950 0.006214 
521149841655427 0.003797 -0.003950 0.006214 
521149862225167 0.003797 -0.003950 0.006214 
521149882794490 0.003797 -0.003950 0.006214 
521149903363135 0.003797 -0.003950 0.006214 
521149923933032 0.003797 -0.003950 0.006214 
521149944501469 0.003797 -0.003950 0.006214 
521149965072303 0.003797 -0.003950 0.006214 
521149985641990 0.003797 -0.003950 0.006214 
521150006212667 0.003797 -0.003950 0.006214 
521150026781208 0.003797 -0.003950 0.006214 
521150047352093 0.003797 -0.003950 0.006214 
521150067920635 0.003797 -0.003950 0.006214 
521150088491574 0.003797 -0.003950 0.006214 
521150109060063 0.003797 -0.003950 0.006214 
521150129629698 0.003797 -0.003950 0.006214 
521150150199437 0.003797 -0.003950 0.006214 
521150170769489 0.003797 -0.003950 0.006214 
521150191338604 0.003797 -0.003950 0.006214 
521150211909228 0.003797 -0.003950 0.006214 
521150232477927 0.003797 -0.003950 0.006214 
521150253048083 0.003797 -0.003950 0.006214 
521150273617771 0.003797 -0.003950 0.006214 
521150294188760 0.003797 -0.003950 0.006214 
521150314758500 0.003797 -0.003950 0.006214 
521150335327875 0.003797 -0.003950 0.006214 
521150355896000 0.003797 -0.003950 0.006214 
521150376465739 0.003797 -0.003950 0.006214 
521150397035270 0.003797 -0.003950 0.006214 
521150417604489 0.003797 -0.003950 0.006214 
521150438174594 0.003797 -0.003950 0.006214 
521150458743916 0.003797 -0.003950 0.006214 
521150479315531 0.003797 -0.003950 0.006214 
521150499884645 0.003797 -0.003950 0.006214 
521150520453031 0.003797 -0.003950 0.006214 
521150541022666 0.003797 -0.003950 0.006214 
521150561593031 0.003797 -0.003950 0.006214 
521150582161989 0.003797 -0.003950 0.006214 
521150602731626 0.003797 -0.003950 0.006214 
521150623301208 0.003797 -0.003950 0.006214 
521150643871365 0.003797 -0.003950 0.006214 
521150664440635 0.003797 -0.003950 0.006214 
521150685011000 0.003797 -0.003950 0.006214 
521150705580062 0.003797 -0.003950 0.006214 
521150726149802 0.003797 -0.003950 0.006214 
521150746719437 0.003797 -0.003950 0.006214 
521150767291834 0.003797 -0.003950 0.006214 
521150787860322 0.003797 -0.003950 0.006214 
521150808430322 0.003797 -0.003950 0.006214 
521150829000010 0.003797 -0.003950 0.006214 
521150849568291 0.003797 -0.003950 0.006214 
521150870137927 0.003797 -0.003950 0.006214 
521150890707250 0.003797 -0.003950 0.006214 
521150911276833 0.003797 -0.003950 0.006214 
521150931847562 0.003797 -0.003950 0.006214 
521150952416416 0.003797 -0.003950 0.006214 
521150972986260 0.003797 -0.003950 0.006214 
521150993555583 0.003797 -0.003950 0.006214 
521151014125062 0.003797 -0.003950 0.006214 
521151034696885 0.003797 -0.003950 0.006214 
521151055265948 0.003797 -0.003950 0.006214 
521151075834385 0.003797 -0.003950 0.006214 
521151096404697 0.003797 -0.003950 0.006214 
521151116973865 0.003797 -0.003950 0.006214 
521151137543499 0.003797 -0.003950 0.006214 
521151158113136 0.003797 -0.003950 0.006214 
521151178682510 0.003797 -0.003950 0.006214 
521151199252302 0.003797 -0.003950 0.006214 
521151219821989 0.003797 -0.003950 0.006214 
521151240391730 0.003797 -0.003950 0.006214 
521151260961729 0.003797 -0.003950 0.006214 
521151281532874 0.003797 -0.003950 0.006214 
521151302102354 0.003797 -0.003950 0.006214 
521151322670792 0.003797 -0.003950 0.006214 
521151343240323 0.003797 -0.003950 0.006214 
521151363809801 0.003797 -0.003950 0.006214 
521151384379333 0.003797 -0.003950 0.006214 
521151404949593 0.003797 -0.003950 0.006214 
521151425518708 0.003797 -0.003950 0.006214 
521151446088499 0.003797 -0.003950 0.006214 
521151466658083 0.003797 -0.003950 0.006214 
521151487227979 0.003797 -0.003950 0.006214 
521151507797354 0.003797 -0.003950 0.006214 
521151528366989 0.003797 -0.003950 0.006214 
521151548936625 0.003797 -0.003950 0.006214 
521151569506780 0.003797 -0.003950 0.006214 
521151590076208 0.003797 -0.003950 0.006214 
521151610646364 0.003797 -0.003950 0.006214 
521151631215479 0.003797 -0.003950 0.006214 
521151651785843 0.003797 -0.003950 0.006214 
521151672355896 0.003797 -0.003950 0.006214 
521151692927509 0.003797 -0.003950 0.006214 
521151713493448 0.003797 -0.003950 0.006214 
521151734064385 0.003797 -0.003950 0.006214 
521151754634229 0.003797 -0.003950 0.006214 
521151775203968 0.003797 -0.003950 0.006214 
521151795773916 0.003797 -0.003950 0.006214 
521151816343290 0.003797 -0.003950 0.006214 
521151836913082 0.003797 -0.003950 0.006214 
521151857482822 0.003797 -0.003950 0.006214 
521151878052353 0.003797 -0.003950 0.006214 
521151898621781 0.003797 -0.003950 0.006214 
521151919192457 0.003797 -0.003950 0.006214 
521151939761624 0.003797 -0.003950 0.006214 
521151960331103 0.003797 -0.003950 0.006214 
521151980900999 0.003797 -0.003950 0.006214 
521152001470166 0.003797 -0.003950 0.006214 
521152022039853 0.003797 -0.003950 0.006214 
