# Created at Thu Nov 07 18:05:01 EST 2019 in Burnaby Canada 
521145650918293 45.002232 190.324265 -6.960118 
521145670917669 45.002232 190.324265 -6.960118 
521145690922564 45.002232 190.324265 -6.960118 
521145710917824 45.002232 190.324265 -6.960118 
521145730917876 45.002232 190.324265 -6.960118 
521145750934491 45.002232 190.324265 -6.960118 
521145770934231 45.002232 190.324265 -6.960118 
521145790917095 45.002232 190.324265 -6.960118 
521145810919231 45.002232 190.324265 -6.960118 
521145830918293 45.002232 190.324265 -6.960118 
521145850918606 45.002232 190.324265 -6.960118 
521145870917721 45.002232 190.324265 -6.960118 
521145890917303 45.002232 190.324265 -6.960118 
521145910917355 45.002232 190.324265 -6.960118 
521145930920065 45.002232 190.324265 -6.960118 
521145951130897 45.002232 190.324265 -6.960118 
521145970926366 45.002232 190.324265 -6.960118 
521145990923553 45.002232 190.324265 -6.960118 
521146010917668 45.002232 190.324265 -6.960118 
521146030916783 45.002232 190.324265 -6.960118 
521146050923085 45.002232 190.324265 -6.960118 
521146070918919 45.002232 190.324265 -6.960118 
521146090917668 45.002232 190.324265 -6.960118 
521146110917981 45.002232 190.324265 -6.960118 
521146130917512 45.002232 190.324265 -6.960118 
521146150917928 45.002232 190.324265 -6.960118 
521146170917667 45.002232 190.324265 -6.960118 
521146190917460 45.002232 190.324265 -6.960118 
521146210917408 45.002232 190.324265 -6.960118 
521146230916679 45.002232 190.324265 -6.960118 
521146250917043 45.002232 190.324265 -6.960118 
521146270917147 45.002232 190.324265 -6.960118 
521146290917564 45.002232 190.324265 -6.960118 
521146310916835 45.002232 190.324265 -6.960118 
521146330918919 45.002232 190.324265 -6.960118 
521146350917772 45.002232 190.324265 -6.960118 
521146370919127 45.002232 190.324265 -6.960118 
521146390918085 45.002232 190.324265 -6.960118 
521146410918762 45.002232 190.324265 -6.960118 
521146430934595 45.002232 190.324265 -6.960118 
521146450917876 45.002232 190.324265 -6.960118 
521146470917408 45.002232 190.324265 -6.960118 
521146490918293 45.002232 190.324265 -6.960118 
521146510918553 45.002232 190.324265 -6.960118 
521146530918085 45.002232 190.324265 -6.960118 
521146550918502 45.002232 190.324265 -6.960118 
521146570917720 45.002232 190.324265 -6.960118 
521146590917356 45.002232 190.324265 -6.960118 
521146610919491 45.002232 190.324265 -6.960118 
521146630919335 45.002232 190.324265 -6.960118 
521146650919960 45.002232 190.324265 -6.960118 
521146670916939 45.002232 190.324265 -6.960118 
521146690984231 45.002232 190.324265 -6.960118 
521146710921419 45.002232 190.324265 -6.960118 
521146730918970 45.002232 190.324265 -6.960118 
521146750919231 45.002232 190.324265 -6.960118 
521146770918605 45.002232 190.324265 -6.960118 
521146790918761 45.002232 190.324265 -6.960118 
521146810918241 45.002232 190.324265 -6.960118 
521146830942668 45.002232 190.324265 -6.960118 
521146851326158 45.002232 190.324265 -6.960118 
521146870917721 45.002232 190.324265 -6.960118 
521146890917772 45.002232 190.324265 -6.960118 
521146910920948 45.002232 190.324265 -6.960118 
521146930918189 45.002232 190.324265 -6.960118 
521146951126470 45.002232 190.324265 -6.960118 
521146970920480 45.002232 190.324265 -6.960118 
521146990918084 45.002232 190.324265 -6.960118 
521147010918657 45.002232 190.324265 -6.960118 
521147030916678 45.002232 190.324265 -6.960118 
521147050921939 45.002232 190.324265 -6.960118 
521147070918657 45.002232 190.324265 -6.960118 
521147090918970 45.002232 190.324265 -6.960118 
521147110917771 45.002232 190.324265 -6.960118 
521147130917512 45.002232 190.324265 -6.960118 
521147150917616 45.002232 190.324265 -6.960118 
521147170917719 45.002232 190.324265 -6.960118 
521147190929543 45.002232 190.324265 -6.960118 
521147211295116 45.002232 190.324265 -6.960118 
521147230917616 45.002232 190.324265 -6.960118 
521147250917876 45.002232 190.324265 -6.960118 
521147270919126 45.002232 190.324265 -6.960118 
521147290919231 45.002232 190.324265 -6.960118 
521147310918552 45.002232 190.324265 -6.960118 
521147330919543 45.002232 190.324265 -6.960118 
521147350916053 45.002232 190.324265 -6.960118 
521147370917615 45.002232 190.324265 -6.960118 
521147390917355 45.002232 190.324265 -6.960118 
521147410918136 45.002232 190.324265 -6.960118 
521147430922720 45.002232 190.324265 -6.960118 
521147450917616 45.002232 190.324265 -6.960118 
521147470917095 45.002232 190.324265 -6.960118 
521147490918449 45.002232 190.324265 -6.960118 
521147510917980 45.002232 190.324265 -6.960118 
521147530917875 45.002232 190.324265 -6.960118 
521147550918031 45.002232 190.324265 -6.960118 
521147571238605 45.002232 190.324265 -6.960118 
521147590918084 45.002232 190.324265 -6.960118 
521147610918553 45.002232 190.324265 -6.960118 
521147630919178 45.002232 190.324265 -6.960118 
521147650918762 45.002232 190.324265 -6.960118 
521147670921261 45.002232 190.324265 -6.960118 
521147690917719 45.002232 190.324265 -6.960118 
521147710918970 45.002232 190.324265 -6.960118 
521147730920115 45.002232 190.324265 -6.960118 
521147750918448 45.002232 190.324265 -6.960118 
521147770918761 45.002232 190.324265 -6.960118 
521147790919595 45.002232 190.324265 -6.960118 
521147810921470 45.002232 190.324265 -6.960118 
521147830919177 45.002232 190.324265 -6.960118 
521147850917876 45.002232 190.324265 -6.960118 
521147870918917 45.002232 190.324265 -6.960118 
521147890920220 45.002232 190.324265 -6.960118 
521147910918189 45.002232 190.324265 -6.960118 
521147931212927 45.002232 190.324265 -6.960118 
521147951213084 45.002232 190.324265 -6.960118 
521147970917563 45.002232 190.324265 -6.960118 
521147990919802 45.002232 190.324265 -6.960118 
521148010918240 45.002232 190.324265 -6.960118 
521148030918084 45.002232 190.324265 -6.960118 
521148050918501 45.002232 190.324265 -6.960118 
521148070918085 45.002232 190.324265 -6.960118 
521148090924804 45.002232 190.324265 -6.960118 
521148110918136 45.002232 190.324265 -6.960118 
521148130918031 45.002232 190.324265 -6.960118 
521148150917511 45.002232 190.324265 -6.960118 
521148170918449 45.002232 190.324265 -6.960118 
521148190918032 45.002232 190.324265 -6.960118 
521148210918448 45.002232 190.324265 -6.960118 
521148230920532 45.002232 190.324265 -6.960118 
521148250922458 45.002232 190.324265 -6.960118 
521148270920167 45.002232 190.324265 -6.960118 
521148291204803 45.002232 190.324265 -6.960118 
521148310967876 45.002232 190.324265 -6.960118 
521148330919438 45.002232 190.324265 -6.960118 
521148350919595 45.002232 190.324265 -6.960118 
521148370919647 45.002232 190.324265 -6.960118 
521148390918709 45.002232 190.324265 -6.960118 
521148410918969 45.002232 190.324265 -6.960118 
521148430920635 45.002232 190.324265 -6.960118 
521148450919074 45.002232 190.324265 -6.960118 
521148470917980 45.002232 190.324265 -6.960118 
521148490917407 45.002232 190.324265 -6.960118 
521148510919282 45.002232 190.324265 -6.960118 
521148530917772 45.002232 190.324265 -6.960118 
521148550928813 45.002232 190.324265 -6.960118 
521148570917875 45.002232 190.324265 -6.960118 
521148590918136 45.002232 190.324265 -6.960118 
521148610918916 45.002232 190.324265 -6.960118 
521148630918292 45.002232 190.324265 -6.960118 
521148651170272 45.002232 190.324265 -6.960118 
521148670964750 45.002232 190.324265 -6.960118 
521148690918657 45.002232 190.324265 -6.960118 
521148710928501 45.002232 190.324265 -6.960118 
521148730918709 45.002232 190.324265 -6.960118 
521148750918709 45.002232 190.324265 -6.960118 
521148770918761 45.002232 190.324265 -6.960118 
521148790917719 45.002232 190.324265 -6.960118 
521148810918292 45.002232 190.324265 -6.960118 
521148830918241 45.002232 190.324265 -6.960118 
521148850921417 45.002232 190.324265 -6.960118 
521148870921157 45.002232 190.324265 -6.960118 
521148890917563 45.002232 190.324265 -6.960118 
521148910917511 45.002232 190.324265 -6.960118 
521148930918970 45.002232 190.324265 -6.960118 
521148951126470 45.002232 190.324265 -6.960118 
521148970918918 45.002232 190.324265 -6.960118 
521148990919647 45.002232 190.324265 -6.960118 
521149011118084 45.002232 190.324265 -6.960118 
521149030967823 45.002232 190.324265 -6.960118 
521149050929334 45.002232 190.324265 -6.960118 
521149070918917 45.002232 190.324265 -6.960118 
521149090919646 45.002232 190.324265 -6.960118 
521149110918344 45.002232 190.324265 -6.960118 
521149130929854 45.002232 190.324265 -6.960118 
521149150919542 45.002232 190.324265 -6.960118 
521149170918708 45.002232 190.324265 -6.960118 
521149190919281 45.002232 190.324265 -6.960118 
521149210918812 45.002232 190.324265 -6.960118 
521149230918970 45.002232 190.324265 -6.960118 
521149250918917 45.002232 190.324265 -6.960118 
521149270918084 45.002232 190.324265 -6.960118 
521149290920739 45.002232 190.324265 -6.960118 
521149310919646 45.002232 190.324265 -6.960118 
521149330919230 45.002232 190.324265 -6.960118 
521149350925428 45.002232 190.324265 -6.960118 
521149371084907 45.002232 190.324265 -6.960118 
521149390965270 45.002232 190.324265 -6.960118 
521149410966209 45.002232 190.324265 -6.960118 
521149430917979 45.002232 190.324265 -6.960118 
521149450917927 45.002232 190.324265 -6.960118 
521149470918396 45.002232 190.324265 -6.960118 
521149490917718 45.002232 190.324265 -6.960118 
521149510918135 45.002232 190.324265 -6.960118 
521149530917771 45.002232 190.324265 -6.960118 
521149550918240 45.002232 190.324265 -6.960118 
521149570918136 45.002232 190.324265 -6.960118 
521149590918552 45.002232 190.324265 -6.960118 
521149610916886 45.002232 190.324265 -6.960118 
521149630917302 45.002232 190.324265 -6.960118 
521149650918187 45.002232 190.324265 -6.960118 
521149670918552 45.002232 190.324265 -6.960118 
521149690917927 45.002232 190.324265 -6.960118 
521149710917094 45.002232 190.324265 -6.960118 
521149731063761 45.002232 190.324265 -6.960118 
521149751063761 45.002232 190.324265 -6.960118 
521149770965375 45.002232 190.324265 -6.960118 
521149790918345 45.002232 190.324265 -6.960118 
521149810919125 45.002232 190.324265 -6.960118 
521149830918916 45.002232 190.324265 -6.960118 
521149850920219 45.002232 190.324265 -6.960118 
521149870919490 45.002232 190.324265 -6.960118 
521149890918709 45.002232 190.324265 -6.960118 
521149910919802 45.002232 190.324265 -6.960118 
521149930917979 45.002232 190.324265 -6.960118 
521149951123969 45.002232 190.324265 -6.960118 
521149970917823 45.002232 190.324265 -6.960118 
521149990918032 45.002232 190.324265 -6.960118 
521150010919594 45.002232 190.324265 -6.960118 
521150030917927 45.002232 190.324265 -6.960118 
521150050919385 45.002232 190.324265 -6.960118 
521150070918343 45.002232 190.324265 -6.960118 
521150091030375 45.002232 190.324265 -6.960118 
521150111030167 45.002232 190.324265 -6.960118 
521150130933396 45.002232 190.324265 -6.960118 
521150150917979 45.002232 190.324265 -6.960118 
521150170917979 45.002232 190.324265 -6.960118 
521150190917510 45.002232 190.324265 -6.960118 
521150210918551 45.002232 190.324265 -6.960118 
521150230917875 45.002232 190.324265 -6.960118 
521150250918188 45.002232 190.324265 -6.960118 
521150270918396 45.002232 190.324265 -6.960118 
521150290919125 45.002232 190.324265 -6.960118 
521150310919594 45.002232 190.324265 -6.960118 
521150330918761 45.002232 190.324265 -6.960118 
521150350918865 45.002232 190.324265 -6.960118 
521150370917406 45.002232 190.324265 -6.960118 
521150390918760 45.002232 190.324265 -6.960118 
521150410917562 45.002232 190.324265 -6.960118 
521150430943916 45.002232 190.324265 -6.960118 
521150451002563 45.002232 190.324265 -6.960118 
521150471002198 45.002232 190.324265 -6.960118 
521150490917979 45.002232 190.324265 -6.960118 
521150510918499 45.002232 190.324265 -6.960118 
521150530917459 45.002232 190.324265 -6.960118 
521150550916833 45.002232 190.324265 -6.960118 
521150570918603 45.002232 190.324265 -6.960118 
521150590916520 45.002232 190.324265 -6.960118 
521150610917250 45.002232 190.324265 -6.960118 
521150630916729 45.002232 190.324265 -6.960118 
521150650917614 45.002232 190.324265 -6.960118 
521150670917302 45.002232 190.324265 -6.960118 
521150690916989 45.002232 190.324265 -6.960118 
521150710916885 45.002232 190.324265 -6.960118 
521150730917719 45.002232 190.324265 -6.960118 
521150750917145 45.002232 190.324265 -6.960118 
521150770921885 45.002232 190.324265 -6.960118 
521150790943707 45.002232 190.324265 -6.960118 
521150810980739 45.002232 190.324265 -6.960118 
521150830980687 45.002232 190.324265 -6.960118 
521150850918760 45.002232 190.324265 -6.960118 
521150870917927 45.002232 190.324265 -6.960118 
521150890919801 45.002232 190.324265 -6.960118 
521150910916937 45.002232 190.324265 -6.960118 
521150930922197 45.002232 190.324265 -6.960118 
521150951125791 45.002232 190.324265 -6.960118 
521150970917562 45.002232 190.324265 -6.960118 
521150990917510 45.002232 190.324265 -6.960118 
521151010917302 45.002232 190.324265 -6.960118 
521151030917146 45.002232 190.324265 -6.960118 
521151050918500 45.002232 190.324265 -6.960118 
521151070918813 45.002232 190.324265 -6.960118 
521151090918499 45.002232 190.324265 -6.960118 
521151110918499 45.002232 190.324265 -6.960118 
521151130917822 45.002232 190.324265 -6.960118 
521151150941572 45.002232 190.324265 -6.960118 
521151170930896 45.002232 190.324265 -6.960118 
521151190930583 45.002232 190.324265 -6.960118 
521151210917406 45.002232 190.324265 -6.960118 
521151230917458 45.002232 190.324265 -6.960118 
521151250918499 45.002232 190.324265 -6.960118 
521151270917250 45.002232 190.324265 -6.960118 
521151290919437 45.002232 190.324265 -6.960118 
521151310918656 45.002232 190.324265 -6.960118 
521151330918135 45.002232 190.324265 -6.960118 
521151350917094 45.002232 190.324265 -6.960118 
521151370920531 45.002232 190.324265 -6.960118 
521151390917823 45.002232 190.324265 -6.960118 
521151410917198 45.002232 190.324265 -6.960118 
521151430916937 45.002232 190.324265 -6.960118 
521151450917354 45.002232 190.324265 -6.960118 
521151470917458 45.002232 190.324265 -6.960118 
521151490917406 45.002232 190.324265 -6.960118 
521151510916677 45.002232 190.324265 -6.960118 
521151530931520 45.002232 190.324265 -6.960118 
521151550930271 45.002232 190.324265 -6.960118 
521151570918186 45.002232 190.324265 -6.960118 
521151590925739 45.002232 190.324265 -6.960118 
521151610918500 45.002232 190.324265 -6.960118 
521151630917093 45.002232 190.324265 -6.960118 
521151650918291 45.002232 190.324265 -6.960118 
521151670918344 45.002232 190.324265 -6.960118 
521151690920322 45.002232 190.324265 -6.960118 
521151710916156 45.002232 190.324265 -6.960118 
521151730917562 45.002232 190.324265 -6.960118 
521151750923916 45.002232 190.324265 -6.960118 
521151770918031 45.002232 190.324265 -6.960118 
521151790918447 45.002232 190.324265 -6.960118 
521151810918186 45.002232 190.324265 -6.960118 
521151830918238 45.002232 190.324265 -6.960118 
521151850918187 45.002232 190.324265 -6.960118 
521151870918395 45.002232 190.324265 -6.960118 
521151890941416 45.002232 190.324265 -6.960118 
521151910941416 45.002232 190.324265 -6.960118 
521151930918239 45.002232 190.324265 -6.960118 
521151951125582 45.002232 190.324265 -6.960118 
521151970918812 45.002232 190.324265 -6.960118 
521151990918759 45.002232 190.324265 -6.960118 
521152010918343 45.002232 190.324265 -6.960118 
521152030917978 45.002232 190.324265 -6.960118 
