# Created at Thu Nov 07 18:12:17 EST 2019 in Burnaby Canada 
521581390924064 45.002232 190.324265 -6.960118 
521581410924116 45.002232 190.324265 -6.960118 
521581430923856 45.002232 190.324265 -6.960118 
521581450923804 45.002232 190.324265 -6.960118 
521581470923335 45.002232 190.324265 -6.960118 
521581490923127 45.002232 190.324265 -6.960118 
521581510923440 45.002232 190.324265 -6.960118 
521581530923700 45.002232 190.324265 -6.960118 
521581550923388 45.002232 190.324265 -6.960118 
521581570923804 45.002232 190.324265 -6.960118 
521581590923907 45.002232 190.324265 -6.960118 
521581610924064 45.002232 190.324265 -6.960118 
521581630924273 45.002232 190.324265 -6.960118 
521581650923648 45.002232 190.324265 -6.960118 
521581670923491 45.002232 190.324265 -6.960118 
521581690923335 45.002232 190.324265 -6.960118 
521581710924013 45.002232 190.324265 -6.960118 
521581730923648 45.002232 190.324265 -6.960118 
521581750923961 45.002232 190.324265 -6.960118 
521581770924013 45.002232 190.324265 -6.960118 
521581790923751 45.002232 190.324265 -6.960118 
521581810924064 45.002232 190.324265 -6.960118 
521581830923752 45.002232 190.324265 -6.960118 
521581850923700 45.002232 190.324265 -6.960118 
521581870923908 45.002232 190.324265 -6.960118 
521581890924220 45.002232 190.324265 -6.960118 
521581910923336 45.002232 190.324265 -6.960118 
521581930934169 45.002232 190.324265 -6.960118 
521581950934012 45.002232 190.324265 -6.960118 
521581970923543 45.002232 190.324265 -6.960118 
521581990923909 45.002232 190.324265 -6.960118 
521582010923648 45.002232 190.324265 -6.960118 
521582030924169 45.002232 190.324265 -6.960118 
521582050923907 45.002232 190.324265 -6.960118 
521582070924169 45.002232 190.324265 -6.960118 
521582090923752 45.002232 190.324265 -6.960118 
521582110923440 45.002232 190.324265 -6.960118 
521582130923127 45.002232 190.324265 -6.960118 
521582150923804 45.002232 190.324265 -6.960118 
521582170923700 45.002232 190.324265 -6.960118 
521582190923804 45.002232 190.324265 -6.960118 
521582210923075 45.002232 190.324265 -6.960118 
521582230923908 45.002232 190.324265 -6.960118 
521582250924221 45.002232 190.324265 -6.960118 
521582270924377 45.002232 190.324265 -6.960118 
521582290935575 45.002232 190.324265 -6.960118 
521582310934637 45.002232 190.324265 -6.960118 
521582330923491 45.002232 190.324265 -6.960118 
521582350924272 45.002232 190.324265 -6.960118 
521582370923804 45.002232 190.324265 -6.960118 
521582390924273 45.002232 190.324265 -6.960118 
521582410924534 45.002232 190.324265 -6.960118 
521582430924741 45.002232 190.324265 -6.960118 
521582450925210 45.002232 190.324265 -6.960118 
521582470925158 45.002232 190.324265 -6.960118 
521582490925314 45.002232 190.324265 -6.960118 
521582510925367 45.002232 190.324265 -6.960118 
521582530924742 45.002232 190.324265 -6.960118 
521582550924325 45.002232 190.324265 -6.960118 
521582570924220 45.002232 190.324265 -6.960118 
521582590924013 45.002232 190.324265 -6.960118 
521582610923492 45.002232 190.324265 -6.960118 
521582630951772 45.002232 190.324265 -6.960118 
521582650924324 45.002232 190.324265 -6.960118 
521582670924272 45.002232 190.324265 -6.960118 
521582690926356 45.002232 190.324265 -6.960118 
521582710926721 45.002232 190.324265 -6.960118 
521582730924637 45.002232 190.324265 -6.960118 
521582750925835 45.002232 190.324265 -6.960118 
521582770924585 45.002232 190.324265 -6.960118 
521582790924168 45.002232 190.324265 -6.960118 
521582810923855 45.002232 190.324265 -6.960118 
521582830924689 45.002232 190.324265 -6.960118 
521582850924741 45.002232 190.324265 -6.960118 
521582870925001 45.002232 190.324265 -6.960118 
521582890924585 45.002232 190.324265 -6.960118 
521582910924897 45.002232 190.324265 -6.960118 
521582930925626 45.002232 190.324265 -6.960118 
521582951131825 45.002232 190.324265 -6.960118 
521582970925210 45.002232 190.324265 -6.960118 
521582990919377 45.002232 190.324265 -6.960118 
521583010925939 45.002232 190.324265 -6.960118 
521583030924168 45.002232 190.324265 -6.960118 
521583050923804 45.002232 190.324265 -6.960118 
521583070923700 45.002232 190.324265 -6.960118 
521583090923596 45.002232 190.324265 -6.960118 
521583110922970 45.002232 190.324265 -6.960118 
521583130923491 45.002232 190.324265 -6.960118 
521583150924168 45.002232 190.324265 -6.960118 
521583170924220 45.002232 190.324265 -6.960118 
521583190923855 45.002232 190.324265 -6.960118 
521583210923751 45.002232 190.324265 -6.960118 
521583230924012 45.002232 190.324265 -6.960118 
521583250924116 45.002232 190.324265 -6.960118 
521583270923751 45.002232 190.324265 -6.960118 
521583290924428 45.002232 190.324265 -6.960118 
521583310924533 45.002232 190.324265 -6.960118 
521583330925210 45.002232 190.324265 -6.960118 
521583350920262 45.002232 190.324265 -6.960118 
521583370926720 45.002232 190.324265 -6.960118 
521583390926199 45.002232 190.324265 -6.960118 
521583410926564 45.002232 190.324265 -6.960118 
521583430924533 45.002232 190.324265 -6.960118 
521583450923647 45.002232 190.324265 -6.960118 
521583470923855 45.002232 190.324265 -6.960118 
521583490924116 45.002232 190.324265 -6.960118 
521583510923178 45.002232 190.324265 -6.960118 
521583530923856 45.002232 190.324265 -6.960118 
521583550925574 45.002232 190.324265 -6.960118 
521583570925574 45.002232 190.324265 -6.960118 
521583590925053 45.002232 190.324265 -6.960118 
521583610924532 45.002232 190.324265 -6.960118 
521583630924688 45.002232 190.324265 -6.960118 
521583650923855 45.002232 190.324265 -6.960118 
521583670923230 45.002232 190.324265 -6.960118 
521583690923542 45.002232 190.324265 -6.960118 
521583710917761 45.002232 190.324265 -6.960118 
521583730924168 45.002232 190.324265 -6.960118 
521583750924533 45.002232 190.324265 -6.960118 
521583770924376 45.002232 190.324265 -6.960118 
521583790923803 45.002232 190.324265 -6.960118 
521583810924064 45.002232 190.324265 -6.960118 
521583830924584 45.002232 190.324265 -6.960118 
521583850924271 45.002232 190.324265 -6.960118 
521583870925366 45.002232 190.324265 -6.960118 
521583890924532 45.002232 190.324265 -6.960118 
521583910924845 45.002232 190.324265 -6.960118 
521583930924845 45.002232 190.324265 -6.960118 
521583951133231 45.002232 190.324265 -6.960118 
521583970925783 45.002232 190.324265 -6.960118 
521583990925262 45.002232 190.324265 -6.960118 
521584010925106 45.002232 190.324265 -6.960118 
521584030924116 45.002232 190.324265 -6.960118 
521584050924533 45.002232 190.324265 -6.960118 
521584070923335 45.002232 190.324265 -6.960118 
521584090923908 45.002232 190.324265 -6.960118 
521584110924585 45.002232 190.324265 -6.960118 
521584130924272 45.002232 190.324265 -6.960118 
521584150924637 45.002232 190.324265 -6.960118 
521584170923908 45.002232 190.324265 -6.960118 
521584190925470 45.002232 190.324265 -6.960118 
521584210923854 45.002232 190.324265 -6.960118 
521584230923856 45.002232 190.324265 -6.960118 
521584250924533 45.002232 190.324265 -6.960118 
521584270924168 45.002232 190.324265 -6.960118 
521584290924428 45.002232 190.324265 -6.960118 
521584310924480 45.002232 190.324265 -6.960118 
521584330924272 45.002232 190.324265 -6.960118 
521584350924897 45.002232 190.324265 -6.960118 
521584370924533 45.002232 190.324265 -6.960118 
521584390924323 45.002232 190.324265 -6.960118 
521584410924011 45.002232 190.324265 -6.960118 
521584430923699 45.002232 190.324265 -6.960118 
521584450947501 45.002232 190.324265 -6.960118 
521584470949064 45.002232 190.324265 -6.960118 
521584490925574 45.002232 190.324265 -6.960118 
521584510924167 45.002232 190.324265 -6.960118 
521584530924167 45.002232 190.324265 -6.960118 
521584550923803 45.002232 190.324265 -6.960118 
521584570923959 45.002232 190.324265 -6.960118 
521584590924115 45.002232 190.324265 -6.960118 
521584610923802 45.002232 190.324265 -6.960118 
521584630925886 45.002232 190.324265 -6.960118 
521584650925678 45.002232 190.324265 -6.960118 
521584670924220 45.002232 190.324265 -6.960118 
521584690924012 45.002232 190.324265 -6.960118 
521584710923646 45.002232 190.324265 -6.960118 
521584730923959 45.002232 190.324265 -6.960118 
521584750923699 45.002232 190.324265 -6.960118 
521584770924012 45.002232 190.324265 -6.960118 
521584790924271 45.002232 190.324265 -6.960118 
521584810924167 45.002232 190.324265 -6.960118 
521584830924793 45.002232 190.324265 -6.960118 
521584850924324 45.002232 190.324265 -6.960118 
521584870924272 45.002232 190.324265 -6.960118 
521584890923126 45.002232 190.324265 -6.960118 
521584910924532 45.002232 190.324265 -6.960118 
521584930923386 45.002232 190.324265 -6.960118 
521584951131928 45.002232 190.324265 -6.960118 
521584970924689 45.002232 190.324265 -6.960118 
521584990924219 45.002232 190.324265 -6.960118 
521585010924063 45.002232 190.324265 -6.960118 
521585030923751 45.002232 190.324265 -6.960118 
521585050924063 45.002232 190.324265 -6.960118 
521585070923699 45.002232 190.324265 -6.960118 
521585090924376 45.002232 190.324265 -6.960118 
521585110924115 45.002232 190.324265 -6.960118 
521585130923855 45.002232 190.324265 -6.960118 
521585150924271 45.002232 190.324265 -6.960118 
521585170947500 45.002232 190.324265 -6.960118 
521585191322293 45.002232 190.324265 -6.960118 
521585210923908 45.002232 190.324265 -6.960118 
521585230924376 45.002232 190.324265 -6.960118 
521585250924636 45.002232 190.324265 -6.960118 
521585270924584 45.002232 190.324265 -6.960118 
521585290924323 45.002232 190.324265 -6.960118 
521585310924115 45.002232 190.324265 -6.960118 
521585330923698 45.002232 190.324265 -6.960118 
521585350926355 45.002232 190.324265 -6.960118 
521585370926511 45.002232 190.324265 -6.960118 
521585390925157 45.002232 190.324265 -6.960118 
521585410925521 45.002232 190.324265 -6.960118 
521585430924479 45.002232 190.324265 -6.960118 
521585450925208 45.002232 190.324265 -6.960118 
521585470925260 45.002232 190.324265 -6.960118 
521585490925156 45.002232 190.324265 -6.960118 
521585510917813 45.002232 190.324265 -6.960118 
521585530949376 45.002232 190.324265 -6.960118 
521585551315522 45.002232 190.324265 -6.960118 
521585570924428 45.002232 190.324265 -6.960118 
521585590923438 45.002232 190.324265 -6.960118 
521585610924532 45.002232 190.324265 -6.960118 
521585630925573 45.002232 190.324265 -6.960118 
521585650925000 45.002232 190.324265 -6.960118 
521585670925521 45.002232 190.324265 -6.960118 
521585690925521 45.002232 190.324265 -6.960118 
521585710925000 45.002232 190.324265 -6.960118 
521585730925104 45.002232 190.324265 -6.960118 
521585750925001 45.002232 190.324265 -6.960118 
521585770925105 45.002232 190.324265 -6.960118 
521585790924636 45.002232 190.324265 -6.960118 
521585810923594 45.002232 190.324265 -6.960118 
521585830923854 45.002232 190.324265 -6.960118 
521585850923802 45.002232 190.324265 -6.960118 
521585870923958 45.002232 190.324265 -6.960118 
521585890935208 45.002232 190.324265 -6.960118 
521585911289688 45.002232 190.324265 -6.960118 
521585930923386 45.002232 190.324265 -6.960118 
521585951182136 45.002232 190.324265 -6.960118 
521585970927136 45.002232 190.324265 -6.960118 
521585990923281 45.002232 190.324265 -6.960118 
521586010923438 45.002232 190.324265 -6.960118 
521586030924375 45.002232 190.324265 -6.960118 
521586050924688 45.002232 190.324265 -6.960118 
521586070923490 45.002232 190.324265 -6.960118 
521586090923490 45.002232 190.324265 -6.960118 
521586110925885 45.002232 190.324265 -6.960118 
521586130924531 45.002232 190.324265 -6.960118 
521586150923906 45.002232 190.324265 -6.960118 
521586170924114 45.002232 190.324265 -6.960118 
521586190925053 45.002232 190.324265 -6.960118 
521586210924480 45.002232 190.324265 -6.960118 
521586230918073 45.002232 190.324265 -6.960118 
521586250924635 45.002232 190.324265 -6.960118 
521586271275208 45.002232 190.324265 -6.960118 
521586290925052 45.002232 190.324265 -6.960118 
521586310926771 45.002232 190.324265 -6.960118 
521586330925364 45.002232 190.324265 -6.960118 
521586350925052 45.002232 190.324265 -6.960118 
521586370928855 45.002232 190.324265 -6.960118 
521586390924741 45.002232 190.324265 -6.960118 
521586410925366 45.002232 190.324265 -6.960118 
521586430924896 45.002232 190.324265 -6.960118 
521586450924688 45.002232 190.324265 -6.960118 
521586470923697 45.002232 190.324265 -6.960118 
521586490923697 45.002232 190.324265 -6.960118 
521586510924062 45.002232 190.324265 -6.960118 
521586530924062 45.002232 190.324265 -6.960118 
521586550925260 45.002232 190.324265 -6.960118 
521586570925364 45.002232 190.324265 -6.960118 
521586590924896 45.002232 190.324265 -6.960118 
521586610949323 45.002232 190.324265 -6.960118 
521586631258594 45.002232 190.324265 -6.960118 
521586650923854 45.002232 190.324265 -6.960118 
521586670924428 45.002232 190.324265 -6.960118 
521586690924115 45.002232 190.324265 -6.960118 
521586710925885 45.002232 190.324265 -6.960118 
521586730925729 45.002232 190.324265 -6.960118 
521586750924167 45.002232 190.324265 -6.960118 
521586770924427 45.002232 190.324265 -6.960118 
