# Created at Thu Nov 07 18:48:03 EST 2019 in Burnaby Canada 
523727210918558 40.773468 185.543625 -10.365678 
523727218000485 40.773468 185.543625 -10.365678 
523727230923609 40.773468 185.543625 -10.365678 
523727251093349 40.773468 185.543625 -10.365678 
523727270970902 40.773468 185.543625 -10.365678 
523727290971319 40.773468 185.543625 -10.365678 
523727310924755 40.773468 185.543625 -10.365678 
523727330923193 40.773468 185.543625 -10.365678 
523727350923141 40.773468 185.543625 -10.365678 
523727370923766 40.773468 185.543625 -10.365678 
523727390923141 40.773468 185.543625 -10.365678 
523727410923557 40.773468 185.543625 -10.365678 
523727430923662 40.773468 185.543625 -10.365678 
523727450923714 40.773468 185.543625 -10.365678 
523727470923297 40.773468 185.543625 -10.365678 
523727490923818 40.773468 185.543625 -10.365678 
523727510919182 40.773468 185.543625 -10.365678 
523727530922984 40.773468 185.543625 -10.365678 
523727550924286 40.773468 185.543625 -10.365678 
523727570923922 40.773468 185.543625 -10.365678 
523727590923870 40.773468 185.543625 -10.365678 
523727611061161 40.773468 185.543625 -10.365678 
523727631061057 40.773468 185.543625 -10.365678 
523727650942151 40.773468 185.543625 -10.365678 
523727670923870 40.773468 185.543625 -10.365678 
523727690923400 40.773468 185.543625 -10.365678 
523727710917671 40.773468 185.543625 -10.365678 
523727717848088 40.773468 185.543625 -10.365678 
523727730923609 40.773468 185.543625 -10.365678 
523727750923557 40.773468 185.543625 -10.365678 
523727770923714 40.773468 185.543625 -10.365678 
523727790923869 40.773468 185.543625 -10.365678 
523727810923245 40.773468 185.543625 -10.365678 
523727830924235 40.773468 185.543625 -10.365678 
523727850923661 40.773468 185.543625 -10.365678 
523727870923765 40.773468 185.543625 -10.365678 
523727890923296 40.773468 185.543625 -10.365678 
523727910917620 40.773468 185.543625 -10.365678 
523727930923974 40.773468 185.543625 -10.365678 
523727951131266 40.773468 185.543625 -10.365678 
523727970997203 40.773468 185.543625 -10.365678 
523727990999286 40.773468 185.543625 -10.365678 
523728010919495 40.773468 185.543625 -10.365678 
523728030925692 40.773468 185.543625 -10.365678 
523728050917880 40.773468 185.543625 -10.365678 
523728070924286 40.773468 185.543625 -10.365678 
523728090924494 40.773468 185.543625 -10.365678 
523728110923765 40.773468 185.543625 -10.365678 
523728130924026 40.773468 185.543625 -10.365678 
523728150923766 40.773468 185.543625 -10.365678 
523728170923401 40.773468 185.543625 -10.365678 
523728190923349 40.773468 185.543625 -10.365678 
523728210916995 40.773468 185.543625 -10.365678 
523728230923036 40.773468 185.543625 -10.365678 
523728250924026 40.773468 185.543625 -10.365678 
523728270924234 40.773468 185.543625 -10.365678 
523728290925015 40.773468 185.543625 -10.365678 
523728310938401 40.773468 185.543625 -10.365678 
523728330970640 40.773468 185.543625 -10.365678 
523728350970432 40.773468 185.543625 -10.365678 
523728370921682 40.773468 185.543625 -10.365678 
523728390918714 40.773468 185.543625 -10.365678 
523728410918088 40.773468 185.543625 -10.365678 
523728430920067 40.773468 185.543625 -10.365678 
523728450925172 40.773468 185.543625 -10.365678 
523728470922046 40.773468 185.543625 -10.365678 
523728490924234 40.773468 185.543625 -10.365678 
523728510918557 40.773468 185.543625 -10.365678 
523728530917775 40.773468 185.543625 -10.365678 
523728550917827 40.773468 185.543625 -10.365678 
523728570917099 40.773468 185.543625 -10.365678 
523728590919026 40.773468 185.543625 -10.365678 
523728610917567 40.773468 185.543625 -10.365678 
523728630917462 40.773468 185.543625 -10.365678 
523728650918816 40.773468 185.543625 -10.365678 
523728670951526 40.773468 185.543625 -10.365678 
523728690927932 40.773468 185.543625 -10.365678 
523728710927879 40.773468 185.543625 -10.365678 
523728730917046 40.773468 185.543625 -10.365678 
523728750918036 40.773468 185.543625 -10.365678 
523728770918296 40.773468 185.543625 -10.365678 
523728790920120 40.773468 185.543625 -10.365678 
523728810920380 40.773468 185.543625 -10.365678 
523728830923504 40.773468 185.543625 -10.365678 
523728850922931 40.773468 185.543625 -10.365678 
523728870923556 40.773468 185.543625 -10.365678 
523728890923452 40.773468 185.543625 -10.365678 
523728910919025 40.773468 185.543625 -10.365678 
523728930924702 40.773468 185.543625 -10.365678 
523728951126421 40.773468 185.543625 -10.365678 
523728970919182 40.773468 185.543625 -10.365678 
523728990917203 40.773468 185.543625 -10.365678 
523729010927723 40.773468 185.543625 -10.365678 
523729030916994 40.773468 185.543625 -10.365678 
523729050930744 40.773468 185.543625 -10.365678 
523729070930901 40.773468 185.543625 -10.365678 
523729090917880 40.773468 185.543625 -10.365678 
523729110917828 40.773468 185.543625 -10.365678 
523729130916890 40.773468 185.543625 -10.365678 
523729150917254 40.773468 185.543625 -10.365678 
523729170917046 40.773468 185.543625 -10.365678 
523729190916942 40.773468 185.543625 -10.365678 
523729210922984 40.773468 185.543625 -10.365678 
523729230923556 40.773468 185.543625 -10.365678 
523729250917254 40.773468 185.543625 -10.365678 
523729270919078 40.773468 185.543625 -10.365678 
523729290917306 40.773468 185.543625 -10.365678 
523729310917462 40.773468 185.543625 -10.365678 
523729330917879 40.773468 185.543625 -10.365678 
523729350920171 40.773468 185.543625 -10.365678 
523729370916161 40.773468 185.543625 -10.365678 
523729390916682 40.773468 185.543625 -10.365678 
523729410928401 40.773468 185.543625 -10.365678 
523729430928609 40.773468 185.543625 -10.365678 
523729450917255 40.773468 185.543625 -10.365678 
523729470917828 40.773468 185.543625 -10.365678 
523729490917723 40.773468 185.543625 -10.365678 
523729510918140 40.773468 185.543625 -10.365678 
523729530924338 40.773468 185.543625 -10.365678 
523729550923452 40.773468 185.543625 -10.365678 
523729570923348 40.773468 185.543625 -10.365678 
523729590925171 40.773468 185.543625 -10.365678 
523729610918765 40.773468 185.543625 -10.365678 
523729630917358 40.773468 185.543625 -10.365678 
523729650917723 40.773468 185.543625 -10.365678 
523729670917984 40.773468 185.543625 -10.365678 
523729690918609 40.773468 185.543625 -10.365678 
523729710916994 40.773468 185.543625 -10.365678 
523729717988608 40.773468 185.543625 -10.365678 
523729730917150 40.773468 185.543625 -10.365678 
523729750916941 40.773468 185.543625 -10.365678 
523729770938660 40.773468 185.543625 -10.365678 
523729791334598 40.773468 185.543625 -10.365678 
523729810917514 40.773468 185.543625 -10.365678 
523729830917098 40.773468 185.543625 -10.365678 
523729850923400 40.773468 185.543625 -10.365678 
523729870917879 40.773468 185.543625 -10.365678 
523729890922514 40.773468 185.543625 -10.365678 
523729910919181 40.773468 185.543625 -10.365678 
523729930925015 40.773468 185.543625 -10.365678 
523729951126004 40.773468 185.543625 -10.365678 
523729970919025 40.773468 185.543625 -10.365678 
523729990918348 40.773468 185.543625 -10.365678 
523730010918452 40.773468 185.543625 -10.365678 
523730030986316 40.773468 185.543625 -10.365678 
523730050918139 40.773468 185.543625 -10.365678 
523730070917723 40.773468 185.543625 -10.365678 
523730090917984 40.773468 185.543625 -10.365678 
523730110931577 40.773468 185.543625 -10.365678 
523730130918973 40.773468 185.543625 -10.365678 
523730151321368 40.773468 185.543625 -10.365678 
523730170922254 40.773468 185.543625 -10.365678 
523730190918088 40.773468 185.543625 -10.365678 
523730210919234 40.773468 185.543625 -10.365678 
523730218054442 40.773468 185.543625 -10.365678 
523730230920275 40.773468 185.543625 -10.365678 
523730250925171 40.773468 185.543625 -10.365678 
523730270923452 40.773468 185.543625 -10.365678 
523730290923243 40.773468 185.543625 -10.365678 
523730310917254 40.773468 185.543625 -10.365678 
523730330923660 40.773468 185.543625 -10.365678 
523730350924025 40.773468 185.543625 -10.365678 
523730370917045 40.773468 185.543625 -10.365678 
523730390918399 40.773468 185.543625 -10.365678 
523730410918035 40.773468 185.543625 -10.365678 
523730430919806 40.773468 185.543625 -10.365678 
523730450917411 40.773468 185.543625 -10.365678 
523730470918869 40.773468 185.543625 -10.365678 
523730490919129 40.773468 185.543625 -10.365678 
523730511248400 40.773468 185.543625 -10.365678 
523730530918660 40.773468 185.543625 -10.365678 
523730550918713 40.773468 185.543625 -10.365678 
523730571004180 40.773468 185.543625 -10.365678 
523730590918973 40.773468 185.543625 -10.365678 
523730610918295 40.773468 185.543625 -10.365678 
523730630921109 40.773468 185.543625 -10.365678 
523730650924128 40.773468 185.543625 -10.365678 
523730670924389 40.773468 185.543625 -10.365678 
523730690922254 40.773468 185.543625 -10.365678 
523730710919128 40.773468 185.543625 -10.365678 
523730730917931 40.773468 185.543625 -10.365678 
523730750917671 40.773468 185.543625 -10.365678 
523730770917931 40.773468 185.543625 -10.365678 
523730790918451 40.773468 185.543625 -10.365678 
523730810917670 40.773468 185.543625 -10.365678 
523730830921160 40.773468 185.543625 -10.365678 
523730850953452 40.773468 185.543625 -10.365678 
523730871207098 40.773468 185.543625 -10.365678 
523730890966108 40.773468 185.543625 -10.365678 
523730910919649 40.773468 185.543625 -10.365678 
523730930919649 40.773468 185.543625 -10.365678 
523730951127098 40.773468 185.543625 -10.365678 
523730970925796 40.773468 185.543625 -10.365678 
523730990918452 40.773468 185.543625 -10.365678 
523731010918556 40.773468 185.543625 -10.365678 
523731030925275 40.773468 185.543625 -10.365678 
523731050925223 40.773468 185.543625 -10.365678 
523731070924754 40.773468 185.543625 -10.365678 
523731090918452 40.773468 185.543625 -10.365678 
523731110919389 40.773468 185.543625 -10.365678 
523731130919024 40.773468 185.543625 -10.365678 
523731150925222 40.773468 185.543625 -10.365678 
523731170918035 40.773468 185.543625 -10.365678 
523731190917670 40.773468 185.543625 -10.365678 
523731210917774 40.773468 185.543625 -10.365678 
523731231175170 40.773468 185.543625 -10.365678 
523731250964649 40.773468 185.543625 -10.365678 
523731270918244 40.773468 185.543625 -10.365678 
523731290917618 40.773468 185.543625 -10.365678 
523731310917879 40.773468 185.543625 -10.365678 
523731330920795 40.773468 185.543625 -10.365678 
523731350917774 40.773468 185.543625 -10.365678 
523731370924025 40.773468 185.543625 -10.365678 
523731390924076 40.773468 185.543625 -10.365678 
523731410918243 40.773468 185.543625 -10.365678 
523731430918763 40.773468 185.543625 -10.365678 
523731450918712 40.773468 185.543625 -10.365678 
523731470918399 40.773468 185.543625 -10.365678 
523731490918972 40.773468 185.543625 -10.365678 
523731510917670 40.773468 185.543625 -10.365678 
523731530924180 40.773468 185.543625 -10.365678 
523731550923399 40.773468 185.543625 -10.365678 
523731570929597 40.773468 185.543625 -10.365678 
523731591139962 40.773468 185.543625 -10.365678 
523731610965171 40.773468 185.543625 -10.365678 
523731630919180 40.773468 185.543625 -10.365678 
523731650917722 40.773468 185.543625 -10.365678 
523731670917097 40.773468 185.543625 -10.365678 
523731690923191 40.773468 185.543625 -10.365678 
523731710917826 40.773468 185.543625 -10.365678 
523731730924233 40.773468 185.543625 -10.365678 
523731750923295 40.773468 185.543625 -10.365678 
523731770922982 40.773468 185.543625 -10.365678 
523731790923451 40.773468 185.543625 -10.365678 
523731810917514 40.773468 185.543625 -10.365678 
523731830917515 40.773468 185.543625 -10.365678 
523731850917358 40.773468 185.543625 -10.365678 
523731870917305 40.773468 185.543625 -10.365678 
523731890917253 40.773468 185.543625 -10.365678 
523731910919076 40.773468 185.543625 -10.365678 
523731930918712 40.773468 185.543625 -10.365678 
523731951139649 40.773468 185.543625 -10.365678 
523731971139649 40.773468 185.543625 -10.365678 
523731990964962 40.773468 185.543625 -10.365678 
523732010917566 40.773468 185.543625 -10.365678 
523732030918087 40.773468 185.543625 -10.365678 
523732050917097 40.773468 185.543625 -10.365678 
523732070922202 40.773468 185.543625 -10.365678 
523732090923919 40.773468 185.543625 -10.365678 
523732110917670 40.773468 185.543625 -10.365678 
523732130923504 40.773468 185.543625 -10.365678 
523732150917044 40.773468 185.543625 -10.365678 
523732170916837 40.773468 185.543625 -10.365678 
523732190917045 40.773468 185.543625 -10.365678 
523732210916680 40.773468 185.543625 -10.365678 
523732218402878 40.773468 185.543625 -10.365678 
523732230916784 40.773468 185.543625 -10.365678 
523732250916889 40.773468 185.543625 -10.365678 
523732270916472 40.773468 185.543625 -10.365678 
523732290917045 40.773468 185.543625 -10.365678 
523732311027826 40.773468 185.543625 -10.365678 
523732331027826 40.773468 185.543625 -10.365678 
523732350934701 40.773468 185.543625 -10.365678 
523732370952774 40.773468 185.543625 -10.365678 
523732390916993 40.773468 185.543625 -10.365678 
523732410916889 40.773468 185.543625 -10.365678 
523732430919962 40.773468 185.543625 -10.365678 
523732450926368 40.773468 185.543625 -10.365678 
523732470924598 40.773468 185.543625 -10.365678 
523732490924129 40.773468 185.543625 -10.365678 
523732510917566 40.773468 185.543625 -10.365678 
523732530924129 40.773468 185.543625 -10.365678 
523732550917200 40.773468 185.543625 -10.365678 
523732570916732 40.773468 185.543625 -10.365678 
523732590916837 40.773468 185.543625 -10.365678 
523732610916889 40.773468 185.543625 -10.365678 
523732630923243 40.773468 185.543625 -10.365678 
523732650923607 40.773468 185.543625 -10.365678 
523732671007409 40.773468 185.543625 -10.365678 
523732691007409 40.773468 185.543625 -10.365678 
523732710918764 40.773468 185.543625 -10.365678 
523732718008191 40.773468 185.543625 -10.365678 
523732730917254 40.773468 185.543625 -10.365678 
523732750918451 40.773468 185.543625 -10.365678 
523732770918452 40.773468 185.543625 -10.365678 
523732790917410 40.773468 185.543625 -10.365678 
523732810918504 40.773468 185.543625 -10.365678 
523732830923763 40.773468 185.543625 -10.365678 
523732850923347 40.773468 185.543625 -10.365678 
523732870917670 40.773468 185.543625 -10.365678 
523732890917409 40.773468 185.543625 -10.365678 
523732910919909 40.773468 185.543625 -10.365678 
523732930919701 40.773468 185.543625 -10.365678 
523732951124440 40.773468 185.543625 -10.365678 
523732970918242 40.773468 185.543625 -10.365678 
523732990917305 40.773468 185.543625 -10.365678 
523733010917983 40.773468 185.543625 -10.365678 
523733030940378 40.773468 185.543625 -10.365678 
523733050940378 40.773468 185.543625 -10.365678 
523733070917462 40.773468 185.543625 -10.365678 
523733090917305 40.773468 185.543625 -10.365678 
523733110918294 40.773468 185.543625 -10.365678 
523733130917148 40.773468 185.543625 -10.365678 
523733150917148 40.773468 185.543625 -10.365678 
523733170923554 40.773468 185.543625 -10.365678 
523733190923555 40.773468 185.543625 -10.365678 
523733210917357 40.773468 185.543625 -10.365678 
523733230923711 40.773468 185.543625 -10.365678 
523733250917305 40.773468 185.543625 -10.365678 
523733270917565 40.773468 185.543625 -10.365678 
523733290917409 40.773468 185.543625 -10.365678 
523733310916941 40.773468 185.543625 -10.365678 
523733330921264 40.773468 185.543625 -10.365678 
523733350916732 40.773468 185.543625 -10.365678 
523733370917149 40.773468 185.543625 -10.365678 
523733390920378 40.773468 185.543625 -10.365678 
523733410919441 40.773468 185.543625 -10.365678 
523733430919076 40.773468 185.543625 -10.365678 
523733450919908 40.773468 185.543625 -10.365678 
523733470918294 40.773468 185.543625 -10.365678 
523733490919909 40.773468 185.543625 -10.365678 
523733510918399 40.773468 185.543625 -10.365678 
523733530925326 40.773468 185.543625 -10.365678 
523733550923607 40.773468 185.543625 -10.365678 
523733570923607 40.773468 185.543625 -10.365678 
523733590923919 40.773468 185.543625 -10.365678 
523733610917461 40.773468 185.543625 -10.365678 
523733630917305 40.773468 185.543625 -10.365678 
523733650917044 40.773468 185.543625 -10.365678 
523733670917096 40.773468 185.543625 -10.365678 
523733690917409 40.773468 185.543625 -10.365678 
523733710916627 40.773468 185.543625 -10.365678 
523733730916888 40.773468 185.543625 -10.365678 
523733750941940 40.773468 185.543625 -10.365678 
523733770941940 40.773468 185.543625 -10.365678 
523733790918138 40.773468 185.543625 -10.365678 
523733810918242 40.773468 185.543625 -10.365678 
523733830917461 40.773468 185.543625 -10.365678 
523733850918607 40.773468 185.543625 -10.365678 
523733870918867 40.773468 185.543625 -10.365678 
523733890923815 40.773468 185.543625 -10.365678 
523733910918190 40.773468 185.543625 -10.365678 
523733930925273 40.773468 185.543625 -10.365678 
523733951133347 40.773468 185.543625 -10.365678 
523733970919232 40.773468 185.543625 -10.365678 
523733990919909 40.773468 185.543625 -10.365678 
523734010918502 40.773468 185.543625 -10.365678 
523734030923190 40.773468 185.543625 -10.365678 
523734050916627 40.773468 185.543625 -10.365678 
523734070916680 40.773468 185.543625 -10.365678 
523734090918920 40.773468 185.543625 -10.365678 
523734110928242 40.773468 185.543625 -10.365678 
523734130928242 40.773468 185.543625 -10.365678 
523734150918451 40.773468 185.543625 -10.365678 
523734170919387 40.773468 185.543625 -10.365678 
523734190919597 40.773468 185.543625 -10.365678 
523734210918763 40.773468 185.543625 -10.365678 
523734230918137 40.773468 185.543625 -10.365678 
523734250924857 40.773468 185.543625 -10.365678 
523734270923971 40.773468 185.543625 -10.365678 
523734290923868 40.773468 185.543625 -10.365678 
523734310917409 40.773468 185.543625 -10.365678 
523734330923189 40.773468 185.543625 -10.365678 
523734350917043 40.773468 185.543625 -10.365678 
523734370916785 40.773468 185.543625 -10.365678 
523734390923919 40.773468 185.543625 -10.365678 
523734410917565 40.773468 185.543625 -10.365678 
523734430922252 40.773468 185.543625 -10.365678 
523734450921784 40.773468 185.543625 -10.365678 
523734470918190 40.773468 185.543625 -10.365678 
523734490918190 40.773468 185.543625 -10.365678 
523734510917617 40.773468 185.543625 -10.365678 
523734530923658 40.773468 185.543625 -10.365678 
523734550917512 40.773468 185.543625 -10.365678 
523734570917408 40.773468 185.543625 -10.365678 
523734590917201 40.773468 185.543625 -10.365678 
523734610917201 40.773468 185.543625 -10.365678 
523734630923295 40.773468 185.543625 -10.365678 
523734650922982 40.773468 185.543625 -10.365678 
523734670923033 40.773468 185.543625 -10.365678 
523734690923502 40.773468 185.543625 -10.365678 
523734710917930 40.773468 185.543625 -10.365678 
523734730918347 40.773468 185.543625 -10.365678 
523734750917669 40.773468 185.543625 -10.365678 
523734770917721 40.773468 185.543625 -10.365678 
523734790918659 40.773468 185.543625 -10.365678 
523734810919023 40.773468 185.543625 -10.365678 
523734830923398 40.773468 185.543625 -10.365678 
523734851296887 40.773468 185.543625 -10.365678 
523734870919440 40.773468 185.543625 -10.365678 
523734890919284 40.773468 185.543625 -10.365678 
523734910920741 40.773468 185.543625 -10.365678 
523734930918034 40.773468 185.543625 -10.365678 
523734951124700 40.773468 185.543625 -10.365678 
523734970925742 40.773468 185.543625 -10.365678 
523734990924804 40.773468 185.543625 -10.365678 
523735010924075 40.773468 185.543625 -10.365678 
523735030924543 40.773468 185.543625 -10.365678 
523735050923606 40.773468 185.543625 -10.365678 
523735070923242 40.773468 185.543625 -10.365678 
523735090923554 40.773468 185.543625 -10.365678 
