# Created at Thu Nov 07 18:08:23 EST 2019 in Burnaby Canada 
521347385474049 0.003797 -0.003950 0.006214 
521347406044153 0.003797 -0.003950 0.006214 
521347426614831 0.003797 -0.003950 0.006214 
521347447184988 0.003797 -0.003950 0.006214 
521347467754727 0.003797 -0.003950 0.006214 
521347488324831 0.003797 -0.003950 0.006214 
521347508894987 0.003797 -0.003950 0.006214 
521347529465195 0.003797 -0.003950 0.006214 
521347550036446 0.003797 -0.003950 0.006214 
521347570606550 0.003797 -0.003950 0.006214 
521347591175300 0.003797 -0.003950 0.006214 
521347611745456 0.003797 -0.003950 0.006214 
521347632315404 0.003797 -0.003950 0.006214 
521347652885508 0.003797 -0.003950 0.006214 
521347673455820 0.003797 -0.003950 0.006214 
521347694025977 0.003797 -0.003950 0.006214 
521347714596186 0.003797 -0.003950 0.006214 
521347735166393 0.003797 -0.003950 0.006214 
521347755736550 0.003797 -0.003950 0.006214 
521347776306549 0.003797 -0.003950 0.006214 
521347796876810 0.003797 -0.003950 0.006214 
521347817447591 0.003797 -0.003950 0.006214 
521347838016758 0.003797 -0.003950 0.006214 
521347858587019 0.003797 -0.003950 0.006214 
521347879157331 0.003797 -0.003950 0.006214 
521347899727852 0.003797 -0.003950 0.006214 
521347920297383 0.003797 -0.003950 0.006214 
521347940868164 0.003797 -0.003950 0.006214 
521347961438215 0.003797 -0.003950 0.006214 
521347982008372 0.003797 -0.003950 0.006214 
521348002578164 0.003797 -0.003950 0.006214 
521348023148633 0.003797 -0.003950 0.006214 
521348043718841 0.003797 -0.003950 0.006214 
521348064288737 0.003797 -0.003950 0.006214 
521348084858842 0.003797 -0.003950 0.006214 
521348105429310 0.003797 -0.003950 0.006214 
521348125999518 0.003797 -0.003950 0.006214 
521348146569831 0.003797 -0.003950 0.006214 
521348167139936 0.003797 -0.003950 0.006214 
521348187709102 0.003797 -0.003950 0.006214 
521348208279310 0.003797 -0.003950 0.006214 
521348228849414 0.003797 -0.003950 0.006214 
521348249419518 0.003797 -0.003950 0.006214 
521348269990196 0.003797 -0.003950 0.006214 
521348290560352 0.003797 -0.003950 0.006214 
521348311130664 0.003797 -0.003950 0.006214 
521348331700768 0.003797 -0.003950 0.006214 
521348352270769 0.003797 -0.003950 0.006214 
521348372840925 0.003797 -0.003950 0.006214 
521348393411341 0.003797 -0.003950 0.006214 
521348413981445 0.003797 -0.003950 0.006214 
521348434551758 0.003797 -0.003950 0.006214 
521348455122227 0.003797 -0.003950 0.006214 
521348475691914 0.003797 -0.003950 0.006214 
521348496261914 0.003797 -0.003950 0.006214 
521348516832018 0.003797 -0.003950 0.006214 
521348537402383 0.003797 -0.003950 0.006214 
521348557972487 0.003797 -0.003950 0.006214 
521348578542695 0.003797 -0.003950 0.006214 
521348599113685 0.003797 -0.003950 0.006214 
521348619683060 0.003797 -0.003950 0.006214 
521348640253163 0.003797 -0.003950 0.006214 
521348660823580 0.003797 -0.003950 0.006214 
521348681393268 0.003797 -0.003950 0.006214 
521348701963841 0.003797 -0.003950 0.006214 
521348722533633 0.003797 -0.003950 0.006214 
521348743103789 0.003797 -0.003950 0.006214 
521348763673945 0.003797 -0.003950 0.006214 
521348784243893 0.003797 -0.003950 0.006214 
521348804814049 0.003797 -0.003950 0.006214 
521348825384414 0.003797 -0.003950 0.006214 
521348845954570 0.003797 -0.003950 0.006214 
521348866524831 0.003797 -0.003950 0.006214 
521348887094987 0.003797 -0.003950 0.006214 
521348907664883 0.003797 -0.003950 0.006214 
521348928235039 0.003797 -0.003950 0.006214 
521348948804883 0.003797 -0.003950 0.006214 
521348969375039 0.003797 -0.003950 0.006214 
521348989945768 0.003797 -0.003950 0.006214 
521349010515924 0.003797 -0.003950 0.006214 
521349031087747 0.003797 -0.003950 0.006214 
521349051657903 0.003797 -0.003950 0.006214 
521349072227121 0.003797 -0.003950 0.006214 
521349092798476 0.003797 -0.003950 0.006214 
521349113367955 0.003797 -0.003950 0.006214 
521349133937747 0.003797 -0.003950 0.006214 
521349154508580 0.003797 -0.003950 0.006214 
521349175080299 0.003797 -0.003950 0.006214 
521349195648111 0.003797 -0.003950 0.006214 
521349216218424 0.003797 -0.003950 0.006214 
521349236788268 0.003797 -0.003950 0.006214 
521349257359205 0.003797 -0.003950 0.006214 
521349277929310 0.003797 -0.003950 0.006214 
521349298499413 0.003797 -0.003950 0.006214 
521349319069465 0.003797 -0.003950 0.006214 
521349339638320 0.003797 -0.003950 0.006214 
521349360208424 0.003797 -0.003950 0.006214 
521349380778476 0.003797 -0.003950 0.006214 
521349401349153 0.003797 -0.003950 0.006214 
521349421918737 0.003797 -0.003950 0.006214 
521349442488632 0.003797 -0.003950 0.006214 
521349463059726 0.003797 -0.003950 0.006214 
521349483629883 0.003797 -0.003950 0.006214 
521349504200716 0.003797 -0.003950 0.006214 
521349524771184 0.003797 -0.003950 0.006214 
521349545341131 0.003797 -0.003950 0.006214 
521349565911236 0.003797 -0.003950 0.006214 
521349586481341 0.003797 -0.003950 0.006214 
521349607051497 0.003797 -0.003950 0.006214 
521349627621392 0.003797 -0.003950 0.006214 
521349648191497 0.003797 -0.003950 0.006214 
521349668760715 0.003797 -0.003950 0.006214 
521349689330871 0.003797 -0.003950 0.006214 
521349709903059 0.003797 -0.003950 0.006214 
521349730473320 0.003797 -0.003950 0.006214 
521349751041392 0.003797 -0.003950 0.006214 
521349771611600 0.003797 -0.003950 0.006214 
521349792181601 0.003797 -0.003950 0.006214 
521349812751705 0.003797 -0.003950 0.006214 
521349833322017 0.003797 -0.003950 0.006214 
521349853892225 0.003797 -0.003950 0.006214 
521349874462539 0.003797 -0.003950 0.006214 
521349895032591 0.003797 -0.003950 0.006214 
521349915602643 0.003797 -0.003950 0.006214 
521349936173789 0.003797 -0.003950 0.006214 
521349956743736 0.003797 -0.003950 0.006214 
521349977313632 0.003797 -0.003950 0.006214 
521349997884622 0.003797 -0.003950 0.006214 
521350018455612 0.003797 -0.003950 0.006214 
521350039025195 0.003797 -0.003950 0.006214 
521350059595403 0.003797 -0.003950 0.006214 
521350080165142 0.003797 -0.003950 0.006214 
521350100736288 0.003797 -0.003950 0.006214 
521350121306392 0.003797 -0.003950 0.006214 
521350141875299 0.003797 -0.003950 0.006214 
521350162444987 0.003797 -0.003950 0.006214 
521350183015038 0.003797 -0.003950 0.006214 
521350203585194 0.003797 -0.003950 0.006214 
521350224155819 0.003797 -0.003950 0.006214 
521350244725975 0.003797 -0.003950 0.006214 
521350265295663 0.003797 -0.003950 0.006214 
521350285865820 0.003797 -0.003950 0.006214 
521350306436184 0.003797 -0.003950 0.006214 
521350327006288 0.003797 -0.003950 0.006214 
521350347576601 0.003797 -0.003950 0.006214 
521350368146705 0.003797 -0.003950 0.006214 
521350388716965 0.003797 -0.003950 0.006214 
521350409287069 0.003797 -0.003950 0.006214 
521350429857538 0.003797 -0.003950 0.006214 
521350450427746 0.003797 -0.003950 0.006214 
521350470998111 0.003797 -0.003950 0.006214 
521350491568320 0.003797 -0.003950 0.006214 
521350512138840 0.003797 -0.003950 0.006214 
521350532709100 0.003797 -0.003950 0.006214 
521350553280246 0.003797 -0.003950 0.006214 
521350573850507 0.003797 -0.003950 0.006214 
521350594420142 0.003797 -0.003950 0.006214 
521350614990558 0.003797 -0.003950 0.006214 
521350635560350 0.003797 -0.003950 0.006214 
521350656129778 0.003797 -0.003950 0.006214 
521350676700351 0.003797 -0.003950 0.006214 
521350697270455 0.003797 -0.003950 0.006214 
521350717841601 0.003797 -0.003950 0.006214 
521350738410924 0.003797 -0.003950 0.006214 
521350758982954 0.003797 -0.003950 0.006214 
521350779551965 0.003797 -0.003950 0.006214 
521350800120819 0.003797 -0.003950 0.006214 
521350820691548 0.003797 -0.003950 0.006214 
521350841261549 0.003797 -0.003950 0.006214 
521350861832851 0.003797 -0.003950 0.006214 
521350882402069 0.003797 -0.003950 0.006214 
521350902972226 0.003797 -0.003950 0.006214 
521350923542382 0.003797 -0.003950 0.006214 
521350944111235 0.003797 -0.003950 0.006214 
521350964681339 0.003797 -0.003950 0.006214 
521350985252850 0.003797 -0.003950 0.006214 
521351005823058 0.003797 -0.003950 0.006214 
521351026393527 0.003797 -0.003950 0.006214 
521351046963632 0.003797 -0.003950 0.006214 
521351067533892 0.003797 -0.003950 0.006214 
521351088104100 0.003797 -0.003950 0.006214 
521351108673997 0.003797 -0.003950 0.006214 
521351129244153 0.003797 -0.003950 0.006214 
521351149815610 0.003797 -0.003950 0.006214 
521351170385819 0.003797 -0.003950 0.006214 
521351190955819 0.003797 -0.003950 0.006214 
521351211525975 0.003797 -0.003950 0.006214 
521351232095195 0.003797 -0.003950 0.006214 
521351252665403 0.003797 -0.003950 0.006214 
521351273235611 0.003797 -0.003950 0.006214 
521351293807329 0.003797 -0.003950 0.006214 
521351314375976 0.003797 -0.003950 0.006214 
521351334945871 0.003797 -0.003950 0.006214 
521351355515923 0.003797 -0.003950 0.006214 
521351376086861 0.003797 -0.003950 0.006214 
521351396657278 0.003797 -0.003950 0.006214 
521351417227121 0.003797 -0.003950 0.006214 
521351437797434 0.003797 -0.003950 0.006214 
521351458368163 0.003797 -0.003950 0.006214 
521351478937589 0.003797 -0.003950 0.006214 
521351499508267 0.003797 -0.003950 0.006214 
521351520077590 0.003797 -0.003950 0.006214 
521351540647694 0.003797 -0.003950 0.006214 
521351561217955 0.003797 -0.003950 0.006214 
521351581788527 0.003797 -0.003950 0.006214 
521351602358319 0.003797 -0.003950 0.006214 
521351622928267 0.003797 -0.003950 0.006214 
521351643498476 0.003797 -0.003950 0.006214 
521351664068788 0.003797 -0.003950 0.006214 
521351684638996 0.003797 -0.003950 0.006214 
521351705209986 0.003797 -0.003950 0.006214 
521351725780142 0.003797 -0.003950 0.006214 
521351746350402 0.003797 -0.003950 0.006214 
521351766920611 0.003797 -0.003950 0.006214 
521351787490714 0.003797 -0.003950 0.006214 
521351808060922 0.003797 -0.003950 0.006214 
521351828631340 0.003797 -0.003950 0.006214 
521351849202330 0.003797 -0.003950 0.006214 
521351869772329 0.003797 -0.003950 0.006214 
521351890342538 0.003797 -0.003950 0.006214 
521351910912330 0.003797 -0.003950 0.006214 
521351931482486 0.003797 -0.003950 0.006214 
521351952052330 0.003797 -0.003950 0.006214 
521351972622538 0.003797 -0.003950 0.006214 
521351993193996 0.003797 -0.003950 0.006214 
521352013764569 0.003797 -0.003950 0.006214 
521352034333736 0.003797 -0.003950 0.006214 
521352054903996 0.003797 -0.003950 0.006214 
521352075474828 0.003797 -0.003950 0.006214 
521352096044569 0.003797 -0.003950 0.006214 
521352116615141 0.003797 -0.003950 0.006214 
521352137185766 0.003797 -0.003950 0.006214 
521352157755871 0.003797 -0.003950 0.006214 
521352178325767 0.003797 -0.003950 0.006214 
521352198894829 0.003797 -0.003950 0.006214 
521352219465402 0.003797 -0.003950 0.006214 
521352240034204 0.003797 -0.003950 0.006214 
521352260606496 0.003797 -0.003950 0.006214 
521352281176861 0.003797 -0.003950 0.006214 
521352301745454 0.003797 -0.003950 0.006214 
521352322315923 0.003797 -0.003950 0.006214 
521352342886859 0.003797 -0.003950 0.006214 
521352363457016 0.003797 -0.003950 0.006214 
521352384027589 0.003797 -0.003950 0.006214 
521352404598266 0.003797 -0.003950 0.006214 
521352425166808 0.003797 -0.003950 0.006214 
521352445737068 0.003797 -0.003950 0.006214 
521352466307745 0.003797 -0.003950 0.006214 
521352486877954 0.003797 -0.003950 0.006214 
521352507447485 0.003797 -0.003950 0.006214 
521352528017693 0.003797 -0.003950 0.006214 
521352548588788 0.003797 -0.003950 0.006214 
521352569158892 0.003797 -0.003950 0.006214 
521352589729048 0.003797 -0.003950 0.006214 
521352610299256 0.003797 -0.003950 0.006214 
521352630867954 0.003797 -0.003950 0.006214 
521352651438214 0.003797 -0.003950 0.006214 
521352672008318 0.003797 -0.003950 0.006214 
521352692578423 0.003797 -0.003950 0.006214 
521352713148683 0.003797 -0.003950 0.006214 
521352733718891 0.003797 -0.003950 0.006214 
521352754289933 0.003797 -0.003950 0.006214 
521352774859569 0.003797 -0.003950 0.006214 
521352795429776 0.003797 -0.003950 0.006214 
521352815999934 0.003797 -0.003950 0.006214 
521352836570298 0.003797 -0.003950 0.006214 
521352857140610 0.003797 -0.003950 0.006214 
521352877710141 0.003797 -0.003950 0.006214 
521352898280350 0.003797 -0.003950 0.006214 
521352918850558 0.003797 -0.003950 0.006214 
521352939421079 0.003797 -0.003950 0.006214 
521352959990975 0.003797 -0.003950 0.006214 
521352980561235 0.003797 -0.003950 0.006214 
521353001133526 0.003797 -0.003950 0.006214 
521353021703578 0.003797 -0.003950 0.006214 
521353042271912 0.003797 -0.003950 0.006214 
521353062842016 0.003797 -0.003950 0.006214 
521353083412120 0.003797 -0.003950 0.006214 
521353103982277 0.003797 -0.003950 0.006214 
521353124552485 0.003797 -0.003950 0.006214 
521353145122641 0.003797 -0.003950 0.006214 
521353165692902 0.003797 -0.003950 0.006214 
521353186263005 0.003797 -0.003950 0.006214 
521353206833109 0.003797 -0.003950 0.006214 
521353227403579 0.003797 -0.003950 0.006214 
521353247973787 0.003797 -0.003950 0.006214 
521353268543890 0.003797 -0.003950 0.006214 
521353289114047 0.003797 -0.003950 0.006214 
521353309684152 0.003797 -0.003950 0.006214 
521353330254360 0.003797 -0.003950 0.006214 
521353350824568 0.003797 -0.003950 0.006214 
521353371394829 0.003797 -0.003950 0.006214 
521353391964933 0.003797 -0.003950 0.006214 
521353412535245 0.003797 -0.003950 0.006214 
521353433105350 0.003797 -0.003950 0.006214 
521353453676339 0.003797 -0.003950 0.006214 
521353474245714 0.003797 -0.003950 0.006214 
521353494816183 0.003797 -0.003950 0.006214 
521353515386130 0.003797 -0.003950 0.006214 
521353535956548 0.003797 -0.003950 0.006214 
521353556526548 0.003797 -0.003950 0.006214 
521353577097328 0.003797 -0.003950 0.006214 
521353597667017 0.003797 -0.003950 0.006214 
521353618237953 0.003797 -0.003950 0.006214 
521353638807485 0.003797 -0.003950 0.006214 
521353659378423 0.003797 -0.003950 0.006214 
521353679948318 0.003797 -0.003950 0.006214 
521353700518370 0.003797 -0.003950 0.006214 
521353721088579 0.003797 -0.003950 0.006214 
521353741659151 0.003797 -0.003950 0.006214 
521353762228943 0.003797 -0.003950 0.006214 
521353782800766 0.003797 -0.003950 0.006214 
521353803371026 0.003797 -0.003950 0.006214 
