# Created at Thu Nov 07 18:08:23 EST 2019 in Burnaby Canada 
521347410924726 45.002232 190.324265 -6.960118 
521347430924883 45.002232 190.324265 -6.960118 
521347450925196 45.002232 190.324265 -6.960118 
521347470924987 45.002232 190.324265 -6.960118 
521347490936081 45.002232 190.324265 -6.960118 
521347510936133 45.002232 190.324265 -6.960118 
521347530924570 45.002232 190.324265 -6.960118 
521347550926446 45.002232 190.324265 -6.960118 
521347570925925 45.002232 190.324265 -6.960118 
521347590924988 45.002232 190.324265 -6.960118 
521347610923946 45.002232 190.324265 -6.960118 
521347630925560 45.002232 190.324265 -6.960118 
521347650924674 45.002232 190.324265 -6.960118 
521347670924466 45.002232 190.324265 -6.960118 
521347690924466 45.002232 190.324265 -6.960118 
521347710924466 45.002232 190.324265 -6.960118 
521347730924623 45.002232 190.324265 -6.960118 
521347750924101 45.002232 190.324265 -6.960118 
521347770924675 45.002232 190.324265 -6.960118 
521347790924518 45.002232 190.324265 -6.960118 
521347810924831 45.002232 190.324265 -6.960118 
521347830925247 45.002232 190.324265 -6.960118 
521347850935612 45.002232 190.324265 -6.960118 
521347870936133 45.002232 190.324265 -6.960118 
521347890924727 45.002232 190.324265 -6.960118 
521347910925039 45.002232 190.324265 -6.960118 
521347930923841 45.002232 190.324265 -6.960118 
521347951132070 45.002232 190.324265 -6.960118 
521347970924726 45.002232 190.324265 -6.960118 
521347990925091 45.002232 190.324265 -6.960118 
521348010924518 45.002232 190.324265 -6.960118 
521348030924779 45.002232 190.324265 -6.960118 
521348050925195 45.002232 190.324265 -6.960118 
521348070924519 45.002232 190.324265 -6.960118 
521348090924831 45.002232 190.324265 -6.960118 
521348110925091 45.002232 190.324265 -6.960118 
521348130924831 45.002232 190.324265 -6.960118 
521348150924519 45.002232 190.324265 -6.960118 
521348170925092 45.002232 190.324265 -6.960118 
521348190917695 45.002232 190.324265 -6.960118 
521348210936445 45.002232 190.324265 -6.960118 
521348230936445 45.002232 190.324265 -6.960118 
521348250924675 45.002232 190.324265 -6.960118 
521348270924987 45.002232 190.324265 -6.960118 
521348290925091 45.002232 190.324265 -6.960118 
521348310925143 45.002232 190.324265 -6.960118 
521348330924675 45.002232 190.324265 -6.960118 
521348350924518 45.002232 190.324265 -6.960118 
521348370924779 45.002232 190.324265 -6.960118 
521348390925403 45.002232 190.324265 -6.960118 
521348410925091 45.002232 190.324265 -6.960118 
521348430924569 45.002232 190.324265 -6.960118 
521348450924883 45.002232 190.324265 -6.960118 
521348470925300 45.002232 190.324265 -6.960118 
521348490924935 45.002232 190.324265 -6.960118 
521348510924883 45.002232 190.324265 -6.960118 
521348530925143 45.002232 190.324265 -6.960118 
521348550924726 45.002232 190.324265 -6.960118 
521348570949675 45.002232 190.324265 -6.960118 
521348590949727 45.002232 190.324265 -6.960118 
521348610926028 45.002232 190.324265 -6.960118 
521348630925247 45.002232 190.324265 -6.960118 
521348650925351 45.002232 190.324265 -6.960118 
521348670925039 45.002232 190.324265 -6.960118 
521348690925143 45.002232 190.324265 -6.960118 
521348710925976 45.002232 190.324265 -6.960118 
521348730925039 45.002232 190.324265 -6.960118 
521348750924883 45.002232 190.324265 -6.960118 
521348770925247 45.002232 190.324265 -6.960118 
521348790924986 45.002232 190.324265 -6.960118 
521348810924361 45.002232 190.324265 -6.960118 
521348830924675 45.002232 190.324265 -6.960118 
521348850924675 45.002232 190.324265 -6.960118 
521348870924831 45.002232 190.324265 -6.960118 
521348890924674 45.002232 190.324265 -6.960118 
521348910924154 45.002232 190.324265 -6.960118 
521348930948789 45.002232 190.324265 -6.960118 
521348950948476 45.002232 190.324265 -6.960118 
521348970924414 45.002232 190.324265 -6.960118 
521348990924935 45.002232 190.324265 -6.960118 
521349010924935 45.002232 190.324265 -6.960118 
521349030925872 45.002232 190.324265 -6.960118 
521349050926861 45.002232 190.324265 -6.960118 
521349070926601 45.002232 190.324265 -6.960118 
521349090926027 45.002232 190.324265 -6.960118 
521349110927018 45.002232 190.324265 -6.960118 
521349130926132 45.002232 190.324265 -6.960118 
521349150925976 45.002232 190.324265 -6.960118 
521349170926289 45.002232 190.324265 -6.960118 
521349190928476 45.002232 190.324265 -6.960118 
521349210926184 45.002232 190.324265 -6.960118 
521349230925455 45.002232 190.324265 -6.960118 
521349250925924 45.002232 190.324265 -6.960118 
521349270926758 45.002232 190.324265 -6.960118 
521349290932122 45.002232 190.324265 -6.960118 
521349311331705 45.002232 190.324265 -6.960118 
521349330926236 45.002232 190.324265 -6.960118 
521349350924622 45.002232 190.324265 -6.960118 
521349370924726 45.002232 190.324265 -6.960118 
521349390923944 45.002232 190.324265 -6.960118 
521349410924935 45.002232 190.324265 -6.960118 
521349430925299 45.002232 190.324265 -6.960118 
521349450924205 45.002232 190.324265 -6.960118 
521349470924726 45.002232 190.324265 -6.960118 
521349490925143 45.002232 190.324265 -6.960118 
521349510925612 45.002232 190.324265 -6.960118 
521349530925403 45.002232 190.324265 -6.960118 
521349550925454 45.002232 190.324265 -6.960118 
521349570925663 45.002232 190.324265 -6.960118 
521349590925403 45.002232 190.324265 -6.960118 
521349610925664 45.002232 190.324265 -6.960118 
521349630918528 45.002232 190.324265 -6.960118 
521349650925663 45.002232 190.324265 -6.960118 
521349671307331 45.002232 190.324265 -6.960118 
521349690924621 45.002232 190.324265 -6.960118 
521349710927799 45.002232 190.324265 -6.960118 
521349730926445 45.002232 190.324265 -6.960118 
521349750924674 45.002232 190.324265 -6.960118 
521349770924621 45.002232 190.324265 -6.960118 
521349790924362 45.002232 190.324265 -6.960118 
521349810924361 45.002232 190.324265 -6.960118 
521349830923840 45.002232 190.324265 -6.960118 
521349850924049 45.002232 190.324265 -6.960118 
521349870924569 45.002232 190.324265 -6.960118 
521349890924778 45.002232 190.324265 -6.960118 
521349910924206 45.002232 190.324265 -6.960118 
521349930924414 45.002232 190.324265 -6.960118 
521349951132278 45.002232 190.324265 -6.960118 
521349970925142 45.002232 190.324265 -6.960118 
521349990918580 45.002232 190.324265 -6.960118 
521350010925715 45.002232 190.324265 -6.960118 
521350031287851 45.002232 190.324265 -6.960118 
521350050926081 45.002232 190.324265 -6.960118 
521350070926185 45.002232 190.324265 -6.960118 
521350090925298 45.002232 190.324265 -6.960118 
521350110925351 45.002232 190.324265 -6.960118 
521350130926080 45.002232 190.324265 -6.960118 
521350150925560 45.002232 190.324265 -6.960118 
521350170924414 45.002232 190.324265 -6.960118 
521350190924153 45.002232 190.324265 -6.960118 
521350210923997 45.002232 190.324265 -6.960118 
521350230924360 45.002232 190.324265 -6.960118 
521350250923944 45.002232 190.324265 -6.960118 
521350270924101 45.002232 190.324265 -6.960118 
521350290924205 45.002232 190.324265 -6.960118 
521350310924778 45.002232 190.324265 -6.960118 
521350330924361 45.002232 190.324265 -6.960118 
521350350918007 45.002232 190.324265 -6.960118 
521350370924413 45.002232 190.324265 -6.960118 
521350391263528 45.002232 190.324265 -6.960118 
521350410924413 45.002232 190.324265 -6.960118 
521350430924257 45.002232 190.324265 -6.960118 
521350450924517 45.002232 190.324265 -6.960118 
521350470924674 45.002232 190.324265 -6.960118 
521350490924413 45.002232 190.324265 -6.960118 
521350510924985 45.002232 190.324265 -6.960118 
521350530925402 45.002232 190.324265 -6.960118 
521350550926236 45.002232 190.324265 -6.960118 
521350570925611 45.002232 190.324265 -6.960118 
521350590925767 45.002232 190.324265 -6.960118 
521350610925507 45.002232 190.324265 -6.960118 
521350630925715 45.002232 190.324265 -6.960118 
521350650925610 45.002232 190.324265 -6.960118 
521350670924934 45.002232 190.324265 -6.960118 
521350690924258 45.002232 190.324265 -6.960118 
521350710924778 45.002232 190.324265 -6.960118 
521350730925403 45.002232 190.324265 -6.960118 
521350751241236 45.002232 190.324265 -6.960118 
521350770927173 45.002232 190.324265 -6.960118 
521350790925767 45.002232 190.324265 -6.960118 
521350810924881 45.002232 190.324265 -6.960118 
521350830925298 45.002232 190.324265 -6.960118 
521350850924934 45.002232 190.324265 -6.960118 
521350870927590 45.002232 190.324265 -6.960118 
521350890925194 45.002232 190.324265 -6.960118 
521350910925403 45.002232 190.324265 -6.960118 
521350930925038 45.002232 190.324265 -6.960118 
521350951131027 45.002232 190.324265 -6.960118 
521350970923839 45.002232 190.324265 -6.960118 
521350990924829 45.002232 190.324265 -6.960118 
521351010924360 45.002232 190.324265 -6.960118 
521351030925246 45.002232 190.324265 -6.960118 
521351050925142 45.002232 190.324265 -6.960118 
521351070924673 45.002232 190.324265 -6.960118 
521351090925090 45.002232 190.324265 -6.960118 
521351111220924 45.002232 190.324265 -6.960118 
521351130971757 45.002232 190.324265 -6.960118 
521351150927433 45.002232 190.324265 -6.960118 
521351170925819 45.002232 190.324265 -6.960118 
521351190924726 45.002232 190.324265 -6.960118 
521351210925246 45.002232 190.324265 -6.960118 
521351230924361 45.002232 190.324265 -6.960118 
521351250925195 45.002232 190.324265 -6.960118 
521351270925194 45.002232 190.324265 -6.960118 
521351290924674 45.002232 190.324265 -6.960118 
521351310928528 45.002232 190.324265 -6.960118 
521351330924570 45.002232 190.324265 -6.960118 
521351350925194 45.002232 190.324265 -6.960118 
521351370924413 45.002232 190.324265 -6.960118 
521351390924830 45.002232 190.324265 -6.960118 
521351410925455 45.002232 190.324265 -6.960118 
521351430918684 45.002232 190.324265 -6.960118 
521351450936444 45.002232 190.324265 -6.960118 
521351471199830 45.002232 190.324265 -6.960118 
521351490972537 45.002232 190.324265 -6.960118 
521351510925298 45.002232 190.324265 -6.960118 
521351530924517 45.002232 190.324265 -6.960118 
521351550925767 45.002232 190.324265 -6.960118 
521351570924413 45.002232 190.324265 -6.960118 
521351590924308 45.002232 190.324265 -6.960118 
521351610924361 45.002232 190.324265 -6.960118 
521351630924622 45.002232 190.324265 -6.960118 
521351650924361 45.002232 190.324265 -6.960118 
521351670923944 45.002232 190.324265 -6.960118 
521351690924101 45.002232 190.324265 -6.960118 
521351710925142 45.002232 190.324265 -6.960118 
521351730925090 45.002232 190.324265 -6.960118 
521351750925402 45.002232 190.324265 -6.960118 
521351770924934 45.002232 190.324265 -6.960118 
521351790918579 45.002232 190.324265 -6.960118 
521351810946391 45.002232 190.324265 -6.960118 
521351831179308 45.002232 190.324265 -6.960118 
521351850973006 45.002232 190.324265 -6.960118 
521351870926443 45.002232 190.324265 -6.960118 
521351890925454 45.002232 190.324265 -6.960118 
521351910925455 45.002232 190.324265 -6.960118 
521351930925351 45.002232 190.324265 -6.960118 
521351951132693 45.002232 190.324265 -6.960118 
521351970925038 45.002232 190.324265 -6.960118 
521351990924829 45.002232 190.324265 -6.960118 
521352010926444 45.002232 190.324265 -6.960118 
521352030926913 45.002232 190.324265 -6.960118 
521352050925507 45.002232 190.324265 -6.960118 
521352070926808 45.002232 190.324265 -6.960118 
521352090927068 45.002232 190.324265 -6.960118 
521352110927798 45.002232 190.324265 -6.960118 
521352130926339 45.002232 190.324265 -6.960118 
521352150920245 45.002232 190.324265 -6.960118 
521352170937850 45.002232 190.324265 -6.960118 
521352191157486 45.002232 190.324265 -6.960118 
521352210971756 45.002232 190.324265 -6.960118 
521352230925402 45.002232 190.324265 -6.960118 
521352250924100 45.002232 190.324265 -6.960118 
521352270926496 45.002232 190.324265 -6.960118 
521352290926236 45.002232 190.324265 -6.960118 
521352310924829 45.002232 190.324265 -6.960118 
521352330924777 45.002232 190.324265 -6.960118 
521352350925818 45.002232 190.324265 -6.960118 
521352370925766 45.002232 190.324265 -6.960118 
521352390925870 45.002232 190.324265 -6.960118 
521352410926391 45.002232 190.324265 -6.960118 
521352430925870 45.002232 190.324265 -6.960118 
521352450925245 45.002232 190.324265 -6.960118 
521352470925349 45.002232 190.324265 -6.960118 
521352490925141 45.002232 190.324265 -6.960118 
521352510923735 45.002232 190.324265 -6.960118 
521352530924464 45.002232 190.324265 -6.960118 
521352551148318 45.002232 190.324265 -6.960118 
521352570973058 45.002232 190.324265 -6.960118 
521352590925558 45.002232 190.324265 -6.960118 
521352610925454 45.002232 190.324265 -6.960118 
521352630924100 45.002232 190.324265 -6.960118 
521352650923995 45.002232 190.324265 -6.960118 
521352670924099 45.002232 190.324265 -6.960118 
521352690924048 45.002232 190.324265 -6.960118 
521352710924100 45.002232 190.324265 -6.960118 
521352730923839 45.002232 190.324265 -6.960118 
521352750923943 45.002232 190.324265 -6.960118 
521352770924829 45.002232 190.324265 -6.960118 
521352790924517 45.002232 190.324265 -6.960118 
521352810925037 45.002232 190.324265 -6.960118 
521352830924256 45.002232 190.324265 -6.960118 
521352850924673 45.002232 190.324265 -6.960118 
521352870919100 45.002232 190.324265 -6.960118 
521352890934933 45.002232 190.324265 -6.960118 
521352911111443 45.002232 190.324265 -6.960118 
521352930971287 45.002232 190.324265 -6.960118 
521352951131340 45.002232 190.324265 -6.960118 
521352970923683 45.002232 190.324265 -6.960118 
521352990923891 45.002232 190.324265 -6.960118 
521353010926026 45.002232 190.324265 -6.960118 
521353030926027 45.002232 190.324265 -6.960118 
521353050924464 45.002232 190.324265 -6.960118 
521353070923995 45.002232 190.324265 -6.960118 
521353090924100 45.002232 190.324265 -6.960118 
521353110924048 45.002232 190.324265 -6.960118 
521353130923475 45.002232 190.324265 -6.960118 
521353150923839 45.002232 190.324265 -6.960118 
521353170924100 45.002232 190.324265 -6.960118 
521353190917902 45.002232 190.324265 -6.960118 
521353210924411 45.002232 190.324265 -6.960118 
521353230923995 45.002232 190.324265 -6.960118 
521353250947641 45.002232 190.324265 -6.960118 
521353271089672 45.002232 190.324265 -6.960118 
521353290971234 45.002232 190.324265 -6.960118 
521353310970454 45.002232 190.324265 -6.960118 
521353330924412 45.002232 190.324265 -6.960118 
521353350924568 45.002232 190.324265 -6.960118 
521353370923995 45.002232 190.324265 -6.960118 
521353390924151 45.002232 190.324265 -6.960118 
521353410923891 45.002232 190.324265 -6.960118 
521353430924099 45.002232 190.324265 -6.960118 
521353450924100 45.002232 190.324265 -6.960118 
521353470924568 45.002232 190.324265 -6.960118 
521353490924256 45.002232 190.324265 -6.960118 
521353510924360 45.002232 190.324265 -6.960118 
521353530924359 45.002232 190.324265 -6.960118 
521353550924100 45.002232 190.324265 -6.960118 
521353570923995 45.002232 190.324265 -6.960118 
521353590924411 45.002232 190.324265 -6.960118 
521353610917538 45.002232 190.324265 -6.960118 
521353631070245 45.002232 190.324265 -6.960118 
521353651069568 45.002232 190.324265 -6.960118 
521353670968892 45.002232 190.324265 -6.960118 
521353690924777 45.002232 190.324265 -6.960118 
521353710924985 45.002232 190.324265 -6.960118 
521353730924725 45.002232 190.324265 -6.960118 
521353750924621 45.002232 190.324265 -6.960118 
521353770924620 45.002232 190.324265 -6.960118 
521353790926235 45.002232 190.324265 -6.960118 
521353810926391 45.002232 190.324265 -6.960118 
