# Created at Thu Nov 07 17:55:17 EST 2019 in Burnaby Canada 
520561910932735 45.002232 190.324265 -6.960118 
520561930930860 45.002232 190.324265 -6.960118 
520561951172944 45.002232 190.324265 -6.960118 
520561970916745 45.002232 190.324265 -6.960118 
520561990916953 45.002232 190.324265 -6.960118 
520562010916537 45.002232 190.324265 -6.960118 
520562030923515 45.002232 190.324265 -6.960118 
520562050916276 45.002232 190.324265 -6.960118 
520562070916067 45.002232 190.324265 -6.960118 
520562090916640 45.002232 190.324265 -6.960118 
520562110916849 45.002232 190.324265 -6.960118 
520562130916954 45.002232 190.324265 -6.960118 
520562150916798 45.002232 190.324265 -6.960118 
520562170916850 45.002232 190.324265 -6.960118 
520562190917683 45.002232 190.324265 -6.960118 
520562210916694 45.002232 190.324265 -6.960118 
520562230916225 45.002232 190.324265 -6.960118 
520562250916902 45.002232 190.324265 -6.960118 
520562270931329 45.002232 190.324265 -6.960118 
520562290931329 45.002232 190.324265 -6.960118 
520562310916224 45.002232 190.324265 -6.960118 
520562330916484 45.002232 190.324265 -6.960118 
520562350923725 45.002232 190.324265 -6.960118 
520562370916902 45.002232 190.324265 -6.960118 
520562390916849 45.002232 190.324265 -6.960118 
520562410917266 45.002232 190.324265 -6.960118 
520562430917475 45.002232 190.324265 -6.960118 
520562450916588 45.002232 190.324265 -6.960118 
520562470925495 45.002232 190.324265 -6.960118 
520562490917006 45.002232 190.324265 -6.960118 
520562510917370 45.002232 190.324265 -6.960118 
520562530916797 45.002232 190.324265 -6.960118 
520562550917215 45.002232 190.324265 -6.960118 
520562570920391 45.002232 190.324265 -6.960118 
520562590917579 45.002232 190.324265 -6.960118 
520562606066798 45.002232 190.324265 -6.960118 
520562610916485 45.002232 190.324265 -6.960118 
520562630921173 45.002232 190.324265 -6.960118 
520562651267474 45.002232 190.324265 -6.960118 
520562670917787 45.002232 190.324265 -6.960118 
520562690916953 45.002232 190.324265 -6.960118 
520562710916954 45.002232 190.324265 -6.960118 
520562730917005 45.002232 190.324265 -6.960118 
520562750917162 45.002232 190.324265 -6.960118 
520562770925548 45.002232 190.324265 -6.960118 
520562790925859 45.002232 190.324265 -6.960118 
520562810917005 45.002232 190.324265 -6.960118 
520562830917944 45.002232 190.324265 -6.960118 
520562850918100 45.002232 190.324265 -6.960118 
520562870954140 45.002232 190.324265 -6.960118 
520562890917630 45.002232 190.324265 -6.960118 
520562910918256 45.002232 190.324265 -6.960118 
520562930918360 45.002232 190.324265 -6.960118 
520562951123881 45.002232 190.324265 -6.960118 
520562970926433 45.002232 190.324265 -6.960118 
520562990917474 45.002232 190.324265 -6.960118 
520563011184870 45.002232 190.324265 -6.960118 
520563030971745 45.002232 190.324265 -6.960118 
520563050918203 45.002232 190.324265 -6.960118 
520563070918255 45.002232 190.324265 -6.960118 
520563090917423 45.002232 190.324265 -6.960118 
520563106205234 45.002232 190.324265 -6.960118 
520563110917943 45.002232 190.324265 -6.960118 
520563130917839 45.002232 190.324265 -6.960118 
520563150918880 45.002232 190.324265 -6.960118 
520563170917786 45.002232 190.324265 -6.960118 
520563190918776 45.002232 190.324265 -6.960118 
520563210918619 45.002232 190.324265 -6.960118 
520563230917422 45.002232 190.324265 -6.960118 
520563250918204 45.002232 190.324265 -6.960118 
520563270918516 45.002232 190.324265 -6.960118 
520563290916797 45.002232 190.324265 -6.960118 
520563310917683 45.002232 190.324265 -6.960118 
520563330916641 45.002232 190.324265 -6.960118 
520563350917161 45.002232 190.324265 -6.960118 
520563371110911 45.002232 190.324265 -6.960118 
520563390964609 45.002232 190.324265 -6.960118 
520563410964401 45.002232 190.324265 -6.960118 
520563430917527 45.002232 190.324265 -6.960118 
520563450917474 45.002232 190.324265 -6.960118 
520563470918412 45.002232 190.324265 -6.960118 
520563490922839 45.002232 190.324265 -6.960118 
520563510917317 45.002232 190.324265 -6.960118 
520563530916849 45.002232 190.324265 -6.960118 
520563550916641 45.002232 190.324265 -6.960118 
520563570917214 45.002232 190.324265 -6.960118 
520563590917526 45.002232 190.324265 -6.960118 
520563606360338 45.002232 190.324265 -6.960118 
520563610916849 45.002232 190.324265 -6.960118 
520563630916692 45.002232 190.324265 -6.960118 
520563650916797 45.002232 190.324265 -6.960118 
520563670918255 45.002232 190.324265 -6.960118 
520563690918359 45.002232 190.324265 -6.960118 
520563710928672 45.002232 190.324265 -6.960118 
520563731040599 45.002232 190.324265 -6.960118 
520563751039818 45.002232 190.324265 -6.960118 
520563770946953 45.002232 190.324265 -6.960118 
520563790917265 45.002232 190.324265 -6.960118 
520563810916432 45.002232 190.324265 -6.960118 
520563830922057 45.002232 190.324265 -6.960118 
520563850916901 45.002232 190.324265 -6.960118 
520563870917473 45.002232 190.324265 -6.960118 
520563890916797 45.002232 190.324265 -6.960118 
520563910917734 45.002232 190.324265 -6.960118 
520563930916640 45.002232 190.324265 -6.960118 
520563951125234 45.002232 190.324265 -6.960118 
520563970917578 45.002232 190.324265 -6.960118 
520563990916692 45.002232 190.324265 -6.960118 
520564010931432 45.002232 190.324265 -6.960118 
520564030916849 45.002232 190.324265 -6.960118 
520564050917474 45.002232 190.324265 -6.960118 
520564070926536 45.002232 190.324265 -6.960118 
520564090979141 45.002232 190.324265 -6.960118 
520564106095287 45.002232 190.324265 -6.960118 
520564111548932 45.002232 190.324265 -6.960118 
520564130918307 45.002232 190.324265 -6.960118 
520564150918463 45.002232 190.324265 -6.960118 
520564170917317 45.002232 190.324265 -6.960118 
520564190916849 45.002232 190.324265 -6.960118 
520564210917265 45.002232 190.324265 -6.960118 
520564230917109 45.002232 190.324265 -6.960118 
520564250917265 45.002232 190.324265 -6.960118 
520564270916848 45.002232 190.324265 -6.960118 
520564290916953 45.002232 190.324265 -6.960118 
520564310918881 45.002232 190.324265 -6.960118 
520564330918776 45.002232 190.324265 -6.960118 
520564350919036 45.002232 190.324265 -6.960118 
520564370918932 45.002232 190.324265 -6.960118 
520564390917474 45.002232 190.324265 -6.960118 
520564410917526 45.002232 190.324265 -6.960118 
520564430923203 45.002232 190.324265 -6.960118 
520564450917630 45.002232 190.324265 -6.960118 
520564470918776 45.002232 190.324265 -6.960118 
520564490917942 45.002232 190.324265 -6.960118 
520564510918359 45.002232 190.324265 -6.960118 
520564530917838 45.002232 190.324265 -6.960118 
520564550917994 45.002232 190.324265 -6.960118 
520564570917317 45.002232 190.324265 -6.960118 
520564590918463 45.002232 190.324265 -6.960118 
520564610917266 45.002232 190.324265 -6.960118 
520564630918359 45.002232 190.324265 -6.960118 
520564650917890 45.002232 190.324265 -6.960118 
520564670917474 45.002232 190.324265 -6.960118 
520564690918932 45.002232 190.324265 -6.960118 
520564710920181 45.002232 190.324265 -6.960118 
520564730918202 45.002232 190.324265 -6.960118 
520564750918671 45.002232 190.324265 -6.960118 
520564770954036 45.002232 190.324265 -6.960118 
520564790919035 45.002232 190.324265 -6.960118 
520564810917630 45.002232 190.324265 -6.960118 
520564830918359 45.002232 190.324265 -6.960118 
520564850917318 45.002232 190.324265 -6.960118 
520564870919296 45.002232 190.324265 -6.960118 
520564890917369 45.002232 190.324265 -6.960118 
520564910919036 45.002232 190.324265 -6.960118 
520564930918619 45.002232 190.324265 -6.960118 
520564951124661 45.002232 190.324265 -6.960118 
520564970917943 45.002232 190.324265 -6.960118 
520564990919296 45.002232 190.324265 -6.960118 
520565010917526 45.002232 190.324265 -6.960118 
520565030917577 45.002232 190.324265 -6.960118 
520565050917161 45.002232 190.324265 -6.960118 
520565070918515 45.002232 190.324265 -6.960118 
520565090917786 45.002232 190.324265 -6.960118 
520565106277265 45.002232 190.324265 -6.960118 
520565110917266 45.002232 190.324265 -6.960118 
520565130953880 45.002232 190.324265 -6.960118 
520565150920494 45.002232 190.324265 -6.960118 
520565170961224 45.002232 190.324265 -6.960118 
520565191346536 45.002232 190.324265 -6.960118 
520565210918411 45.002232 190.324265 -6.960118 
520565230919401 45.002232 190.324265 -6.960118 
520565250919036 45.002232 190.324265 -6.960118 
520565270923306 45.002232 190.324265 -6.960118 
520565290917578 45.002232 190.324265 -6.960118 
520565310917629 45.002232 190.324265 -6.960118 
520565330919504 45.002232 190.324265 -6.960118 
520565350918046 45.002232 190.324265 -6.960118 
520565370924972 45.002232 190.324265 -6.960118 
520565390920755 45.002232 190.324265 -6.960118 
520565410917682 45.002232 190.324265 -6.960118 
520565430917161 45.002232 190.324265 -6.960118 
520565450918099 45.002232 190.324265 -6.960118 
520565470921015 45.002232 190.324265 -6.960118 
520565490916901 45.002232 190.324265 -6.960118 
520565510919766 45.002232 190.324265 -6.960118 
520565530918255 45.002232 190.324265 -6.960118 
520565551301223 45.002232 190.324265 -6.960118 
520565570917993 45.002232 190.324265 -6.960118 
520565590917473 45.002232 190.324265 -6.960118 
520565606217109 45.002232 190.324265 -6.960118 
520565610917994 45.002232 190.324265 -6.960118 
520565630917734 45.002232 190.324265 -6.960118 
520565650917161 45.002232 190.324265 -6.960118 
520565670918983 45.002232 190.324265 -6.960118 
520565690918879 45.002232 190.324265 -6.960118 
520565710918932 45.002232 190.324265 -6.960118 
520565730918724 45.002232 190.324265 -6.960118 
520565750917681 45.002232 190.324265 -6.960118 
520565770917369 45.002232 190.324265 -6.960118 
520565790917420 45.002232 190.324265 -6.960118 
520565810985806 45.002232 190.324265 -6.960118 
520565830918202 45.002232 190.324265 -6.960118 
520565850919036 45.002232 190.324265 -6.960118 
520565870927785 45.002232 190.324265 -6.960118 
520565890926015 45.002232 190.324265 -6.960118 
520565911235338 45.002232 190.324265 -6.960118 
520565930917525 45.002232 190.324265 -6.960118 
520565951125493 45.002232 190.324265 -6.960118 
520565970917421 45.002232 190.324265 -6.960118 
520565990917785 45.002232 190.324265 -6.960118 
520566010981170 45.002232 190.324265 -6.960118 
520566030918098 45.002232 190.324265 -6.960118 
520566050917681 45.002232 190.324265 -6.960118 
520566070923827 45.002232 190.324265 -6.960118 
520566090917369 45.002232 190.324265 -6.960118 
520566106549869 45.002232 190.324265 -6.960118 
520566110917420 45.002232 190.324265 -6.960118 
520566130918619 45.002232 190.324265 -6.960118 
520566150916952 45.002232 190.324265 -6.960118 
520566170916848 45.002232 190.324265 -6.960118 
520566190917681 45.002232 190.324265 -6.960118 
520566210917472 45.002232 190.324265 -6.960118 
520566230917421 45.002232 190.324265 -6.960118 
520566250921118 45.002232 190.324265 -6.960118 
520566271178099 45.002232 190.324265 -6.960118 
520566290964400 45.002232 190.324265 -6.960118 
520566310919713 45.002232 190.324265 -6.960118 
520566330916691 45.002232 190.324265 -6.960118 
520566350917160 45.002232 190.324265 -6.960118 
520566370917160 45.002232 190.324265 -6.960118 
520566390986015 45.002232 190.324265 -6.960118 
520566410917212 45.002232 190.324265 -6.960118 
520566430916432 45.002232 190.324265 -6.960118 
520566450916900 45.002232 190.324265 -6.960118 
520566470916901 45.002232 190.324265 -6.960118 
520566490920703 45.002232 190.324265 -6.960118 
520566510917056 45.002232 190.324265 -6.960118 
520566530916483 45.002232 190.324265 -6.960118 
520566550925963 45.002232 190.324265 -6.960118 
520566570916067 45.002232 190.324265 -6.960118 
520566590925859 45.002232 190.324265 -6.960118 
520566606258515 45.002232 190.324265 -6.960118 
520566610929504 45.002232 190.324265 -6.960118 
520566631097317 45.002232 190.324265 -6.960118 
520566651097213 45.002232 190.324265 -6.960118 
520566670965910 45.002232 190.324265 -6.960118 
520566690918255 45.002232 190.324265 -6.960118 
520566710918619 45.002232 190.324265 -6.960118 
520566730918305 45.002232 190.324265 -6.960118 
520566750918045 45.002232 190.324265 -6.960118 
520566770919139 45.002232 190.324265 -6.960118 
520566790918202 45.002232 190.324265 -6.960118 
520566810917368 45.002232 190.324265 -6.960118 
520566830917055 45.002232 190.324265 -6.960118 
520566850925180 45.002232 190.324265 -6.960118 
520566870917786 45.002232 190.324265 -6.960118 
520566890919244 45.002232 190.324265 -6.960118 
520566910918202 45.002232 190.324265 -6.960118 
520566930917942 45.002232 190.324265 -6.960118 
520566951126900 45.002232 190.324265 -6.960118 
520566970924973 45.002232 190.324265 -6.960118 
520566991013618 45.002232 190.324265 -6.960118 
520567011013878 45.002232 190.324265 -6.960118 
520567030923411 45.002232 190.324265 -6.960118 
520567050917786 45.002232 190.324265 -6.960118 
520567070918723 45.002232 190.324265 -6.960118 
520567090917473 45.002232 190.324265 -6.960118 
520567110917630 45.002232 190.324265 -6.960118 
520567130917525 45.002232 190.324265 -6.960118 
520567150918462 45.002232 190.324265 -6.960118 
520567170923878 45.002232 190.324265 -6.960118 
520567190919400 45.002232 190.324265 -6.960118 
520567210919036 45.002232 190.324265 -6.960118 
520567230918774 45.002232 190.324265 -6.960118 
520567250918930 45.002232 190.324265 -6.960118 
520567270917525 45.002232 190.324265 -6.960118 
520567290917212 45.002232 190.324265 -6.960118 
520567310920701 45.002232 190.324265 -6.960118 
520567330923410 45.002232 190.324265 -6.960118 
520567350951640 45.002232 190.324265 -6.960118 
520567370950077 45.002232 190.324265 -6.960118 
520567390918671 45.002232 190.324265 -6.960118 
520567410918879 45.002232 190.324265 -6.960118 
520567430919138 45.002232 190.324265 -6.960118 
520567450918201 45.002232 190.324265 -6.960118 
520567470954140 45.002232 190.324265 -6.960118 
520567490917733 45.002232 190.324265 -6.960118 
520567510917421 45.002232 190.324265 -6.960118 
520567530916848 45.002232 190.324265 -6.960118 
520567550918462 45.002232 190.324265 -6.960118 
520567570923514 45.002232 190.324265 -6.960118 
520567590916899 45.002232 190.324265 -6.960118 
520567610916847 45.002232 190.324265 -6.960118 
520567630918046 45.002232 190.324265 -6.960118 
520567650917212 45.002232 190.324265 -6.960118 
520567670917420 45.002232 190.324265 -6.960118 
520567690918097 45.002232 190.324265 -6.960118 
520567710916587 45.002232 190.324265 -6.960118 
520567730916587 45.002232 190.324265 -6.960118 
520567750919348 45.002232 190.324265 -6.960118 
520567770916171 45.002232 190.324265 -6.960118 
520567790917421 45.002232 190.324265 -6.960118 
520567810916744 45.002232 190.324265 -6.960118 
520567830919504 45.002232 190.324265 -6.960118 
520567850916848 45.002232 190.324265 -6.960118 
520567870916900 45.002232 190.324265 -6.960118 
520567890917004 45.002232 190.324265 -6.960118 
520567910917055 45.002232 190.324265 -6.960118 
520567930917003 45.002232 190.324265 -6.960118 
520567951125753 45.002232 190.324265 -6.960118 
520567970916638 45.002232 190.324265 -6.960118 
520567990926379 45.002232 190.324265 -6.960118 
520568010918410 45.002232 190.324265 -6.960118 
520568030927003 45.002232 190.324265 -6.960118 
520568050916847 45.002232 190.324265 -6.960118 
520568070917159 45.002232 190.324265 -6.960118 
520568090917159 45.002232 190.324265 -6.960118 
520568106073149 45.002232 190.324265 -6.960118 
