# Created at Thu Nov 07 18:30:31 EST 2019 in Burnaby Canada 
522675877687083 0.002262 -0.021670 0.010883 
522675898256354 0.002262 -0.021670 0.010883 
522675918825520 0.002262 -0.021670 0.010883 
522675939393906 0.002262 -0.021670 0.010883 
522675959962708 0.002262 -0.021670 0.010883 
522675980531667 0.002262 -0.021670 0.010883 
522676001100834 0.002262 -0.021670 0.010883 
522676021669844 0.002262 -0.021670 0.010883 
522676042239427 0.002262 -0.021670 0.010883 
522676062808072 0.002262 -0.021670 0.010883 
522676083377031 0.002262 -0.021670 0.010883 
522676103947082 0.002262 -0.021670 0.010883 
522676124514896 0.002262 -0.021670 0.010883 
522676145084114 0.002262 -0.021670 0.010883 
522676165653021 0.002262 -0.021670 0.010883 
522676186222136 0.002262 -0.021670 0.010883 
522676206790990 0.002262 -0.021670 0.010883 
522676227360312 0.002262 -0.021670 0.010883 
522676247929062 0.002262 -0.021670 0.010883 
522676268498437 0.002262 -0.021670 0.010883 
522676289067239 0.002262 -0.021670 0.010883 
522676309636667 0.002262 -0.021670 0.010883 
522676330205104 0.002262 -0.021670 0.010883 
522676350774479 0.002262 -0.021670 0.010883 
522676371343542 0.002262 -0.021670 0.010883 
522676391912604 0.002262 -0.021670 0.010883 
522676412481354 0.002262 -0.021670 0.010883 
522676433050729 0.002262 -0.021670 0.010883 
522676453619583 0.002262 -0.021670 0.010883 
522676474188436 0.002262 -0.021670 0.010883 
522676494757344 0.002262 -0.021670 0.010883 
522676515326406 0.002262 -0.021670 0.010883 
522676535895573 0.002262 -0.021670 0.010883 
522676556464687 0.002262 -0.021670 0.010883 
522676577033542 0.002262 -0.021670 0.010883 
522676597602968 0.002262 -0.021670 0.010883 
522676618171615 0.002262 -0.021670 0.010883 
522676638741198 0.002262 -0.021670 0.010883 
522676659309999 0.002262 -0.021670 0.010883 
522676679879114 0.002262 -0.021670 0.010883 
522676700447916 0.002262 -0.021670 0.010883 
522676721016927 0.002262 -0.021670 0.010883 
522676741586458 0.002262 -0.021670 0.010883 
522676762158854 0.002262 -0.021670 0.010883 
522676782725000 0.002262 -0.021670 0.010883 
522676803293489 0.002262 -0.021670 0.010883 
522676823862604 0.002262 -0.021670 0.010883 
522676844430988 0.002262 -0.021670 0.010883 
522676865000000 0.002262 -0.021670 0.010883 
522676885569739 0.002262 -0.021670 0.010883 
522676906138854 0.002262 -0.021670 0.010883 
522676926707760 0.002262 -0.021670 0.010883 
522676947278334 0.002262 -0.021670 0.010883 
522676967847187 0.002262 -0.021670 0.010883 
522676988416406 0.002262 -0.021670 0.010883 
522677008986041 0.002262 -0.021670 0.010883 
522677029554062 0.002262 -0.021670 0.010883 
522677050122708 0.002262 -0.021670 0.010883 
522677070692083 0.002262 -0.021670 0.010883 
522677091261302 0.002262 -0.021670 0.010883 
522677111831614 0.002262 -0.021670 0.010883 
522677132399635 0.002262 -0.021670 0.010883 
522677152969895 0.002262 -0.021670 0.010883 
522677173537448 0.002262 -0.021670 0.010883 
522677194105833 0.002262 -0.021670 0.010883 
522677214675000 0.002262 -0.021670 0.010883 
522677235244531 0.002262 -0.021670 0.010883 
522677255813541 0.002262 -0.021670 0.010883 
522677276381979 0.002262 -0.021670 0.010883 
522677296951250 0.002262 -0.021670 0.010883 
522677317519791 0.002262 -0.021670 0.010883 
522677338088905 0.002262 -0.021670 0.010883 
522677358658541 0.002262 -0.021670 0.010883 
522677379227968 0.002262 -0.021670 0.010883 
522677399797760 0.002262 -0.021670 0.010883 
522677420365781 0.002262 -0.021670 0.010883 
522677440935364 0.002262 -0.021670 0.010883 
522677461504478 0.002262 -0.021670 0.010883 
522677482073385 0.002262 -0.021670 0.010883 
522677502641927 0.002262 -0.021670 0.010883 
522677523210781 0.002262 -0.021670 0.010883 
522677543780520 0.002262 -0.021670 0.010883 
522677564349219 0.002262 -0.021670 0.010883 
522677584917499 0.002262 -0.021670 0.010883 
522677605485989 0.002262 -0.021670 0.010883 
522677626054426 0.002262 -0.021670 0.010883 
522677646623593 0.002262 -0.021670 0.010883 
522677667192760 0.002262 -0.021670 0.010883 
522677687761667 0.002262 -0.021670 0.010883 
522677708330780 0.002262 -0.021670 0.010883 
522677728899844 0.002262 -0.021670 0.010883 
522677749468697 0.002262 -0.021670 0.010883 
522677770037812 0.002262 -0.021670 0.010883 
522677790606927 0.002262 -0.021670 0.010883 
522677811176041 0.002262 -0.021670 0.010883 
522677831745207 0.002262 -0.021670 0.010883 
522677852314113 0.002262 -0.021670 0.010883 
522677872883645 0.002262 -0.021670 0.010883 
522677893452343 0.002262 -0.021670 0.010883 
522677914021353 0.002262 -0.021670 0.010883 
522677934590624 0.002262 -0.021670 0.010883 
522677955162239 0.002262 -0.021670 0.010883 
522677975729166 0.002262 -0.021670 0.010883 
522677996300103 0.002262 -0.021670 0.010883 
522678016868905 0.002262 -0.021670 0.010883 
522678037437708 0.002262 -0.021670 0.010883 
522678058006561 0.002262 -0.021670 0.010883 
522678078575311 0.002262 -0.021670 0.010883 
522678099145832 0.002262 -0.021670 0.010883 
522678119713437 0.002262 -0.021670 0.010883 
522678140281978 0.002262 -0.021670 0.010883 
522678160851562 0.002262 -0.021670 0.010883 
522678181421145 0.002262 -0.021670 0.010883 
522678201989895 0.002262 -0.021670 0.010883 
522678222558854 0.002262 -0.021670 0.010883 
522678243127760 0.002262 -0.021670 0.010883 
522678263697968 0.002262 -0.021670 0.010883 
522678284266040 0.002262 -0.021670 0.010883 
522678304834999 0.002262 -0.021670 0.010883 
522678325404009 0.002262 -0.021670 0.010883 
522678345972083 0.002262 -0.021670 0.010883 
522678366541040 0.002262 -0.021670 0.010883 
522678387111666 0.002262 -0.021670 0.010883 
522678407679322 0.002262 -0.021670 0.010883 
522678428248801 0.002262 -0.021670 0.010883 
522678448817915 0.002262 -0.021670 0.010883 
522678469386353 0.002262 -0.021670 0.010883 
522678489955415 0.002262 -0.021670 0.010883 
522678510524426 0.002262 -0.021670 0.010883 
522678531093384 0.002262 -0.021670 0.010883 
522678551662603 0.002262 -0.021670 0.010883 
522678572231457 0.002262 -0.021670 0.010883 
522678592800728 0.002262 -0.021670 0.010883 
522678613369895 0.002262 -0.021670 0.010883 
522678633939739 0.002262 -0.021670 0.010883 
522678654508332 0.002262 -0.021670 0.010883 
522678675078592 0.002262 -0.021670 0.010883 
522678695646562 0.002262 -0.021670 0.010883 
522678716217446 0.002262 -0.021670 0.010883 
522678736784843 0.002262 -0.021670 0.010883 
522678757354529 0.002262 -0.021670 0.010883 
522678777923020 0.002262 -0.021670 0.010883 
522678798492916 0.002262 -0.021670 0.010883 
522678819061613 0.002262 -0.021670 0.010883 
522678839630728 0.002262 -0.021670 0.010883 
522678860199634 0.002262 -0.021670 0.010883 
522678880768801 0.002262 -0.021670 0.010883 
522678901337186 0.002262 -0.021670 0.010883 
522678921906405 0.002262 -0.021670 0.010883 
522678942478279 0.002262 -0.021670 0.010883 
522678963044530 0.002262 -0.021670 0.010883 
522678983613541 0.002262 -0.021670 0.010883 
522679004182811 0.002262 -0.021670 0.010883 
522679024755520 0.002262 -0.021670 0.010883 
522679045324374 0.002262 -0.021670 0.010883 
522679065891249 0.002262 -0.021670 0.010883 
522679086459946 0.002262 -0.021670 0.010883 
522679107029582 0.002262 -0.021670 0.010883 
522679127601301 0.002262 -0.021670 0.010883 
522679148167239 0.002262 -0.021670 0.010883 
522679168736301 0.002262 -0.021670 0.010883 
522679189306092 0.002262 -0.021670 0.010883 
522679209874687 0.002262 -0.021670 0.010883 
522679230443800 0.002262 -0.021670 0.010883 
522679251012864 0.002262 -0.021670 0.010883 
522679271582083 0.002262 -0.021670 0.010883 
522679292151249 0.002262 -0.021670 0.010883 
522679312720103 0.002262 -0.021670 0.010883 
522679333289113 0.002262 -0.021670 0.010883 
522679353858489 0.002262 -0.021670 0.010883 
522679374427447 0.002262 -0.021670 0.010883 
522679394996509 0.002262 -0.021670 0.010883 
522679415566301 0.002262 -0.021670 0.010883 
522679436136249 0.002262 -0.021670 0.010883 
522679456704999 0.002262 -0.021670 0.010883 
522679477273333 0.002262 -0.021670 0.010883 
522679497843331 0.002262 -0.021670 0.010883 
522679518411561 0.002262 -0.021670 0.010883 
522679538980571 0.002262 -0.021670 0.010883 
522679559550468 0.002262 -0.021670 0.010883 
522679580119008 0.002262 -0.021670 0.010883 
522679600688176 0.002262 -0.021670 0.010883 
522679621257187 0.002262 -0.021670 0.010883 
522679641825572 0.002262 -0.021670 0.010883 
522679662394946 0.002262 -0.021670 0.010883 
522679682964322 0.002262 -0.021670 0.010883 
522679703534113 0.002262 -0.021670 0.010883 
522679724102395 0.002262 -0.021670 0.010883 
522679744671612 0.002262 -0.021670 0.010883 
522679765240571 0.002262 -0.021670 0.010883 
522679785810416 0.002262 -0.021670 0.010883 
522679806379790 0.002262 -0.021670 0.010883 
522679826947811 0.002262 -0.021670 0.010883 
522679847516664 0.002262 -0.021670 0.010883 
522679868087134 0.002262 -0.021670 0.010883 
522679888655572 0.002262 -0.021670 0.010883 
522679909226040 0.002262 -0.021670 0.010883 
522679929794009 0.002262 -0.021670 0.010883 
522679950362446 0.002262 -0.021670 0.010883 
522679970932655 0.002262 -0.021670 0.010883 
522679991501614 0.002262 -0.021670 0.010883 
522680012070206 0.002262 -0.021670 0.010883 
522680032639269 0.002262 -0.021670 0.010883 
522680053207447 0.002262 -0.021670 0.010883 
522680073777655 0.002262 -0.021670 0.010883 
522680094347238 0.002262 -0.021670 0.010883 
522680114916092 0.002262 -0.021670 0.010883 
522680135484894 0.002262 -0.021670 0.010883 
522680156054634 0.002262 -0.021670 0.010883 
522680176623279 0.002262 -0.021670 0.010883 
522680197192395 0.002262 -0.021670 0.010883 
522680217761404 0.002262 -0.021670 0.010883 
522680238330727 0.002262 -0.021670 0.010883 
522680258899842 0.002262 -0.021670 0.010883 
522680279469164 0.002262 -0.021670 0.010883 
522680300038175 0.002262 -0.021670 0.010883 
522680320607550 0.002262 -0.021670 0.010883 
522680341176509 0.002262 -0.021670 0.010883 
522680361746040 0.002262 -0.021670 0.010883 
522680382314895 0.002262 -0.021670 0.010883 
522680402883800 0.002262 -0.021670 0.010883 
522680423453748 0.002262 -0.021670 0.010883 
522680444023383 0.002262 -0.021670 0.010883 
522680464591509 0.002262 -0.021670 0.010883 
522680485160467 0.002262 -0.021670 0.010883 
522680505730362 0.002262 -0.021670 0.010883 
522680526299008 0.002262 -0.021670 0.010883 
522680546868280 0.002262 -0.021670 0.010883 
522680567437133 0.002262 -0.021670 0.010883 
522680588006978 0.002262 -0.021670 0.010883 
522680608576091 0.002262 -0.021670 0.010883 
522680629145050 0.002262 -0.021670 0.010883 
522680649713696 0.002262 -0.021670 0.010883 
522680670283279 0.002262 -0.021670 0.010883 
522680690851925 0.002262 -0.021670 0.010883 
522680711422186 0.002262 -0.021670 0.010883 
522680731990311 0.002262 -0.021670 0.010883 
522680752560102 0.002262 -0.021670 0.010883 
522680773129009 0.002262 -0.021670 0.010883 
522680793697915 0.002262 -0.021670 0.010883 
522680814267290 0.002262 -0.021670 0.010883 
522680834836405 0.002262 -0.021670 0.010883 
522680855405519 0.002262 -0.021670 0.010883 
522680875975727 0.002262 -0.021670 0.010883 
522680896543591 0.002262 -0.021670 0.010883 
522680917112810 0.002262 -0.021670 0.010883 
522680937681978 0.002262 -0.021670 0.010883 
522680958251612 0.002262 -0.021670 0.010883 
522680978823175 0.002262 -0.021670 0.010883 
522680999390519 0.002262 -0.021670 0.010883 
522681019959477 0.002262 -0.021670 0.010883 
522681040528957 0.002262 -0.021670 0.010883 
522681061097811 0.002262 -0.021670 0.010883 
522681081666351 0.002262 -0.021670 0.010883 
522681102235415 0.002262 -0.021670 0.010883 
522681122804061 0.002262 -0.021670 0.010883 
522681143374373 0.002262 -0.021670 0.010883 
522681163942862 0.002262 -0.021670 0.010883 
522681184511820 0.002262 -0.021670 0.010883 
522681205080987 0.002262 -0.021670 0.010883 
522681225650415 0.002262 -0.021670 0.010883 
