# Created at Thu Nov 07 18:13:01 EST 2019 in Burnaby Canada 
521625455552538 0.003797 -0.003950 0.006214 
521625476123006 0.003797 -0.003950 0.006214 
521625496693266 0.003797 -0.003950 0.006214 
521625517263787 0.003797 -0.003950 0.006214 
521625537834100 0.003797 -0.003950 0.006214 
521625558404621 0.003797 -0.003950 0.006214 
521625578975089 0.003797 -0.003950 0.006214 
521625599545610 0.003797 -0.003950 0.006214 
521625620116183 0.003797 -0.003950 0.006214 
521625640686704 0.003797 -0.003950 0.006214 
521625661257798 0.003797 -0.003950 0.006214 
521625681828319 0.003797 -0.003950 0.006214 
521625702398161 0.003797 -0.003950 0.006214 
521625722968682 0.003797 -0.003950 0.006214 
521625743539152 0.003797 -0.003950 0.006214 
521625764109673 0.003797 -0.003950 0.006214 
521625784680402 0.003797 -0.003950 0.006214 
521625805250923 0.003797 -0.003950 0.006214 
521625825821391 0.003797 -0.003950 0.006214 
521625846391860 0.003797 -0.003950 0.006214 
521625866962902 0.003797 -0.003950 0.006214 
521625887533214 0.003797 -0.003950 0.006214 
521625908103423 0.003797 -0.003950 0.006214 
521625928674048 0.003797 -0.003950 0.006214 
521625949244411 0.003797 -0.003950 0.006214 
521625969815193 0.003797 -0.003950 0.006214 
521625990385871 0.003797 -0.003950 0.006214 
521626010956391 0.003797 -0.003950 0.006214 
521626031526757 0.003797 -0.003950 0.006214 
521626052097069 0.003797 -0.003950 0.006214 
521626072667432 0.003797 -0.003950 0.006214 
521626093242641 0.003797 -0.003950 0.006214 
521626113808579 0.003797 -0.003950 0.006214 
521626134379204 0.003797 -0.003950 0.006214 
521626154949829 0.003797 -0.003950 0.006214 
521626175520193 0.003797 -0.003950 0.006214 
521626196090818 0.003797 -0.003950 0.006214 
521626216661235 0.003797 -0.003950 0.006214 
521626237231756 0.003797 -0.003950 0.006214 
521626257802381 0.003797 -0.003950 0.006214 
521626278372902 0.003797 -0.003950 0.006214 
521626298943267 0.003797 -0.003950 0.006214 
521626319513787 0.003797 -0.003950 0.006214 
521626340084308 0.003797 -0.003950 0.006214 
521626360654829 0.003797 -0.003950 0.006214 
521626381225662 0.003797 -0.003950 0.006214 
521626401796183 0.003797 -0.003950 0.006214 
521626422370194 0.003797 -0.003950 0.006214 
521626442940714 0.003797 -0.003950 0.006214 
521626463511443 0.003797 -0.003950 0.006214 
521626484081964 0.003797 -0.003950 0.006214 
521626504651131 0.003797 -0.003950 0.006214 
521626525221652 0.003797 -0.003950 0.006214 
521626545791131 0.003797 -0.003950 0.006214 
521626566361964 0.003797 -0.003950 0.006214 
521626586932485 0.003797 -0.003950 0.006214 
521626607503058 0.003797 -0.003950 0.006214 
521626628073318 0.003797 -0.003950 0.006214 
521626648642797 0.003797 -0.003950 0.006214 
521626669215089 0.003797 -0.003950 0.006214 
521626689784412 0.003797 -0.003950 0.006214 
521626710354881 0.003797 -0.003950 0.006214 
521626730925402 0.003797 -0.003950 0.006214 
521626751496026 0.003797 -0.003950 0.006214 
521626772066495 0.003797 -0.003950 0.006214 
521626792637069 0.003797 -0.003950 0.006214 
521626813207329 0.003797 -0.003950 0.006214 
521626833777640 0.003797 -0.003950 0.006214 
521626854347433 0.003797 -0.003950 0.006214 
521626874917954 0.003797 -0.003950 0.006214 
521626895488631 0.003797 -0.003950 0.006214 
521626916059152 0.003797 -0.003950 0.006214 
521626936631444 0.003797 -0.003950 0.006214 
521626957201964 0.003797 -0.003950 0.006214 
521626977772484 0.003797 -0.003950 0.006214 
521626998343005 0.003797 -0.003950 0.006214 
521627018913891 0.003797 -0.003950 0.006214 
521627039484412 0.003797 -0.003950 0.006214 
521627060054672 0.003797 -0.003950 0.006214 
521627080625193 0.003797 -0.003950 0.006214 
521627101194359 0.003797 -0.003950 0.006214 
521627121764932 0.003797 -0.003950 0.006214 
521627142334828 0.003797 -0.003950 0.006214 
521627162905349 0.003797 -0.003950 0.006214 
521627183476079 0.003797 -0.003950 0.006214 
521627204046600 0.003797 -0.003950 0.006214 
521627224617172 0.003797 -0.003950 0.006214 
521627245187692 0.003797 -0.003950 0.006214 
521627265758422 0.003797 -0.003950 0.006214 
521627286328995 0.003797 -0.003950 0.006214 
521627306899411 0.003797 -0.003950 0.006214 
521627327469881 0.003797 -0.003950 0.006214 
521627348040297 0.003797 -0.003950 0.006214 
521627368611027 0.003797 -0.003950 0.006214 
521627389181548 0.003797 -0.003950 0.006214 
521627409753734 0.003797 -0.003950 0.006214 
521627430324463 0.003797 -0.003950 0.006214 
521627450895506 0.003797 -0.003950 0.006214 
521627471465714 0.003797 -0.003950 0.006214 
521627492034724 0.003797 -0.003950 0.006214 
521627512604881 0.003797 -0.003950 0.006214 
521627533175610 0.003797 -0.003950 0.006214 
521627553746183 0.003797 -0.003950 0.006214 
521627574316599 0.003797 -0.003950 0.006214 
521627594887120 0.003797 -0.003950 0.006214 
521627615457901 0.003797 -0.003950 0.006214 
521627636028422 0.003797 -0.003950 0.006214 
521627656599256 0.003797 -0.003950 0.006214 
521627677169829 0.003797 -0.003950 0.006214 
521627697741078 0.003797 -0.003950 0.006214 
521627718311651 0.003797 -0.003950 0.006214 
521627738882067 0.003797 -0.003950 0.006214 
521627759452640 0.003797 -0.003950 0.006214 
521627780022015 0.003797 -0.003950 0.006214 
521627800592536 0.003797 -0.003950 0.006214 
521627821163265 0.003797 -0.003950 0.006214 
521627841733838 0.003797 -0.003950 0.006214 
521627862304359 0.003797 -0.003950 0.006214 
521627882874932 0.003797 -0.003950 0.006214 
521627903447120 0.003797 -0.003950 0.006214 
521627924017640 0.003797 -0.003950 0.006214 
521627944588109 0.003797 -0.003950 0.006214 
521627965158682 0.003797 -0.003950 0.006214 
521627985728787 0.003797 -0.003950 0.006214 
521628006300088 0.003797 -0.003950 0.006214 
521628026870192 0.003797 -0.003950 0.006214 
521628047440818 0.003797 -0.003950 0.006214 
521628068011130 0.003797 -0.003950 0.006214 
521628088580714 0.003797 -0.003950 0.006214 
521628109150923 0.003797 -0.003950 0.006214 
521628129722015 0.003797 -0.003950 0.006214 
521628150292223 0.003797 -0.003950 0.006214 
521628170863682 0.003797 -0.003950 0.006214 
521628191433109 0.003797 -0.003950 0.006214 
521628212004359 0.003797 -0.003950 0.006214 
521628232574255 0.003797 -0.003950 0.006214 
521628253145402 0.003797 -0.003950 0.006214 
521628273715974 0.003797 -0.003950 0.006214 
521628294286234 0.003797 -0.003950 0.006214 
521628314857327 0.003797 -0.003950 0.006214 
521628335427640 0.003797 -0.003950 0.006214 
521628355998213 0.003797 -0.003950 0.006214 
521628376569150 0.003797 -0.003950 0.006214 
521628397139723 0.003797 -0.003950 0.006214 
521628417709828 0.003797 -0.003950 0.006214 
521628438280401 0.003797 -0.003950 0.006214 
521628458852484 0.003797 -0.003950 0.006214 
521628479423057 0.003797 -0.003950 0.006214 
521628499992172 0.003797 -0.003950 0.006214 
521628520562745 0.003797 -0.003950 0.006214 
521628541133526 0.003797 -0.003950 0.006214 
521628561704099 0.003797 -0.003950 0.006214 
521628582274255 0.003797 -0.003950 0.006214 
521628602844828 0.003797 -0.003950 0.006214 
521628623415870 0.003797 -0.003950 0.006214 
521628643986443 0.003797 -0.003950 0.006214 
521628664556651 0.003797 -0.003950 0.006214 
521628685127224 0.003797 -0.003950 0.006214 
521628705698214 0.003797 -0.003950 0.006214 
521628726268995 0.003797 -0.003950 0.006214 
521628746839255 0.003797 -0.003950 0.006214 
521628767410087 0.003797 -0.003950 0.006214 
521628787980349 0.003797 -0.003950 0.006214 
521628808550922 0.003797 -0.003950 0.006214 
521628829121234 0.003797 -0.003950 0.006214 
521628849692015 0.003797 -0.003950 0.006214 
521628870262380 0.003797 -0.003950 0.006214 
521628890834151 0.003797 -0.003950 0.006214 
521628911403942 0.003797 -0.003950 0.006214 
521628931975713 0.003797 -0.003950 0.006214 
521628952546755 0.003797 -0.003950 0.006214 
521628973116911 0.003797 -0.003950 0.006214 
521628993686651 0.003797 -0.003950 0.006214 
521629014258056 0.003797 -0.003950 0.006214 
521629034829099 0.003797 -0.003950 0.006214 
521629055398994 0.003797 -0.003950 0.006214 
521629075969047 0.003797 -0.003950 0.006214 
521629096539567 0.003797 -0.003950 0.006214 
521629117110140 0.003797 -0.003950 0.006214 
521629137680140 0.003797 -0.003950 0.006214 
521629158250713 0.003797 -0.003950 0.006214 
521629178820714 0.003797 -0.003950 0.006214 
521629199391287 0.003797 -0.003950 0.006214 
521629219962172 0.003797 -0.003950 0.006214 
521629240532744 0.003797 -0.003950 0.006214 
521629261103212 0.003797 -0.003950 0.006214 
521629281673785 0.003797 -0.003950 0.006214 
521629302244776 0.003797 -0.003950 0.006214 
521629322815349 0.003797 -0.003950 0.006214 
521629343386546 0.003797 -0.003950 0.006214 
521629363957119 0.003797 -0.003950 0.006214 
521629384527640 0.003797 -0.003950 0.006214 
521629405098213 0.003797 -0.003950 0.006214 
521629425670453 0.003797 -0.003950 0.006214 
521629446239775 0.003797 -0.003950 0.006214 
521629466810140 0.003797 -0.003950 0.006214 
521629487380713 0.003797 -0.003950 0.006214 
521629507950817 0.003797 -0.003950 0.006214 
521629528520504 0.003797 -0.003950 0.006214 
521629549091181 0.003797 -0.003950 0.006214 
521629569661910 0.003797 -0.003950 0.006214 
521629590232119 0.003797 -0.003950 0.006214 
521629610803578 0.003797 -0.003950 0.006214 
521629631373525 0.003797 -0.003950 0.006214 
521629651945661 0.003797 -0.003950 0.006214 
521629672516286 0.003797 -0.003950 0.006214 
521629693086807 0.003797 -0.003950 0.006214 
521629713657015 0.003797 -0.003950 0.006214 
521629734226651 0.003797 -0.003950 0.006214 
521629754797327 0.003797 -0.003950 0.006214 
521629775367639 0.003797 -0.003950 0.006214 
521629795938212 0.003797 -0.003950 0.006214 
521629816508056 0.003797 -0.003950 0.006214 
521629837078629 0.003797 -0.003950 0.006214 
521629857649254 0.003797 -0.003950 0.006214 
521629878219879 0.003797 -0.003950 0.006214 
521629898790401 0.003797 -0.003950 0.006214 
521629919360974 0.003797 -0.003950 0.006214 
521629939932431 0.003797 -0.003950 0.006214 
521629960503004 0.003797 -0.003950 0.006214 
521629981074515 0.003797 -0.003950 0.006214 
521630001645088 0.003797 -0.003950 0.006214 
521630022215972 0.003797 -0.003950 0.006214 
521630042786545 0.003797 -0.003950 0.006214 
521630063355712 0.003797 -0.003950 0.006214 
521630083926285 0.003797 -0.003950 0.006214 
521630104496962 0.003797 -0.003950 0.006214 
521630125067535 0.003797 -0.003950 0.006214 
521630145638161 0.003797 -0.003950 0.006214 
521630166208057 0.003797 -0.003950 0.006214 
521630186778369 0.003797 -0.003950 0.006214 
521630207349515 0.003797 -0.003950 0.006214 
521630227920245 0.003797 -0.003950 0.006214 
521630248490557 0.003797 -0.003950 0.006214 
521630269061129 0.003797 -0.003950 0.006214 
521630289633212 0.003797 -0.003950 0.006214 
521630310202692 0.003797 -0.003950 0.006214 
521630330773525 0.003797 -0.003950 0.006214 
521630351343369 0.003797 -0.003950 0.006214 
521630371915088 0.003797 -0.003950 0.006214 
521630392486129 0.003797 -0.003950 0.006214 
521630413056703 0.003797 -0.003950 0.006214 
521630433626807 0.003797 -0.003950 0.006214 
521630454197484 0.003797 -0.003950 0.006214 
521630474767901 0.003797 -0.003950 0.006214 
521630495338317 0.003797 -0.003950 0.006214 
521630515908368 0.003797 -0.003950 0.006214 
521630536479150 0.003797 -0.003950 0.006214 
521630557049723 0.003797 -0.003950 0.006214 
521630577620192 0.003797 -0.003950 0.006214 
521630598190765 0.003797 -0.003950 0.006214 
521630618761129 0.003797 -0.003950 0.006214 
521630639331702 0.003797 -0.003950 0.006214 
521630659902431 0.003797 -0.003950 0.006214 
