# Created at Thu Nov 07 18:13:01 EST 2019 in Burnaby Canada 
521625470923631 45.002232 190.324265 -6.960118 
521625490923683 45.002232 190.324265 -6.960118 
521625510923318 45.002232 190.324265 -6.960118 
521625530923214 45.002232 190.324265 -6.960118 
521625550925610 45.002232 190.324265 -6.960118 
521625571234725 45.002232 190.324265 -6.960118 
521625590922954 45.002232 190.324265 -6.960118 
521625610923110 45.002232 190.324265 -6.960118 
521625630923214 45.002232 190.324265 -6.960118 
521625650923319 45.002232 190.324265 -6.960118 
521625670923787 45.002232 190.324265 -6.960118 
521625690923423 45.002232 190.324265 -6.960118 
521625710923057 45.002232 190.324265 -6.960118 
521625730923370 45.002232 190.324265 -6.960118 
521625750922485 45.002232 190.324265 -6.960118 
521625770922954 45.002232 190.324265 -6.960118 
521625790922902 45.002232 190.324265 -6.960118 
521625810923318 45.002232 190.324265 -6.960118 
521625830923319 45.002232 190.324265 -6.960118 
521625850923423 45.002232 190.324265 -6.960118 
521625870924465 45.002232 190.324265 -6.960118 
521625890923944 45.002232 190.324265 -6.960118 
521625910936860 45.002232 190.324265 -6.960118 
521625931218735 45.002232 190.324265 -6.960118 
521625951218682 45.002232 190.324265 -6.960118 
521625970923109 45.002232 190.324265 -6.960118 
521625990923110 45.002232 190.324265 -6.960118 
521626010923371 45.002232 190.324265 -6.960118 
521626030923526 45.002232 190.324265 -6.960118 
521626050923736 45.002232 190.324265 -6.960118 
521626070923475 45.002232 190.324265 -6.960118 
521626090923370 45.002232 190.324265 -6.960118 
521626110927797 45.002232 190.324265 -6.960118 
521626130923162 45.002232 190.324265 -6.960118 
521626150923631 45.002232 190.324265 -6.960118 
521626170923318 45.002232 190.324265 -6.960118 
521626190923370 45.002232 190.324265 -6.960118 
521626210923527 45.002232 190.324265 -6.960118 
521626230923579 45.002232 190.324265 -6.960118 
521626250923371 45.002232 190.324265 -6.960118 
521626270937225 45.002232 190.324265 -6.960118 
521626291203006 45.002232 190.324265 -6.960118 
521626310971756 45.002232 190.324265 -6.960118 
521626330923371 45.002232 190.324265 -6.960118 
521626350923475 45.002232 190.324265 -6.960118 
521626370923319 45.002232 190.324265 -6.960118 
521626390923422 45.002232 190.324265 -6.960118 
521626410923318 45.002232 190.324265 -6.960118 
521626430926496 45.002232 190.324265 -6.960118 
521626450927121 45.002232 190.324265 -6.960118 
521626470927277 45.002232 190.324265 -6.960118 
521626490927277 45.002232 190.324265 -6.960118 
521626510926027 45.002232 190.324265 -6.960118 
521626530926079 45.002232 190.324265 -6.960118 
521626550925401 45.002232 190.324265 -6.960118 
521626570924516 45.002232 190.324265 -6.960118 
521626590925246 45.002232 190.324265 -6.960118 
521626610919048 45.002232 190.324265 -6.960118 
521626630925350 45.002232 190.324265 -6.960118 
521626651186547 45.002232 190.324265 -6.960118 
521626670971027 45.002232 190.324265 -6.960118 
521626690925818 45.002232 190.324265 -6.960118 
521626710924569 45.002232 190.324265 -6.960118 
521626730924673 45.002232 190.324265 -6.960118 
521626750924413 45.002232 190.324265 -6.960118 
521626770924463 45.002232 190.324265 -6.960118 
521626790925192 45.002232 190.324265 -6.960118 
521626810925090 45.002232 190.324265 -6.960118 
521626830924464 45.002232 190.324265 -6.960118 
521626850924255 45.002232 190.324265 -6.960118 
521626870923579 45.002232 190.324265 -6.960118 
521626890923475 45.002232 190.324265 -6.960118 
521626910923475 45.002232 190.324265 -6.960118 
521626930923943 45.002232 190.324265 -6.960118 
521626951132225 45.002232 190.324265 -6.960118 
521626970925454 45.002232 190.324265 -6.960118 
521626990925401 45.002232 190.324265 -6.960118 
521627011173005 45.002232 190.324265 -6.960118 
521627030972224 45.002232 190.324265 -6.960118 
521627050925349 45.002232 190.324265 -6.960118 
521627070925297 45.002232 190.324265 -6.960118 
521627090925036 45.002232 190.324265 -6.960118 
521627110924359 45.002232 190.324265 -6.960118 
521627130924099 45.002232 190.324265 -6.960118 
521627150923109 45.002232 190.324265 -6.960118 
521627170923422 45.002232 190.324265 -6.960118 
521627190923371 45.002232 190.324265 -6.960118 
521627210923527 45.002232 190.324265 -6.960118 
521627230923682 45.002232 190.324265 -6.960118 
521627250923422 45.002232 190.324265 -6.960118 
521627270923631 45.002232 190.324265 -6.960118 
521627290923318 45.002232 190.324265 -6.960118 
521627310924047 45.002232 190.324265 -6.960118 
521627330923786 45.002232 190.324265 -6.960118 
521627350934776 45.002232 190.324265 -6.960118 
521627371156130 45.002232 190.324265 -6.960118 
521627390971026 45.002232 190.324265 -6.960118 
521627410923318 45.002232 190.324265 -6.960118 
521627430925089 45.002232 190.324265 -6.960118 
521627450925505 45.002232 190.324265 -6.960118 
521627470925767 45.002232 190.324265 -6.960118 
521627490925610 45.002232 190.324265 -6.960118 
521627510923995 45.002232 190.324265 -6.960118 
521627530923683 45.002232 190.324265 -6.960118 
521627550923423 45.002232 190.324265 -6.960118 
521627570923839 45.002232 190.324265 -6.960118 
521627590924256 45.002232 190.324265 -6.960118 
521627610923735 45.002232 190.324265 -6.960118 
521627630923526 45.002232 190.324265 -6.960118 
521627650923995 45.002232 190.324265 -6.960118 
521627670924204 45.002232 190.324265 -6.960118 
521627690921183 45.002232 190.324265 -6.960118 
521627710948474 45.002232 190.324265 -6.960118 
521627731141494 45.002232 190.324265 -6.960118 
521627750972224 45.002232 190.324265 -6.960118 
521627770924463 45.002232 190.324265 -6.960118 
521627790923109 45.002232 190.324265 -6.960118 
521627810924255 45.002232 190.324265 -6.960118 
521627830923838 45.002232 190.324265 -6.960118 
521627850923994 45.002232 190.324265 -6.960118 
521627870924255 45.002232 190.324265 -6.960118 
521627890924098 45.002232 190.324265 -6.960118 
521627910925765 45.002232 190.324265 -6.960118 
521627930925609 45.002232 190.324265 -6.960118 
521627951132693 45.002232 190.324265 -6.960118 
521627970924932 45.002232 190.324265 -6.960118 
521627990925245 45.002232 190.324265 -6.960118 
521628010925037 45.002232 190.324265 -6.960118 
521628030925452 45.002232 190.324265 -6.960118 
521628050918838 45.002232 190.324265 -6.960118 
521628070936182 45.002232 190.324265 -6.960118 
521628091125973 45.002232 190.324265 -6.960118 
521628110967849 45.002232 190.324265 -6.960118 
521628130923631 45.002232 190.324265 -6.960118 
521628150924776 45.002232 190.324265 -6.960118 
521628170923890 45.002232 190.324265 -6.960118 
521628190924672 45.002232 190.324265 -6.960118 
521628210923682 45.002232 190.324265 -6.960118 
521628230924724 45.002232 190.324265 -6.960118 
521628250923786 45.002232 190.324265 -6.960118 
521628270924100 45.002232 190.324265 -6.960118 
521628290924255 45.002232 190.324265 -6.960118 
521628310923577 45.002232 190.324265 -6.960118 
521628330924515 45.002232 190.324265 -6.960118 
521628350924047 45.002232 190.324265 -6.960118 
521628370923890 45.002232 190.324265 -6.960118 
521628390924254 45.002232 190.324265 -6.960118 
521628410917900 45.002232 190.324265 -6.960118 
521628430948578 45.002232 190.324265 -6.960118 
521628451110140 45.002232 190.324265 -6.960118 
521628470973109 45.002232 190.324265 -6.960118 
521628490972171 45.002232 190.324265 -6.960118 
521628510923995 45.002232 190.324265 -6.960118 
521628530924099 45.002232 190.324265 -6.960118 
521628550923995 45.002232 190.324265 -6.960118 
521628570924516 45.002232 190.324265 -6.960118 
521628590923943 45.002232 190.324265 -6.960118 
521628610924203 45.002232 190.324265 -6.960118 
521628630924412 45.002232 190.324265 -6.960118 
521628650924776 45.002232 190.324265 -6.960118 
521628670924151 45.002232 190.324265 -6.960118 
521628690924099 45.002232 190.324265 -6.960118 
521628710925870 45.002232 190.324265 -6.960118 
521628730924412 45.002232 190.324265 -6.960118 
521628750924255 45.002232 190.324265 -6.960118 
521628770918005 45.002232 190.324265 -6.960118 
521628790948110 45.002232 190.324265 -6.960118 
521628811095454 45.002232 190.324265 -6.960118 
521628830971443 45.002232 190.324265 -6.960118 
521628850971442 45.002232 190.324265 -6.960118 
521628870924150 45.002232 190.324265 -6.960118 
521628890923734 45.002232 190.324265 -6.960118 
521628910925349 45.002232 190.324265 -6.960118 
521628930924515 45.002232 190.324265 -6.960118 
521628951132588 45.002232 190.324265 -6.960118 
521628970925921 45.002232 190.324265 -6.960118 
521628990925348 45.002232 190.324265 -6.960118 
521629010924881 45.002232 190.324265 -6.960118 
521629030925452 45.002232 190.324265 -6.960118 
521629050926703 45.002232 190.324265 -6.960118 
521629070925869 45.002232 190.324265 -6.960118 
521629090925453 45.002232 190.324265 -6.960118 
521629110925348 45.002232 190.324265 -6.960118 
521629130924880 45.002232 190.324265 -6.960118 
521629150944359 45.002232 190.324265 -6.960118 
521629171080973 45.002232 190.324265 -6.960118 
521629191080401 45.002232 190.324265 -6.960118 
521629210971651 45.002232 190.324265 -6.960118 
521629230923890 45.002232 190.324265 -6.960118 
521629250924359 45.002232 190.324265 -6.960118 
521629270923994 45.002232 190.324265 -6.960118 
521629290924254 45.002232 190.324265 -6.960118 
521629310924620 45.002232 190.324265 -6.960118 
521629330924672 45.002232 190.324265 -6.960118 
521629350925192 45.002232 190.324265 -6.960118 
521629370925348 45.002232 190.324265 -6.960118 
521629390924671 45.002232 190.324265 -6.960118 
521629410925244 45.002232 190.324265 -6.960118 
521629430926651 45.002232 190.324265 -6.960118 
521629450926703 45.002232 190.324265 -6.960118 
521629470925400 45.002232 190.324265 -6.960118 
521629490925244 45.002232 190.324265 -6.960118 
521629510934984 45.002232 190.324265 -6.960118 
521629531065765 45.002232 190.324265 -6.960118 
521629551064879 45.002232 190.324265 -6.960118 
521629570965140 45.002232 190.324265 -6.960118 
521629590923941 45.002232 190.324265 -6.960118 
521629610923838 45.002232 190.324265 -6.960118 
521629630924984 45.002232 190.324265 -6.960118 
521629650924202 45.002232 190.324265 -6.960118 
521629670925348 45.002232 190.324265 -6.960118 
521629690925713 45.002232 190.324265 -6.960118 
521629710925244 45.002232 190.324265 -6.960118 
521629730924671 45.002232 190.324265 -6.960118 
521629750923838 45.002232 190.324265 -6.960118 
521629770924359 45.002232 190.324265 -6.960118 
521629790924046 45.002232 190.324265 -6.960118 
521629810924150 45.002232 190.324265 -6.960118 
521629830923473 45.002232 190.324265 -6.960118 
521629850923369 45.002232 190.324265 -6.960118 
521629870937275 45.002232 190.324265 -6.960118 
521629891050869 45.002232 190.324265 -6.960118 
521629911050870 45.002232 190.324265 -6.960118 
521629930950193 45.002232 190.324265 -6.960118 
521629951131389 45.002232 190.324265 -6.960118 
521629970924045 45.002232 190.324265 -6.960118 
521629990924723 45.002232 190.324265 -6.960118 
521630010925192 45.002232 190.324265 -6.960118 
521630030925087 45.002232 190.324265 -6.960118 
521630050925608 45.002232 190.324265 -6.960118 
521630070924046 45.002232 190.324265 -6.960118 
521630090923837 45.002232 190.324265 -6.960118 
521630110923525 45.002232 190.324265 -6.960118 
521630130923837 45.002232 190.324265 -6.960118 
521630150924411 45.002232 190.324265 -6.960118 
521630170924828 45.002232 190.324265 -6.960118 
521630190923629 45.002232 190.324265 -6.960118 
521630210923265 45.002232 190.324265 -6.960118 
521630230937380 45.002232 190.324265 -6.960118 
521630251035661 45.002232 190.324265 -6.960118 
521630271035400 45.002232 190.324265 -6.960118 
521630290935817 45.002232 190.324265 -6.960118 
521630310926233 45.002232 190.324265 -6.960118 
521630330924359 45.002232 190.324265 -6.960118 
521630350924411 45.002232 190.324265 -6.960118 
521630370923994 45.002232 190.324265 -6.960118 
521630390924723 45.002232 190.324265 -6.960118 
521630410924931 45.002232 190.324265 -6.960118 
521630430925245 45.002232 190.324265 -6.960118 
521630450924411 45.002232 190.324265 -6.960118 
521630470925452 45.002232 190.324265 -6.960118 
521630490924984 45.002232 190.324265 -6.960118 
521630510924827 45.002232 190.324265 -6.960118 
521630530923889 45.002232 190.324265 -6.960118 
521630550924046 45.002232 190.324265 -6.960118 
521630570924463 45.002232 190.324265 -6.960118 
521630590917953 45.002232 190.324265 -6.960118 
521630611020296 45.002232 190.324265 -6.960118 
521630631020087 45.002232 190.324265 -6.960118 
521630650923889 45.002232 190.324265 -6.960118 
521630670924202 45.002232 190.324265 -6.960118 
