# Created at Thu Nov 07 18:05:58 EST 2019 in Burnaby Canada 
521203030918011 45.002232 190.324265 -6.960118 
521203050924625 45.002232 190.324265 -6.960118 
521203070918948 45.002232 190.324265 -6.960118 
521203090924521 45.002232 190.324265 -6.960118 
521203110934314 45.002232 190.324265 -6.960118 
521203130918323 45.002232 190.324265 -6.960118 
521203150943480 45.002232 190.324265 -6.960118 
521203171187906 45.002232 190.324265 -6.960118 
521203190966813 45.002232 190.324265 -6.960118 
521203210925355 45.002232 190.324265 -6.960118 
521203230918479 45.002232 190.324265 -6.960118 
521203250925564 45.002232 190.324265 -6.960118 
521203270918740 45.002232 190.324265 -6.960118 
521203290924470 45.002232 190.324265 -6.960118 
521203310919678 45.002232 190.324265 -6.960118 
521203330924833 45.002232 190.324265 -6.960118 
521203350918115 45.002232 190.324265 -6.960118 
521203370927386 45.002232 190.324265 -6.960118 
521203390918896 45.002232 190.324265 -6.960118 
521203410924782 45.002232 190.324265 -6.960118 
521203430919470 45.002232 190.324265 -6.960118 
521203450925146 45.002232 190.324265 -6.960118 
521203470918583 45.002232 190.324265 -6.960118 
521203490924885 45.002232 190.324265 -6.960118 
521203510918114 45.002232 190.324265 -6.960118 
521203531160980 45.002232 190.324265 -6.960118 
521203550967907 45.002232 190.324265 -6.960118 
521203570918479 45.002232 190.324265 -6.960118 
521203590918271 45.002232 190.324265 -6.960118 
521203610925042 45.002232 190.324265 -6.960118 
521203630918219 45.002232 190.324265 -6.960118 
521203650925719 45.002232 190.324265 -6.960118 
521203670918375 45.002232 190.324265 -6.960118 
521203690924573 45.002232 190.324265 -6.960118 
521203710918897 45.002232 190.324265 -6.960118 
521203730924781 45.002232 190.324265 -6.960118 
521203750917803 45.002232 190.324265 -6.960118 
521203770918011 45.002232 190.324265 -6.960118 
521203790917593 45.002232 190.324265 -6.960118 
521203810925459 45.002232 190.324265 -6.960118 
521203830918687 45.002232 190.324265 -6.960118 
521203850925251 45.002232 190.324265 -6.960118 
521203870942386 45.002232 190.324265 -6.960118 
521203891135979 45.002232 190.324265 -6.960118 
521203910965302 45.002232 190.324265 -6.960118 
521203930924313 45.002232 190.324265 -6.960118 
521203951124834 45.002232 190.324265 -6.960118 
521203970918375 45.002232 190.324265 -6.960118 
521203990917802 45.002232 190.324265 -6.960118 
521204010924729 45.002232 190.324265 -6.960118 
521204030931187 45.002232 190.324265 -6.960118 
521204050924886 45.002232 190.324265 -6.960118 
521204070923323 45.002232 190.324265 -6.960118 
521204090924729 45.002232 190.324265 -6.960118 
521204110918896 45.002232 190.324265 -6.960118 
521204130924937 45.002232 190.324265 -6.960118 
521204150918271 45.002232 190.324265 -6.960118 
521204170918740 45.002232 190.324265 -6.960118 
521204190917907 45.002232 190.324265 -6.960118 
521204210921292 45.002232 190.324265 -6.960118 
521204230932490 45.002232 190.324265 -6.960118 
521204251102646 45.002232 190.324265 -6.960118 
521204270965718 45.002232 190.324265 -6.960118 
521204290971605 45.002232 190.324265 -6.960118 
521204310917906 45.002232 190.324265 -6.960118 
521204330923897 45.002232 190.324265 -6.960118 
521204350918479 45.002232 190.324265 -6.960118 
521204370928948 45.002232 190.324265 -6.960118 
521204390919312 45.002232 190.324265 -6.960118 
521204410925354 45.002232 190.324265 -6.960118 
521204430920458 45.002232 190.324265 -6.960118 
521204450925041 45.002232 190.324265 -6.960118 
521204470918063 45.002232 190.324265 -6.960118 
521204490924781 45.002232 190.324265 -6.960118 
521204510918896 45.002232 190.324265 -6.960118 
521204530924834 45.002232 190.324265 -6.960118 
521204550918218 45.002232 190.324265 -6.960118 
521204570918427 45.002232 190.324265 -6.960118 
521204590939990 45.002232 190.324265 -6.960118 
521204611098062 45.002232 190.324265 -6.960118 
521204631098062 45.002232 190.324265 -6.960118 
521204650971656 45.002232 190.324265 -6.960118 
521204670919208 45.002232 190.324265 -6.960118 
521204690924521 45.002232 190.324265 -6.960118 
521204710918791 45.002232 190.324265 -6.960118 
521204730924104 45.002232 190.324265 -6.960118 
521204750917803 45.002232 190.324265 -6.960118 
521204770918635 45.002232 190.324265 -6.960118 
521204790918792 45.002232 190.324265 -6.960118 
521204810924886 45.002232 190.324265 -6.960118 
521204830917854 45.002232 190.324265 -6.960118 
521204850924989 45.002232 190.324265 -6.960118 
521204870918530 45.002232 190.324265 -6.960118 
521204890924729 45.002232 190.324265 -6.960118 
521204910918531 45.002232 190.324265 -6.960118 
521204930925354 45.002232 190.324265 -6.960118 
521204951126605 45.002232 190.324265 -6.960118 
521204971063635 45.002232 190.324265 -6.960118 
521204991063166 45.002232 190.324265 -6.960118 
521205010948322 45.002232 190.324265 -6.960118 
521205030918948 45.002232 190.324265 -6.960118 
521205050925458 45.002232 190.324265 -6.960118 
521205070920146 45.002232 190.324265 -6.960118 
521205090918948 45.002232 190.324265 -6.960118 
521205110926084 45.002232 190.324265 -6.960118 
521205130919678 45.002232 190.324265 -6.960118 
521205150919677 45.002232 190.324265 -6.960118 
521205170918688 45.002232 190.324265 -6.960118 
521205190918791 45.002232 190.324265 -6.960118 
521205210924521 45.002232 190.324265 -6.960118 
521205230918635 45.002232 190.324265 -6.960118 
521205250925146 45.002232 190.324265 -6.960118 
521205270917906 45.002232 190.324265 -6.960118 
521205290924520 45.002232 190.324265 -6.960118 
521205310918166 45.002232 190.324265 -6.960118 
521205331033427 45.002232 190.324265 -6.960118 
521205351033427 45.002232 190.324265 -6.960118 
521205370920718 45.002232 190.324265 -6.960118 
521205390918374 45.002232 190.324265 -6.960118 
521205410921396 45.002232 190.324265 -6.960118 
521205430919885 45.002232 190.324265 -6.960118 
521205450923687 45.002232 190.324265 -6.960118 
521205470920355 45.002232 190.324265 -6.960118 
521205490918843 45.002232 190.324265 -6.960118 
521205510920041 45.002232 190.324265 -6.960118 
521205530919365 45.002232 190.324265 -6.960118 
521205550920354 45.002232 190.324265 -6.960118 
521205570919468 45.002232 190.324265 -6.960118 
521205590919625 45.002232 190.324265 -6.960118 
521205610918740 45.002232 190.324265 -6.960118 
521205630917697 45.002232 190.324265 -6.960118 
521205650931395 45.002232 190.324265 -6.960118 
521205670919364 45.002232 190.324265 -6.960118 
521205691011812 45.002232 190.324265 -6.960118 
521205711011656 45.002232 190.324265 -6.960118 
521205730918218 45.002232 190.324265 -6.960118 
521205750918375 45.002232 190.324265 -6.960118 
521205770919676 45.002232 190.324265 -6.960118 
521205790918323 45.002232 190.324265 -6.960118 
521205810919989 45.002232 190.324265 -6.960118 
521205830918427 45.002232 190.324265 -6.960118 
521205850917853 45.002232 190.324265 -6.960118 
521205870918167 45.002232 190.324265 -6.960118 
521205890925250 45.002232 190.324265 -6.960118 
521205910919104 45.002232 190.324265 -6.960118 
521205930925197 45.002232 190.324265 -6.960118 
521205951126395 45.002232 190.324265 -6.960118 
521205970918634 45.002232 190.324265 -6.960118 
521205990918583 45.002232 190.324265 -6.960118 
521206010918635 45.002232 190.324265 -6.960118 
521206030933530 45.002232 190.324265 -6.960118 
521206050976343 45.002232 190.324265 -6.960118 
521206070976343 45.002232 190.324265 -6.960118 
521206090924833 45.002232 190.324265 -6.960118 
521206110922333 45.002232 190.324265 -6.960118 
521206130919312 45.002232 190.324265 -6.960118 
521206150918427 45.002232 190.324265 -6.960118 
521206170918843 45.002232 190.324265 -6.960118 
521206190923531 45.002232 190.324265 -6.960118 
521206210917906 45.002232 190.324265 -6.960118 
521206230917281 45.002232 190.324265 -6.960118 
521206250918530 45.002232 190.324265 -6.960118 
521206270917437 45.002232 190.324265 -6.960118 
521206290917801 45.002232 190.324265 -6.960118 
521206310918531 45.002232 190.324265 -6.960118 
521206330917749 45.002232 190.324265 -6.960118 
521206350918635 45.002232 190.324265 -6.960118 
521206370940302 45.002232 190.324265 -6.960118 
521206390918843 45.002232 190.324265 -6.960118 
521206410947281 45.002232 190.324265 -6.960118 
521206430947228 45.002232 190.324265 -6.960118 
521206450960978 45.002232 190.324265 -6.960118 
521206470923844 45.002232 190.324265 -6.960118 
521206490925041 45.002232 190.324265 -6.960118 
521206510918062 45.002232 190.324265 -6.960118 
521206530918426 45.002232 190.324265 -6.960118 
521206550919728 45.002232 190.324265 -6.960118 
521206570919573 45.002232 190.324265 -6.960118 
521206590918479 45.002232 190.324265 -6.960118 
521206610919155 45.002232 190.324265 -6.960118 
521206630919832 45.002232 190.324265 -6.960118 
521206650925249 45.002232 190.324265 -6.960118 
521206670918426 45.002232 190.324265 -6.960118 
521206690925613 45.002232 190.324265 -6.960118 
521206710919833 45.002232 190.324265 -6.960118 
521206730918843 45.002232 190.324265 -6.960118 
521206750933218 45.002232 190.324265 -6.960118 
521206770931916 45.002232 190.324265 -6.960118 
521206790931551 45.002232 190.324265 -6.960118 
521206810918270 45.002232 190.324265 -6.960118 
521206830917958 45.002232 190.324265 -6.960118 
521206850932957 45.002232 190.324265 -6.960118 
521206870919676 45.002232 190.324265 -6.960118 
521206890925874 45.002232 190.324265 -6.960118 
521206910918114 45.002232 190.324265 -6.960118 
521206930919572 45.002232 190.324265 -6.960118 
521206951125509 45.002232 190.324265 -6.960118 
521206970918947 45.002232 190.324265 -6.960118 
521206990918582 45.002232 190.324265 -6.960118 
521207010925092 45.002232 190.324265 -6.960118 
521207030919832 45.002232 190.324265 -6.960118 
521207050924416 45.002232 190.324265 -6.960118 
521207070918739 45.002232 190.324265 -6.960118 
521207090926656 45.002232 190.324265 -6.960118 
521207110918686 45.002232 190.324265 -6.960118 
521207130955979 45.002232 190.324265 -6.960118 
521207150955562 45.002232 190.324265 -6.960118 
521207170919260 45.002232 190.324265 -6.960118 
521207190918478 45.002232 190.324265 -6.960118 
521207210926551 45.002232 190.324265 -6.960118 
521207230918583 45.002232 190.324265 -6.960118 
521207250924988 45.002232 190.324265 -6.960118 
521207270918217 45.002232 190.324265 -6.960118 
521207290925197 45.002232 190.324265 -6.960118 
521207310918686 45.002232 190.324265 -6.960118 
521207330925198 45.002232 190.324265 -6.960118 
521207350919416 45.002232 190.324265 -6.960118 
521207370920354 45.002232 190.324265 -6.960118 
521207390920562 45.002232 190.324265 -6.960118 
521207410926030 45.002232 190.324265 -6.960118 
521207430927696 45.002232 190.324265 -6.960118 
521207450931812 45.002232 190.324265 -6.960118 
521207470919677 45.002232 190.324265 -6.960118 
521207490960666 45.002232 190.324265 -6.960118 
521207510960666 45.002232 190.324265 -6.960118 
521207530920040 45.002232 190.324265 -6.960118 
521207550918895 45.002232 190.324265 -6.960118 
521207570918426 45.002232 190.324265 -6.960118 
521207590976915 45.002232 190.324265 -6.960118 
521207610919259 45.002232 190.324265 -6.960118 
521207630919468 45.002232 190.324265 -6.960118 
521207650918582 45.002232 190.324265 -6.960118 
521207670919728 45.002232 190.324265 -6.960118 
521207690924468 45.002232 190.324265 -6.960118 
521207710919363 45.002232 190.324265 -6.960118 
521207730917957 45.002232 190.324265 -6.960118 
521207750921395 45.002232 190.324265 -6.960118 
521207770934259 45.002232 190.324265 -6.960118 
521207790918582 45.002232 190.324265 -6.960118 
521207810921187 45.002232 190.324265 -6.960118 
521207830918477 45.002232 190.324265 -6.960118 
521207850932124 45.002232 190.324265 -6.960118 
521207870931238 45.002232 190.324265 -6.960118 
521207890919051 45.002232 190.324265 -6.960118 
521207910920718 45.002232 190.324265 -6.960118 
521207930919936 45.002232 190.324265 -6.960118 
521207951126551 45.002232 190.324265 -6.960118 
521207970919467 45.002232 190.324265 -6.960118 
521207990919051 45.002232 190.324265 -6.960118 
521208010920406 45.002232 190.324265 -6.960118 
521208030920040 45.002232 190.324265 -6.960118 
521208050918321 45.002232 190.324265 -6.960118 
521208070917540 45.002232 190.324265 -6.960118 
521208090924832 45.002232 190.324265 -6.960118 
521208110918373 45.002232 190.324265 -6.960118 
521208130924572 45.002232 190.324265 -6.960118 
521208150918895 45.002232 190.324265 -6.960118 
521208170919780 45.002232 190.324265 -6.960118 
521208190927592 45.002232 190.324265 -6.960118 
521208210919989 45.002232 190.324265 -6.960118 
521208230919989 45.002232 190.324265 -6.960118 
521208250918218 45.002232 190.324265 -6.960118 
521208270925822 45.002232 190.324265 -6.960118 
521208290925196 45.002232 190.324265 -6.960118 
521208310918426 45.002232 190.324265 -6.960118 
521208330924780 45.002232 190.324265 -6.960118 
521208350918842 45.002232 190.324265 -6.960118 
521208370919207 45.002232 190.324265 -6.960118 
521208390917749 45.002232 190.324265 -6.960118 
521208410967801 45.002232 190.324265 -6.960118 
521208430919363 45.002232 190.324265 -6.960118 
521208450925613 45.002232 190.324265 -6.960118 
521208470918738 45.002232 190.324265 -6.960118 
521208490924728 45.002232 190.324265 -6.960118 
521208510917748 45.002232 190.324265 -6.960118 
521208530919363 45.002232 190.324265 -6.960118 
521208550920040 45.002232 190.324265 -6.960118 
521208570919207 45.002232 190.324265 -6.960118 
521208590919467 45.002232 190.324265 -6.960118 
521208610919676 45.002232 190.324265 -6.960118 
521208630918008 45.002232 190.324265 -6.960118 
521208650925093 45.002232 190.324265 -6.960118 
521208670917436 45.002232 190.324265 -6.960118 
521208690924623 45.002232 190.324265 -6.960118 
521208710917228 45.002232 190.324265 -6.960118 
521208730923790 45.002232 190.324265 -6.960118 
521208750918217 45.002232 190.324265 -6.960118 
521208770918321 45.002232 190.324265 -6.960118 
521208790917957 45.002232 190.324265 -6.960118 
521208810923998 45.002232 190.324265 -6.960118 
521208830918217 45.002232 190.324265 -6.960118 
521208850918321 45.002232 190.324265 -6.960118 
521208870917852 45.002232 190.324265 -6.960118 
521208890924050 45.002232 190.324265 -6.960118 
521208910917748 45.002232 190.324265 -6.960118 
521208930917904 45.002232 190.324265 -6.960118 
521208950917904 45.002232 190.324265 -6.960118 
521208970924155 45.002232 190.324265 -6.960118 
521208990917227 45.002232 190.324265 -6.960118 
521209010917801 45.002232 190.324265 -6.960118 
521209030918113 45.002232 190.324265 -6.960118 
521209050924676 45.002232 190.324265 -6.960118 
521209070917540 45.002232 190.324265 -6.960118 
521209090924207 45.002232 190.324265 -6.960118 
521209110917957 45.002232 190.324265 -6.960118 
521209130924780 45.002232 190.324265 -6.960118 
521209150919468 45.002232 190.324265 -6.960118 
521209170918478 45.002232 190.324265 -6.960118 
521209190918166 45.002232 190.324265 -6.960118 
