# Created at Thu Nov 07 17:59:08 EST 2019 in Burnaby Canada 
520792053908585 0.003797 -0.003950 0.006214 
520792074474678 0.003797 -0.003950 0.006214 
520792095042907 0.003797 -0.003950 0.006214 
520792115611084 0.003797 -0.003950 0.006214 
520792136179522 0.003797 -0.003950 0.006214 
520792156748169 0.003797 -0.003950 0.006214 
520792177316606 0.003797 -0.003950 0.006214 
520792197885095 0.003797 -0.003950 0.006214 
520792218453637 0.003797 -0.003950 0.006214 
520792239022126 0.003797 -0.003950 0.006214 
520792259590564 0.003797 -0.003950 0.006214 
520792280159106 0.003797 -0.003950 0.006214 
520792300727647 0.003797 -0.003950 0.006214 
520792321295929 0.003797 -0.003950 0.006214 
520792341864314 0.003797 -0.003950 0.006214 
520792362433167 0.003797 -0.003950 0.006214 
520792383001345 0.003797 -0.003950 0.006214 
520792403569835 0.003797 -0.003950 0.006214 
520792424138219 0.003797 -0.003950 0.006214 
520792444707022 0.003797 -0.003950 0.006214 
520792465275251 0.003797 -0.003950 0.006214 
520792485844314 0.003797 -0.003950 0.006214 
520792506412386 0.003797 -0.003950 0.006214 
520792526980824 0.003797 -0.003950 0.006214 
520792547549210 0.003797 -0.003950 0.006214 
520792568118533 0.003797 -0.003950 0.006214 
520792588686189 0.003797 -0.003950 0.006214 
520792609255147 0.003797 -0.003950 0.006214 
520792629823324 0.003797 -0.003950 0.006214 
520792650391918 0.003797 -0.003950 0.006214 
520792670960199 0.003797 -0.003950 0.006214 
520792691528688 0.003797 -0.003950 0.006214 
520792712097803 0.003797 -0.003950 0.006214 
520792732665877 0.003797 -0.003950 0.006214 
520792753234209 0.003797 -0.003950 0.006214 
520792773802699 0.003797 -0.003950 0.006214 
520792794372335 0.003797 -0.003950 0.006214 
520792814940667 0.003797 -0.003950 0.006214 
520792835508584 0.003797 -0.003950 0.006214 
520792856076709 0.003797 -0.003950 0.006214 
520792876645616 0.003797 -0.003950 0.006214 
520792897213689 0.003797 -0.003950 0.006214 
520792917782126 0.003797 -0.003950 0.006214 
520792938350616 0.003797 -0.003950 0.006214 
520792958919626 0.003797 -0.003950 0.006214 
520792979488533 0.003797 -0.003950 0.006214 
520793000057021 0.003797 -0.003950 0.006214 
520793020625876 0.003797 -0.003950 0.006214 
520793041194001 0.003797 -0.003950 0.006214 
520793061762126 0.003797 -0.003950 0.006214 
520793082332699 0.003797 -0.003950 0.006214 
520793102900771 0.003797 -0.003950 0.006214 
520793123468376 0.003797 -0.003950 0.006214 
520793144036189 0.003797 -0.003950 0.006214 
520793164605720 0.003797 -0.003950 0.006214 
520793185174262 0.003797 -0.003950 0.006214 
520793205742907 0.003797 -0.003950 0.006214 
520793226311240 0.003797 -0.003950 0.006214 
520793246880302 0.003797 -0.003950 0.006214 
520793267448480 0.003797 -0.003950 0.006214 
520793288019834 0.003797 -0.003950 0.006214 
520793308586032 0.003797 -0.003950 0.006214 
520793329154730 0.003797 -0.003950 0.006214 
520793349721396 0.003797 -0.003950 0.006214 
520793370292543 0.003797 -0.003950 0.006214 
520793390858949 0.003797 -0.003950 0.006214 
520793411426344 0.003797 -0.003950 0.006214 
520793431994782 0.003797 -0.003950 0.006214 
520793452563375 0.003797 -0.003950 0.006214 
520793473132959 0.003797 -0.003950 0.006214 
520793493699730 0.003797 -0.003950 0.006214 
520793514269365 0.003797 -0.003950 0.006214 
520793534837960 0.003797 -0.003950 0.006214 
520793555406292 0.003797 -0.003950 0.006214 
520793575975303 0.003797 -0.003950 0.006214 
520793596542907 0.003797 -0.003950 0.006214 
520793617111032 0.003797 -0.003950 0.006214 
520793637679678 0.003797 -0.003950 0.006214 
520793658248168 0.003797 -0.003950 0.006214 
520793678818271 0.003797 -0.003950 0.006214 
520793699384991 0.003797 -0.003950 0.006214 
520793719953688 0.003797 -0.003950 0.006214 
520793740522022 0.003797 -0.003950 0.006214 
520793761094366 0.003797 -0.003950 0.006214 
520793781662490 0.003797 -0.003950 0.006214 
520793802230303 0.003797 -0.003950 0.006214 
520793822798167 0.003797 -0.003950 0.006214 
520793843365198 0.003797 -0.003950 0.006214 
520793863933532 0.003797 -0.003950 0.006214 
520793884501865 0.003797 -0.003950 0.006214 
520793905070146 0.003797 -0.003950 0.006214 
520793925639886 0.003797 -0.003950 0.006214 
520793946207229 0.003797 -0.003950 0.006214 
520793966776553 0.003797 -0.003950 0.006214 
520793987344574 0.003797 -0.003950 0.006214 
520794007913011 0.003797 -0.003950 0.006214 
520794028481084 0.003797 -0.003950 0.006214 
520794049050198 0.003797 -0.003950 0.006214 
520794069618636 0.003797 -0.003950 0.006214 
520794090187595 0.003797 -0.003950 0.006214 
520794110755250 0.003797 -0.003950 0.006214 
520794131323740 0.003797 -0.003950 0.006214 
520794151892647 0.003797 -0.003950 0.006214 
520794172461605 0.003797 -0.003950 0.006214 
520794193029417 0.003797 -0.003950 0.006214 
520794213597907 0.003797 -0.003950 0.006214 
520794234166918 0.003797 -0.003950 0.006214 
520794254734991 0.003797 -0.003950 0.006214 
520794275304417 0.003797 -0.003950 0.006214 
520794295872334 0.003797 -0.003950 0.006214 
520794316442126 0.003797 -0.003950 0.006214 
520794337009469 0.003797 -0.003950 0.006214 
520794357578063 0.003797 -0.003950 0.006214 
520794378146188 0.003797 -0.003950 0.006214 
520794398714574 0.003797 -0.003950 0.006214 
520794419283167 0.003797 -0.003950 0.006214 
520794439851761 0.003797 -0.003950 0.006214 
520794460420302 0.003797 -0.003950 0.006214 
520794480991188 0.003797 -0.003950 0.006214 
520794501557854 0.003797 -0.003950 0.006214 
520794522126552 0.003797 -0.003950 0.006214 
520794542694626 0.003797 -0.003950 0.006214 
520794563263427 0.003797 -0.003950 0.006214 
520794583831604 0.003797 -0.003950 0.006214 
520794604401500 0.003797 -0.003950 0.006214 
520794624968844 0.003797 -0.003950 0.006214 
520794645537855 0.003797 -0.003950 0.006214 
520794666105876 0.003797 -0.003950 0.006214 
520794686674573 0.003797 -0.003950 0.006214 
520794707243167 0.003797 -0.003950 0.006214 
520794727812021 0.003797 -0.003950 0.006214 
520794748380354 0.003797 -0.003950 0.006214 
520794768948844 0.003797 -0.003950 0.006214 
520794789518063 0.003797 -0.003950 0.006214 
520794810086083 0.003797 -0.003950 0.006214 
520794830654208 0.003797 -0.003950 0.006214 
520794851223271 0.003797 -0.003950 0.006214 
520794871791812 0.003797 -0.003950 0.006214 
520794892359730 0.003797 -0.003950 0.006214 
520794912928480 0.003797 -0.003950 0.006214 
520794933496969 0.003797 -0.003950 0.006214 
520794954066240 0.003797 -0.003950 0.006214 
520794974634417 0.003797 -0.003950 0.006214 
520794995203063 0.003797 -0.003950 0.006214 
520795015770927 0.003797 -0.003950 0.006214 
520795036341084 0.003797 -0.003950 0.006214 
520795056908792 0.003797 -0.003950 0.006214 
520795077477542 0.003797 -0.003950 0.006214 
520795098045563 0.003797 -0.003950 0.006214 
520795118615146 0.003797 -0.003950 0.006214 
520795139182959 0.003797 -0.003950 0.006214 
520795159751084 0.003797 -0.003950 0.006214 
520795180319625 0.003797 -0.003950 0.006214 
520795200888584 0.003797 -0.003950 0.006214 
520795221456813 0.003797 -0.003950 0.006214 
520795242025875 0.003797 -0.003950 0.006214 
520795262593636 0.003797 -0.003950 0.006214 
520795283163427 0.003797 -0.003950 0.006214 
520795303731969 0.003797 -0.003950 0.006214 
520795324300823 0.003797 -0.003950 0.006214 
520795344869104 0.003797 -0.003950 0.006214 
520795365437698 0.003797 -0.003950 0.006214 
520795386005823 0.003797 -0.003950 0.006214 
520795406574625 0.003797 -0.003950 0.006214 
520795427142854 0.003797 -0.003950 0.006214 
520795447712021 0.003797 -0.003950 0.006214 
520795468279782 0.003797 -0.003950 0.006214 
520795488849052 0.003797 -0.003950 0.006214 
520795509417490 0.003797 -0.003950 0.006214 
520795529986552 0.003797 -0.003950 0.006214 
520795550553218 0.003797 -0.003950 0.006214 
520795571123323 0.003797 -0.003950 0.006214 
520795591691083 0.003797 -0.003950 0.006214 
520795612259364 0.003797 -0.003950 0.006214 
520795632830771 0.003797 -0.003950 0.006214 
520795653398636 0.003797 -0.003950 0.006214 
520795673965875 0.003797 -0.003950 0.006214 
520795694533948 0.003797 -0.003950 0.006214 
520795715102073 0.003797 -0.003950 0.006214 
520795735670562 0.003797 -0.003950 0.006214 
520795756240302 0.003797 -0.003950 0.006214 
520795776808688 0.003797 -0.003950 0.006214 
520795797377698 0.003797 -0.003950 0.006214 
520795817945719 0.003797 -0.003950 0.006214 
520795838513635 0.003797 -0.003950 0.006214 
520795859083167 0.003797 -0.003950 0.006214 
520795879649000 0.003797 -0.003950 0.006214 
520795900219312 0.003797 -0.003950 0.006214 
520795920788376 0.003797 -0.003950 0.006214 
520795941356291 0.003797 -0.003950 0.006214 
520795961924937 0.003797 -0.003950 0.006214 
520795982493323 0.003797 -0.003950 0.006214 
520796003061812 0.003797 -0.003950 0.006214 
520796023630406 0.003797 -0.003950 0.006214 
520796044199000 0.003797 -0.003950 0.006214 
520796064767489 0.003797 -0.003950 0.006214 
520796085335875 0.003797 -0.003950 0.006214 
520796105904365 0.003797 -0.003950 0.006214 
520796126472853 0.003797 -0.003950 0.006214 
520796147041240 0.003797 -0.003950 0.006214 
520796167610927 0.003797 -0.003950 0.006214 
520796188178583 0.003797 -0.003950 0.006214 
520796208747489 0.003797 -0.003950 0.006214 
520796229316605 0.003797 -0.003950 0.006214 
520796249885355 0.003797 -0.003950 0.006214 
520796270453844 0.003797 -0.003950 0.006214 
520796291023636 0.003797 -0.003950 0.006214 
520796311590927 0.003797 -0.003950 0.006214 
520796332159729 0.003797 -0.003950 0.006214 
520796352728479 0.003797 -0.003950 0.006214 
520796373296448 0.003797 -0.003950 0.006214 
520796393865510 0.003797 -0.003950 0.006214 
520796414434260 0.003797 -0.003950 0.006214 
520796435002229 0.003797 -0.003950 0.006214 
520796455570666 0.003797 -0.003950 0.006214 
520796476139833 0.003797 -0.003950 0.006214 
520796496708375 0.003797 -0.003950 0.006214 
520796517277124 0.003797 -0.003950 0.006214 
520796537844989 0.003797 -0.003950 0.006214 
520796558413323 0.003797 -0.003950 0.006214 
520796578981292 0.003797 -0.003950 0.006214 
520796599549833 0.003797 -0.003950 0.006214 
520796620118166 0.003797 -0.003950 0.006214 
520796640688375 0.003797 -0.003950 0.006214 
520796661255771 0.003797 -0.003950 0.006214 
520796681824052 0.003797 -0.003950 0.006214 
520796702392334 0.003797 -0.003950 0.006214 
520796722960510 0.003797 -0.003950 0.006214 
520796743529104 0.003797 -0.003950 0.006214 
520796764099104 0.003797 -0.003950 0.006214 
520796784667280 0.003797 -0.003950 0.006214 
520796805235041 0.003797 -0.003950 0.006214 
520796825803531 0.003797 -0.003950 0.006214 
520796846371760 0.003797 -0.003950 0.006214 
520796866940354 0.003797 -0.003950 0.006214 
520796887509208 0.003797 -0.003950 0.006214 
520796908077332 0.003797 -0.003950 0.006214 
520796928645979 0.003797 -0.003950 0.006214 
520796949214624 0.003797 -0.003950 0.006214 
520796969783844 0.003797 -0.003950 0.006214 
520796990351863 0.003797 -0.003950 0.006214 
520797010920563 0.003797 -0.003950 0.006214 
520797031489833 0.003797 -0.003950 0.006214 
520797052057801 0.003797 -0.003950 0.006214 
520797072626969 0.003797 -0.003950 0.006214 
520797093195146 0.003797 -0.003950 0.006214 
520797113763739 0.003797 -0.003950 0.006214 
520797134331760 0.003797 -0.003950 0.006214 
520797154901291 0.003797 -0.003950 0.006214 
520797175469520 0.003797 -0.003950 0.006214 
520797196038166 0.003797 -0.003950 0.006214 
520797216606447 0.003797 -0.003950 0.006214 
520797237175718 0.003797 -0.003950 0.006214 
520797257743999 0.003797 -0.003950 0.006214 
520797278316500 0.003797 -0.003950 0.006214 
520797298882332 0.003797 -0.003950 0.006214 
520797319450041 0.003797 -0.003950 0.006214 
520797340018791 0.003797 -0.003950 0.006214 
520797360586968 0.003797 -0.003950 0.006214 
520797381155666 0.003797 -0.003950 0.006214 
520797401723322 0.003797 -0.003950 0.006214 
520797422291500 0.003797 -0.003950 0.006214 
520797442860874 0.003797 -0.003950 0.006214 
520797463429416 0.003797 -0.003950 0.006214 
520797483998323 0.003797 -0.003950 0.006214 
520797504566187 0.003797 -0.003950 0.006214 
520797525134989 0.003797 -0.003950 0.006214 
520797545703322 0.003797 -0.003950 0.006214 
520797566271499 0.003797 -0.003950 0.006214 
520797586839833 0.003797 -0.003950 0.006214 
520797607409781 0.003797 -0.003950 0.006214 
520797627977071 0.003797 -0.003950 0.006214 
520797648547176 0.003797 -0.003950 0.006214 
520797669113896 0.003797 -0.003950 0.006214 
520797689682436 0.003797 -0.003950 0.006214 
520797710250978 0.003797 -0.003950 0.006214 
520797730819364 0.003797 -0.003950 0.006214 
520797751388010 0.003797 -0.003950 0.006214 
520797771956655 0.003797 -0.003950 0.006214 
520797792526134 0.003797 -0.003950 0.006214 
520797813093687 0.003797 -0.003950 0.006214 
520797833665614 0.003797 -0.003950 0.006214 
520797854232749 0.003797 -0.003950 0.006214 
520797874799729 0.003797 -0.003950 0.006214 
520797895367749 0.003797 -0.003950 0.006214 
520797915936499 0.003797 -0.003950 0.006214 
