# Created at Thu Nov 07 19:54:04 EST 2019 in Burnaby Canada 
527688715150507 -0.001878 -0.002344 0.006000 
527688735718267 -0.001878 -0.002344 0.006000 
527688756287225 -0.001878 -0.002344 0.006000 
527688776855090 -0.001878 -0.002344 0.006000 
527688797424205 -0.001878 -0.002344 0.006000 
527688817991808 -0.001878 -0.002344 0.006000 
527688838560194 -0.001878 -0.002344 0.006000 
527688859128580 -0.001878 -0.002344 0.006000 
527688879697277 -0.001878 -0.002344 0.006000 
527688900265403 -0.001878 -0.002344 0.006000 
527688920834100 -0.001878 -0.002344 0.006000 
527688941402278 -0.001878 -0.002344 0.006000 
527688961970819 -0.001878 -0.002344 0.006000 
527688982539152 -0.001878 -0.002344 0.006000 
527689003107954 -0.001878 -0.002344 0.006000 
527689023675975 -0.001878 -0.002344 0.006000 
527689044244361 -0.001878 -0.002344 0.006000 
527689064812590 -0.001878 -0.002344 0.006000 
527689085381496 -0.001878 -0.002344 0.006000 
527689105949673 -0.001878 -0.002344 0.006000 
527689126517954 -0.001878 -0.002344 0.006000 
527689147086288 -0.001878 -0.002344 0.006000 
527689167655038 -0.001878 -0.002344 0.006000 
527689188223267 -0.001878 -0.002344 0.006000 
527689208791808 -0.001878 -0.002344 0.006000 
527689229359933 -0.001878 -0.002344 0.006000 
527689249928944 -0.001878 -0.002344 0.006000 
527689270496757 -0.001878 -0.002344 0.006000 
527689291065455 -0.001878 -0.002344 0.006000 
527689311633632 -0.001878 -0.002344 0.006000 
527689332202382 -0.001878 -0.002344 0.006000 
527689352770611 -0.001878 -0.002344 0.006000 
527689373339464 -0.001878 -0.002344 0.006000 
527689393907434 -0.001878 -0.002344 0.006000 
527689414475610 -0.001878 -0.002344 0.006000 
527689435044205 -0.001878 -0.002344 0.006000 
527689455612641 -0.001878 -0.002344 0.006000 
527689476181131 -0.001878 -0.002344 0.006000 
527689496749256 -0.001878 -0.002344 0.006000 
527689517319152 -0.001878 -0.002344 0.006000 
527689537886913 -0.001878 -0.002344 0.006000 
527689558455194 -0.001878 -0.002344 0.006000 
527689579023110 -0.001878 -0.002344 0.006000 
527689599592069 -0.001878 -0.002344 0.006000 
527689620159881 -0.001878 -0.002344 0.006000 
527689640728996 -0.001878 -0.002344 0.006000 
527689661297590 -0.001878 -0.002344 0.006000 
527689681867173 -0.001878 -0.002344 0.006000 
527689702434517 -0.001878 -0.002344 0.006000 
527689723002850 -0.001878 -0.002344 0.006000 
527689743571548 -0.001878 -0.002344 0.006000 
527689764140766 -0.001878 -0.002344 0.006000 
527689784707902 -0.001878 -0.002344 0.006000 
527689805276756 -0.001878 -0.002344 0.006000 
527689825845246 -0.001878 -0.002344 0.006000 
527689846414569 -0.001878 -0.002344 0.006000 
527689866983058 -0.001878 -0.002344 0.006000 
527689887550558 -0.001878 -0.002344 0.006000 
527689908118787 -0.001878 -0.002344 0.006000 
527689928687381 -0.001878 -0.002344 0.006000 
527689949255194 -0.001878 -0.002344 0.006000 
527689969823527 -0.001878 -0.002344 0.006000 
527689990391860 -0.001878 -0.002344 0.006000 
527690010960037 -0.001878 -0.002344 0.006000 
527690031528423 -0.001878 -0.002344 0.006000 
527690052097069 -0.001878 -0.002344 0.006000 
527690072668683 -0.001878 -0.002344 0.006000 
527690093234776 -0.001878 -0.002344 0.006000 
527690113802955 -0.001878 -0.002344 0.006000 
527690134371235 -0.001878 -0.002344 0.006000 
527690154939568 -0.001878 -0.002344 0.006000 
527690175507485 -0.001878 -0.002344 0.006000 
527690196075923 -0.001878 -0.002344 0.006000 
527690216644360 -0.001878 -0.002344 0.006000 
527690237212694 -0.001878 -0.002344 0.006000 
527690257781182 -0.001878 -0.002344 0.006000 
527690278351079 -0.001878 -0.002344 0.006000 
527690298918787 -0.001878 -0.002344 0.006000 
527690319487590 -0.001878 -0.002344 0.006000 
527690340060245 -0.001878 -0.002344 0.006000 
527690360625922 -0.001878 -0.002344 0.006000 
527690381193682 -0.001878 -0.002344 0.006000 
527690401763318 -0.001878 -0.002344 0.006000 
527690422330610 -0.001878 -0.002344 0.006000 
527690442898735 -0.001878 -0.002344 0.006000 
527690463467432 -0.001878 -0.002344 0.006000 
527690484034881 -0.001878 -0.002344 0.006000 
527690504603005 -0.001878 -0.002344 0.006000 
527690525171392 -0.001878 -0.002344 0.006000 
527690545739412 -0.001878 -0.002344 0.006000 
527690566308006 -0.001878 -0.002344 0.006000 
527690586876443 -0.001878 -0.002344 0.006000 
527690607444986 -0.001878 -0.002344 0.006000 
527690628013266 -0.001878 -0.002344 0.006000 
527690648581756 -0.001878 -0.002344 0.006000 
527690669150140 -0.001878 -0.002344 0.006000 
527690689719047 -0.001878 -0.002344 0.006000 
527690710287016 -0.001878 -0.002344 0.006000 
527690730855662 -0.001878 -0.002344 0.006000 
527690751423944 -0.001878 -0.002344 0.006000 
527690771992589 -0.001878 -0.002344 0.006000 
527690792563423 -0.001878 -0.002344 0.006000 
527690813130506 -0.001878 -0.002344 0.006000 
527690833699048 -0.001878 -0.002344 0.006000 
527690854267068 -0.001878 -0.002344 0.006000 
527690874836131 -0.001878 -0.002344 0.006000 
527690895404151 -0.001878 -0.002344 0.006000 
527690915971965 -0.001878 -0.002344 0.006000 
527690936540610 -0.001878 -0.002344 0.006000 
527690957109100 -0.001878 -0.002344 0.006000 
527690977676912 -0.001878 -0.002344 0.006000 
527690998247485 -0.001878 -0.002344 0.006000 
527691018814359 -0.001878 -0.002344 0.006000 
527691039384100 -0.001878 -0.002344 0.006000 
527691059951651 -0.001878 -0.002344 0.006000 
527691080520245 -0.001878 -0.002344 0.006000 
527691101088735 -0.001878 -0.002344 0.006000 
527691121656703 -0.001878 -0.002344 0.006000 
527691142224569 -0.001878 -0.002344 0.006000 
527691162793110 -0.001878 -0.002344 0.006000 
527691183361496 -0.001878 -0.002344 0.006000 
527691203930766 -0.001878 -0.002344 0.006000 
527691224498319 -0.001878 -0.002344 0.006000 
527691245067901 -0.001878 -0.002344 0.006000 
527691265635714 -0.001878 -0.002344 0.006000 
527691286204359 -0.001878 -0.002344 0.006000 
527691306772537 -0.001878 -0.002344 0.006000 
527691327341443 -0.001878 -0.002344 0.006000 
527691347909777 -0.001878 -0.002344 0.006000 
527691368478266 -0.001878 -0.002344 0.006000 
527691389046547 -0.001878 -0.002344 0.006000 
527691409615506 -0.001878 -0.002344 0.006000 
527691430183787 -0.001878 -0.002344 0.006000 
527691450754099 -0.001878 -0.002344 0.006000 
527691471321599 -0.001878 -0.002344 0.006000 
527691491890454 -0.001878 -0.002344 0.006000 
527691512458370 -0.001878 -0.002344 0.006000 
527691533025871 -0.001878 -0.002344 0.006000 
527691553594776 -0.001878 -0.002344 0.006000 
527691574162381 -0.001878 -0.002344 0.006000 
527691594732067 -0.001878 -0.002344 0.006000 
527691615299776 -0.001878 -0.002344 0.006000 
527691635868787 -0.001878 -0.002344 0.006000 
527691656436443 -0.001878 -0.002344 0.006000 
527691677004933 -0.001878 -0.002344 0.006000 
527691697574672 -0.001878 -0.002344 0.006000 
527691718142328 -0.001878 -0.002344 0.006000 
527691738710609 -0.001878 -0.002344 0.006000 
527691759279256 -0.001878 -0.002344 0.006000 
527691779847640 -0.001878 -0.002344 0.006000 
527691800416287 -0.001878 -0.002344 0.006000 
527691820984776 -0.001878 -0.002344 0.006000 
527691841555037 -0.001878 -0.002344 0.006000 
527691862123006 -0.001878 -0.002344 0.006000 
527691882691130 -0.001878 -0.002344 0.006000 
527691903259360 -0.001878 -0.002344 0.006000 
527691923826859 -0.001878 -0.002344 0.006000 
527691944395350 -0.001878 -0.002344 0.006000 
527691964967589 -0.001878 -0.002344 0.006000 
527691985535401 -0.001878 -0.002344 0.006000 
527692006102484 -0.001878 -0.002344 0.006000 
527692026669932 -0.001878 -0.002344 0.006000 
527692047237328 -0.001878 -0.002344 0.006000 
527692067805714 -0.001878 -0.002344 0.006000 
527692088374828 -0.001878 -0.002344 0.006000 
527692108942901 -0.001878 -0.002344 0.006000 
527692129512068 -0.001878 -0.002344 0.006000 
527692150080245 -0.001878 -0.002344 0.006000 
527692170649776 -0.001878 -0.002344 0.006000 
527692191218109 -0.001878 -0.002344 0.006000 
527692211785714 -0.001878 -0.002344 0.006000 
527692232354620 -0.001878 -0.002344 0.006000 
527692252923369 -0.001878 -0.002344 0.006000 
527692273490870 -0.001878 -0.002344 0.006000 
527692294060662 -0.001878 -0.002344 0.006000 
527692314629255 -0.001878 -0.002344 0.006000 
527692335197484 -0.001878 -0.002344 0.006000 
527692355766183 -0.001878 -0.002344 0.006000 
527692376334411 -0.001878 -0.002344 0.006000 
527692396903318 -0.001878 -0.002344 0.006000 
527692417472537 -0.001878 -0.002344 0.006000 
527692438039828 -0.001878 -0.002344 0.006000 
527692458608682 -0.001878 -0.002344 0.006000 
527692479179411 -0.001878 -0.002344 0.006000 
527692499748161 -0.001878 -0.002344 0.006000 
527692520313577 -0.001878 -0.002344 0.006000 
527692540882224 -0.001878 -0.002344 0.006000 
527692561449672 -0.001878 -0.002344 0.006000 
527692582018057 -0.001878 -0.002344 0.006000 
527692602588318 -0.001878 -0.002344 0.006000 
527692623156286 -0.001878 -0.002344 0.006000 
527692643724724 -0.001878 -0.002344 0.006000 
527692664292692 -0.001878 -0.002344 0.006000 
527692684860505 -0.001878 -0.002344 0.006000 
527692705428890 -0.001878 -0.002344 0.006000 
527692725997484 -0.001878 -0.002344 0.006000 
527692746565713 -0.001878 -0.002344 0.006000 
527692767135036 -0.001878 -0.002344 0.006000 
527692787702484 -0.001878 -0.002344 0.006000 
527692808272328 -0.001878 -0.002344 0.006000 
527692828840192 -0.001878 -0.002344 0.006000 
527692849411182 -0.001878 -0.002344 0.006000 
527692869976026 -0.001878 -0.002344 0.006000 
527692890546183 -0.001878 -0.002344 0.006000 
527692911114984 -0.001878 -0.002344 0.006000 
527692931685818 -0.001878 -0.002344 0.006000 
527692952251026 -0.001878 -0.002344 0.006000 
527692972819307 -0.001878 -0.002344 0.006000 
527692993387693 -0.001878 -0.002344 0.006000 
527693013957015 -0.001878 -0.002344 0.006000 
527693034525244 -0.001878 -0.002344 0.006000 
527693055093578 -0.001878 -0.002344 0.006000 
527693075661651 -0.001878 -0.002344 0.006000 
527693096230140 -0.001878 -0.002344 0.006000 
527693116798630 -0.001878 -0.002344 0.006000 
527693137366859 -0.001878 -0.002344 0.006000 
527693157935870 -0.001878 -0.002344 0.006000 
527693178504202 -0.001878 -0.002344 0.006000 
527693199072797 -0.001878 -0.002344 0.006000 
527693219640348 -0.001878 -0.002344 0.006000 
527693240208578 -0.001878 -0.002344 0.006000 
527693260777485 -0.001878 -0.002344 0.006000 
527693281345817 -0.001878 -0.002344 0.006000 
527693301914151 -0.001878 -0.002344 0.006000 
527693322482536 -0.001878 -0.002344 0.006000 
527693343051182 -0.001878 -0.002344 0.006000 
527693363622171 -0.001878 -0.002344 0.006000 
527693384190505 -0.001878 -0.002344 0.006000 
527693404758525 -0.001878 -0.002344 0.006000 
527693425326546 -0.001878 -0.002344 0.006000 
527693445895349 -0.001878 -0.002344 0.006000 
527693466463526 -0.001878 -0.002344 0.006000 
527693487031599 -0.001878 -0.002344 0.006000 
527693507599411 -0.001878 -0.002344 0.006000 
527693528167380 -0.001878 -0.002344 0.006000 
527693548735713 -0.001878 -0.002344 0.006000 
527693569304046 -0.001878 -0.002344 0.006000 
527693589872588 -0.001878 -0.002344 0.006000 
527693610441130 -0.001878 -0.002344 0.006000 
527693631009619 -0.001878 -0.002344 0.006000 
527693651578057 -0.001878 -0.002344 0.006000 
527693672147120 -0.001878 -0.002344 0.006000 
527693692714984 -0.001878 -0.002344 0.006000 
527693713283474 -0.001878 -0.002344 0.006000 
527693733852014 -0.001878 -0.002344 0.006000 
527693754421130 -0.001878 -0.002344 0.006000 
527693774989307 -0.001878 -0.002344 0.006000 
527693795557432 -0.001878 -0.002344 0.006000 
527693816125921 -0.001878 -0.002344 0.006000 
527693836695192 -0.001878 -0.002344 0.006000 
527693857265193 -0.001878 -0.002344 0.006000 
527693877833682 -0.001878 -0.002344 0.006000 
527693898401651 -0.001878 -0.002344 0.006000 
527693918968161 -0.001878 -0.002344 0.006000 
527693939536598 -0.001878 -0.002344 0.006000 
527693960105661 -0.001878 -0.002344 0.006000 
527693980673474 -0.001878 -0.002344 0.006000 
527694001243108 -0.001878 -0.002344 0.006000 
527694021811077 -0.001878 -0.002344 0.006000 
527694042381182 -0.001878 -0.002344 0.006000 
527694062949880 -0.001878 -0.002344 0.006000 
527694083516755 -0.001878 -0.002344 0.006000 
527694104085296 -0.001878 -0.002344 0.006000 
527694124654099 -0.001878 -0.002344 0.006000 
527694145222015 -0.001878 -0.002344 0.006000 
527694165789880 -0.001878 -0.002344 0.006000 
527694186358369 -0.001878 -0.002344 0.006000 
527694206926911 -0.001878 -0.002344 0.006000 
527694227495035 -0.001878 -0.002344 0.006000 
527694248063786 -0.001878 -0.002344 0.006000 
527694268632120 -0.001878 -0.002344 0.006000 
527694289200869 -0.001878 -0.002344 0.006000 
527694309769098 -0.001878 -0.002344 0.006000 
527694330339671 -0.001878 -0.002344 0.006000 
527694350907588 -0.001878 -0.002344 0.006000 
527694371476494 -0.001878 -0.002344 0.006000 
527694392044828 -0.001878 -0.002344 0.006000 
527694412613004 -0.001878 -0.002344 0.006000 
527694433181598 -0.001878 -0.002344 0.006000 
527694453749775 -0.001878 -0.002344 0.006000 
527694474317952 -0.001878 -0.002344 0.006000 
527694494885660 -0.001878 -0.002344 0.006000 
527694515453681 -0.001878 -0.002344 0.006000 
527694536022588 -0.001878 -0.002344 0.006000 
527694556590556 -0.001878 -0.002344 0.006000 
527694577159046 -0.001878 -0.002344 0.006000 
527694597727796 -0.001878 -0.002344 0.006000 
527694618295974 -0.001878 -0.002344 0.006000 
527694638864515 -0.001878 -0.002344 0.006000 
527694659433004 -0.001878 -0.002344 0.006000 
527694680001233 -0.001878 -0.002344 0.006000 
527694700569828 -0.001878 -0.002344 0.006000 
527694721138264 -0.001878 -0.002344 0.006000 
527694741706911 -0.001878 -0.002344 0.006000 
527694762275766 -0.001878 -0.002344 0.006000 
527694782843837 -0.001878 -0.002344 0.006000 
527694803413161 -0.001878 -0.002344 0.006000 
527694823980557 -0.001878 -0.002344 0.006000 
527694844549151 -0.001878 -0.002344 0.006000 
527694865117587 -0.001878 -0.002344 0.006000 
527694885686390 -0.001878 -0.002344 0.006000 
527694906255087 -0.001878 -0.002344 0.006000 
527694926823213 -0.001878 -0.002344 0.006000 
527694947391389 -0.001878 -0.002344 0.006000 
527694967960140 -0.001878 -0.002344 0.006000 
527694988528473 -0.001878 -0.002344 0.006000 
527695009096962 -0.001878 -0.002344 0.006000 
527695029665140 -0.001878 -0.002344 0.006000 
527695050234046 -0.001878 -0.002344 0.006000 
527695070802119 -0.001878 -0.002344 0.006000 
527695091370608 -0.001878 -0.002344 0.006000 
527695111939463 -0.001878 -0.002344 0.006000 
527695132507640 -0.001878 -0.002344 0.006000 
527695153076337 -0.001878 -0.002344 0.006000 
527695173645608 -0.001878 -0.002344 0.006000 
527695194213056 -0.001878 -0.002344 0.006000 
527695214781390 -0.001878 -0.002344 0.006000 
527695235350452 -0.001878 -0.002344 0.006000 
527695255918473 -0.001878 -0.002344 0.006000 
527695276487067 -0.001878 -0.002344 0.006000 
527695297055348 -0.001878 -0.002344 0.006000 
527695317623785 -0.001878 -0.002344 0.006000 
527695338193004 -0.001878 -0.002344 0.006000 
527695358762379 -0.001878 -0.002344 0.006000 
527695379330920 -0.001878 -0.002344 0.006000 
527695399899879 -0.001878 -0.002344 0.006000 
527695420467848 -0.001878 -0.002344 0.006000 
527695441036598 -0.001878 -0.002344 0.006000 
527695461606285 -0.001878 -0.002344 0.006000 
527695482173213 -0.001878 -0.002344 0.006000 
527695502742067 -0.001878 -0.002344 0.006000 
527695523310609 -0.001878 -0.002344 0.006000 
527695543878993 -0.001878 -0.002344 0.006000 
527695564447640 -0.001878 -0.002344 0.006000 
527695585015712 -0.001878 -0.002344 0.006000 
527695605584203 -0.001878 -0.002344 0.006000 
527695626152379 -0.001878 -0.002344 0.006000 
527695646721233 -0.001878 -0.002344 0.006000 
527695667289462 -0.001878 -0.002344 0.006000 
527695687856234 -0.001878 -0.002344 0.006000 
527695708424722 -0.001878 -0.002344 0.006000 
527695728993733 -0.001878 -0.002344 0.006000 
527695749562379 -0.001878 -0.002344 0.006000 
527695770131545 -0.001878 -0.002344 0.006000 
527695790698316 -0.001878 -0.002344 0.006000 
527695811267066 -0.001878 -0.002344 0.006000 
527695831835609 -0.001878 -0.002344 0.006000 
527695852405451 -0.001878 -0.002344 0.006000 
527695872974098 -0.001878 -0.002344 0.006000 
527695893542430 -0.001878 -0.002344 0.006000 
527695914110399 -0.001878 -0.002344 0.006000 
527695934677535 -0.001878 -0.002344 0.006000 
527695955246025 -0.001878 -0.002344 0.006000 
527695975814566 -0.001878 -0.002344 0.006000 
527695996383004 -0.001878 -0.002344 0.006000 
527696016951337 -0.001878 -0.002344 0.006000 
527696037519827 -0.001878 -0.002344 0.006000 
527696058088421 -0.001878 -0.002344 0.006000 
527696078657430 -0.001878 -0.002344 0.006000 
527696099225921 -0.001878 -0.002344 0.006000 
527696119795452 -0.001878 -0.002344 0.006000 
527696140363109 -0.001878 -0.002344 0.006000 
527696160931232 -0.001878 -0.002344 0.006000 
527696181499775 -0.001878 -0.002344 0.006000 
527696202068524 -0.001878 -0.002344 0.006000 
527696222636441 -0.001878 -0.002344 0.006000 
527696243205608 -0.001878 -0.002344 0.006000 
527696263773524 -0.001878 -0.002344 0.006000 
527696284342483 -0.001878 -0.002344 0.006000 
