# Created at Thu Nov 07 19:54:04 EST 2019 in Burnaby Canada 
527688730922017 40.773468 185.543625 -10.365678 
527688750916392 40.773468 185.543625 -10.365678 
527688770921705 40.773468 185.543625 -10.365678 
527688790917069 40.773468 185.543625 -10.365678 
527688810921756 40.773468 185.543625 -10.365678 
527688830915871 40.773468 185.543625 -10.365678 
527688850915820 40.773468 185.543625 -10.365678 
527688870915247 40.773468 185.543625 -10.365678 
527688890922121 40.773468 185.543625 -10.365678 
527688910914622 40.773468 185.543625 -10.365678 
527688930922017 40.773468 185.543625 -10.365678 
527688945287590 40.773468 185.543625 -10.365678 
527688951128632 40.773468 185.543625 -10.365678 
527688970922538 40.773468 185.543625 -10.365678 
527688990915402 40.773468 185.543625 -10.365678 
527689010922330 40.773468 185.543625 -10.365678 
527689030915402 40.773468 185.543625 -10.365678 
527689050921444 40.773468 185.543625 -10.365678 
527689070921652 40.773468 185.543625 -10.365678 
527689090915454 40.773468 185.543625 -10.365678 
527689110916080 40.773468 185.543625 -10.365678 
527689130922120 40.773468 185.543625 -10.365678 
527689150914882 40.773468 185.543625 -10.365678 
527689170921651 40.773468 185.543625 -10.365678 
527689190915038 40.773468 185.543625 -10.365678 
527689210915194 40.773468 185.543625 -10.365678 
527689230916079 40.773468 185.543625 -10.365678 
527689250921340 40.773468 185.543625 -10.365678 
527689270915924 40.773468 185.543625 -10.365678 
527689290915715 40.773468 185.543625 -10.365678 
527689310915090 40.773468 185.543625 -10.365678 
527689330921913 40.773468 185.543625 -10.365678 
527689350922278 40.773468 185.543625 -10.365678 
527689370922277 40.773468 185.543625 -10.365678 
527689390915663 40.773468 185.543625 -10.365678 
527689410921808 40.773468 185.543625 -10.365678 
527689430922121 40.773468 185.543625 -10.365678 
527689445609621 40.773468 185.543625 -10.365678 
527689450922329 40.773468 185.543625 -10.365678 
527689470915714 40.773468 185.543625 -10.365678 
527689490922225 40.773468 185.543625 -10.365678 
527689510915767 40.773468 185.543625 -10.365678 
527689530916444 40.773468 185.543625 -10.365678 
527689550916028 40.773468 185.543625 -10.365678 
527689571285558 40.773468 185.543625 -10.365678 
527689590915818 40.773468 185.543625 -10.365678 
527689610922850 40.773468 185.543625 -10.365678 
527689630915714 40.773468 185.543625 -10.365678 
527689650923058 40.773468 185.543625 -10.365678 
527689670919934 40.773468 185.543625 -10.365678 
527689690922382 40.773468 185.543625 -10.365678 
527689710916444 40.773468 185.543625 -10.365678 
527689730922069 40.773468 185.543625 -10.365678 
527689750916548 40.773468 185.543625 -10.365678 
527689770922797 40.773468 185.543625 -10.365678 
527689790918787 40.773468 185.543625 -10.365678 
527689810922850 40.773468 185.543625 -10.365678 
527689830916548 40.773468 185.543625 -10.365678 
527689850922642 40.773468 185.543625 -10.365678 
527689870920402 40.773468 185.543625 -10.365678 
527689890917641 40.773468 185.543625 -10.365678 
527689910931964 40.773468 185.543625 -10.365678 
527689931258787 40.773468 185.543625 -10.365678 
527689945480298 40.773468 185.543625 -10.365678 
527689951795819 40.773468 185.543625 -10.365678 
527689970922120 40.773468 185.543625 -10.365678 
527689990915818 40.773468 185.543625 -10.365678 
527690010922589 40.773468 185.543625 -10.365678 
527690030916027 40.773468 185.543625 -10.365678 
527690050921861 40.773468 185.543625 -10.365678 
527690070918891 40.773468 185.543625 -10.365678 
527690090916651 40.773468 185.543625 -10.365678 
527690110922694 40.773468 185.543625 -10.365678 
527690130922381 40.773468 185.543625 -10.365678 
527690150922120 40.773468 185.543625 -10.365678 
527690170921652 40.773468 185.543625 -10.365678 
527690190915350 40.773468 185.543625 -10.365678 
527690210921600 40.773468 185.543625 -10.365678 
527690230915610 40.773468 185.543625 -10.365678 
527690250921755 40.773468 185.543625 -10.365678 
527690270916078 40.773468 185.543625 -10.365678 
527690291169099 40.773468 185.543625 -10.365678 
527690310976496 40.773468 185.543625 -10.365678 
527690330923266 40.773468 185.543625 -10.365678 
527690350920245 40.773468 185.543625 -10.365678 
527690370924151 40.773468 185.543625 -10.365678 
527690390917484 40.773468 185.543625 -10.365678 
527690410923787 40.773468 185.543625 -10.365678 
527690430917433 40.773468 185.543625 -10.365678 
527690450923423 40.773468 185.543625 -10.365678 
527690470917016 40.773468 185.543625 -10.365678 
527690490917537 40.773468 185.543625 -10.365678 
527690510915870 40.773468 185.543625 -10.365678 
527690530921860 40.773468 185.543625 -10.365678 
527690550915037 40.773468 185.543625 -10.365678 
527690570921756 40.773468 185.543625 -10.365678 
527690590916079 40.773468 185.543625 -10.365678 
527690610921390 40.773468 185.543625 -10.365678 
527690630940558 40.773468 185.543625 -10.365678 
527690651127954 40.773468 185.543625 -10.365678 
527690670962797 40.773468 185.543625 -10.365678 
527690690998735 40.773468 185.543625 -10.365678 
527690710915923 40.773468 185.543625 -10.365678 
527690730922278 40.773468 185.543625 -10.365678 
527690750915871 40.773468 185.543625 -10.365678 
527690770922016 40.773468 185.543625 -10.365678 
527690790918891 40.773468 185.543625 -10.365678 
527690810922954 40.773468 185.543625 -10.365678 
527690830923579 40.773468 185.543625 -10.365678 
527690850922537 40.773468 185.543625 -10.365678 
527690870923735 40.773468 185.543625 -10.365678 
527690890923162 40.773468 185.543625 -10.365678 
527690910916339 40.773468 185.543625 -10.365678 
527690930922277 40.773468 185.543625 -10.365678 
527690945790298 40.773468 185.543625 -10.365678 
527690951129725 40.773468 185.543625 -10.365678 
527690970922069 40.773468 185.543625 -10.365678 
527690990928319 40.773468 185.543625 -10.365678 
527691011078370 40.773468 185.543625 -10.365678 
527691031076755 40.773468 185.543625 -10.365678 
527691050970246 40.773468 185.543625 -10.365678 
527691070916704 40.773468 185.543625 -10.365678 
527691090916183 40.773468 185.543625 -10.365678 
527691110917433 40.773468 185.543625 -10.365678 
527691130922121 40.773468 185.543625 -10.365678 
527691150916183 40.773468 185.543625 -10.365678 
527691170923162 40.773468 185.543625 -10.365678 
527691190915975 40.773468 185.543625 -10.365678 
527691210922902 40.773468 185.543625 -10.365678 
527691230916079 40.773468 185.543625 -10.365678 
527691250922016 40.773468 185.543625 -10.365678 
527691270915870 40.773468 185.543625 -10.365678 
527691290923005 40.773468 185.543625 -10.365678 
527691310915297 40.773468 185.543625 -10.365678 
527691330924256 40.773468 185.543625 -10.365678 
527691350940506 40.773468 185.543625 -10.365678 
527691371025245 40.773468 185.543625 -10.365678 
527691391024516 40.773468 185.543625 -10.365678 
527691410923057 40.773468 185.543625 -10.365678 
527691430918006 40.773468 185.543625 -10.365678 
527691445955402 40.773468 185.543625 -10.365678 
527691450923214 40.773468 185.543625 -10.365678 
527691470917328 40.773468 185.543625 -10.365678 
527691490960037 40.773468 185.543625 -10.365678 
527691510923110 40.773468 185.543625 -10.365678 
527691530922173 40.773468 185.543625 -10.365678 
527691550916860 40.773468 185.543625 -10.365678 
527691570922068 40.773468 185.543625 -10.365678 
527691590918265 40.773468 185.543625 -10.365678 
527691610922120 40.773468 185.543625 -10.365678 
527691630916651 40.773468 185.543625 -10.365678 
527691650922433 40.773468 185.543625 -10.365678 
527691670916131 40.773468 185.543625 -10.365678 
527691690923631 40.773468 185.543625 -10.365678 
527691710917328 40.773468 185.543625 -10.365678 
527691730974099 40.773468 185.543625 -10.365678 
527691750973891 40.773468 185.543625 -10.365678 
527691770927797 40.773468 185.543625 -10.365678 
527691790917015 40.773468 185.543625 -10.365678 
527691810922745 40.773468 185.543625 -10.365678 
527691830916026 40.773468 185.543625 -10.365678 
527691850923786 40.773468 185.543625 -10.365678 
527691870917745 40.773468 185.543625 -10.365678 
527691890923005 40.773468 185.543625 -10.365678 
527691910917589 40.773468 185.543625 -10.365678 
527691930924047 40.773468 185.543625 -10.365678 
527691945699725 40.773468 185.543625 -10.365678 
527691951123683 40.773468 185.543625 -10.365678 
527691970923474 40.773468 185.543625 -10.365678 
527691990919515 40.773468 185.543625 -10.365678 
527692010923317 40.773468 185.543625 -10.365678 
527692030917119 40.773468 185.543625 -10.365678 
527692050923162 40.773468 185.543625 -10.365678 
527692070930037 40.773468 185.543625 -10.365678 
527692090942016 40.773468 185.543625 -10.365678 
527692110939880 40.773468 185.543625 -10.365678 
527692130922798 40.773468 185.543625 -10.365678 
527692150917016 40.773468 185.543625 -10.365678 
527692170924255 40.773468 185.543625 -10.365678 
527692190917380 40.773468 185.543625 -10.365678 
527692210922589 40.773468 185.543625 -10.365678 
527692230917432 40.773468 185.543625 -10.365678 
527692250923421 40.773468 185.543625 -10.365678 
527692270922849 40.773468 185.543625 -10.365678 
527692290924048 40.773468 185.543625 -10.365678 
527692310923786 40.773468 185.543625 -10.365678 
527692330923839 40.773468 185.543625 -10.365678 
527692350917693 40.773468 185.543625 -10.365678 
527692370923734 40.773468 185.543625 -10.365678 
527692390917120 40.773468 185.543625 -10.365678 
527692410924568 40.773468 185.543625 -10.365678 
527692430918943 40.773468 185.543625 -10.365678 
527692445817901 40.773468 185.543625 -10.365678 
527692450923786 40.773468 185.543625 -10.365678 
527692470924150 40.773468 185.543625 -10.365678 
527692490926078 40.773468 185.543625 -10.365678 
527692510920140 40.773468 185.543625 -10.365678 
527692530923318 40.773468 185.543625 -10.365678 
527692550917536 40.773468 185.543625 -10.365678 
527692570923786 40.773468 185.543625 -10.365678 
527692590916182 40.773468 185.543625 -10.365678 
527692610924255 40.773468 185.543625 -10.365678 
527692630923317 40.773468 185.543625 -10.365678 
527692650926339 40.773468 185.543625 -10.365678 
527692670917067 40.773468 185.543625 -10.365678 
527692690918057 40.773468 185.543625 -10.365678 
527692710916547 40.773468 185.543625 -10.365678 
527692730923110 40.773468 185.543625 -10.365678 
527692750916233 40.773468 185.543625 -10.365678 
527692770923057 40.773468 185.543625 -10.365678 
527692790920609 40.773468 185.543625 -10.365678 
527692810924151 40.773468 185.543625 -10.365678 
527692830923994 40.773468 185.543625 -10.365678 
527692850923838 40.773468 185.543625 -10.365678 
527692870915349 40.773468 185.543625 -10.365678 
527692890919204 40.773468 185.543625 -10.365678 
527692910918057 40.773468 185.543625 -10.365678 
527692930926547 40.773468 185.543625 -10.365678 
527692947372589 40.773468 185.543625 -10.365678 
527692951131287 40.773468 185.543625 -10.365678 
527692970922744 40.773468 185.543625 -10.365678 
527692990916131 40.773468 185.543625 -10.365678 
527693010923525 40.773468 185.543625 -10.365678 
527693030923161 40.773468 185.543625 -10.365678 
527693050922588 40.773468 185.543625 -10.365678 
527693070923005 40.773468 185.543625 -10.365678 
527693090916442 40.773468 185.543625 -10.365678 
527693110916182 40.773468 185.543625 -10.365678 
527693130922484 40.773468 185.543625 -10.365678 
527693150916495 40.773468 185.543625 -10.365678 
527693170923318 40.773468 185.543625 -10.365678 
527693190923161 40.773468 185.543625 -10.365678 
527693210923057 40.773468 185.543625 -10.365678 
527693230916442 40.773468 185.543625 -10.365678 
527693250922692 40.773468 185.543625 -10.365678 
527693270916599 40.773468 185.543625 -10.365678 
527693290915869 40.773468 185.543625 -10.365678 
527693310915922 40.773468 185.543625 -10.365678 
527693330921911 40.773468 185.543625 -10.365678 
527693350916130 40.773468 185.543625 -10.365678 
527693370923526 40.773468 185.543625 -10.365678 
527693390918317 40.773468 185.543625 -10.365678 
527693410922848 40.773468 185.543625 -10.365678 
527693430917067 40.773468 185.543625 -10.365678 
527693450923890 40.773468 185.543625 -10.365678 
527693470917120 40.773468 185.543625 -10.365678 
527693490920036 40.773468 185.543625 -10.365678 
527693510915974 40.773468 185.543625 -10.365678 
527693530915713 40.773468 185.543625 -10.365678 
527693551283995 40.773468 185.543625 -10.365678 
527693570922380 40.773468 185.543625 -10.365678 
527693590915765 40.773468 185.543625 -10.365678 
527693610922171 40.773468 185.543625 -10.365678 
527693630918629 40.773468 185.543625 -10.365678 
527693650921599 40.773468 185.543625 -10.365678 
527693670916338 40.773468 185.543625 -10.365678 
527693690918161 40.773468 185.543625 -10.365678 
527693710915609 40.773468 185.543625 -10.365678 
527693730922066 40.773468 185.543625 -10.365678 
527693750922588 40.773468 185.543625 -10.365678 
527693770922589 40.773468 185.543625 -10.365678 
527693790916755 40.773468 185.543625 -10.365678 
527693810971078 40.773468 185.543625 -10.365678 
527693830917067 40.773468 185.543625 -10.365678 
527693850924099 40.773468 185.543625 -10.365678 
527693870918109 40.773468 185.543625 -10.365678 
527693890918994 40.773468 185.543625 -10.365678 
527693911236234 40.773468 185.543625 -10.365678 
527693930922379 40.773468 185.543625 -10.365678 
527693945728837 40.773468 185.543625 -10.365678 
527693951124358 40.773468 185.543625 -10.365678 
527693970922901 40.773468 185.543625 -10.365678 
527693990915922 40.773468 185.543625 -10.365678 
527694010923577 40.773468 185.543625 -10.365678 
527694030916962 40.773468 185.543625 -10.365678 
527694050922639 40.773468 185.543625 -10.365678 
527694070918213 40.773468 185.543625 -10.365678 
527694090922639 40.773468 185.543625 -10.365678 
527694110916494 40.773468 185.543625 -10.365678 
527694130924098 40.773468 185.543625 -10.365678 
527694150916442 40.773468 185.543625 -10.365678 
527694170981233 40.773468 185.543625 -10.365678 
527694190915817 40.773468 185.543625 -10.365678 
527694210921910 40.773468 185.543625 -10.365678 
527694230915556 40.773468 185.543625 -10.365678 
527694250922119 40.773468 185.543625 -10.365678 
527694271178942 40.773468 185.543625 -10.365678 
527694290963473 40.773468 185.543625 -10.365678 
527694310918525 40.773468 185.543625 -10.365678 
527694330921963 40.773468 185.543625 -10.365678 
527694350917275 40.773468 185.543625 -10.365678 
527694370923942 40.773468 185.543625 -10.365678 
527694390917588 40.773468 185.543625 -10.365678 
527694410923421 40.773468 185.543625 -10.365678 
527694430917171 40.773468 185.543625 -10.365678 
527694445949983 40.773468 185.543625 -10.365678 
527694450923265 40.773468 185.543625 -10.365678 
527694470924150 40.773468 185.543625 -10.365678 
527694490916494 40.773468 185.543625 -10.365678 
527694510915764 40.773468 185.543625 -10.365678 
527694530922379 40.773468 185.543625 -10.365678 
527694550914931 40.773468 185.543625 -10.365678 
527694570921754 40.773468 185.543625 -10.365678 
527694590915192 40.773468 185.543625 -10.365678 
527694610921598 40.773468 185.543625 -10.365678 
527694631116338 40.773468 185.543625 -10.365678 
527694650998474 40.773468 185.543625 -10.365678 
527694670915296 40.773468 185.543625 -10.365678 
527694690915764 40.773468 185.543625 -10.365678 
527694710914932 40.773468 185.543625 -10.365678 
527694730922379 40.773468 185.543625 -10.365678 
527694750915869 40.773468 185.543625 -10.365678 
527694770958526 40.773468 185.543625 -10.365678 
527694790915712 40.773468 185.543625 -10.365678 
527694810921858 40.773468 185.543625 -10.365678 
527694830924099 40.773468 185.543625 -10.365678 
527694850923004 40.773468 185.543625 -10.365678 
527694870915712 40.773468 185.543625 -10.365678 
527694890919359 40.773468 185.543625 -10.365678 
527694910916181 40.773468 185.543625 -10.365678 
527694930916129 40.773468 185.543625 -10.365678 
527694945643369 40.773468 185.543625 -10.365678 
527694951122692 40.773468 185.543625 -10.365678 
527694970916286 40.773468 185.543625 -10.365678 
527694991075400 40.773468 185.543625 -10.365678 
527695011075713 40.773468 185.543625 -10.365678 
527695030962431 40.773468 185.543625 -10.365678 
527695050921703 40.773468 185.543625 -10.365678 
527695070914671 40.773468 185.543625 -10.365678 
527695090915817 40.773468 185.543625 -10.365678 
527695110916963 40.773468 185.543625 -10.365678 
527695130915349 40.773468 185.543625 -10.365678 
527695150916024 40.773468 185.543625 -10.365678 
527695170917275 40.773468 185.543625 -10.365678 
527695190915452 40.773468 185.543625 -10.365678 
527695210922015 40.773468 185.543625 -10.365678 
527695230917171 40.773468 185.543625 -10.365678 
527695250921806 40.773468 185.543625 -10.365678 
527695270915348 40.773468 185.543625 -10.365678 
527695290915816 40.773468 185.543625 -10.365678 
527695310918369 40.773468 185.543625 -10.365678 
527695330915764 40.773468 185.543625 -10.365678 
527695351011754 40.773468 185.543625 -10.365678 
527695371012640 40.773468 185.543625 -10.365678 
527695390919201 40.773468 185.543625 -10.365678 
527695410923524 40.773468 185.543625 -10.365678 
527695430917223 40.773468 185.543625 -10.365678 
527695445969931 40.773468 185.543625 -10.365678 
527695450924306 40.773468 185.543625 -10.365678 
527695470927118 40.773468 185.543625 -10.365678 
527695490922223 40.773468 185.543625 -10.365678 
527695510917588 40.773468 185.543625 -10.365678 
527695530917066 40.773468 185.543625 -10.365678 
527695550917379 40.773468 185.543625 -10.365678 
527695570917483 40.773468 185.543625 -10.365678 
527695590917483 40.773468 185.543625 -10.365678 
527695610936181 40.773468 185.543625 -10.365678 
527695630917015 40.773468 185.543625 -10.365678 
527695650917171 40.773468 185.543625 -10.365678 
527695670917119 40.773468 185.543625 -10.365678 
527695690930712 40.773468 185.543625 -10.365678 
527695710958525 40.773468 185.543625 -10.365678 
527695730958473 40.773468 185.543625 -10.365678 
527695750916025 40.773468 185.543625 -10.365678 
527695770915504 40.773468 185.543625 -10.365678 
527695790915191 40.773468 185.543625 -10.365678 
527695810922066 40.773468 185.543625 -10.365678 
527695830915609 40.773468 185.543625 -10.365678 
527695850923628 40.773468 185.543625 -10.365678 
527695870918577 40.773468 185.543625 -10.365678 
527695890917430 40.773468 185.543625 -10.365678 
527695910919618 40.773468 185.543625 -10.365678 
527695930915660 40.773468 185.543625 -10.365678 
527695951129514 40.773468 185.543625 -10.365678 
527695970921962 40.773468 185.543625 -10.365678 
527695990915816 40.773468 185.543625 -10.365678 
527696010921702 40.773468 185.543625 -10.365678 
527696030915712 40.773468 185.543625 -10.365678 
527696050921858 40.773468 185.543625 -10.365678 
527696070948056 40.773468 185.543625 -10.365678 
527696090949046 40.773468 185.543625 -10.365678 
527696110916962 40.773468 185.543625 -10.365678 
527696130924515 40.773468 185.543625 -10.365678 
527696150916390 40.773468 185.543625 -10.365678 
527696170916545 40.773468 185.543625 -10.365678 
527696190916025 40.773468 185.543625 -10.365678 
527696210922743 40.773468 185.543625 -10.365678 
527696230916180 40.773468 185.543625 -10.365678 
527696250959201 40.773468 185.543625 -10.365678 
527696270916336 40.773468 185.543625 -10.365678 
527696290916546 40.773468 185.543625 -10.365678 
