# Created at Thu Nov 07 17:54:57 EST 2019 in Burnaby Canada 
520540990919045 45.002232 190.324265 -6.960118 
520541010924670 45.002232 190.324265 -6.960118 
520541030916910 45.002232 190.324265 -6.960118 
520541050917430 45.002232 190.324265 -6.960118 
520541070916962 45.002232 190.324265 -6.960118 
520541090917222 45.002232 190.324265 -6.960118 
520541110917066 45.002232 190.324265 -6.960118 
520541130925868 45.002232 190.324265 -6.960118 
520541150919149 45.002232 190.324265 -6.960118 
520541170919201 45.002232 190.324265 -6.960118 
520541190916806 45.002232 190.324265 -6.960118 
520541210925451 45.002232 190.324265 -6.960118 
520541230917430 45.002232 190.324265 -6.960118 
520541250917430 45.002232 190.324265 -6.960118 
520541271256597 45.002232 190.324265 -6.960118 
520541290917014 45.002232 190.324265 -6.960118 
520541310919202 45.002232 190.324265 -6.960118 
520541331000816 45.002232 190.324265 -6.960118 
520541350918056 45.002232 190.324265 -6.960118 
520541370920868 45.002232 190.324265 -6.960118 
520541390917378 45.002232 190.324265 -6.960118 
520541410916961 45.002232 190.324265 -6.960118 
520541430917222 45.002232 190.324265 -6.960118 
520541450916754 45.002232 190.324265 -6.960118 
520541470917170 45.002232 190.324265 -6.960118 
520541490917274 45.002232 190.324265 -6.960118 
520541510918680 45.002232 190.324265 -6.960118 
520541530921962 45.002232 190.324265 -6.960118 
520541550918733 45.002232 190.324265 -6.960118 
520541570917483 45.002232 190.324265 -6.960118 
520541590916806 45.002232 190.324265 -6.960118 
520541606304618 45.002232 190.324265 -6.960118 
520541610917639 45.002232 190.324265 -6.960118 
520541631176909 45.002232 190.324265 -6.960118 
520541651003263 45.002232 190.324265 -6.960118 
520541670917951 45.002232 190.324265 -6.960118 
520541690917221 45.002232 190.324265 -6.960118 
520541710917483 45.002232 190.324265 -6.960118 
520541730920191 45.002232 190.324265 -6.960118 
520541750918733 45.002232 190.324265 -6.960118 
520541770916858 45.002232 190.324265 -6.960118 
520541790918628 45.002232 190.324265 -6.960118 
520541810919774 45.002232 190.324265 -6.960118 
520541830920555 45.002232 190.324265 -6.960118 
520541850920451 45.002232 190.324265 -6.960118 
520541870925451 45.002232 190.324265 -6.960118 
520541890918472 45.002232 190.324265 -6.960118 
520541910917691 45.002232 190.324265 -6.960118 
520541930918055 45.002232 190.324265 -6.960118 
520541951124097 45.002232 190.324265 -6.960118 
520541970929982 45.002232 190.324265 -6.960118 
520541991111596 45.002232 190.324265 -6.960118 
520542010965190 45.002232 190.324265 -6.960118 
520542030977221 45.002232 190.324265 -6.960118 
520542050930243 45.002232 190.324265 -6.960118 
520542070917847 45.002232 190.324265 -6.960118 
520542090924618 45.002232 190.324265 -6.960118 
520542106557274 45.002232 190.324265 -6.960118 
520542110918315 45.002232 190.324265 -6.960118 
520542130931337 45.002232 190.324265 -6.960118 
520542150925399 45.002232 190.324265 -6.960118 
520542170922170 45.002232 190.324265 -6.960118 
520542190925033 45.002232 190.324265 -6.960118 
520542210919825 45.002232 190.324265 -6.960118 
520542230918419 45.002232 190.324265 -6.960118 
520542250919982 45.002232 190.324265 -6.960118 
520542270918628 45.002232 190.324265 -6.960118 
520542290919044 45.002232 190.324265 -6.960118 
520542310918160 45.002232 190.324265 -6.960118 
520542330921701 45.002232 190.324265 -6.960118 
520542351054097 45.002232 190.324265 -6.960118 
520542371054097 45.002232 190.324265 -6.960118 
520542390948212 45.002232 190.324265 -6.960118 
520542410919566 45.002232 190.324265 -6.960118 
520542430918889 45.002232 190.324265 -6.960118 
520542450919462 45.002232 190.324265 -6.960118 
520542470920139 45.002232 190.324265 -6.960118 
520542490918680 45.002232 190.324265 -6.960118 
520542510917951 45.002232 190.324265 -6.960118 
520542530919253 45.002232 190.324265 -6.960118 
520542550918315 45.002232 190.324265 -6.960118 
520542570919826 45.002232 190.324265 -6.960118 
520542590918159 45.002232 190.324265 -6.960118 
520542606516232 45.002232 190.324265 -6.960118 
520542610918993 45.002232 190.324265 -6.960118 
520542630918263 45.002232 190.324265 -6.960118 
520542650925294 45.002232 190.324265 -6.960118 
520542670926545 45.002232 190.324265 -6.960118 
520542690919149 45.002232 190.324265 -6.960118 
520542710980867 45.002232 190.324265 -6.960118 
520542730980712 45.002232 190.324265 -6.960118 
520542750921440 45.002232 190.324265 -6.960118 
520542770921284 45.002232 190.324265 -6.960118 
520542790919983 45.002232 190.324265 -6.960118 
520542810924930 45.002232 190.324265 -6.960118 
520542830919617 45.002232 190.324265 -6.960118 
520542850918784 45.002232 190.324265 -6.960118 
520542870918211 45.002232 190.324265 -6.960118 
520542890918732 45.002232 190.324265 -6.960118 
520542910919460 45.002232 190.324265 -6.960118 
520542930920137 45.002232 190.324265 -6.960118 
520542951125711 45.002232 190.324265 -6.960118 
520542970918940 45.002232 190.324265 -6.960118 
520542990918836 45.002232 190.324265 -6.960118 
520543010919982 45.002232 190.324265 -6.960118 
520543030918003 45.002232 190.324265 -6.960118 
520543050918784 45.002232 190.324265 -6.960118 
520543070918732 45.002232 190.324265 -6.960118 
520543090918732 45.002232 190.324265 -6.960118 
520543106588159 45.002232 190.324265 -6.960118 
520543110920971 45.002232 190.324265 -6.960118 
520543130921284 45.002232 190.324265 -6.960118 
520543150931857 45.002232 190.324265 -6.960118 
520543170919044 45.002232 190.324265 -6.960118 
520543190918784 45.002232 190.324265 -6.960118 
520543210918784 45.002232 190.324265 -6.960118 
520543230917221 45.002232 190.324265 -6.960118 
520543250918627 45.002232 190.324265 -6.960118 
520543270917221 45.002232 190.324265 -6.960118 
520543290918628 45.002232 190.324265 -6.960118 
520543310917429 45.002232 190.324265 -6.960118 
520543330917065 45.002232 190.324265 -6.960118 
520543350918107 45.002232 190.324265 -6.960118 
520543370918576 45.002232 190.324265 -6.960118 
520543390929252 45.002232 190.324265 -6.960118 
520543410928419 45.002232 190.324265 -6.960118 
520543430932065 45.002232 190.324265 -6.960118 
520543450931492 45.002232 190.324265 -6.960118 
520543470919512 45.002232 190.324265 -6.960118 
520543490919044 45.002232 190.324265 -6.960118 
520543510919149 45.002232 190.324265 -6.960118 
520543530918836 45.002232 190.324265 -6.960118 
520543550919565 45.002232 190.324265 -6.960118 
520543570920971 45.002232 190.324265 -6.960118 
520543590917898 45.002232 190.324265 -6.960118 
520543610917273 45.002232 190.324265 -6.960118 
520543630917013 45.002232 190.324265 -6.960118 
520543650917117 45.002232 190.324265 -6.960118 
520543670916388 45.002232 190.324265 -6.960118 
520543690917065 45.002232 190.324265 -6.960118 
520543710917273 45.002232 190.324265 -6.960118 
520543730917534 45.002232 190.324265 -6.960118 
520543750917273 45.002232 190.324265 -6.960118 
520543770917950 45.002232 190.324265 -6.960118 
520543790938367 45.002232 190.324265 -6.960118 
520543810938367 45.002232 190.324265 -6.960118 
520543830919981 45.002232 190.324265 -6.960118 
520543850918836 45.002232 190.324265 -6.960118 
520543870917638 45.002232 190.324265 -6.960118 
520543890920815 45.002232 190.324265 -6.960118 
520543910918106 45.002232 190.324265 -6.960118 
520543930918783 45.002232 190.324265 -6.960118 
520543951124044 45.002232 190.324265 -6.960118 
520543970918627 45.002232 190.324265 -6.960118 
520543990917429 45.002232 190.324265 -6.960118 
520544010918523 45.002232 190.324265 -6.960118 
520544030931283 45.002232 190.324265 -6.960118 
520544050918783 45.002232 190.324265 -6.960118 
520544070918107 45.002232 190.324265 -6.960118 
520544090921440 45.002232 190.324265 -6.960118 
520544110918002 45.002232 190.324265 -6.960118 
520544130917742 45.002232 190.324265 -6.960118 
520544150927741 45.002232 190.324265 -6.960118 
520544171283783 45.002232 190.324265 -6.960118 
520544190917742 45.002232 190.324265 -6.960118 
520544210918107 45.002232 190.324265 -6.960118 
520544230918523 45.002232 190.324265 -6.960118 
520544250918835 45.002232 190.324265 -6.960118 
520544270917950 45.002232 190.324265 -6.960118 
520544290925710 45.002232 190.324265 -6.960118 
520544310917377 45.002232 190.324265 -6.960118 
520544330918002 45.002232 190.324265 -6.960118 
520544350917949 45.002232 190.324265 -6.960118 
520544370918887 45.002232 190.324265 -6.960118 
520544390917064 45.002232 190.324265 -6.960118 
520544410917481 45.002232 190.324265 -6.960118 
520544430919669 45.002232 190.324265 -6.960118 
520544450918315 45.002232 190.324265 -6.960118 
520544470917951 45.002232 190.324265 -6.960118 
520544490930607 45.002232 190.324265 -6.960118 
520544510918782 45.002232 190.324265 -6.960118 
520544531221543 45.002232 190.324265 -6.960118 
520544550965033 45.002232 190.324265 -6.960118 
520544570918835 45.002232 190.324265 -6.960118 
520544590917793 45.002232 190.324265 -6.960118 
520544606551074 45.002232 190.324265 -6.960118 
520544610918366 45.002232 190.324265 -6.960118 
520544630918158 45.002232 190.324265 -6.960118 
520544650918575 45.002232 190.324265 -6.960118 
520544670917690 45.002232 190.324265 -6.960118 
520544690919096 45.002232 190.324265 -6.960118 
520544710917168 45.002232 190.324265 -6.960118 
520544730917793 45.002232 190.324265 -6.960118 
520544750918575 45.002232 190.324265 -6.960118 
520544770932377 45.002232 190.324265 -6.960118 
520544790918002 45.002232 190.324265 -6.960118 
520544810920606 45.002232 190.324265 -6.960118 
520544830918315 45.002232 190.324265 -6.960118 
520544850931179 45.002232 190.324265 -6.960118 
520544871010763 45.002232 190.324265 -6.960118 
520544891143886 45.002232 190.324265 -6.960118 
520544910965242 45.002232 190.324265 -6.960118 
520544930918940 45.002232 190.324265 -6.960118 
520544951124824 45.002232 190.324265 -6.960118 
520544970918991 45.002232 190.324265 -6.960118 
520544990917689 45.002232 190.324265 -6.960118 
520545010918992 45.002232 190.324265 -6.960118 
520545030917429 45.002232 190.324265 -6.960118 
520545050919252 45.002232 190.324265 -6.960118 
520545070917794 45.002232 190.324265 -6.960118 
520545090921961 45.002232 190.324265 -6.960118 
520545107019304 45.002232 190.324265 -6.960118 
520545110917065 45.002232 190.324265 -6.960118 
520545130918367 45.002232 190.324265 -6.960118 
520545150917950 45.002232 190.324265 -6.960118 
520545170918471 45.002232 190.324265 -6.960118 
520545190923418 45.002232 190.324265 -6.960118 
520545210918106 45.002232 190.324265 -6.960118 
520545230917480 45.002232 190.324265 -6.960118 
520545251080814 45.002232 190.324265 -6.960118 
520545271080294 45.002232 190.324265 -6.960118 
520545290959512 45.002232 190.324265 -6.960118 
520545310917532 45.002232 190.324265 -6.960118 
520545330918053 45.002232 190.324265 -6.960118 
520545350916647 45.002232 190.324265 -6.960118 
520545370919720 45.002232 190.324265 -6.960118 
520545390916387 45.002232 190.324265 -6.960118 
520545410917689 45.002232 190.324265 -6.960118 
520545430917533 45.002232 190.324265 -6.960118 
520545450917585 45.002232 190.324265 -6.960118 
520545470917689 45.002232 190.324265 -6.960118 
520545490922012 45.002232 190.324265 -6.960118 
520545510917428 45.002232 190.324265 -6.960118 
520545530917272 45.002232 190.324265 -6.960118 
520545550921022 45.002232 190.324265 -6.960118 
520545570917116 45.002232 190.324265 -6.960118 
520545590918157 45.002232 190.324265 -6.960118 
520545606125762 45.002232 190.324265 -6.960118 
520545611013522 45.002232 190.324265 -6.960118 
520545631014147 45.002232 190.324265 -6.960118 
520545650918991 45.002232 190.324265 -6.960118 
520545670918157 45.002232 190.324265 -6.960118 
520545690927273 45.002232 190.324265 -6.960118 
520545710917480 45.002232 190.324265 -6.960118 
520545730916856 45.002232 190.324265 -6.960118 
520545750916439 45.002232 190.324265 -6.960118 
520545770920970 45.002232 190.324265 -6.960118 
520545790916751 45.002232 190.324265 -6.960118 
520545810918314 45.002232 190.324265 -6.960118 
520545830917012 45.002232 190.324265 -6.960118 
520545850917220 45.002232 190.324265 -6.960118 
520545870925866 45.002232 190.324265 -6.960118 
520545890917116 45.002232 190.324265 -6.960118 
520545910917065 45.002232 190.324265 -6.960118 
520545930916752 45.002232 190.324265 -6.960118 
520545951123522 45.002232 190.324265 -6.960118 
520545970963001 45.002232 190.324265 -6.960118 
520545990962949 45.002232 190.324265 -6.960118 
520546010917168 45.002232 190.324265 -6.960118 
520546030917532 45.002232 190.324265 -6.960118 
520546050920345 45.002232 190.324265 -6.960118 
520546070917949 45.002232 190.324265 -6.960118 
520546090918262 45.002232 190.324265 -6.960118 
520546106943418 45.002232 190.324265 -6.960118 
520546110920554 45.002232 190.324265 -6.960118 
520546130919252 45.002232 190.324265 -6.960118 
520546150918991 45.002232 190.324265 -6.960118 
520546170918627 45.002232 190.324265 -6.960118 
520546190919252 45.002232 190.324265 -6.960118 
520546210920190 45.002232 190.324265 -6.960118 
520546230918731 45.002232 190.324265 -6.960118 
520546250918158 45.002232 190.324265 -6.960118 
520546270917272 45.002232 190.324265 -6.960118 
520546290917741 45.002232 190.324265 -6.960118 
520546310923158 45.002232 190.324265 -6.960118 
520546330918210 45.002232 190.324265 -6.960118 
520546350918209 45.002232 190.324265 -6.960118 
520546370917220 45.002232 190.324265 -6.960118 
520546390926647 45.002232 190.324265 -6.960118 
520546410917688 45.002232 190.324265 -6.960118 
520546430917793 45.002232 190.324265 -6.960118 
520546450918001 45.002232 190.324265 -6.960118 
520546470920292 45.002232 190.324265 -6.960118 
520546490918730 45.002232 190.324265 -6.960118 
520546510918626 45.002232 190.324265 -6.960118 
520546530918053 45.002232 190.324265 -6.960118 
520546550917741 45.002232 190.324265 -6.960118 
520546570917480 45.002232 190.324265 -6.960118 
520546590916491 45.002232 190.324265 -6.960118 
520546610916959 45.002232 190.324265 -6.960118 
520546630918000 45.002232 190.324265 -6.960118 
520546650923573 45.002232 190.324265 -6.960118 
520546670918731 45.002232 190.324265 -6.960118 
520546690918262 45.002232 190.324265 -6.960118 
520546710917845 45.002232 190.324265 -6.960118 
520546730917585 45.002232 190.324265 -6.960118 
520546750921335 45.002232 190.324265 -6.960118 
520546770920449 45.002232 190.324265 -6.960118 
520546790917376 45.002232 190.324265 -6.960118 
520546810917480 45.002232 190.324265 -6.960118 
520546830917898 45.002232 190.324265 -6.960118 
520546850917012 45.002232 190.324265 -6.960118 
520546870919147 45.002232 190.324265 -6.960118 
520546890917115 45.002232 190.324265 -6.960118 
520546910917376 45.002232 190.324265 -6.960118 
520546930917011 45.002232 190.324265 -6.960118 
520546950916543 45.002232 190.324265 -6.960118 
520546970916439 45.002232 190.324265 -6.960118 
520546990916387 45.002232 190.324265 -6.960118 
520547010916543 45.002232 190.324265 -6.960118 
