# Created at Thu Nov 07 18:09:42 EST 2019 in Burnaby Canada 
521426735142249 0.003797 -0.003950 0.006214 
521426755711832 0.003797 -0.003950 0.006214 
521426776281987 0.003797 -0.003950 0.006214 
521426796852144 0.003797 -0.003950 0.006214 
521426817421676 0.003797 -0.003950 0.006214 
521426837991988 0.003797 -0.003950 0.006214 
521426858561936 0.003797 -0.003950 0.006214 
521426879132457 0.003797 -0.003950 0.006214 
521426899701571 0.003797 -0.003950 0.006214 
521426920272508 0.003797 -0.003950 0.006214 
521426940842613 0.003797 -0.003950 0.006214 
521426961413134 0.003797 -0.003950 0.006214 
521426981983447 0.003797 -0.003950 0.006214 
521427002553186 0.003797 -0.003950 0.006214 
521427023123447 0.003797 -0.003950 0.006214 
521427043693707 0.003797 -0.003950 0.006214 
521427064263863 0.003797 -0.003950 0.006214 
521427084834175 0.003797 -0.003950 0.006214 
521427105403916 0.003797 -0.003950 0.006214 
521427125974749 0.003797 -0.003950 0.006214 
521427146544384 0.003797 -0.003950 0.006214 
521427167114435 0.003797 -0.003950 0.006214 
521427187684436 0.003797 -0.003950 0.006214 
521427208255113 0.003797 -0.003950 0.006214 
521427228825061 0.003797 -0.003950 0.006214 
521427249395269 0.003797 -0.003950 0.006214 
521427269965322 0.003797 -0.003950 0.006214 
521427290535686 0.003797 -0.003950 0.006214 
521427311105686 0.003797 -0.003950 0.006214 
521427331676207 0.003797 -0.003950 0.006214 
521427352246259 0.003797 -0.003950 0.006214 
521427372816883 0.003797 -0.003950 0.006214 
521427393386467 0.003797 -0.003950 0.006214 
521427413956675 0.003797 -0.003950 0.006214 
521427434527040 0.003797 -0.003950 0.006214 
521427455097040 0.003797 -0.003950 0.006214 
521427475667300 0.003797 -0.003950 0.006214 
521427496237092 0.003797 -0.003950 0.006214 
521427516807561 0.003797 -0.003950 0.006214 
521427537377560 0.003797 -0.003950 0.006214 
521427557948029 0.003797 -0.003950 0.006214 
521427578517822 0.003797 -0.003950 0.006214 
521427599088290 0.003797 -0.003950 0.006214 
521427619658394 0.003797 -0.003950 0.006214 
521427640228342 0.003797 -0.003950 0.006214 
521427660798447 0.003797 -0.003950 0.006214 
521427681369071 0.003797 -0.003950 0.006214 
521427701939227 0.003797 -0.003950 0.006214 
521427722509488 0.003797 -0.003950 0.006214 
521427743079696 0.003797 -0.003950 0.006214 
521427763649800 0.003797 -0.003950 0.006214 
521427784219957 0.003797 -0.003950 0.006214 
521427804790686 0.003797 -0.003950 0.006214 
521427825360217 0.003797 -0.003950 0.006214 
521427845930061 0.003797 -0.003950 0.006214 
521427866500061 0.003797 -0.003950 0.006214 
521427887071103 0.003797 -0.003950 0.006214 
521427907641103 0.003797 -0.003950 0.006214 
521427928211988 0.003797 -0.003950 0.006214 
521427948781623 0.003797 -0.003950 0.006214 
521427969351415 0.003797 -0.003950 0.006214 
521427989921415 0.003797 -0.003950 0.006214 
521428010491831 0.003797 -0.003950 0.006214 
521428031061518 0.003797 -0.003950 0.006214 
521428051632300 0.003797 -0.003950 0.006214 
521428072201884 0.003797 -0.003950 0.006214 
521428092771987 0.003797 -0.003950 0.006214 
521428113342249 0.003797 -0.003950 0.006214 
521428133912457 0.003797 -0.003950 0.006214 
521428154482560 0.003797 -0.003950 0.006214 
521428175052821 0.003797 -0.003950 0.006214 
521428195623186 0.003797 -0.003950 0.006214 
521428216193498 0.003797 -0.003950 0.006214 
521428236764904 0.003797 -0.003950 0.006214 
521428257335321 0.003797 -0.003950 0.006214 
521428277905321 0.003797 -0.003950 0.006214 
521428298475633 0.003797 -0.003950 0.006214 
521428319044175 0.003797 -0.003950 0.006214 
521428339614279 0.003797 -0.003950 0.006214 
521428360184957 0.003797 -0.003950 0.006214 
521428380754487 0.003797 -0.003950 0.006214 
521428401324644 0.003797 -0.003950 0.006214 
521428421894957 0.003797 -0.003950 0.006214 
521428442465061 0.003797 -0.003950 0.006214 
521428463035737 0.003797 -0.003950 0.006214 
521428483605425 0.003797 -0.003950 0.006214 
521428504175529 0.003797 -0.003950 0.006214 
521428524745997 0.003797 -0.003950 0.006214 
521428545315947 0.003797 -0.003950 0.006214 
521428565886310 0.003797 -0.003950 0.006214 
521428586456310 0.003797 -0.003950 0.006214 
521428607026519 0.003797 -0.003950 0.006214 
521428627596623 0.003797 -0.003950 0.006214 
521428648167977 0.003797 -0.003950 0.006214 
521428668737352 0.003797 -0.003950 0.006214 
521428689307301 0.003797 -0.003950 0.006214 
521428709877821 0.003797 -0.003950 0.006214 
521428730447872 0.003797 -0.003950 0.006214 
521428751018081 0.003797 -0.003950 0.006214 
521428771588810 0.003797 -0.003950 0.006214 
521428792159800 0.003797 -0.003950 0.006214 
521428812729019 0.003797 -0.003950 0.006214 
521428833298967 0.003797 -0.003950 0.006214 
521428853868758 0.003797 -0.003950 0.006214 
521428874438966 0.003797 -0.003950 0.006214 
521428895009072 0.003797 -0.003950 0.006214 
521428915580320 0.003797 -0.003950 0.006214 
521428936150373 0.003797 -0.003950 0.006214 
521428956721415 0.003797 -0.003950 0.006214 
521428977289956 0.003797 -0.003950 0.006214 
521428997860632 0.003797 -0.003950 0.006214 
521429018430269 0.003797 -0.003950 0.006214 
521429039001310 0.003797 -0.003950 0.006214 
521429059570632 0.003797 -0.003950 0.006214 
521429080142976 0.003797 -0.003950 0.006214 
521429100713289 0.003797 -0.003950 0.006214 
521429121281779 0.003797 -0.003950 0.006214 
521429141852247 0.003797 -0.003950 0.006214 
521429162422196 0.003797 -0.003950 0.006214 
521429182992300 0.003797 -0.003950 0.006214 
521429203564904 0.003797 -0.003950 0.006214 
521429224134487 0.003797 -0.003950 0.006214 
521429244703290 0.003797 -0.003950 0.006214 
521429265273289 0.003797 -0.003950 0.006214 
521429285844018 0.003797 -0.003950 0.006214 
521429306413446 0.003797 -0.003950 0.006214 
521429326983966 0.003797 -0.003950 0.006214 
521429347554332 0.003797 -0.003950 0.006214 
521429368124279 0.003797 -0.003950 0.006214 
521429388694279 0.003797 -0.003950 0.006214 
521429409264904 0.003797 -0.003950 0.006214 
521429429834852 0.003797 -0.003950 0.006214 
521429450406414 0.003797 -0.003950 0.006214 
521429470976883 0.003797 -0.003950 0.006214 
521429491545477 0.003797 -0.003950 0.006214 
521429512115529 0.003797 -0.003950 0.006214 
521429532687612 0.003797 -0.003950 0.006214 
521429553256050 0.003797 -0.003950 0.006214 
521429573826206 0.003797 -0.003950 0.006214 
521429594396518 0.003797 -0.003950 0.006214 
521429614966362 0.003797 -0.003950 0.006214 
521429635536987 0.003797 -0.003950 0.006214 
521429656106883 0.003797 -0.003950 0.006214 
521429676677352 0.003797 -0.003950 0.006214 
521429697247247 0.003797 -0.003950 0.006214 
521429717819226 0.003797 -0.003950 0.006214 
521429738389175 0.003797 -0.003950 0.006214 
521429758957821 0.003797 -0.003950 0.006214 
521429779528289 0.003797 -0.003950 0.006214 
521429800098237 0.003797 -0.003950 0.006214 
521429820668602 0.003797 -0.003950 0.006214 
521429841238757 0.003797 -0.003950 0.006214 
521429861807977 0.003797 -0.003950 0.006214 
521429882379331 0.003797 -0.003950 0.006214 
521429902949226 0.003797 -0.003950 0.006214 
521429923519852 0.003797 -0.003950 0.006214 
521429944089747 0.003797 -0.003950 0.006214 
521429964660112 0.003797 -0.003950 0.006214 
521429985230165 0.003797 -0.003950 0.006214 
521430005802039 0.003797 -0.003950 0.006214 
521430026372299 0.003797 -0.003950 0.006214 
521430046940945 0.003797 -0.003950 0.006214 
521430067510998 0.003797 -0.003950 0.006214 
521430088081362 0.003797 -0.003950 0.006214 
521430108651414 0.003797 -0.003950 0.006214 
521430129222039 0.003797 -0.003950 0.006214 
521430149791727 0.003797 -0.003950 0.006214 
521430170362090 0.003797 -0.003950 0.006214 
521430190932508 0.003797 -0.003950 0.006214 
521430211503029 0.003797 -0.003950 0.006214 
521430232074018 0.003797 -0.003950 0.006214 
521430252643914 0.003797 -0.003950 0.006214 
521430273214122 0.003797 -0.003950 0.006214 
521430293783341 0.003797 -0.003950 0.006214 
521430314353446 0.003797 -0.003950 0.006214 
521430334923706 0.003797 -0.003950 0.006214 
521430355493757 0.003797 -0.003950 0.006214 
521430376063914 0.003797 -0.003950 0.006214 
521430396634435 0.003797 -0.003950 0.006214 
521430417204487 0.003797 -0.003950 0.006214 
521430437774956 0.003797 -0.003950 0.006214 
521430458343705 0.003797 -0.003950 0.006214 
521430478917455 0.003797 -0.003950 0.006214 
521430499484174 0.003797 -0.003950 0.006214 
521430520057091 0.003797 -0.003950 0.006214 
521430540627507 0.003797 -0.003950 0.006214 
521430561195841 0.003797 -0.003950 0.006214 
521430581766153 0.003797 -0.003950 0.006214 
521430602337716 0.003797 -0.003950 0.006214 
521430622906883 0.003797 -0.003950 0.006214 
521430643477976 0.003797 -0.003950 0.006214 
521430664048393 0.003797 -0.003950 0.006214 
521430684618029 0.003797 -0.003950 0.006214 
521430705188237 0.003797 -0.003950 0.006214 
521430725758705 0.003797 -0.003950 0.006214 
521430746328549 0.003797 -0.003950 0.006214 
521430766898237 0.003797 -0.003950 0.006214 
521430787468601 0.003797 -0.003950 0.006214 
521430808039174 0.003797 -0.003950 0.006214 
521430828608966 0.003797 -0.003950 0.006214 
521430849181257 0.003797 -0.003950 0.006214 
521430869750373 0.003797 -0.003950 0.006214 
521430890320424 0.003797 -0.003950 0.006214 
521430910889538 0.003797 -0.003950 0.006214 
521430931461518 0.003797 -0.003950 0.006214 
521430952029904 0.003797 -0.003950 0.006214 
521430972601517 0.003797 -0.003950 0.006214 
521430993170893 0.003797 -0.003950 0.006214 
521431013740736 0.003797 -0.003950 0.006214 
521431034310945 0.003797 -0.003950 0.006214 
521431054880997 0.003797 -0.003950 0.006214 
521431075452872 0.003797 -0.003950 0.006214 
521431096022664 0.003797 -0.003950 0.006214 
521431116592039 0.003797 -0.003950 0.006214 
521431137161934 0.003797 -0.003950 0.006214 
521431157732612 0.003797 -0.003950 0.006214 
521431178302247 0.003797 -0.003950 0.006214 
521431198874590 0.003797 -0.003950 0.006214 
521431219441570 0.003797 -0.003950 0.006214 
521431240013497 0.003797 -0.003950 0.006214 
521431260583861 0.003797 -0.003950 0.006214 
521431281153341 0.003797 -0.003950 0.006214 
521431301723757 0.003797 -0.003950 0.006214 
521431322294903 0.003797 -0.003950 0.006214 
521431342864070 0.003797 -0.003950 0.006214 
521431363435892 0.003797 -0.003950 0.006214 
521431384006204 0.003797 -0.003950 0.006214 
521431404576205 0.003797 -0.003950 0.006214 
521431425147195 0.003797 -0.003950 0.006214 
521431445715007 0.003797 -0.003950 0.006214 
521431466284852 0.003797 -0.003950 0.006214 
521431486855528 0.003797 -0.003950 0.006214 
521431507426049 0.003797 -0.003950 0.006214 
521431527996309 0.003797 -0.003950 0.006214 
521431548566986 0.003797 -0.003950 0.006214 
521431569136674 0.003797 -0.003950 0.006214 
521431589706726 0.003797 -0.003950 0.006214 
521431610277299 0.003797 -0.003950 0.006214 
521431630848288 0.003797 -0.003950 0.006214 
521431651421675 0.003797 -0.003950 0.006214 
521431671987612 0.003797 -0.003950 0.006214 
521431692557872 0.003797 -0.003950 0.006214 
521431713128237 0.003797 -0.003950 0.006214 
521431733699278 0.003797 -0.003950 0.006214 
521431754269798 0.003797 -0.003950 0.006214 
521431774839852 0.003797 -0.003950 0.006214 
521431795408861 0.003797 -0.003950 0.006214 
521431815979017 0.003797 -0.003950 0.006214 
521431836550476 0.003797 -0.003950 0.006214 
521431857119642 0.003797 -0.003950 0.006214 
521431877689695 0.003797 -0.003950 0.006214 
521431898260111 0.003797 -0.003950 0.006214 
521431918831361 0.003797 -0.003950 0.006214 
521431939400579 0.003797 -0.003950 0.006214 
521431959974174 0.003797 -0.003950 0.006214 
521431980542351 0.003797 -0.003950 0.006214 
521432001111360 0.003797 -0.003950 0.006214 
521432021681883 0.003797 -0.003950 0.006214 
521432042252403 0.003797 -0.003950 0.006214 
521432062822507 0.003797 -0.003950 0.006214 
521432083391986 0.003797 -0.003950 0.006214 
521432103961934 0.003797 -0.003950 0.006214 
521432124532455 0.003797 -0.003950 0.006214 
521432145102456 0.003797 -0.003950 0.006214 
521432165673288 0.003797 -0.003950 0.006214 
521432186242819 0.003797 -0.003950 0.006214 
521432206813445 0.003797 -0.003950 0.006214 
521432227383288 0.003797 -0.003950 0.006214 
521432247954590 0.003797 -0.003950 0.006214 
521432268524903 0.003797 -0.003950 0.006214 
521432289095268 0.003797 -0.003950 0.006214 
521432309665267 0.003797 -0.003950 0.006214 
521432330233653 0.003797 -0.003950 0.006214 
521432350803809 0.003797 -0.003950 0.006214 
521432371373913 0.003797 -0.003950 0.006214 
521432391944122 0.003797 -0.003950 0.006214 
521432412515163 0.003797 -0.003950 0.006214 
521432433084537 0.003797 -0.003950 0.006214 
521432453654643 0.003797 -0.003950 0.006214 
521432474224851 0.003797 -0.003950 0.006214 
521432494795058 0.003797 -0.003950 0.006214 
521432515365892 0.003797 -0.003950 0.006214 
521432535936153 0.003797 -0.003950 0.006214 
521432556505736 0.003797 -0.003950 0.006214 
521432577075789 0.003797 -0.003950 0.006214 
521432597646309 0.003797 -0.003950 0.006214 
521432618216257 0.003797 -0.003950 0.006214 
521432638786622 0.003797 -0.003950 0.006214 
521432659356778 0.003797 -0.003950 0.006214 
521432679926882 0.003797 -0.003950 0.006214 
521432700498705 0.003797 -0.003950 0.006214 
521432721067611 0.003797 -0.003950 0.006214 
521432741637610 0.003797 -0.003950 0.006214 
521432762207716 0.003797 -0.003950 0.006214 
521432782777819 0.003797 -0.003950 0.006214 
521432803348444 0.003797 -0.003950 0.006214 
521432823918287 0.003797 -0.003950 0.006214 
521432844488496 0.003797 -0.003950 0.006214 
521432865058548 0.003797 -0.003950 0.006214 
521432885628965 0.003797 -0.003950 0.006214 
521432906199070 0.003797 -0.003950 0.006214 
521432926769694 0.003797 -0.003950 0.006214 
521432947339590 0.003797 -0.003950 0.006214 
521432967909746 0.003797 -0.003950 0.006214 
521432988480371 0.003797 -0.003950 0.006214 
521433009050527 0.003797 -0.003950 0.006214 
521433029620319 0.003797 -0.003950 0.006214 
521433050190840 0.003797 -0.003950 0.006214 
521433070760788 0.003797 -0.003950 0.006214 
521433091331152 0.003797 -0.003950 0.006214 
521433111901152 0.003797 -0.003950 0.006214 
521433132471882 0.003797 -0.003950 0.006214 
521433153041621 0.003797 -0.003950 0.006214 
521433173611933 0.003797 -0.003950 0.006214 
521433194182245 0.003797 -0.003950 0.006214 
521433214752611 0.003797 -0.003950 0.006214 
521433235326361 0.003797 -0.003950 0.006214 
521433255896985 0.003797 -0.003950 0.006214 
521433276464641 0.003797 -0.003950 0.006214 
521433297034695 0.003797 -0.003950 0.006214 
521433317603965 0.003797 -0.003950 0.006214 
521433338175215 0.003797 -0.003950 0.006214 
521433358745424 0.003797 -0.003950 0.006214 
521433379314850 0.003797 -0.003950 0.006214 
521433399885163 0.003797 -0.003950 0.006214 
521433420454434 0.003797 -0.003950 0.006214 
521433441025215 0.003797 -0.003950 0.006214 
521433461595423 0.003797 -0.003950 0.006214 
521433482165684 0.003797 -0.003950 0.006214 
521433502735788 0.003797 -0.003950 0.006214 
521433523306360 0.003797 -0.003950 0.006214 
521433543876205 0.003797 -0.003950 0.006214 
521433564447767 0.003797 -0.003950 0.006214 
521433585016881 0.003797 -0.003950 0.006214 
521433605586934 0.003797 -0.003950 0.006214 
521433626157037 0.003797 -0.003950 0.006214 
521433646727610 0.003797 -0.003950 0.006214 
521433667297090 0.003797 -0.003950 0.006214 
521433687867507 0.003797 -0.003950 0.006214 
521433708437610 0.003797 -0.003950 0.006214 
521433729009225 0.003797 -0.003950 0.006214 
521433749578184 0.003797 -0.003950 0.006214 
521433770148340 0.003797 -0.003950 0.006214 
521433790718392 0.003797 -0.003950 0.006214 
521433811289537 0.003797 -0.003950 0.006214 
521433831859693 0.003797 -0.003950 0.006214 
521433852429121 0.003797 -0.003950 0.006214 
521433872999174 0.003797 -0.003950 0.006214 
521433893569173 0.003797 -0.003950 0.006214 
521433914139120 0.003797 -0.003950 0.006214 
521433934709278 0.003797 -0.003950 0.006214 
