# Created at Thu Nov 07 18:09:42 EST 2019 in Burnaby Canada 
521426750924645 45.002232 190.324265 -6.960118 
521426770924383 45.002232 190.324265 -6.960118 
521426790924227 45.002232 190.324265 -6.960118 
521426810923968 45.002232 190.324265 -6.960118 
521426830917249 45.002232 190.324265 -6.960118 
521426850935322 45.002232 190.324265 -6.960118 
521426870935322 45.002232 190.324265 -6.960118 
521426890923967 45.002232 190.324265 -6.960118 
521426910922821 45.002232 190.324265 -6.960118 
521426930924072 45.002232 190.324265 -6.960118 
521426951130790 45.002232 190.324265 -6.960118 
521426970924279 45.002232 190.324265 -6.960118 
521426990924228 45.002232 190.324265 -6.960118 
521427010923603 45.002232 190.324265 -6.960118 
521427030924124 45.002232 190.324265 -6.960118 
521427050924488 45.002232 190.324265 -6.960118 
521427070923915 45.002232 190.324265 -6.960118 
521427090924019 45.002232 190.324265 -6.960118 
521427110923603 45.002232 190.324265 -6.960118 
521427130924437 45.002232 190.324265 -6.960118 
521427150923603 45.002232 190.324265 -6.960118 
521427170924020 45.002232 190.324265 -6.960118 
521427190924123 45.002232 190.324265 -6.960118 
521427210947301 45.002232 190.324265 -6.960118 
521427230947145 45.002232 190.324265 -6.960118 
521427250923759 45.002232 190.324265 -6.960118 
521427270923342 45.002232 190.324265 -6.960118 
521427290924436 45.002232 190.324265 -6.960118 
521427310923290 45.002232 190.324265 -6.960118 
521427330923915 45.002232 190.324265 -6.960118 
521427350924540 45.002232 190.324265 -6.960118 
521427370924591 45.002232 190.324265 -6.960118 
521427390923499 45.002232 190.324265 -6.960118 
521427410924123 45.002232 190.324265 -6.960118 
521427430923498 45.002232 190.324265 -6.960118 
521427450924644 45.002232 190.324265 -6.960118 
521427470923967 45.002232 190.324265 -6.960118 
521427490923602 45.002232 190.324265 -6.960118 
521427510923237 45.002232 190.324265 -6.960118 
521427530923706 45.002232 190.324265 -6.960118 
521427550923550 45.002232 190.324265 -6.960118 
521427570948030 45.002232 190.324265 -6.960118 
521427591348030 45.002232 190.324265 -6.960118 
521427610923967 45.002232 190.324265 -6.960118 
521427630923811 45.002232 190.324265 -6.960118 
521427650923915 45.002232 190.324265 -6.960118 
521427670923967 45.002232 190.324265 -6.960118 
521427690924487 45.002232 190.324265 -6.960118 
521427710924227 45.002232 190.324265 -6.960118 
521427730924019 45.002232 190.324265 -6.960118 
521427750924175 45.002232 190.324265 -6.960118 
521427770924539 45.002232 190.324265 -6.960118 
521427790924124 45.002232 190.324265 -6.960118 
521427810925477 45.002232 190.324265 -6.960118 
521427830924123 45.002232 190.324265 -6.960118 
521427850924279 45.002232 190.324265 -6.960118 
521427870923343 45.002232 190.324265 -6.960118 
521427890924957 45.002232 190.324265 -6.960118 
521427910924436 45.002232 190.324265 -6.960118 
521427930925582 45.002232 190.324265 -6.960118 
521427950924592 45.002232 190.324265 -6.960118 
521427970924591 45.002232 190.324265 -6.960118 
521427990923967 45.002232 190.324265 -6.960118 
521428010925998 45.002232 190.324265 -6.960118 
521428030924071 45.002232 190.324265 -6.960118 
521428050924539 45.002232 190.324265 -6.960118 
521428070923655 45.002232 190.324265 -6.960118 
521428090923810 45.002232 190.324265 -6.960118 
521428110924280 45.002232 190.324265 -6.960118 
521428130923551 45.002232 190.324265 -6.960118 
521428150923915 45.002232 190.324265 -6.960118 
521428170923914 45.002232 190.324265 -6.960118 
521428190924227 45.002232 190.324265 -6.960118 
521428210924227 45.002232 190.324265 -6.960118 
521428230924435 45.002232 190.324265 -6.960118 
521428250919227 45.002232 190.324265 -6.960118 
521428270919331 45.002232 190.324265 -6.960118 
521428290925737 45.002232 190.324265 -6.960118 
521428311306154 45.002232 190.324265 -6.960118 
521428330924071 45.002232 190.324265 -6.960118 
521428350923914 45.002232 190.324265 -6.960118 
521428370924228 45.002232 190.324265 -6.960118 
521428390924123 45.002232 190.324265 -6.960118 
521428410924853 45.002232 190.324265 -6.960118 
521428430924019 45.002232 190.324265 -6.960118 
521428450924228 45.002232 190.324265 -6.960118 
521428470924748 45.002232 190.324265 -6.960118 
521428490923602 45.002232 190.324265 -6.960118 
521428510923810 45.002232 190.324265 -6.960118 
521428530924853 45.002232 190.324265 -6.960118 
521428550924124 45.002232 190.324265 -6.960118 
521428570925165 45.002232 190.324265 -6.960118 
521428590923862 45.002232 190.324265 -6.960118 
521428610924018 45.002232 190.324265 -6.960118 
521428630923862 45.002232 190.324265 -6.960118 
521428650924384 45.002232 190.324265 -6.960118 
521428671282613 45.002232 190.324265 -6.960118 
521428690924279 45.002232 190.324265 -6.960118 
521428710924852 45.002232 190.324265 -6.960118 
521428730924488 45.002232 190.324265 -6.960118 
521428750923810 45.002232 190.324265 -6.960118 
521428770923914 45.002232 190.324265 -6.960118 
521428790925269 45.002232 190.324265 -6.960118 
521428810924487 45.002232 190.324265 -6.960118 
521428830924331 45.002232 190.324265 -6.960118 
521428850923862 45.002232 190.324265 -6.960118 
521428870924175 45.002232 190.324265 -6.960118 
521428890923967 45.002232 190.324265 -6.960118 
521428910924020 45.002232 190.324265 -6.960118 
521428930925009 45.002232 190.324265 -6.960118 
521428951131936 45.002232 190.324265 -6.960118 
521428970923966 45.002232 190.324265 -6.960118 
521428990917925 45.002232 190.324265 -6.960118 
521429010935008 45.002232 190.324265 -6.960118 
521429031261050 45.002232 190.324265 -6.960118 
521429050924747 45.002232 190.324265 -6.960118 
521429070923809 45.002232 190.324265 -6.960118 
521429090925998 45.002232 190.324265 -6.960118 
521429110925737 45.002232 190.324265 -6.960118 
521429130926674 45.002232 190.324265 -6.960118 
521429150924695 45.002232 190.324265 -6.960118 
521429170924747 45.002232 190.324265 -6.960118 
521429190924331 45.002232 190.324265 -6.960118 
521429210926674 45.002232 190.324265 -6.960118 
521429230926153 45.002232 190.324265 -6.960118 
521429250925946 45.002232 190.324265 -6.960118 
521429270924435 45.002232 190.324265 -6.960118 
521429290924487 45.002232 190.324265 -6.960118 
521429310924435 45.002232 190.324265 -6.960118 
521429330925320 45.002232 190.324265 -6.960118 
521429350924748 45.002232 190.324265 -6.960118 
521429370956049 45.002232 190.324265 -6.960118 
521429391239748 45.002232 190.324265 -6.960118 
521429410924800 45.002232 190.324265 -6.960118 
521429430924487 45.002232 190.324265 -6.960118 
521429450926987 45.002232 190.324265 -6.960118 
521429470926363 45.002232 190.324265 -6.960118 
521429490924435 45.002232 190.324265 -6.960118 
521429510924696 45.002232 190.324265 -6.960118 
521429530925998 45.002232 190.324265 -6.960118 
521429550924122 45.002232 190.324265 -6.960118 
521429570925164 45.002232 190.324265 -6.960118 
521429590924956 45.002232 190.324265 -6.960118 
521429610924226 45.002232 190.324265 -6.960118 
521429630924330 45.002232 190.324265 -6.960118 
521429650924435 45.002232 190.324265 -6.960118 
521429670924331 45.002232 190.324265 -6.960118 
521429690926361 45.002232 190.324265 -6.960118 
521429710924695 45.002232 190.324265 -6.960118 
521429730950268 45.002232 190.324265 -6.960118 
521429751220529 45.002232 190.324265 -6.960118 
521429770973289 45.002232 190.324265 -6.960118 
521429790924800 45.002232 190.324265 -6.960118 
521429810925164 45.002232 190.324265 -6.960118 
521429830924227 45.002232 190.324265 -6.960118 
521429850925477 45.002232 190.324265 -6.960118 
521429870923133 45.002232 190.324265 -6.960118 
521429890925008 45.002232 190.324265 -6.960118 
521429910924487 45.002232 190.324265 -6.960118 
521429930924017 45.002232 190.324265 -6.960118 
521429951131361 45.002232 190.324265 -6.960118 
521429970925790 45.002232 190.324265 -6.960118 
521429990924227 45.002232 190.324265 -6.960118 
521430010924227 45.002232 190.324265 -6.960118 
521430030926518 45.002232 190.324265 -6.960118 
521430050924852 45.002232 190.324265 -6.960118 
521430070924279 45.002232 190.324265 -6.960118 
521430090945008 45.002232 190.324265 -6.960118 
521430111197664 45.002232 190.324265 -6.960118 
521430130972248 45.002232 190.324265 -6.960118 
521430150924435 45.002232 190.324265 -6.960118 
521430170924747 45.002232 190.324265 -6.960118 
521430190924852 45.002232 190.324265 -6.960118 
521430210924852 45.002232 190.324265 -6.960118 
521430230926154 45.002232 190.324265 -6.960118 
521430250926101 45.002232 190.324265 -6.960118 
521430270925372 45.002232 190.324265 -6.960118 
521430290924487 45.002232 190.324265 -6.960118 
521430310925060 45.002232 190.324265 -6.960118 
521430330924644 45.002232 190.324265 -6.960118 
521430350924435 45.002232 190.324265 -6.960118 
521430370924539 45.002232 190.324265 -6.960118 
521430390924070 45.002232 190.324265 -6.960118 
521430410924696 45.002232 190.324265 -6.960118 
521430430924696 45.002232 190.324265 -6.960118 
521430450916778 45.002232 190.324265 -6.960118 
521430471174590 45.002232 190.324265 -6.960118 
521430490973341 45.002232 190.324265 -6.960118 
521430510923445 45.002232 190.324265 -6.960118 
521430530924696 45.002232 190.324265 -6.960118 
521430550925841 45.002232 190.324265 -6.960118 
521430570924695 45.002232 190.324265 -6.960118 
521430590924486 45.002232 190.324265 -6.960118 
521430610924799 45.002232 190.324265 -6.960118 
521430630924695 45.002232 190.324265 -6.960118 
521430650924903 45.002232 190.324265 -6.960118 
521430670925737 45.002232 190.324265 -6.960118 
521430690925008 45.002232 190.324265 -6.960118 
521430710925529 45.002232 190.324265 -6.960118 
521430730925424 45.002232 190.324265 -6.960118 
521430750925320 45.002232 190.324265 -6.960118 
521430770924643 45.002232 190.324265 -6.960118 
521430790925060 45.002232 190.324265 -6.960118 
521430810939643 45.002232 190.324265 -6.960118 
521430831154383 45.002232 190.324265 -6.960118 
521430850974852 45.002232 190.324265 -6.960118 
521430870925894 45.002232 190.324265 -6.960118 
521430890924799 45.002232 190.324265 -6.960118 
521430910924382 45.002232 190.324265 -6.960118 
521430930926257 45.002232 190.324265 -6.960118 
521430951131623 45.002232 190.324265 -6.960118 
521430970925945 45.002232 190.324265 -6.960118 
521430990925007 45.002232 190.324265 -6.960118 
521431010924382 45.002232 190.324265 -6.960118 
521431030924434 45.002232 190.324265 -6.960118 
521431050924174 45.002232 190.324265 -6.960118 
521431070924330 45.002232 190.324265 -6.960118 
521431090925059 45.002232 190.324265 -6.960118 
521431110925893 45.002232 190.324265 -6.960118 
521431130924643 45.002232 190.324265 -6.960118 
521431150924538 45.002232 190.324265 -6.960118 
521431170917976 45.002232 190.324265 -6.960118 
521431191133757 45.002232 190.324265 -6.960118 
521431210974643 45.002232 190.324265 -6.960118 
521431230922976 45.002232 190.324265 -6.960118 
521431250924955 45.002232 190.324265 -6.960118 
521431270925268 45.002232 190.324265 -6.960118 
521431290924903 45.002232 190.324265 -6.960118 
521431310924590 45.002232 190.324265 -6.960118 
521431330924487 45.002232 190.324265 -6.960118 
521431350924851 45.002232 190.324265 -6.960118 
521431370927299 45.002232 190.324265 -6.960118 
521431390926777 45.002232 190.324265 -6.960118 
521431410925736 45.002232 190.324265 -6.960118 
521431430927091 45.002232 190.324265 -6.960118 
521431450924434 45.002232 190.324265 -6.960118 
521431470923810 45.002232 190.324265 -6.960118 
521431490924694 45.002232 190.324265 -6.960118 
521431510924851 45.002232 190.324265 -6.960118 
521431530935581 45.002232 190.324265 -6.960118 
521431551111934 45.002232 190.324265 -6.960118 
521431570971726 45.002232 190.324265 -6.960118 
521431590972194 45.002232 190.324265 -6.960118 
521431610925527 45.002232 190.324265 -6.960118 
521431630926101 45.002232 190.324265 -6.960118 
521431650929487 45.002232 190.324265 -6.960118 
521431670924956 45.002232 190.324265 -6.960118 
521431690925008 45.002232 190.324265 -6.960118 
521431710925008 45.002232 190.324265 -6.960118 
521431730925736 45.002232 190.324265 -6.960118 
521431750926101 45.002232 190.324265 -6.960118 
521431770926050 45.002232 190.324265 -6.960118 
521431790925893 45.002232 190.324265 -6.960118 
521431810924747 45.002232 190.324265 -6.960118 
521431830924799 45.002232 190.324265 -6.960118 
521431850924955 45.002232 190.324265 -6.960118 
521431870925059 45.002232 190.324265 -6.960118 
521431890937663 45.002232 190.324265 -6.960118 
521431911091777 45.002232 190.324265 -6.960118 
521431930973600 45.002232 190.324265 -6.960118 
521431951132038 45.002232 190.324265 -6.960118 
521431970928705 45.002232 190.324265 -6.960118 
521431990926414 45.002232 190.324265 -6.960118 
521432010924643 45.002232 190.324265 -6.960118 
521432030925529 45.002232 190.324265 -6.960118 
521432050925320 45.002232 190.324265 -6.960118 
521432070925424 45.002232 190.324265 -6.960118 
521432090924850 45.002232 190.324265 -6.960118 
521432110925007 45.002232 190.324265 -6.960118 
521432130924746 45.002232 190.324265 -6.960118 
521432150925060 45.002232 190.324265 -6.960118 
521432170925737 45.002232 190.324265 -6.960118 
521432190924955 45.002232 190.324265 -6.960118 
521432210925111 45.002232 190.324265 -6.960118 
521432230924955 45.002232 190.324265 -6.960118 
521432250936830 45.002232 190.324265 -6.960118 
521432271082298 45.002232 190.324265 -6.960118 
521432291083027 45.002232 190.324265 -6.960118 
521432310968965 45.002232 190.324265 -6.960118 
521432330925580 45.002232 190.324265 -6.960118 
521432350924174 45.002232 190.324265 -6.960118 
521432370923445 45.002232 190.324265 -6.960118 
521432390924017 45.002232 190.324265 -6.960118 
521432410924122 45.002232 190.324265 -6.960118 
521432430923964 45.002232 190.324265 -6.960118 
521432450923653 45.002232 190.324265 -6.960118 
521432470923236 45.002232 190.324265 -6.960118 
521432490923912 45.002232 190.324265 -6.960118 
521432510923600 45.002232 190.324265 -6.960118 
521432530924799 45.002232 190.324265 -6.960118 
521432550924695 45.002232 190.324265 -6.960118 
521432570923757 45.002232 190.324265 -6.960118 
521432590923601 45.002232 190.324265 -6.960118 
521432610958236 45.002232 190.324265 -6.960118 
521432631047143 45.002232 190.324265 -6.960118 
521432651047247 45.002232 190.324265 -6.960118 
521432670946049 45.002232 190.324265 -6.960118 
521432690924069 45.002232 190.324265 -6.960118 
521432710925684 45.002232 190.324265 -6.960118 
521432730924485 45.002232 190.324265 -6.960118 
521432750923756 45.002232 190.324265 -6.960118 
521432770923705 45.002232 190.324265 -6.960118 
521432790923756 45.002232 190.324265 -6.960118 
521432810923913 45.002232 190.324265 -6.960118 
521432830923860 45.002232 190.324265 -6.960118 
521432850923340 45.002232 190.324265 -6.960118 
521432870923288 45.002232 190.324265 -6.960118 
521432890924589 45.002232 190.324265 -6.960118 
521432910923966 45.002232 190.324265 -6.960118 
521432930923705 45.002232 190.324265 -6.960118 
521432951131257 45.002232 190.324265 -6.960118 
521432970947194 45.002232 190.324265 -6.960118 
521432991025631 45.002232 190.324265 -6.960118 
521433011025215 45.002232 190.324265 -6.960118 
521433030925058 45.002232 190.324265 -6.960118 
521433050924746 45.002232 190.324265 -6.960118 
521433070923913 45.002232 190.324265 -6.960118 
521433090923652 45.002232 190.324265 -6.960118 
521433110923965 45.002232 190.324265 -6.960118 
521433130924278 45.002232 190.324265 -6.960118 
521433150923964 45.002232 190.324265 -6.960118 
521433170924016 45.002232 190.324265 -6.960118 
521433190924173 45.002232 190.324265 -6.960118 
521433210923965 45.002232 190.324265 -6.960118 
521433230924277 45.002232 190.324265 -6.960118 
521433250928183 45.002232 190.324265 -6.960118 
521433270927871 45.002232 190.324265 -6.960118 
521433290925372 45.002232 190.324265 -6.960118 
521433310925372 45.002232 190.324265 -6.960118 
521433330935058 45.002232 190.324265 -6.960118 
521433351006569 45.002232 190.324265 -6.960118 
521433371006570 45.002232 190.324265 -6.960118 
521433390925111 45.002232 190.324265 -6.960118 
521433410925475 45.002232 190.324265 -6.960118 
521433430924277 45.002232 190.324265 -6.960118 
521433450925319 45.002232 190.324265 -6.960118 
521433470925111 45.002232 190.324265 -6.960118 
521433490924746 45.002232 190.324265 -6.960118 
521433510924799 45.002232 190.324265 -6.960118 
521433530924955 45.002232 190.324265 -6.960118 
521433550925111 45.002232 190.324265 -6.960118 
521433570926256 45.002232 190.324265 -6.960118 
521433590925319 45.002232 190.324265 -6.960118 
521433610925475 45.002232 190.324265 -6.960118 
521433630925006 45.002232 190.324265 -6.960118 
521433650926465 45.002232 190.324265 -6.960118 
521433670925215 45.002232 190.324265 -6.960118 
521433690920111 45.002232 190.324265 -6.960118 
521433710985110 45.002232 190.324265 -6.960118 
521433730985839 45.002232 190.324265 -6.960118 
521433750924851 45.002232 190.324265 -6.960118 
521433770925110 45.002232 190.324265 -6.960118 
521433790924798 45.002232 190.324265 -6.960118 
521433810925474 45.002232 190.324265 -6.960118 
521433830926047 45.002232 190.324265 -6.960118 
521433850925058 45.002232 190.324265 -6.960118 
521433870925007 45.002232 190.324265 -6.960118 
521433890924329 45.002232 190.324265 -6.960118 
521433910926048 45.002232 190.324265 -6.960118 
521433930923965 45.002232 190.324265 -6.960118 
521433951130944 45.002232 190.324265 -6.960118 
