# Created at Thu Nov 07 18:43:26 EST 2019 in Burnaby Canada 
523450623012881 0.002262 -0.021670 0.010883 
523450643580798 0.002262 -0.021670 0.010883 
523450664148715 0.002262 -0.021670 0.010883 
523450684716788 0.002262 -0.021670 0.010883 
523450705284860 0.002262 -0.021670 0.010883 
523450725852881 0.002262 -0.021670 0.010883 
523450746420954 0.002262 -0.021670 0.010883 
523450766989235 0.002262 -0.021670 0.010883 
523450787557360 0.002262 -0.021670 0.010883 
523450808126318 0.002262 -0.021670 0.010883 
523450828694391 0.002262 -0.021670 0.010883 
523450849261684 0.002262 -0.021670 0.010883 
523450869829809 0.002262 -0.021670 0.010883 
523450890397882 0.002262 -0.021670 0.010883 
523450910966007 0.002262 -0.021670 0.010883 
523450931534392 0.002262 -0.021670 0.010883 
523450952102517 0.002262 -0.021670 0.010883 
523450972670174 0.002262 -0.021670 0.010883 
523450993238299 0.002262 -0.021670 0.010883 
523451013806632 0.002262 -0.021670 0.010883 
523451034374705 0.002262 -0.021670 0.010883 
523451054942778 0.002262 -0.021670 0.010883 
523451075511059 0.002262 -0.021670 0.010883 
523451096079131 0.002262 -0.021670 0.010883 
523451116647048 0.002262 -0.021670 0.010883 
523451137215278 0.002262 -0.021670 0.010883 
523451157783246 0.002262 -0.021670 0.010883 
523451178351631 0.002262 -0.021670 0.010883 
523451198919912 0.002262 -0.021670 0.010883 
523451219487622 0.002262 -0.021670 0.010883 
523451240056007 0.002262 -0.021670 0.010883 
523451260623715 0.002262 -0.021670 0.010883 
523451281191997 0.002262 -0.021670 0.010883 
523451301760068 0.002262 -0.021670 0.010883 
523451322328454 0.002262 -0.021670 0.010883 
523451342896214 0.002262 -0.021670 0.010883 
523451363464548 0.002262 -0.021670 0.010883 
523451384032516 0.002262 -0.021670 0.010883 
523451404600902 0.002262 -0.021670 0.010883 
523451425168871 0.002262 -0.021670 0.010883 
523451445736735 0.002262 -0.021670 0.010883 
523451466304860 0.002262 -0.021670 0.010883 
523451486873923 0.002262 -0.021670 0.010883 
523451507442048 0.002262 -0.021670 0.010883 
523451528009913 0.002262 -0.021670 0.010883 
523451548578038 0.002262 -0.021670 0.010883 
523451569145641 0.002262 -0.021670 0.010883 
523451589713766 0.002262 -0.021670 0.010883 
523451610281892 0.002262 -0.021670 0.010883 
523451630850017 0.002262 -0.021670 0.010883 
523451651418350 0.002262 -0.021670 0.010883 
523451671986475 0.002262 -0.021670 0.010883 
523451692556006 0.002262 -0.021670 0.010883 
523451713124131 0.002262 -0.021670 0.010883 
523451733691996 0.002262 -0.021670 0.010883 
523451754260121 0.002262 -0.021670 0.010883 
523451774828714 0.002262 -0.021670 0.010883 
523451795396839 0.002262 -0.021670 0.010883 
523451815964235 0.002262 -0.021670 0.010883 
523451836532777 0.002262 -0.021670 0.010883 
523451857101006 0.002262 -0.021670 0.010883 
523451877668558 0.002262 -0.021670 0.010883 
523451898238142 0.002262 -0.021670 0.010883 
523451918804965 0.002262 -0.021670 0.010883 
523451939373662 0.002262 -0.021670 0.010883 
523451959941371 0.002262 -0.021670 0.010883 
523451980509547 0.002262 -0.021670 0.010883 
523452001077725 0.002262 -0.021670 0.010883 
523452021645694 0.002262 -0.021670 0.010883 
523452042213818 0.002262 -0.021670 0.010883 
523452062781995 0.002262 -0.021670 0.010883 
523452083351162 0.002262 -0.021670 0.010883 
523452103918454 0.002262 -0.021670 0.010883 
523452124486891 0.002262 -0.021670 0.010883 
523452145054651 0.002262 -0.021670 0.010883 
523452165622516 0.002262 -0.021670 0.010883 
523452186190641 0.002262 -0.021670 0.010883 
523452206759026 0.002262 -0.021670 0.010883 
523452227327151 0.002262 -0.021670 0.010883 
523452247895746 0.002262 -0.021670 0.010883 
523452268463871 0.002262 -0.021670 0.010883 
523452289031162 0.002262 -0.021670 0.010883 
523452309599287 0.002262 -0.021670 0.010883 
523452330168715 0.002262 -0.021670 0.010883 
523452350736840 0.002262 -0.021670 0.010883 
523452371304235 0.002262 -0.021670 0.010883 
523452391872360 0.002262 -0.021670 0.010883 
523452412440537 0.002262 -0.021670 0.010883 
523452433008662 0.002262 -0.021670 0.010883 
523452453576474 0.002262 -0.021670 0.010883 
523452474144651 0.002262 -0.021670 0.010883 
523452494713037 0.002262 -0.021670 0.010883 
523452515281162 0.002262 -0.021670 0.010883 
523452535849496 0.002262 -0.021670 0.010883 
523452556416943 0.002262 -0.021670 0.010883 
523452576986266 0.002262 -0.021670 0.010883 
523452597553505 0.002262 -0.021670 0.010883 
523452618122308 0.002262 -0.021670 0.010883 
523452638689495 0.002262 -0.021670 0.010883 
523452659257151 0.002262 -0.021670 0.010883 
523452679826318 0.002262 -0.021670 0.010883 
523452700394235 0.002262 -0.021670 0.010883 
523452720962568 0.002262 -0.021670 0.010883 
523452741530797 0.002262 -0.021670 0.010883 
523452762100328 0.002262 -0.021670 0.010883 
523452782666786 0.002262 -0.021670 0.010883 
523452803235277 0.002262 -0.021670 0.010883 
523452823803089 0.002262 -0.021670 0.010883 
523452844371475 0.002262 -0.021670 0.010883 
523452864939391 0.002262 -0.021670 0.010883 
523452885505746 0.002262 -0.021670 0.010883 
523452906074444 0.002262 -0.021670 0.010883 
523452926642620 0.002262 -0.021670 0.010883 
523452947210797 0.002262 -0.021670 0.010883 
523452967780381 0.002262 -0.021670 0.010883 
523452988348558 0.002262 -0.021670 0.010883 
523453008916370 0.002262 -0.021670 0.010883 
523453029484547 0.002262 -0.021670 0.010883 
523453050054183 0.002262 -0.021670 0.010883 
523453070622360 0.002262 -0.021670 0.010883 
523453091188557 0.002262 -0.021670 0.010883 
523453111756682 0.002262 -0.021670 0.010883 
523453132324391 0.002262 -0.021670 0.010883 
523453152892516 0.002262 -0.021670 0.010883 
523453173460641 0.002262 -0.021670 0.010883 
523453194028818 0.002262 -0.021670 0.010883 
523453214597099 0.002262 -0.021670 0.010883 
523453235165276 0.002262 -0.021670 0.010883 
523453255732724 0.002262 -0.021670 0.010883 
523453276300485 0.002262 -0.021670 0.010883 
523453296868714 0.002262 -0.021670 0.010883 
523453317439235 0.002262 -0.021670 0.010883 
523453338006526 0.002262 -0.021670 0.010883 
523453358574651 0.002262 -0.021670 0.010883 
523453379142516 0.002262 -0.021670 0.010883 
523453399710381 0.002262 -0.021670 0.010883 
523453420280589 0.002262 -0.021670 0.010883 
523453440848818 0.002262 -0.021670 0.010883 
523453461416318 0.002262 -0.021670 0.010883 
523453481984807 0.002262 -0.021670 0.010883 
523453502551839 0.002262 -0.021670 0.010883 
523453523120484 0.002262 -0.021670 0.010883 
523453543688557 0.002262 -0.021670 0.010883 
523453564256265 0.002262 -0.021670 0.010883 
523453584826475 0.002262 -0.021670 0.010883 
523453605391631 0.002262 -0.021670 0.010883 
523453625959808 0.002262 -0.021670 0.010883 
523453646527724 0.002262 -0.021670 0.010883 
523453667095901 0.002262 -0.021670 0.010883 
523453687665641 0.002262 -0.021670 0.010883 
523453708233818 0.002262 -0.021670 0.010883 
523453728802047 0.002262 -0.021670 0.010883 
523453749370224 0.002262 -0.021670 0.010883 
523453769938974 0.002262 -0.021670 0.010883 
523453790507151 0.002262 -0.021670 0.010883 
523453811074963 0.002262 -0.021670 0.010883 
523453831643140 0.002262 -0.021670 0.010883 
523453852210641 0.002262 -0.021670 0.010883 
523453872778818 0.002262 -0.021670 0.010883 
523453893346422 0.002262 -0.021670 0.010883 
523453913914599 0.002262 -0.021670 0.010883 
523453934482776 0.002262 -0.021670 0.010883 
523453955050953 0.002262 -0.021670 0.010883 
523453975619651 0.002262 -0.021670 0.010883 
523453996187828 0.002262 -0.021670 0.010883 
523454016755953 0.002262 -0.021670 0.010883 
523454037323922 0.002262 -0.021670 0.010883 
523454057892203 0.002262 -0.021670 0.010883 
523454078461006 0.002262 -0.021670 0.010883 
523454099028558 0.002262 -0.021670 0.010883 
523454119596370 0.002262 -0.021670 0.010883 
523454140164339 0.002262 -0.021670 0.010883 
523454160732985 0.002262 -0.021670 0.010883 
523454181301318 0.002262 -0.021670 0.010883 
523454201870119 0.002262 -0.021670 0.010883 
523454222436995 0.002262 -0.021670 0.010883 
523454243005120 0.002262 -0.021670 0.010883 
523454263573713 0.002262 -0.021670 0.010883 
523454284142673 0.002262 -0.021670 0.010883 
523454304710954 0.002262 -0.021670 0.010883 
523454325278401 0.002262 -0.021670 0.010883 
523454345846734 0.002262 -0.021670 0.010883 
523454366415016 0.002262 -0.021670 0.010883 
523454386983245 0.002262 -0.021670 0.010883 
523454407550693 0.002262 -0.021670 0.010883 
523454428118870 0.002262 -0.021670 0.010883 
523454448687411 0.002262 -0.021670 0.010883 
523454469255589 0.002262 -0.021670 0.010883 
523454489824183 0.002262 -0.021670 0.010883 
523454510392412 0.002262 -0.021670 0.010883 
523454530960432 0.002262 -0.021670 0.010883 
523454551528609 0.002262 -0.021670 0.010883 
523454572097463 0.002262 -0.021670 0.010883 
523454592665640 0.002262 -0.021670 0.010883 
523454613233505 0.002262 -0.021670 0.010883 
523454633801682 0.002262 -0.021670 0.010883 
523454654369756 0.002262 -0.021670 0.010883 
523454674937985 0.002262 -0.021670 0.010883 
523454695507255 0.002262 -0.021670 0.010883 
523454716075484 0.002262 -0.021670 0.010883 
523454736643400 0.002262 -0.021670 0.010883 
523454757211526 0.002262 -0.021670 0.010883 
523454777780171 0.002262 -0.021670 0.010883 
523454798346942 0.002262 -0.021670 0.010883 
523454818914963 0.002262 -0.021670 0.010883 
523454839483922 0.002262 -0.021670 0.010883 
523454860051266 0.002262 -0.021670 0.010883 
523454880619703 0.002262 -0.021670 0.010883 
523454901187776 0.002262 -0.021670 0.010883 
523454921756838 0.002262 -0.021670 0.010883 
523454942324546 0.002262 -0.021670 0.010883 
523454962893921 0.002262 -0.021670 0.010883 
523454983461474 0.002262 -0.021670 0.010883 
523455004029182 0.002262 -0.021670 0.010883 
523455024597724 0.002262 -0.021670 0.010883 
523455045165432 0.002262 -0.021670 0.010883 
523455065733452 0.002262 -0.021670 0.010883 
523455086301057 0.002262 -0.021670 0.010883 
523455106869286 0.002262 -0.021670 0.010883 
523455127437411 0.002262 -0.021670 0.010883 
523455148005641 0.002262 -0.021670 0.010883 
523455168574860 0.002262 -0.021670 0.010883 
523455189143037 0.002262 -0.021670 0.010883 
523455209710953 0.002262 -0.021670 0.010883 
523455230279130 0.002262 -0.021670 0.010883 
523455250846786 0.002262 -0.021670 0.010883 
523455271415015 0.002262 -0.021670 0.010883 
523455291983141 0.002262 -0.021670 0.010883 
523455312551370 0.002262 -0.021670 0.010883 
523455333119598 0.002262 -0.021670 0.010883 
523455353687775 0.002262 -0.021670 0.010883 
523455374256213 0.002262 -0.021670 0.010883 
523455394824442 0.002262 -0.021670 0.010883 
523455415392463 0.002262 -0.021670 0.010883 
523455435960693 0.002262 -0.021670 0.010883 
523455456529183 0.002262 -0.021670 0.010883 
523455477097307 0.002262 -0.021670 0.010883 
523455497665536 0.002262 -0.021670 0.010883 
523455518233869 0.002262 -0.021670 0.010883 
523455538801733 0.002262 -0.021670 0.010883 
523455559370067 0.002262 -0.021670 0.010883 
523455579938141 0.002262 -0.021670 0.010883 
523455600506369 0.002262 -0.021670 0.010883 
523455621074650 0.002262 -0.021670 0.010883 
523455641643297 0.002262 -0.021670 0.010883 
523455662211213 0.002262 -0.021670 0.010883 
523455682780692 0.002262 -0.021670 0.010883 
523455703349441 0.002262 -0.021670 0.010883 
523455723917568 0.002262 -0.021670 0.010883 
523455744485848 0.002262 -0.021670 0.010883 
523455765052307 0.002262 -0.021670 0.010883 
523455785621265 0.002262 -0.021670 0.010883 
523455806188609 0.002262 -0.021670 0.010883 
523455826756838 0.002262 -0.021670 0.010883 
523455847325224 0.002262 -0.021670 0.010883 
523455867893453 0.002262 -0.021670 0.010883 
523455888462099 0.002262 -0.021670 0.010883 
523455909030276 0.002262 -0.021670 0.010883 
523455929599389 0.002262 -0.021670 0.010883 
523455950167618 0.002262 -0.021670 0.010883 
523455970734337 0.002262 -0.021670 0.010883 
523455991302567 0.002262 -0.021670 0.010883 
523456011870953 0.002262 -0.021670 0.010883 
523456032439182 0.002262 -0.021670 0.010883 
523456053007254 0.002262 -0.021670 0.010883 
523456073575483 0.002262 -0.021670 0.010883 
523456094147150 0.002262 -0.021670 0.010883 
523456114715380 0.002262 -0.021670 0.010883 
523456135282046 0.002262 -0.021670 0.010883 
523456155850275 0.002262 -0.021670 0.010883 
523456176416942 0.002262 -0.021670 0.010883 
523456196985379 0.002262 -0.021670 0.010883 
523456217553399 0.002262 -0.021670 0.010883 
523456238122047 0.002262 -0.021670 0.010883 
523456258690692 0.002262 -0.021670 0.010883 
523456279261577 0.002262 -0.021670 0.010883 
523456299828192 0.002262 -0.021670 0.010883 
523456320394962 0.002262 -0.021670 0.010883 
523456340963191 0.002262 -0.021670 0.010883 
523456361530953 0.002262 -0.021670 0.010883 
523456382099026 0.002262 -0.021670 0.010883 
523456402667463 0.002262 -0.021670 0.010883 
523456423235431 0.002262 -0.021670 0.010883 
523456443804025 0.002262 -0.021670 0.010883 
523456464371890 0.002262 -0.021670 0.010883 
523456484940223 0.002262 -0.021670 0.010883 
523456505508452 0.002262 -0.021670 0.010883 
523456526076525 0.002262 -0.021670 0.010883 
523456546644806 0.002262 -0.021670 0.010883 
523456567213191 0.002262 -0.021670 0.010883 
523456587781421 0.002262 -0.021670 0.010883 
523456608349442 0.002262 -0.021670 0.010883 
523456628917671 0.002262 -0.021670 0.010883 
523456649486889 0.002262 -0.021670 0.010883 
523456670055118 0.002262 -0.021670 0.010883 
523456690623504 0.002262 -0.021670 0.010883 
523456711191734 0.002262 -0.021670 0.010883 
523456731760067 0.002262 -0.021670 0.010883 
523456752328296 0.002262 -0.021670 0.010883 
523456772896109 0.002262 -0.021670 0.010883 
