# Created at Thu Nov 07 18:43:26 EST 2019 in Burnaby Canada 
523450630922673 45.002232 190.324265 -6.960118 
523450650923247 45.002232 190.324265 -6.960118 
523450670922934 45.002232 190.324265 -6.960118 
523450690922829 45.002232 190.324265 -6.960118 
523450710922516 45.002232 190.324265 -6.960118 
523450717303246 45.002232 190.324265 -6.960118 
523450730925173 45.002232 190.324265 -6.960118 
523450750922725 45.002232 190.324265 -6.960118 
523450770924443 45.002232 190.324265 -6.960118 
523450790922673 45.002232 190.324265 -6.960118 
523450810924131 45.002232 190.324265 -6.960118 
523450831263818 45.002232 190.324265 -6.960118 
523450850922881 45.002232 190.324265 -6.960118 
523450870922517 45.002232 190.324265 -6.960118 
523450890922620 45.002232 190.324265 -6.960118 
523450910922934 45.002232 190.324265 -6.960118 
523450930923403 45.002232 190.324265 -6.960118 
523450951131111 45.002232 190.324265 -6.960118 
523450970924496 45.002232 190.324265 -6.960118 
523450990922934 45.002232 190.324265 -6.960118 
523451010923714 45.002232 190.324265 -6.960118 
523451030923090 45.002232 190.324265 -6.960118 
523451050923246 45.002232 190.324265 -6.960118 
523451070923247 45.002232 190.324265 -6.960118 
523451090923767 45.002232 190.324265 -6.960118 
523451110922672 45.002232 190.324265 -6.960118 
523451130924444 45.002232 190.324265 -6.960118 
523451150923246 45.002232 190.324265 -6.960118 
523451170925226 45.002232 190.324265 -6.960118 
523451191201318 45.002232 190.324265 -6.960118 
523451210982516 45.002232 190.324265 -6.960118 
523451230922465 45.002232 190.324265 -6.960118 
523451250923767 45.002232 190.324265 -6.960118 
523451270922777 45.002232 190.324265 -6.960118 
523451290922829 45.002232 190.324265 -6.960118 
523451310922829 45.002232 190.324265 -6.960118 
523451330923038 45.002232 190.324265 -6.960118 
523451350922829 45.002232 190.324265 -6.960118 
523451370929287 45.002232 190.324265 -6.960118 
523451390922621 45.002232 190.324265 -6.960118 
523451410923767 45.002232 190.324265 -6.960118 
523451430923090 45.002232 190.324265 -6.960118 
523451450928558 45.002232 190.324265 -6.960118 
523451470922569 45.002232 190.324265 -6.960118 
523451490923402 45.002232 190.324265 -6.960118 
523451510923663 45.002232 190.324265 -6.960118 
523451530923715 45.002232 190.324265 -6.960118 
523451551147257 45.002232 190.324265 -6.960118 
523451570970589 45.002232 190.324265 -6.960118 
523451590970120 45.002232 190.324265 -6.960118 
523451610922830 45.002232 190.324265 -6.960118 
523451630922986 45.002232 190.324265 -6.960118 
523451650930485 45.002232 190.324265 -6.960118 
523451670923506 45.002232 190.324265 -6.960118 
523451690931318 45.002232 190.324265 -6.960118 
523451710924183 45.002232 190.324265 -6.960118 
523451730961475 45.002232 190.324265 -6.960118 
523451750924236 45.002232 190.324265 -6.960118 
523451770966214 45.002232 190.324265 -6.960118 
523451790924495 45.002232 190.324265 -6.960118 
523451810923611 45.002232 190.324265 -6.960118 
523451830924183 45.002232 190.324265 -6.960118 
523451850926162 45.002232 190.324265 -6.960118 
523451870924391 45.002232 190.324265 -6.960118 
523451890924391 45.002232 190.324265 -6.960118 
523451911075017 45.002232 190.324265 -6.960118 
523451931073715 45.002232 190.324265 -6.960118 
523451951137881 45.002232 190.324265 -6.960118 
523451970925538 45.002232 190.324265 -6.960118 
523451990924651 45.002232 190.324265 -6.960118 
523452010924652 45.002232 190.324265 -6.960118 
523452030924236 45.002232 190.324265 -6.960118 
523452050924808 45.002232 190.324265 -6.960118 
523452070924339 45.002232 190.324265 -6.960118 
523452090925589 45.002232 190.324265 -6.960118 
523452110924339 45.002232 190.324265 -6.960118 
523452130924340 45.002232 190.324265 -6.960118 
523452150924807 45.002232 190.324265 -6.960118 
523452170960433 45.002232 190.324265 -6.960118 
523452190924547 45.002232 190.324265 -6.960118 
523452210924234 45.002232 190.324265 -6.960118 
523452230924234 45.002232 190.324265 -6.960118 
523452250961840 45.002232 190.324265 -6.960118 
523452271020642 45.002232 190.324265 -6.960118 
523452291020589 45.002232 190.324265 -6.960118 
523452310923714 45.002232 190.324265 -6.960118 
523452330925380 45.002232 190.324265 -6.960118 
523452350925850 45.002232 190.324265 -6.960118 
523452370983245 45.002232 190.324265 -6.960118 
523452390924079 45.002232 190.324265 -6.960118 
523452410924339 45.002232 190.324265 -6.960118 
523452430924495 45.002232 190.324265 -6.960118 
523452450924444 45.002232 190.324265 -6.960118 
523452470924182 45.002232 190.324265 -6.960118 
523452490961267 45.002232 190.324265 -6.960118 
523452510924912 45.002232 190.324265 -6.960118 
523452530961110 45.002232 190.324265 -6.960118 
523452550924809 45.002232 190.324265 -6.960118 
523452570925954 45.002232 190.324265 -6.960118 
523452590925172 45.002232 190.324265 -6.960118 
523452610925432 45.002232 190.324265 -6.960118 
523452630974652 45.002232 190.324265 -6.960118 
523452650973193 45.002232 190.324265 -6.960118 
523452670923401 45.002232 190.324265 -6.960118 
523452690923922 45.002232 190.324265 -6.960118 
523452710924235 45.002232 190.324265 -6.960118 
523452730964235 45.002232 190.324265 -6.960118 
523452750924860 45.002232 190.324265 -6.960118 
523452770925328 45.002232 190.324265 -6.960118 
523452790924807 45.002232 190.324265 -6.960118 
523452810924652 45.002232 190.324265 -6.960118 
523452830924286 45.002232 190.324265 -6.960118 
523452850924339 45.002232 190.324265 -6.960118 
523452870924391 45.002232 190.324265 -6.960118 
523452890923037 45.002232 190.324265 -6.960118 
523452910923090 45.002232 190.324265 -6.960118 
523452930924338 45.002232 190.324265 -6.960118 
523452951131318 45.002232 190.324265 -6.960118 
523452970925120 45.002232 190.324265 -6.960118 
523452990948662 45.002232 190.324265 -6.960118 
523453010948349 45.002232 190.324265 -6.960118 
523453030924964 45.002232 190.324265 -6.960118 
523453050925329 45.002232 190.324265 -6.960118 
523453070926058 45.002232 190.324265 -6.960118 
523453090924130 45.002232 190.324265 -6.960118 
523453110923818 45.002232 190.324265 -6.960118 
523453130924391 45.002232 190.324265 -6.960118 
523453150923558 45.002232 190.324265 -6.960118 
523453170924755 45.002232 190.324265 -6.960118 
523453190923923 45.002232 190.324265 -6.960118 
523453210928193 45.002232 190.324265 -6.960118 
523453217704339 45.002232 190.324265 -6.960118 
523453230923662 45.002232 190.324265 -6.960118 
523453250923766 45.002232 190.324265 -6.960118 
523453270923244 45.002232 190.324265 -6.960118 
523453290922464 45.002232 190.324265 -6.960118 
523453310922359 45.002232 190.324265 -6.960118 
523453330924547 45.002232 190.324265 -6.960118 
523453350943609 45.002232 190.324265 -6.960118 
523453370945016 45.002232 190.324265 -6.960118 
523453390923193 45.002232 190.324265 -6.960118 
523453410922881 45.002232 190.324265 -6.960118 
523453430925433 45.002232 190.324265 -6.960118 
523453450924391 45.002232 190.324265 -6.960118 
523453470924443 45.002232 190.324265 -6.960118 
523453490928714 45.002232 190.324265 -6.960118 
523453510924339 45.002232 190.324265 -6.960118 
523453530992725 45.002232 190.324265 -6.960118 
523453550924755 45.002232 190.324265 -6.960118 
523453570925901 45.002232 190.324265 -6.960118 
523453590926214 45.002232 190.324265 -6.960118 
523453610922620 45.002232 190.324265 -6.960118 
523453630922933 45.002232 190.324265 -6.960118 
523453650923088 45.002232 190.324265 -6.960118 
523453670923297 45.002232 190.324265 -6.960118 
523453690924391 45.002232 190.324265 -6.960118 
523453710936891 45.002232 190.324265 -6.960118 
523453730936943 45.002232 190.324265 -6.960118 
523453750924130 45.002232 190.324265 -6.960118 
523453770925902 45.002232 190.324265 -6.960118 
523453790924808 45.002232 190.324265 -6.960118 
523453810924287 45.002232 190.324265 -6.960118 
523453830924182 45.002232 190.324265 -6.960118 
523453850963089 45.002232 190.324265 -6.960118 
523453870923922 45.002232 190.324265 -6.960118 
523453890923402 45.002232 190.324265 -6.960118 
523453910922828 45.002232 190.324265 -6.960118 
523453930924704 45.002232 190.324265 -6.960118 
523453951131161 45.002232 190.324265 -6.960118 
523453970922881 45.002232 190.324265 -6.960118 
523453990924078 45.002232 190.324265 -6.960118 
523454010928297 45.002232 190.324265 -6.960118 
523454030923766 45.002232 190.324265 -6.960118 
523454050923870 45.002232 190.324265 -6.960118 
523454070934391 45.002232 190.324265 -6.960118 
523454091308349 45.002232 190.324265 -6.960118 
523454110923974 45.002232 190.324265 -6.960118 
523454130925276 45.002232 190.324265 -6.960118 
523454150922724 45.002232 190.324265 -6.960118 
523454170923297 45.002232 190.324265 -6.960118 
523454190924391 45.002232 190.324265 -6.960118 
523454210924754 45.002232 190.324265 -6.960118 
523454230922724 45.002232 190.324265 -6.960118 
523454250923245 45.002232 190.324265 -6.960118 
523454270923453 45.002232 190.324265 -6.960118 
523454290923869 45.002232 190.324265 -6.960118 
523454310924756 45.002232 190.324265 -6.960118 
523454330924443 45.002232 190.324265 -6.960118 
523454350923505 45.002232 190.324265 -6.960118 
523454370923662 45.002232 190.324265 -6.960118 
523454390923506 45.002232 190.324265 -6.960118 
523454410932099 45.002232 190.324265 -6.960118 
523454430916266 45.002232 190.324265 -6.960118 
523454451269182 45.002232 190.324265 -6.960118 
523454470923557 45.002232 190.324265 -6.960118 
523454490932620 45.002232 190.324265 -6.960118 
523454510924131 45.002232 190.324265 -6.960118 
523454530923453 45.002232 190.324265 -6.960118 
523454550924078 45.002232 190.324265 -6.960118 
523454570922671 45.002232 190.324265 -6.960118 
523454590923869 45.002232 190.324265 -6.960118 
523454610923089 45.002232 190.324265 -6.960118 
523454630923766 45.002232 190.324265 -6.960118 
523454650923973 45.002232 190.324265 -6.960118 
523454670923610 45.002232 190.324265 -6.960118 
523454690962098 45.002232 190.324265 -6.960118 
523454710924494 45.002232 190.324265 -6.960118 
523454730961213 45.002232 190.324265 -6.960118 
523454750923973 45.002232 190.324265 -6.960118 
523454770929078 45.002232 190.324265 -6.960118 
523454790918765 45.002232 190.324265 -6.960118 
523454811205015 45.002232 190.324265 -6.960118 
523454830969806 45.002232 190.324265 -6.960118 
523454850929181 45.002232 190.324265 -6.960118 
523454870923089 45.002232 190.324265 -6.960118 
523454890923609 45.002232 190.324265 -6.960118 
523454910923193 45.002232 190.324265 -6.960118 
523454930923870 45.002232 190.324265 -6.960118 
523454951131473 45.002232 190.324265 -6.960118 
523454970923089 45.002232 190.324265 -6.960118 
523454990924963 45.002232 190.324265 -6.960118 
523455010923244 45.002232 190.324265 -6.960118 
523455030924391 45.002232 190.324265 -6.960118 
523455050923400 45.002232 190.324265 -6.960118 
523455070923296 45.002232 190.324265 -6.960118 
523455090922880 45.002232 190.324265 -6.960118 
523455110922411 45.002232 190.324265 -6.960118 
523455130922672 45.002232 190.324265 -6.960118 
523455150916370 45.002232 190.324265 -6.960118 
523455171144079 45.002232 190.324265 -6.960118 
523455190970589 45.002232 190.324265 -6.960118 
523455210971056 45.002232 190.324265 -6.960118 
523455230923453 45.002232 190.324265 -6.960118 
523455250922724 45.002232 190.324265 -6.960118 
523455270922932 45.002232 190.324265 -6.960118 
523455290922880 45.002232 190.324265 -6.960118 
523455310922724 45.002232 190.324265 -6.960118 
523455330922672 45.002232 190.324265 -6.960118 
523455350922619 45.002232 190.324265 -6.960118 
523455370922880 45.002232 190.324265 -6.960118 
523455390922619 45.002232 190.324265 -6.960118 
523455410922723 45.002232 190.324265 -6.960118 
523455430922568 45.002232 190.324265 -6.960118 
523455450922880 45.002232 190.324265 -6.960118 
523455470923141 45.002232 190.324265 -6.960118 
523455490923244 45.002232 190.324265 -6.960118 
523455510916578 45.002232 190.324265 -6.960118 
523455531087203 45.002232 190.324265 -6.960118 
523455551087046 45.002232 190.324265 -6.960118 
523455570958088 45.002232 190.324265 -6.960118 
523455590923088 45.002232 190.324265 -6.960118 
523455610923661 45.002232 190.324265 -6.960118 
523455630922723 45.002232 190.324265 -6.960118 
523455650922723 45.002232 190.324265 -6.960118 
523455670922724 45.002232 190.324265 -6.960118 
523455690923557 45.002232 190.324265 -6.960118 
523455710924546 45.002232 190.324265 -6.960118 
523455717347202 45.002232 190.324265 -6.960118 
523455730923452 45.002232 190.324265 -6.960118 
523455750924494 45.002232 190.324265 -6.960118 
523455770924598 45.002232 190.324265 -6.960118 
523455790923244 45.002232 190.324265 -6.960118 
523455810922984 45.002232 190.324265 -6.960118 
523455830922463 45.002232 190.324265 -6.960118 
523455850922307 45.002232 190.324265 -6.960118 
523455870916578 45.002232 190.324265 -6.960118 
523455891031109 45.002232 190.324265 -6.960118 
523455911031109 45.002232 190.324265 -6.960118 
523455930926369 45.002232 190.324265 -6.960118 
523455951131889 45.002232 190.324265 -6.960118 
523455970922618 45.002232 190.324265 -6.960118 
523455990923244 45.002232 190.324265 -6.960118 
523456010923088 45.002232 190.324265 -6.960118 
523456030922672 45.002232 190.324265 -6.960118 
523456050922776 45.002232 190.324265 -6.960118 
523456070922723 45.002232 190.324265 -6.960118 
523456090927775 45.002232 190.324265 -6.960118 
523456110925692 45.002232 190.324265 -6.960118 
523456130923869 45.002232 190.324265 -6.960118 
523456150924337 45.002232 190.324265 -6.960118 
523456170924129 45.002232 190.324265 -6.960118 
523456190923036 45.002232 190.324265 -6.960118 
523456210923036 45.002232 190.324265 -6.960118 
523456217387150 45.002232 190.324265 -6.960118 
523456230916993 45.002232 190.324265 -6.960118 
523456250974963 45.002232 190.324265 -6.960118 
523456270975379 45.002232 190.324265 -6.960118 
523456290927358 45.002232 190.324265 -6.960118 
523456310924442 45.002232 190.324265 -6.960118 
523456330971682 45.002232 190.324265 -6.960118 
523456350922879 45.002232 190.324265 -6.960118 
523456370922828 45.002232 190.324265 -6.960118 
523456390922932 45.002232 190.324265 -6.960118 
523456410925900 45.002232 190.324265 -6.960118 
523456430922827 45.002232 190.324265 -6.960118 
523456450921682 45.002232 190.324265 -6.960118 
523456470922880 45.002232 190.324265 -6.960118 
523456490922931 45.002232 190.324265 -6.960118 
523456510922514 45.002232 190.324265 -6.960118 
523456530923400 45.002232 190.324265 -6.960118 
523456550926577 45.002232 190.324265 -6.960118 
523456570923556 45.002232 190.324265 -6.960118 
523456590923139 45.002232 190.324265 -6.960118 
523456610950692 45.002232 190.324265 -6.960118 
523456630950692 45.002232 190.324265 -6.960118 
523456650923036 45.002232 190.324265 -6.960118 
523456670923504 45.002232 190.324265 -6.960118 
523456690923973 45.002232 190.324265 -6.960118 
523456710923661 45.002232 190.324265 -6.960118 
523456730923401 45.002232 190.324265 -6.960118 
523456750923765 45.002232 190.324265 -6.960118 
523456770923036 45.002232 190.324265 -6.960118 
523456790923140 45.002232 190.324265 -6.960118 
