# Created at Thu Nov 07 18:53:39 EST 2019 in Burnaby Canada 
524063957949471 -0.006126 -0.005372 0.007798 
524063978517231 -0.006126 -0.005372 0.007798 
524063999085460 -0.006126 -0.005372 0.007798 
524064019653586 -0.006126 -0.005372 0.007798 
524064040222075 -0.006126 -0.005372 0.007798 
524064060791658 -0.006126 -0.005372 0.007798 
524064081360095 -0.006126 -0.005372 0.007798 
524064101928794 -0.006126 -0.005372 0.007798 
524064122496814 -0.006126 -0.005372 0.007798 
524064143065251 -0.006126 -0.005372 0.007798 
524064163633846 -0.006126 -0.005372 0.007798 
524064184202700 -0.006126 -0.005372 0.007798 
524064204770928 -0.006126 -0.005372 0.007798 
524064225339991 -0.006126 -0.005372 0.007798 
524064245908273 -0.006126 -0.005372 0.007798 
524064266477075 -0.006126 -0.005372 0.007798 
524064287045355 -0.006126 -0.005372 0.007798 
524064307614678 -0.006126 -0.005372 0.007798 
524064328182803 -0.006126 -0.005372 0.007798 
524064348751970 -0.006126 -0.005372 0.007798 
524064369319679 -0.006126 -0.005372 0.007798 
524064389888377 -0.006126 -0.005372 0.007798 
524064410456762 -0.006126 -0.005372 0.007798 
524064431025564 -0.006126 -0.005372 0.007798 
524064451594001 -0.006126 -0.005372 0.007798 
524064472162595 -0.006126 -0.005372 0.007798 
524064492731293 -0.006126 -0.005372 0.007798 
524064513299939 -0.006126 -0.005372 0.007798 
524064533868428 -0.006126 -0.005372 0.007798 
524064554437022 -0.006126 -0.005372 0.007798 
524064575005512 -0.006126 -0.005372 0.007798 
524064595574366 -0.006126 -0.005372 0.007798 
524064616142907 -0.006126 -0.005372 0.007798 
524064636711293 -0.006126 -0.005372 0.007798 
524064657280356 -0.006126 -0.005372 0.007798 
524064677848533 -0.006126 -0.005372 0.007798 
524064698417438 -0.006126 -0.005372 0.007798 
524064718985720 -0.006126 -0.005372 0.007798 
524064739555095 -0.006126 -0.005372 0.007798 
524064760123377 -0.006126 -0.005372 0.007798 
524064780692334 -0.006126 -0.005372 0.007798 
524064801260563 -0.006126 -0.005372 0.007798 
524064821830147 -0.006126 -0.005372 0.007798 
524064842398325 -0.006126 -0.005372 0.007798 
524064862967387 -0.006126 -0.005372 0.007798 
524064883535251 -0.006126 -0.005372 0.007798 
524064904103637 -0.006126 -0.005372 0.007798 
524064924671866 -0.006126 -0.005372 0.007798 
524064945242074 -0.006126 -0.005372 0.007798 
524064965810459 -0.006126 -0.005372 0.007798 
524064986378533 -0.006126 -0.005372 0.007798 
524065006946398 -0.006126 -0.005372 0.007798 
524065027517699 -0.006126 -0.005372 0.007798 
524065048086449 -0.006126 -0.005372 0.007798 
524065068653376 -0.006126 -0.005372 0.007798 
524065089220616 -0.006126 -0.005372 0.007798 
524065109790199 -0.006126 -0.005372 0.007798 
524065130358480 -0.006126 -0.005372 0.007798 
524065150928116 -0.006126 -0.005372 0.007798 
524065171495825 -0.006126 -0.005372 0.007798 
524065192064782 -0.006126 -0.005372 0.007798 
524065212633168 -0.006126 -0.005372 0.007798 
524065233202023 -0.006126 -0.005372 0.007798 
524065253771137 -0.006126 -0.005372 0.007798 
524065274339365 -0.006126 -0.005372 0.007798 
524065294908116 -0.006126 -0.005372 0.007798 
524065315476032 -0.006126 -0.005372 0.007798 
524065336043846 -0.006126 -0.005372 0.007798 
524065356612335 -0.006126 -0.005372 0.007798 
524065377181292 -0.006126 -0.005372 0.007798 
524065397749834 -0.006126 -0.005372 0.007798 
524065418318689 -0.006126 -0.005372 0.007798 
524065438887543 -0.006126 -0.005372 0.007798 
524065459456136 -0.006126 -0.005372 0.007798 
524065480024470 -0.006126 -0.005372 0.007798 
524065500593376 -0.006126 -0.005372 0.007798 
524065521162335 -0.006126 -0.005372 0.007798 
524065541730302 -0.006126 -0.005372 0.007798 
524065562298740 -0.006126 -0.005372 0.007798 
524065582867543 -0.006126 -0.005372 0.007798 
524065603436084 -0.006126 -0.005372 0.007798 
524065624004418 -0.006126 -0.005372 0.007798 
524065644573012 -0.006126 -0.005372 0.007798 
524065665145043 -0.006126 -0.005372 0.007798 
524065685714106 -0.006126 -0.005372 0.007798 
524065706279210 -0.006126 -0.005372 0.007798 
524065726848375 -0.006126 -0.005372 0.007798 
524065747416137 -0.006126 -0.005372 0.007798 
524065767985095 -0.006126 -0.005372 0.007798 
524065788553481 -0.006126 -0.005372 0.007798 
524065809122074 -0.006126 -0.005372 0.007798 
524065829693064 -0.006126 -0.005372 0.007798 
524065850260042 -0.006126 -0.005372 0.007798 
524065870827699 -0.006126 -0.005372 0.007798 
524065891396189 -0.006126 -0.005372 0.007798 
524065911965199 -0.006126 -0.005372 0.007798 
524065932533948 -0.006126 -0.005372 0.007798 
524065953102542 -0.006126 -0.005372 0.007798 
524065973671033 -0.006126 -0.005372 0.007798 
524065994239834 -0.006126 -0.005372 0.007798 
524066014808584 -0.006126 -0.005372 0.007798 
524066035378064 -0.006126 -0.005372 0.007798 
524066055945928 -0.006126 -0.005372 0.007798 
524066076513793 -0.006126 -0.005372 0.007798 
524066097082959 -0.006126 -0.005372 0.007798 
524066117651344 -0.006126 -0.005372 0.007798 
524066138221761 -0.006126 -0.005372 0.007798 
524066158788948 -0.006126 -0.005372 0.007798 
524066179358376 -0.006126 -0.005372 0.007798 
524066199926501 -0.006126 -0.005372 0.007798 
524066220495251 -0.006126 -0.005372 0.007798 
524066241064417 -0.006126 -0.005372 0.007798 
524066261633324 -0.006126 -0.005372 0.007798 
524066282200928 -0.006126 -0.005372 0.007798 
524066302770355 -0.006126 -0.005372 0.007798 
524066323339209 -0.006126 -0.005372 0.007798 
524066343906761 -0.006126 -0.005372 0.007798 
524066364475407 -0.006126 -0.005372 0.007798 
524066385046918 -0.006126 -0.005372 0.007798 
524066405613793 -0.006126 -0.005372 0.007798 
524066426183480 -0.006126 -0.005372 0.007798 
524066446750563 -0.006126 -0.005372 0.007798 
524066467318532 -0.006126 -0.005372 0.007798 
524066487886709 -0.006126 -0.005372 0.007798 
524066508456137 -0.006126 -0.005372 0.007798 
524066529024470 -0.006126 -0.005372 0.007798 
524066549594313 -0.006126 -0.005372 0.007798 
524066570162126 -0.006126 -0.005372 0.007798 
524066590729938 -0.006126 -0.005372 0.007798 
524066611298115 -0.006126 -0.005372 0.007798 
524066631866970 -0.006126 -0.005372 0.007798 
524066652435823 -0.006126 -0.005372 0.007798 
524066673004209 -0.006126 -0.005372 0.007798 
524066693573011 -0.006126 -0.005372 0.007798 
524066714141553 -0.006126 -0.005372 0.007798 
524066734711293 -0.006126 -0.005372 0.007798 
524066755279157 -0.006126 -0.005372 0.007798 
524066775848688 -0.006126 -0.005372 0.007798 
524066796417802 -0.006126 -0.005372 0.007798 
524066816986344 -0.006126 -0.005372 0.007798 
524066837554782 -0.006126 -0.005372 0.007798 
524066858123740 -0.006126 -0.005372 0.007798 
524066878692073 -0.006126 -0.005372 0.007798 
524066899261240 -0.006126 -0.005372 0.007798 
524066919829678 -0.006126 -0.005372 0.007798 
524066940399157 -0.006126 -0.005372 0.007798 
524066960967125 -0.006126 -0.005372 0.007798 
524066981536033 -0.006126 -0.005372 0.007798 
524067002104209 -0.006126 -0.005372 0.007798 
524067022673011 -0.006126 -0.005372 0.007798 
524067043241240 -0.006126 -0.005372 0.007798 
524067063810095 -0.006126 -0.005372 0.007798 
524067084378376 -0.006126 -0.005372 0.007798 
524067104947908 -0.006126 -0.005372 0.007798 
524067125516917 -0.006126 -0.005372 0.007798 
524067146084573 -0.006126 -0.005372 0.007798 
524067166652438 -0.006126 -0.005372 0.007798 
524067187221344 -0.006126 -0.005372 0.007798 
524067207789991 -0.006126 -0.005372 0.007798 
524067228359417 -0.006126 -0.005372 0.007798 
524067248927386 -0.006126 -0.005372 0.007798 
524067269495928 -0.006126 -0.005372 0.007798 
524067290064209 -0.006126 -0.005372 0.007798 
524067310633584 -0.006126 -0.005372 0.007798 
524067331202646 -0.006126 -0.005372 0.007798 
524067351770355 -0.006126 -0.005372 0.007798 
524067372338845 -0.006126 -0.005372 0.007798 
524067392908688 -0.006126 -0.005372 0.007798 
524067413475927 -0.006126 -0.005372 0.007798 
524067434044365 -0.006126 -0.005372 0.007798 
524067454613324 -0.006126 -0.005372 0.007798 
524067475184886 -0.006126 -0.005372 0.007798 
524067495750720 -0.006126 -0.005372 0.007798 
524067516319470 -0.006126 -0.005372 0.007798 
524067536889469 -0.006126 -0.005372 0.007798 
524067557457646 -0.006126 -0.005372 0.007798 
524067578025458 -0.006126 -0.005372 0.007798 
524067598593949 -0.006126 -0.005372 0.007798 
524067619163167 -0.006126 -0.005372 0.007798 
524067639731292 -0.006126 -0.005372 0.007798 
524067660299834 -0.006126 -0.005372 0.007798 
524067680868635 -0.006126 -0.005372 0.007798 
524067701437594 -0.006126 -0.005372 0.007798 
524067722005458 -0.006126 -0.005372 0.007798 
524067742575406 -0.006126 -0.005372 0.007798 
524067763143584 -0.006126 -0.005372 0.007798 
524067783711345 -0.006126 -0.005372 0.007798 
524067804279834 -0.006126 -0.005372 0.007798 
524067824850146 -0.006126 -0.005372 0.007798 
524067845418375 -0.006126 -0.005372 0.007798 
524067865987958 -0.006126 -0.005372 0.007798 
524067886555823 -0.006126 -0.005372 0.007798 
524067907125198 -0.006126 -0.005372 0.007798 
524067927692906 -0.006126 -0.005372 0.007798 
524067948261709 -0.006126 -0.005372 0.007798 
524067968829990 -0.006126 -0.005372 0.007798 
524067989399469 -0.006126 -0.005372 0.007798 
524068009967281 -0.006126 -0.005372 0.007798 
524068030536813 -0.006126 -0.005372 0.007798 
524068051105406 -0.006126 -0.005372 0.007798 
524068071673271 -0.006126 -0.005372 0.007798 
524068092240720 -0.006126 -0.005372 0.007798 
524068112810303 -0.006126 -0.005372 0.007798 
524068133379001 -0.006126 -0.005372 0.007798 
524068153947906 -0.006126 -0.005372 0.007798 
524068174516708 -0.006126 -0.005372 0.007798 
524068195085718 -0.006126 -0.005372 0.007798 
524068215654468 -0.006126 -0.005372 0.007798 
524068236222802 -0.006126 -0.005372 0.007798 
524068256791448 -0.006126 -0.005372 0.007798 
524068277360355 -0.006126 -0.005372 0.007798 
524068297929105 -0.006126 -0.005372 0.007798 
524068318497385 -0.006126 -0.005372 0.007798 
524068339065979 -0.006126 -0.005372 0.007798 
524068359634676 -0.006126 -0.005372 0.007798 
524068380202646 -0.006126 -0.005372 0.007798 
524068400772073 -0.006126 -0.005372 0.007798 
524068421340302 -0.006126 -0.005372 0.007798 
524068441908636 -0.006126 -0.005372 0.007798 
524068462477282 -0.006126 -0.005372 0.007798 
524068483045980 -0.006126 -0.005372 0.007798 
524068503615614 -0.006126 -0.005372 0.007798 
524068524184156 -0.006126 -0.005372 0.007798 
524068544754416 -0.006126 -0.005372 0.007798 
524068565322021 -0.006126 -0.005372 0.007798 
524068585890511 -0.006126 -0.005372 0.007798 
524068606458480 -0.006126 -0.005372 0.007798 
524068627027126 -0.006126 -0.005372 0.007798 
524068647595719 -0.006126 -0.005372 0.007798 
524068668164781 -0.006126 -0.005372 0.007798 
524068688732853 -0.006126 -0.005372 0.007798 
524068709302073 -0.006126 -0.005372 0.007798 
524068729870458 -0.006126 -0.005372 0.007798 
524068750439416 -0.006126 -0.005372 0.007798 
524068771007749 -0.006126 -0.005372 0.007798 
524068791576500 -0.006126 -0.005372 0.007798 
524068812145615 -0.006126 -0.005372 0.007798 
524068832714313 -0.006126 -0.005372 0.007798 
524068853283114 -0.006126 -0.005372 0.007798 
524068873851655 -0.006126 -0.005372 0.007798 
524068894420458 -0.006126 -0.005372 0.007798 
524068914989625 -0.006126 -0.005372 0.007798 
524068935556656 -0.006126 -0.005372 0.007798 
524068956127645 -0.006126 -0.005372 0.007798 
524068976694833 -0.006126 -0.005372 0.007798 
524068997263531 -0.006126 -0.005372 0.007798 
524069017833062 -0.006126 -0.005372 0.007798 
524069038401032 -0.006126 -0.005372 0.007798 
524069058970302 -0.006126 -0.005372 0.007798 
524069079538062 -0.006126 -0.005372 0.007798 
524069100107385 -0.006126 -0.005372 0.007798 
524069120675197 -0.006126 -0.005372 0.007798 
524069141244625 -0.006126 -0.005372 0.007798 
524069161813219 -0.006126 -0.005372 0.007798 
524069182382021 -0.006126 -0.005372 0.007798 
524069202952073 -0.006126 -0.005372 0.007798 
524069223520771 -0.006126 -0.005372 0.007798 
524069244088063 -0.006126 -0.005372 0.007798 
524069264657854 -0.006126 -0.005372 0.007798 
524069285225354 -0.006126 -0.005372 0.007798 
524069305794468 -0.006126 -0.005372 0.007798 
524069326363010 -0.006126 -0.005372 0.007798 
524069346931135 -0.006126 -0.005372 0.007798 
524069367499937 -0.006126 -0.005372 0.007798 
524069388069416 -0.006126 -0.005372 0.007798 
524069408637906 -0.006126 -0.005372 0.007798 
524069429205823 -0.006126 -0.005372 0.007798 
524069449774573 -0.006126 -0.005372 0.007798 
524069470343323 -0.006126 -0.005372 0.007798 
524069490911917 -0.006126 -0.005372 0.007798 
524069511480926 -0.006126 -0.005372 0.007798 
524069532050301 -0.006126 -0.005372 0.007798 
524069552620250 -0.006126 -0.005372 0.007798 
524069573188791 -0.006126 -0.005372 0.007798 
524069593757125 -0.006126 -0.005372 0.007798 
524069614323843 -0.006126 -0.005372 0.007798 
524069634894624 -0.006126 -0.005372 0.007798 
524069655463687 -0.006126 -0.005372 0.007798 
524069676031812 -0.006126 -0.005372 0.007798 
524069696599833 -0.006126 -0.005372 0.007798 
524069717167854 -0.006126 -0.005372 0.007798 
524069737736708 -0.006126 -0.005372 0.007798 
524069758305301 -0.006126 -0.005372 0.007798 
524069778873999 -0.006126 -0.005372 0.007798 
524069799442385 -0.006126 -0.005372 0.007798 
524069820011811 -0.006126 -0.005372 0.007798 
