# Created at Thu Nov 07 18:53:39 EST 2019 in Burnaby Canada 
524063970925461 40.773468 185.543625 -10.365678 
524063990924262 40.773468 185.543625 -10.365678 
524064010923897 40.773468 185.543625 -10.365678 
524064030924262 40.773468 185.543625 -10.365678 
524064050923325 40.773468 185.543625 -10.365678 
524064070924314 40.773468 185.543625 -10.365678 
524064090924157 40.773468 185.543625 -10.365678 
524064110924210 40.773468 185.543625 -10.365678 
524064130923689 40.773468 185.543625 -10.365678 
524064150923480 40.773468 185.543625 -10.365678 
524064170923273 40.773468 185.543625 -10.365678 
524064190923741 40.773468 185.543625 -10.365678 
524064210923585 40.773468 185.543625 -10.365678 
524064230923897 40.773468 185.543625 -10.365678 
524064250923429 40.773468 185.543625 -10.365678 
524064270923376 40.773468 185.543625 -10.365678 
524064290923585 40.773468 185.543625 -10.365678 
524064310923637 40.773468 185.543625 -10.365678 
524064330947959 40.773468 185.543625 -10.365678 
524064351298325 40.773468 185.543625 -10.365678 
524064370922544 40.773468 185.543625 -10.365678 
524064390924106 40.773468 185.543625 -10.365678 
524064410923429 40.773468 185.543625 -10.365678 
524064430946918 40.773468 185.543625 -10.365678 
524064437857959 40.773468 185.543625 -10.365678 
524064450923793 40.773468 185.543625 -10.365678 
524064470923637 40.773468 185.543625 -10.365678 
524064490923012 40.773468 185.543625 -10.365678 
524064510923064 40.773468 185.543625 -10.365678 
524064530923480 40.773468 185.543625 -10.365678 
524064550923637 40.773468 185.543625 -10.365678 
524064570923689 40.773468 185.543625 -10.365678 
524064590923688 40.773468 185.543625 -10.365678 
524064610922907 40.773468 185.543625 -10.365678 
524064630923533 40.773468 185.543625 -10.365678 
524064650922856 40.773468 185.543625 -10.365678 
524064670923272 40.773468 185.543625 -10.365678 
524064690936501 40.773468 185.543625 -10.365678 
524064711248116 40.773468 185.543625 -10.365678 
524064730923689 40.773468 185.543625 -10.365678 
524064750923949 40.773468 185.543625 -10.365678 
524064770923585 40.773468 185.543625 -10.365678 
524064790924627 40.773468 185.543625 -10.365678 
524064810924209 40.773468 185.543625 -10.365678 
524064830924991 40.773468 185.543625 -10.365678 
524064850924158 40.773468 185.543625 -10.365678 
524064870923532 40.773468 185.543625 -10.365678 
524064890923532 40.773468 185.543625 -10.365678 
524064910923689 40.773468 185.543625 -10.365678 
524064930923949 40.773468 185.543625 -10.365678 
524064951130825 40.773468 185.543625 -10.365678 
524064970925147 40.773468 185.543625 -10.365678 
524064990924053 40.773468 185.543625 -10.365678 
524065010923377 40.773468 185.543625 -10.365678 
524065030917595 40.773468 185.543625 -10.365678 
524065050937751 40.773468 185.543625 -10.365678 
524065071222908 40.773468 185.543625 -10.365678 
524065090971657 40.773468 185.543625 -10.365678 
524065110924938 40.773468 185.543625 -10.365678 
524065130923949 40.773468 185.543625 -10.365678 
524065150924783 40.773468 185.543625 -10.365678 
524065170924054 40.773468 185.543625 -10.365678 
524065190924053 40.773468 185.543625 -10.365678 
524065210924470 40.773468 185.543625 -10.365678 
524065230925043 40.773468 185.543625 -10.365678 
524065250925772 40.773468 185.543625 -10.365678 
524065270924834 40.773468 185.543625 -10.365678 
524065290925147 40.773468 185.543625 -10.365678 
524065310923845 40.773468 185.543625 -10.365678 
524065330925199 40.773468 185.543625 -10.365678 
524065350923168 40.773468 185.543625 -10.365678 
524065370923376 40.773468 185.543625 -10.365678 
524065390923844 40.773468 185.543625 -10.365678 
524065410936657 40.773468 185.543625 -10.365678 
524065431161605 40.773468 185.543625 -10.365678 
524065450970824 40.773468 185.543625 -10.365678 
524065470924313 40.773468 185.543625 -10.365678 
524065490923897 40.773468 185.543625 -10.365678 
524065510924001 40.773468 185.543625 -10.365678 
524065530924158 40.773468 185.543625 -10.365678 
524065550923740 40.773468 185.543625 -10.365678 
524065570923896 40.773468 185.543625 -10.365678 
524065590923897 40.773468 185.543625 -10.365678 
524065610924053 40.773468 185.543625 -10.365678 
524065630923429 40.773468 185.543625 -10.365678 
524065650924054 40.773468 185.543625 -10.365678 
524065670924417 40.773468 185.543625 -10.365678 
524065690927387 40.773468 185.543625 -10.365678 
524065710924939 40.773468 185.543625 -10.365678 
524065730923688 40.773468 185.543625 -10.365678 
524065750923845 40.773468 185.543625 -10.365678 
524065770937334 40.773468 185.543625 -10.365678 
524065791116813 40.773468 185.543625 -10.365678 
524065810970719 40.773468 185.543625 -10.365678 
524065830971084 40.773468 185.543625 -10.365678 
524065850924209 40.773468 185.543625 -10.365678 
524065870923897 40.773468 185.543625 -10.365678 
524065890923532 40.773468 185.543625 -10.365678 
524065910923845 40.773468 185.543625 -10.365678 
524065930924469 40.773468 185.543625 -10.365678 
524065951218688 40.773468 185.543625 -10.365678 
524065970923637 40.773468 185.543625 -10.365678 
524065990923740 40.773468 185.543625 -10.365678 
524066010923584 40.773468 185.543625 -10.365678 
524066030925304 40.773468 185.543625 -10.365678 
524066050924834 40.773468 185.543625 -10.365678 
524066070923116 40.773468 185.543625 -10.365678 
524066090923168 40.773468 185.543625 -10.365678 
524066110923949 40.773468 185.543625 -10.365678 
524066130936813 40.773468 185.543625 -10.365678 
524066151076865 40.773468 185.543625 -10.365678 
524066171076865 40.773468 185.543625 -10.365678 
524066190947804 40.773468 185.543625 -10.365678 
524066210924261 40.773468 185.543625 -10.365678 
524066230925512 40.773468 185.543625 -10.365678 
524066250925146 40.773468 185.543625 -10.365678 
524066270924626 40.773468 185.543625 -10.365678 
524066290924938 40.773468 185.543625 -10.365678 
524066310925148 40.773468 185.543625 -10.365678 
524066330925303 40.773468 185.543625 -10.365678 
524066350925616 40.773468 185.543625 -10.365678 
524066370923897 40.773468 185.543625 -10.365678 
524066390925771 40.773468 185.543625 -10.365678 
524066410925876 40.773468 185.543625 -10.365678 
524066430925303 40.773468 185.543625 -10.365678 
524066450924730 40.773468 185.543625 -10.365678 
524066470926293 40.773468 185.543625 -10.365678 
524066490917803 40.773468 185.543625 -10.365678 
524066511001865 40.773468 185.543625 -10.365678 
524066531001813 40.773468 185.543625 -10.365678 
524066550924991 40.773468 185.543625 -10.365678 
524066570924730 40.773468 185.543625 -10.365678 
524066590924417 40.773468 185.543625 -10.365678 
524066610923740 40.773468 185.543625 -10.365678 
524066630923740 40.773468 185.543625 -10.365678 
524066650923428 40.773468 185.543625 -10.365678 
524066670923636 40.773468 185.543625 -10.365678 
524066690923584 40.773468 185.543625 -10.365678 
524066710923792 40.773468 185.543625 -10.365678 
524066730925043 40.773468 185.543625 -10.365678 
524066750923792 40.773468 185.543625 -10.365678 
524066770925876 40.773468 185.543625 -10.365678 
524066790925146 40.773468 185.543625 -10.365678 
524066810924990 40.773468 185.543625 -10.365678 
524066830924678 40.773468 185.543625 -10.365678 
524066850935563 40.773468 185.543625 -10.365678 
524066870954782 40.773468 185.543625 -10.365678 
524066890954573 40.773468 185.543625 -10.365678 
524066910925511 40.773468 185.543625 -10.365678 
524066930925355 40.773468 185.543625 -10.365678 
524066938007178 40.773468 185.543625 -10.365678 
524066951180146 40.773468 185.543625 -10.365678 
524066970925719 40.773468 185.543625 -10.365678 
524066990925199 40.773468 185.543625 -10.365678 
524067010925512 40.773468 185.543625 -10.365678 
524067030926293 40.773468 185.543625 -10.365678 
524067050918584 40.773468 185.543625 -10.365678 
524067070925563 40.773468 185.543625 -10.365678 
524067090924626 40.773468 185.543625 -10.365678 
524067110925668 40.773468 185.543625 -10.365678 
524067130926084 40.773468 185.543625 -10.365678 
524067150926969 40.773468 185.543625 -10.365678 
524067170924365 40.773468 185.543625 -10.365678 
524067190925719 40.773468 185.543625 -10.365678 
524067210917908 40.773468 185.543625 -10.365678 
524067230924886 40.773468 185.543625 -10.365678 
524067250925094 40.773468 185.543625 -10.365678 
524067270924522 40.773468 185.543625 -10.365678 
524067290924626 40.773468 185.543625 -10.365678 
524067310923740 40.773468 185.543625 -10.365678 
524067330925927 40.773468 185.543625 -10.365678 
524067350924521 40.773468 185.543625 -10.365678 
524067370923688 40.773468 185.543625 -10.365678 
524067390925095 40.773468 185.543625 -10.365678 
524067410923584 40.773468 185.543625 -10.365678 
524067430923376 40.773468 185.543625 -10.365678 
524067450924105 40.773468 185.543625 -10.365678 
524067470926709 40.773468 185.543625 -10.365678 
524067490923949 40.773468 185.543625 -10.365678 
524067510924001 40.773468 185.543625 -10.365678 
524067530924105 40.773468 185.543625 -10.365678 
524067550925250 40.773468 185.543625 -10.365678 
524067570918219 40.773468 185.543625 -10.365678 
524067590924885 40.773468 185.543625 -10.365678 
524067610924730 40.773468 185.543625 -10.365678 
524067630924938 40.773468 185.543625 -10.365678 
524067650923896 40.773468 185.543625 -10.365678 
524067670923271 40.773468 185.543625 -10.365678 
524067690923531 40.773468 185.543625 -10.365678 
524067710923948 40.773468 185.543625 -10.365678 
524067730923948 40.773468 185.543625 -10.365678 
524067750923271 40.773468 185.543625 -10.365678 
524067770924313 40.773468 185.543625 -10.365678 
524067790924417 40.773468 185.543625 -10.365678 
524067810923011 40.773468 185.543625 -10.365678 
524067830923220 40.773468 185.543625 -10.365678 
524067850924313 40.773468 185.543625 -10.365678 
524067870924000 40.773468 185.543625 -10.365678 
524067890924729 40.773468 185.543625 -10.365678 
524067910924366 40.773468 185.543625 -10.365678 
524067930918218 40.773468 185.543625 -10.365678 
524067951142959 40.773468 185.543625 -10.365678 
524067971376187 40.773468 185.543625 -10.365678 
524067990925823 40.773468 185.543625 -10.365678 
524068010923635 40.773468 185.543625 -10.365678 
524068030924365 40.773468 185.543625 -10.365678 
524068050924989 40.773468 185.543625 -10.365678 
524068070924313 40.773468 185.543625 -10.365678 
524068090922907 40.773468 185.543625 -10.365678 
524068110923167 40.773468 185.543625 -10.365678 
524068130923428 40.773468 185.543625 -10.365678 
524068150924209 40.773468 185.543625 -10.365678 
524068170924000 40.773468 185.543625 -10.365678 
524068190924833 40.773468 185.543625 -10.365678 
524068210923895 40.773468 185.543625 -10.365678 
524068230924208 40.773468 185.543625 -10.365678 
524068250924573 40.773468 185.543625 -10.365678 
524068270924313 40.773468 185.543625 -10.365678 
524068290917907 40.773468 185.543625 -10.365678 
524068310924938 40.773468 185.543625 -10.365678 
524068330924521 40.773468 185.543625 -10.365678 
524068350923740 40.773468 185.543625 -10.365678 
524068370924312 40.773468 185.543625 -10.365678 
524068390923792 40.773468 185.543625 -10.365678 
524068410924417 40.773468 185.543625 -10.365678 
524068430923479 40.773468 185.543625 -10.365678 
524068450923063 40.773468 185.543625 -10.365678 
524068470923688 40.773468 185.543625 -10.365678 
524068490922959 40.773468 185.543625 -10.365678 
524068510923636 40.773468 185.543625 -10.365678 
524068530917333 40.773468 185.543625 -10.365678 
524068550925302 40.773468 185.543625 -10.365678 
524068570924573 40.773468 185.543625 -10.365678 
524068590924312 40.773468 185.543625 -10.365678 
524068610924157 40.773468 185.543625 -10.365678 
524068630923791 40.773468 185.543625 -10.365678 
524068650923635 40.773468 185.543625 -10.365678 
524068670947438 40.773468 185.543625 -10.365678 
524068691279208 40.773468 185.543625 -10.365678 
524068710923688 40.773468 185.543625 -10.365678 
524068730923635 40.773468 185.543625 -10.365678 
524068750923479 40.773468 185.543625 -10.365678 
524068770923530 40.773468 185.543625 -10.365678 
524068790923531 40.773468 185.543625 -10.365678 
524068810923740 40.773468 185.543625 -10.365678 
524068830924313 40.773468 185.543625 -10.365678 
524068850923582 40.773468 185.543625 -10.365678 
524068870923791 40.773468 185.543625 -10.365678 
524068890923844 40.773468 185.543625 -10.365678 
524068910924261 40.773468 185.543625 -10.365678 
524068930923375 40.773468 185.543625 -10.365678 
524068951132541 40.773468 185.543625 -10.365678 
524068970925197 40.773468 185.543625 -10.365678 
524068990924364 40.773468 185.543625 -10.365678 
524069010923843 40.773468 185.543625 -10.365678 
524069030949000 40.773468 185.543625 -10.365678 
524069051232438 40.773468 185.543625 -10.365678 
524069070923844 40.773468 185.543625 -10.365678 
524069090923375 40.773468 185.543625 -10.365678 
524069110924000 40.773468 185.543625 -10.365678 
524069130923062 40.773468 185.543625 -10.365678 
524069150924573 40.773468 185.543625 -10.365678 
524069170923219 40.773468 185.543625 -10.365678 
524069190925302 40.773468 185.543625 -10.365678 
524069210925042 40.773468 185.543625 -10.365678 
524069230924520 40.773468 185.543625 -10.365678 
524069250923948 40.773468 185.543625 -10.365678 
524069270924260 40.773468 185.543625 -10.365678 
524069290923219 40.773468 185.543625 -10.365678 
524069310924417 40.773468 185.543625 -10.365678 
524069330924000 40.773468 185.543625 -10.365678 
524069350924052 40.773468 185.543625 -10.365678 
524069370923687 40.773468 185.543625 -10.365678 
524069390917698 40.773468 185.543625 -10.365678 
524069411181500 40.773468 185.543625 -10.365678 
524069430972750 40.773468 185.543625 -10.365678 
524069437960198 40.773468 185.543625 -10.365678 
524069450923635 40.773468 185.543625 -10.365678 
524069470923947 40.773468 185.543625 -10.365678 
524069490923219 40.773468 185.543625 -10.365678 
524069510923895 40.773468 185.543625 -10.365678 
524069530924364 40.773468 185.543625 -10.365678 
524069550925927 40.773468 185.543625 -10.365678 
524069570925562 40.773468 185.543625 -10.365678 
524069590924781 40.773468 185.543625 -10.365678 
524069610922749 40.773468 185.543625 -10.365678 
524069630925041 40.773468 185.543625 -10.365678 
524069650925197 40.773468 185.543625 -10.365678 
524069670924885 40.773468 185.543625 -10.365678 
524069690924728 40.773468 185.543625 -10.365678 
524069710923218 40.773468 185.543625 -10.365678 
524069730923739 40.773468 185.543625 -10.365678 
524069750917333 40.773468 185.543625 -10.365678 
524069771137541 40.773468 185.543625 -10.365678 
524069790970145 40.773468 185.543625 -10.365678 
524069810923323 40.773468 185.543625 -10.365678 
524069830923530 40.773468 185.543625 -10.365678 
