# Created at Thu Nov 07 18:45:06 EST 2019 in Burnaby Canada 
523550564127791 -0.006126 -0.005372 0.007798 
523550584696124 -0.006126 -0.005372 0.007798 
523550605264457 -0.006126 -0.005372 0.007798 
523550625832427 -0.006126 -0.005372 0.007798 
523550646400760 -0.006126 -0.005372 0.007798 
523550666968780 -0.006126 -0.005372 0.007798 
523550687537114 -0.006126 -0.005372 0.007798 
523550708105968 -0.006126 -0.005372 0.007798 
523550728674040 -0.006126 -0.005372 0.007798 
523550749242844 -0.006126 -0.005372 0.007798 
523550769810656 -0.006126 -0.005372 0.007798 
523550790378780 -0.006126 -0.005372 0.007798 
523550810947375 -0.006126 -0.005372 0.007798 
523550831515343 -0.006126 -0.005372 0.007798 
523550852083624 -0.006126 -0.005372 0.007798 
523550872652010 -0.006126 -0.005372 0.007798 
523550893220500 -0.006126 -0.005372 0.007798 
523550913788468 -0.006126 -0.005372 0.007798 
523550934357531 -0.006126 -0.005372 0.007798 
523550954925447 -0.006126 -0.005372 0.007798 
523550975494197 -0.006126 -0.005372 0.007798 
523550996062063 -0.006126 -0.005372 0.007798 
523551016630604 -0.006126 -0.005372 0.007798 
523551037198729 -0.006126 -0.005372 0.007798 
523551057766853 -0.006126 -0.005372 0.007798 
523551078335292 -0.006126 -0.005372 0.007798 
523551098903676 -0.006126 -0.005372 0.007798 
523551119472009 -0.006126 -0.005372 0.007798 
523551140040343 -0.006126 -0.005372 0.007798 
523551160608676 -0.006126 -0.005372 0.007798 
523551181177374 -0.006126 -0.005372 0.007798 
523551201745656 -0.006126 -0.005372 0.007798 
523551222313364 -0.006126 -0.005372 0.007798 
523551242881697 -0.006126 -0.005372 0.007798 
523551263450135 -0.006126 -0.005372 0.007798 
523551284018468 -0.006126 -0.005372 0.007798 
523551304586124 -0.006126 -0.005372 0.007798 
523551325154458 -0.006126 -0.005372 0.007798 
523551345723521 -0.006126 -0.005372 0.007798 
523551366291854 -0.006126 -0.005372 0.007798 
523551386860291 -0.006126 -0.005372 0.007798 
523551407428624 -0.006126 -0.005372 0.007798 
523551427999405 -0.006126 -0.005372 0.007798 
523551448565604 -0.006126 -0.005372 0.007798 
523551469133885 -0.006126 -0.005372 0.007798 
523551489702687 -0.006126 -0.005372 0.007798 
523551510270083 -0.006126 -0.005372 0.007798 
523551530838520 -0.006126 -0.005372 0.007798 
523551551407166 -0.006126 -0.005372 0.007798 
523551571977219 -0.006126 -0.005372 0.007798 
523551592543676 -0.006126 -0.005372 0.007798 
523551613112114 -0.006126 -0.005372 0.007798 
523551633680343 -0.006126 -0.005372 0.007798 
523551654249509 -0.006126 -0.005372 0.007798 
523551674817530 -0.006126 -0.005372 0.007798 
523551695386906 -0.006126 -0.005372 0.007798 
523551715954614 -0.006126 -0.005372 0.007798 
523551736523207 -0.006126 -0.005372 0.007798 
523551757090343 -0.006126 -0.005372 0.007798 
523551777659822 -0.006126 -0.005372 0.007798 
523551798228207 -0.006126 -0.005372 0.007798 
523551818795812 -0.006126 -0.005372 0.007798 
523551839364145 -0.006126 -0.005372 0.007798 
523551859932686 -0.006126 -0.005372 0.007798 
523551880501020 -0.006126 -0.005372 0.007798 
523551901070707 -0.006126 -0.005372 0.007798 
523551921639041 -0.006126 -0.005372 0.007798 
523551942207948 -0.006126 -0.005372 0.007798 
523551962776333 -0.006126 -0.005372 0.007798 
523551983343677 -0.006126 -0.005372 0.007798 
523552003912010 -0.006126 -0.005372 0.007798 
523552024480082 -0.006126 -0.005372 0.007798 
523552045048468 -0.006126 -0.005372 0.007798 
523552065617270 -0.006126 -0.005372 0.007798 
523552086185603 -0.006126 -0.005372 0.007798 
523552106755552 -0.006126 -0.005372 0.007798 
523552127323885 -0.006126 -0.005372 0.007798 
523552147890082 -0.006126 -0.005372 0.007798 
523552168457218 -0.006126 -0.005372 0.007798 
523552189025603 -0.006126 -0.005372 0.007798 
523552209593832 -0.006126 -0.005372 0.007798 
523552230162635 -0.006126 -0.005372 0.007798 
523552250731384 -0.006126 -0.005372 0.007798 
523552271299353 -0.006126 -0.005372 0.007798 
523552291870030 -0.006126 -0.005372 0.007798 
523552312435967 -0.006126 -0.005372 0.007798 
523552333006489 -0.006126 -0.005372 0.007798 
523552353573624 -0.006126 -0.005372 0.007798 
523552374141228 -0.006126 -0.005372 0.007798 
523552394709353 -0.006126 -0.005372 0.007798 
523552415279405 -0.006126 -0.005372 0.007798 
523552435847843 -0.006126 -0.005372 0.007798 
523552456416124 -0.006126 -0.005372 0.007798 
523552476984198 -0.006126 -0.005372 0.007798 
523552497552374 -0.006126 -0.005372 0.007798 
523552518120759 -0.006126 -0.005372 0.007798 
523552538689510 -0.006126 -0.005372 0.007798 
523552559257895 -0.006126 -0.005372 0.007798 
523552579824873 -0.006126 -0.005372 0.007798 
523552600393259 -0.006126 -0.005372 0.007798 
523552620961227 -0.006126 -0.005372 0.007798 
523552641529613 -0.006126 -0.005372 0.007798 
523552662097895 -0.006126 -0.005372 0.007798 
523552682666280 -0.006126 -0.005372 0.007798 
523552703234822 -0.006126 -0.005372 0.007798 
523552723803207 -0.006126 -0.005372 0.007798 
523552744372635 -0.006126 -0.005372 0.007798 
523552764940968 -0.006126 -0.005372 0.007798 
523552785508467 -0.006126 -0.005372 0.007798 
523552806076853 -0.006126 -0.005372 0.007798 
523552826645602 -0.006126 -0.005372 0.007798 
523552847213988 -0.006126 -0.005372 0.007798 
523552867781800 -0.006126 -0.005372 0.007798 
523552888349925 -0.006126 -0.005372 0.007798 
523552908919770 -0.006126 -0.005372 0.007798 
523552929488467 -0.006126 -0.005372 0.007798 
523552950057113 -0.006126 -0.005372 0.007798 
523552970623989 -0.006126 -0.005372 0.007798 
523552991192166 -0.006126 -0.005372 0.007798 
523553011760499 -0.006126 -0.005372 0.007798 
523553032328936 -0.006126 -0.005372 0.007798 
523553052898156 -0.006126 -0.005372 0.007798 
523553073466280 -0.006126 -0.005372 0.007798 
523553094035238 -0.006126 -0.005372 0.007798 
523553114602895 -0.006126 -0.005372 0.007798 
523553135171176 -0.006126 -0.005372 0.007798 
523553155739093 -0.006126 -0.005372 0.007798 
523553176309040 -0.006126 -0.005372 0.007798 
523553196877217 -0.006126 -0.005372 0.007798 
523553217445238 -0.006126 -0.005372 0.007798 
523553238013364 -0.006126 -0.005372 0.007798 
523553258582009 -0.006126 -0.005372 0.007798 
523553279150394 -0.006126 -0.005372 0.007798 
523553299718051 -0.006126 -0.005372 0.007798 
523553320286436 -0.006126 -0.005372 0.007798 
523553340854978 -0.006126 -0.005372 0.007798 
523553361423415 -0.006126 -0.005372 0.007798 
523553381992009 -0.006126 -0.005372 0.007798 
523553402560394 -0.006126 -0.005372 0.007798 
523553423128935 -0.006126 -0.005372 0.007798 
523553443697373 -0.006126 -0.005372 0.007798 
523553464267009 -0.006126 -0.005372 0.007798 
523553484835395 -0.006126 -0.005372 0.007798 
523553505403311 -0.006126 -0.005372 0.007798 
523553525971697 -0.006126 -0.005372 0.007798 
523553546540550 -0.006126 -0.005372 0.007798 
523553567108936 -0.006126 -0.005372 0.007798 
523553587678050 -0.006126 -0.005372 0.007798 
523553608244560 -0.006126 -0.005372 0.007798 
523553628813676 -0.006126 -0.005372 0.007798 
523553649381592 -0.006126 -0.005372 0.007798 
523553669950446 -0.006126 -0.005372 0.007798 
523553690519196 -0.006126 -0.005372 0.007798 
523553711086384 -0.006126 -0.005372 0.007798 
523553731654405 -0.006126 -0.005372 0.007798 
523553752222947 -0.006126 -0.005372 0.007798 
523553772791696 -0.006126 -0.005372 0.007798 
523553793360238 -0.006126 -0.005372 0.007798 
523553813928623 -0.006126 -0.005372 0.007798 
523553834496904 -0.006126 -0.005372 0.007798 
523553855066228 -0.006126 -0.005372 0.007798 
523553875634248 -0.006126 -0.005372 0.007798 
523553896202530 -0.006126 -0.005372 0.007798 
523553916771956 -0.006126 -0.005372 0.007798 
523553937339978 -0.006126 -0.005372 0.007798 
523553957908623 -0.006126 -0.005372 0.007798 
523553978478259 -0.006126 -0.005372 0.007798 
523553999046696 -0.006126 -0.005372 0.007798 
523554019612791 -0.006126 -0.005372 0.007798 
523554040181176 -0.006126 -0.005372 0.007798 
523554060750134 -0.006126 -0.005372 0.007798 
523554081318520 -0.006126 -0.005372 0.007798 
523554101886383 -0.006126 -0.005372 0.007798 
523554122454769 -0.006126 -0.005372 0.007798 
523554143022685 -0.006126 -0.005372 0.007798 
523554163591071 -0.006126 -0.005372 0.007798 
523554184160029 -0.006126 -0.005372 0.007798 
523554204728415 -0.006126 -0.005372 0.007798 
523554225296748 -0.006126 -0.005372 0.007798 
523554245865134 -0.006126 -0.005372 0.007798 
523554266433884 -0.006126 -0.005372 0.007798 
523554287002269 -0.006126 -0.005372 0.007798 
523554307570342 -0.006126 -0.005372 0.007798 
523554328138727 -0.006126 -0.005372 0.007798 
523554348707477 -0.006126 -0.005372 0.007798 
523554369275706 -0.006126 -0.005372 0.007798 
523554389844092 -0.006126 -0.005372 0.007798 
523554410414716 -0.006126 -0.005372 0.007798 
523554430983363 -0.006126 -0.005372 0.007798 
523554451550498 -0.006126 -0.005372 0.007798 
523554472119145 -0.006126 -0.005372 0.007798 
523554492687060 -0.006126 -0.005372 0.007798 
523554513255811 -0.006126 -0.005372 0.007798 
523554533824613 -0.006126 -0.005372 0.007798 
523554554392790 -0.006126 -0.005372 0.007798 
523554574960081 -0.006126 -0.005372 0.007798 
523554595528988 -0.006126 -0.005372 0.007798 
523554616097060 -0.006126 -0.005372 0.007798 
523554636664821 -0.006126 -0.005372 0.007798 
523554657236644 -0.006126 -0.005372 0.007798 
523554677801956 -0.006126 -0.005372 0.007798 
523554698370654 -0.006126 -0.005372 0.007798 
523554718939091 -0.006126 -0.005372 0.007798 
523554739507529 -0.006126 -0.005372 0.007798 
523554760075914 -0.006126 -0.005372 0.007798 
523554780644457 -0.006126 -0.005372 0.007798 
523554801212894 -0.006126 -0.005372 0.007798 
523554821780290 -0.006126 -0.005372 0.007798 
523554842348727 -0.006126 -0.005372 0.007798 
523554862917113 -0.006126 -0.005372 0.007798 
523554883485498 -0.006126 -0.005372 0.007798 
523554904054248 -0.006126 -0.005372 0.007798 
523554924622685 -0.006126 -0.005372 0.007798 
523554945192425 -0.006126 -0.005372 0.007798 
523554965760810 -0.006126 -0.005372 0.007798 
523554986328675 -0.006126 -0.005372 0.007798 
523555006897112 -0.006126 -0.005372 0.007798 
523555027464508 -0.006126 -0.005372 0.007798 
523555048033050 -0.006126 -0.005372 0.007798 
523555068601331 -0.006126 -0.005372 0.007798 
523555089169768 -0.006126 -0.005372 0.007798 
523555109739612 -0.006126 -0.005372 0.007798 
523555130306539 -0.006126 -0.005372 0.007798 
523555150877529 -0.006126 -0.005372 0.007798 
523555171446749 -0.006126 -0.005372 0.007798 
523555192013831 -0.006126 -0.005372 0.007798 
523555212582373 -0.006126 -0.005372 0.007798 
523555233151070 -0.006126 -0.005372 0.007798 
523555253719613 -0.006126 -0.005372 0.007798 
523555274287581 -0.006126 -0.005372 0.007798 
523555294855759 -0.006126 -0.005372 0.007798 
523555315423362 -0.006126 -0.005372 0.007798 
523555335990759 -0.006126 -0.005372 0.007798 
523555356559091 -0.006126 -0.005372 0.007798 
523555377127633 -0.006126 -0.005372 0.007798 
523555397696123 -0.006126 -0.005372 0.007798 
523555418266332 -0.006126 -0.005372 0.007798 
523555438834769 -0.006126 -0.005372 0.007798 
523555459403414 -0.006126 -0.005372 0.007798 
523555479971852 -0.006126 -0.005372 0.007798 
523555500541382 -0.006126 -0.005372 0.007798 
523555521109820 -0.006126 -0.005372 0.007798 
523555541675810 -0.006126 -0.005372 0.007798 
523555562244248 -0.006126 -0.005372 0.007798 
523555582812633 -0.006126 -0.005372 0.007798 
523555603381071 -0.006126 -0.005372 0.007798 
523555623948622 -0.006126 -0.005372 0.007798 
523555644517060 -0.006126 -0.005372 0.007798 
523555665086018 -0.006126 -0.005372 0.007798 
523555685654404 -0.006126 -0.005372 0.007798 
523555706222269 -0.006126 -0.005372 0.007798 
523555726790707 -0.006126 -0.005372 0.007798 
523555747359507 -0.006126 -0.005372 0.007798 
523555767927893 -0.006126 -0.005372 0.007798 
523555788496122 -0.006126 -0.005372 0.007798 
523555809064508 -0.006126 -0.005372 0.007798 
523555829633206 -0.006126 -0.005372 0.007798 
523555850201696 -0.006126 -0.005372 0.007798 
523555870769976 -0.006126 -0.005372 0.007798 
523555891338727 -0.006126 -0.005372 0.007798 
523555911909664 -0.006126 -0.005372 0.007798 
523555932477060 -0.006126 -0.005372 0.007798 
523555953045185 -0.006126 -0.005372 0.007798 
523555973613778 -0.006126 -0.005372 0.007798 
523555994181747 -0.006126 -0.005372 0.007798 
523556014748779 -0.006126 -0.005372 0.007798 
523556035318415 -0.006126 -0.005372 0.007798 
523556055886538 -0.006126 -0.005372 0.007798 
523556076454456 -0.006126 -0.005372 0.007798 
523556097023153 -0.006126 -0.005372 0.007798 
523556117591018 -0.006126 -0.005372 0.007798 
523556138159352 -0.006126 -0.005372 0.007798 
523556158727790 -0.006126 -0.005372 0.007798 
523556179296330 -0.006126 -0.005372 0.007798 
523556199864768 -0.006126 -0.005372 0.007798 
523556220433154 -0.006126 -0.005372 0.007798 
523556241001592 -0.006126 -0.005372 0.007798 
523556261570966 -0.006126 -0.005372 0.007798 
523556282139404 -0.006126 -0.005372 0.007798 
523556302708362 -0.006126 -0.005372 0.007798 
523556323276800 -0.006126 -0.005372 0.007798 
523556343844195 -0.006126 -0.005372 0.007798 
523556364412633 -0.006126 -0.005372 0.007798 
523556384980341 -0.006126 -0.005372 0.007798 
523556405548779 -0.006126 -0.005372 0.007798 
523556426117998 -0.006126 -0.005372 0.007798 
523556446686435 -0.006126 -0.005372 0.007798 
523556467254091 -0.006126 -0.005372 0.007798 
523556487822528 -0.006126 -0.005372 0.007798 
523556508390966 -0.006126 -0.005372 0.007798 
523556528959351 -0.006126 -0.005372 0.007798 
523556549527893 -0.006126 -0.005372 0.007798 
523556570096382 -0.006126 -0.005372 0.007798 
523556590664508 -0.006126 -0.005372 0.007798 
523556611232945 -0.006126 -0.005372 0.007798 
