# Created at Thu Nov 07 19:34:58 EST 2019 in Burnaby Canada 
526542037975945 -0.000485 -0.006368 0.008720 
526542058547038 -0.000485 -0.006368 0.008720 
526542079117924 -0.000485 -0.006368 0.008720 
526542099688497 -0.000485 -0.006368 0.008720 
526542120259694 -0.000485 -0.006368 0.008720 
526542140830060 -0.000485 -0.006368 0.008720 
526542161401830 -0.000485 -0.006368 0.008720 
526542181972039 -0.000485 -0.006368 0.008720 
526542202543235 -0.000485 -0.006368 0.008720 
526542223113393 -0.000485 -0.006368 0.008720 
526542243683966 -0.000485 -0.006368 0.008720 
526542264255163 -0.000485 -0.006368 0.008720 
526542284825789 -0.000485 -0.006368 0.008720 
526542305397403 -0.000485 -0.006368 0.008720 
526542325967194 -0.000485 -0.006368 0.008720 
526542346539122 -0.000485 -0.006368 0.008720 
526542367108913 -0.000485 -0.006368 0.008720 
526542387679903 -0.000485 -0.006368 0.008720 
526542408250527 -0.000485 -0.006368 0.008720 
526542428821779 -0.000485 -0.006368 0.008720 
526542449392299 -0.000485 -0.006368 0.008720 
526542469963236 -0.000485 -0.006368 0.008720 
526542490533914 -0.000485 -0.006368 0.008720 
526542511104799 -0.000485 -0.006368 0.008720 
526542531675579 -0.000485 -0.006368 0.008720 
526542552246360 -0.000485 -0.006368 0.008720 
526542572817351 -0.000485 -0.006368 0.008720 
526542593387871 -0.000485 -0.006368 0.008720 
526542613958601 -0.000485 -0.006368 0.008720 
526542634529591 -0.000485 -0.006368 0.008720 
526542655100319 -0.000485 -0.006368 0.008720 
526542675671413 -0.000485 -0.006368 0.008720 
526542696241779 -0.000485 -0.006368 0.008720 
526542716812767 -0.000485 -0.006368 0.008720 
526542737383496 -0.000485 -0.006368 0.008720 
526542757954590 -0.000485 -0.006368 0.008720 
526542778525528 -0.000485 -0.006368 0.008720 
526542799096621 -0.000485 -0.006368 0.008720 
526542819668965 -0.000485 -0.006368 0.008720 
526542840237767 -0.000485 -0.006368 0.008720 
526542860808861 -0.000485 -0.006368 0.008720 
526542881381204 -0.000485 -0.006368 0.008720 
526542901950736 -0.000485 -0.006368 0.008720 
526542922521830 -0.000485 -0.006368 0.008720 
526542943091882 -0.000485 -0.006368 0.008720 
526542963662350 -0.000485 -0.006368 0.008720 
526542984233185 -0.000485 -0.006368 0.008720 
526543004804018 -0.000485 -0.006368 0.008720 
526543025374902 -0.000485 -0.006368 0.008720 
526543045945684 -0.000485 -0.006368 0.008720 
526543066518705 -0.000485 -0.006368 0.008720 
526543087087975 -0.000485 -0.006368 0.008720 
526543107660319 -0.000485 -0.006368 0.008720 
526543128229642 -0.000485 -0.006368 0.008720 
526543148800996 -0.000485 -0.006368 0.008720 
526543169371256 -0.000485 -0.006368 0.008720 
526543189942142 -0.000485 -0.006368 0.008720 
526543210512559 -0.000485 -0.006368 0.008720 
526543231084642 -0.000485 -0.006368 0.008720 
526543251654903 -0.000485 -0.006368 0.008720 
526543272228705 -0.000485 -0.006368 0.008720 
526543292796465 -0.000485 -0.006368 0.008720 
526543313368184 -0.000485 -0.006368 0.008720 
526543333939955 -0.000485 -0.006368 0.008720 
526543354508965 -0.000485 -0.006368 0.008720 
526543375080528 -0.000485 -0.006368 0.008720 
526543395649746 -0.000485 -0.006368 0.008720 
526543416220319 -0.000485 -0.006368 0.008720 
526543436791204 -0.000485 -0.006368 0.008720 
526543457361882 -0.000485 -0.006368 0.008720 
526543477933131 -0.000485 -0.006368 0.008720 
526543498504798 -0.000485 -0.006368 0.008720 
526543519074746 -0.000485 -0.006368 0.008720 
526543539645267 -0.000485 -0.006368 0.008720 
526543560216153 -0.000485 -0.006368 0.008720 
526543580786881 -0.000485 -0.006368 0.008720 
526543601357976 -0.000485 -0.006368 0.008720 
526543621928704 -0.000485 -0.006368 0.008720 
526543642500163 -0.000485 -0.006368 0.008720 
526543663070372 -0.000485 -0.006368 0.008720 
526543683640892 -0.000485 -0.006368 0.008720 
526543704211934 -0.000485 -0.006368 0.008720 
526543724782559 -0.000485 -0.006368 0.008720 
526543745353548 -0.000485 -0.006368 0.008720 
526543765924225 -0.000485 -0.006368 0.008720 
526543786497768 -0.000485 -0.006368 0.008720 
526543807067611 -0.000485 -0.006368 0.008720 
526543827638653 -0.000485 -0.006368 0.008720 
526543848209381 -0.000485 -0.006368 0.008720 
526543868778861 -0.000485 -0.006368 0.008720 
526543889349590 -0.000485 -0.006368 0.008720 
526543909920110 -0.000485 -0.006368 0.008720 
526543930490736 -0.000485 -0.006368 0.008720 
526543951061777 -0.000485 -0.006368 0.008720 
526543971632559 -0.000485 -0.006368 0.008720 
526543992203756 -0.000485 -0.006368 0.008720 
526544012774121 -0.000485 -0.006368 0.008720 
526544033345110 -0.000485 -0.006368 0.008720 
526544053915840 -0.000485 -0.006368 0.008720 
526544074487611 -0.000485 -0.006368 0.008720 
526544095057350 -0.000485 -0.006368 0.008720 
526544115628548 -0.000485 -0.006368 0.008720 
526544136198861 -0.000485 -0.006368 0.008720 
526544156770111 -0.000485 -0.006368 0.008720 
526544177341153 -0.000485 -0.006368 0.008720 
526544197912923 -0.000485 -0.006368 0.008720 
526544218484068 -0.000485 -0.006368 0.008720 
526544239053340 -0.000485 -0.006368 0.008720 
526544259624902 -0.000485 -0.006368 0.008720 
526544280195892 -0.000485 -0.006368 0.008720 
526544300766778 -0.000485 -0.006368 0.008720 
526544321338183 -0.000485 -0.006368 0.008720 
526544341908287 -0.000485 -0.006368 0.008720 
526544362478497 -0.000485 -0.006368 0.008720 
526544383049226 -0.000485 -0.006368 0.008720 
526544403620006 -0.000485 -0.006368 0.008720 
526544424190840 -0.000485 -0.006368 0.008720 
526544444761986 -0.000485 -0.006368 0.008720 
526544465332454 -0.000485 -0.006368 0.008720 
526544485903236 -0.000485 -0.006368 0.008720 
526544506473965 -0.000485 -0.006368 0.008720 
526544527044798 -0.000485 -0.006368 0.008720 
526544547615736 -0.000485 -0.006368 0.008720 
526544568186412 -0.000485 -0.006368 0.008720 
526544588758131 -0.000485 -0.006368 0.008720 
526544609328079 -0.000485 -0.006368 0.008720 
526544629900527 -0.000485 -0.006368 0.008720 
526544650471568 -0.000485 -0.006368 0.008720 
526544671041361 -0.000485 -0.006368 0.008720 
526544691610840 -0.000485 -0.006368 0.008720 
526544712184120 -0.000485 -0.006368 0.008720 
526544732755215 -0.000485 -0.006368 0.008720 
526544753325632 -0.000485 -0.006368 0.008720 
526544773896517 -0.000485 -0.006368 0.008720 
526544794466413 -0.000485 -0.006368 0.008720 
526544815037298 -0.000485 -0.006368 0.008720 
526544835609329 -0.000485 -0.006368 0.008720 
526544856179694 -0.000485 -0.006368 0.008720 
526544876749798 -0.000485 -0.006368 0.008720 
526544897320683 -0.000485 -0.006368 0.008720 
526544917892402 -0.000485 -0.006368 0.008720 
526544938462298 -0.000485 -0.006368 0.008720 
526544959033704 -0.000485 -0.006368 0.008720 
526544979604538 -0.000485 -0.006368 0.008720 
526545000174694 -0.000485 -0.006368 0.008720 
526545020745266 -0.000485 -0.006368 0.008720 
526545041316152 -0.000485 -0.006368 0.008720 
526545061887871 -0.000485 -0.006368 0.008720 
526545082459433 -0.000485 -0.006368 0.008720 
526545103028549 -0.000485 -0.006368 0.008720 
526545123599589 -0.000485 -0.006368 0.008720 
526545144170735 -0.000485 -0.006368 0.008720 
526545164741465 -0.000485 -0.006368 0.008720 
526545185311777 -0.000485 -0.006368 0.008720 
526545205882454 -0.000485 -0.006368 0.008720 
526545226454954 -0.000485 -0.006368 0.008720 
526545247024433 -0.000485 -0.006368 0.008720 
526545267596568 -0.000485 -0.006368 0.008720 
526545288167089 -0.000485 -0.006368 0.008720 
526545308739224 -0.000485 -0.006368 0.008720 
526545329309329 -0.000485 -0.006368 0.008720 
526545349880111 -0.000485 -0.006368 0.008720 
526545370450787 -0.000485 -0.006368 0.008720 
526545391021830 -0.000485 -0.006368 0.008720 
526545411591360 -0.000485 -0.006368 0.008720 
526545432162819 -0.000485 -0.006368 0.008720 
526545452733184 -0.000485 -0.006368 0.008720 
526545473304538 -0.000485 -0.006368 0.008720 
526545493875162 -0.000485 -0.006368 0.008720 
526545514445736 -0.000485 -0.006368 0.008720 
526545535016673 -0.000485 -0.006368 0.008720 
526545555587402 -0.000485 -0.006368 0.008720 
526545576158340 -0.000485 -0.006368 0.008720 
526545596730683 -0.000485 -0.006368 0.008720 
526545617300005 -0.000485 -0.006368 0.008720 
526545637871308 -0.000485 -0.006368 0.008720 
526545658441569 -0.000485 -0.006368 0.008720 
526545679012767 -0.000485 -0.006368 0.008720 
526545699583287 -0.000485 -0.006368 0.008720 
526545720154172 -0.000485 -0.006368 0.008720 
526545740725006 -0.000485 -0.006368 0.008720 
526545761296308 -0.000485 -0.006368 0.008720 
526545781866777 -0.000485 -0.006368 0.008720 
526545802438131 -0.000485 -0.006368 0.008720 
526545823008495 -0.000485 -0.006368 0.008720 
526545843579276 -0.000485 -0.006368 0.008720 
526545864150214 -0.000485 -0.006368 0.008720 
526545884720943 -0.000485 -0.006368 0.008720 
526545905291932 -0.000485 -0.006368 0.008720 
526545925862662 -0.000485 -0.006368 0.008720 
526545946433704 -0.000485 -0.006368 0.008720 
526545967004329 -0.000485 -0.006368 0.008720 
526545987575578 -0.000485 -0.006368 0.008720 
526546008146203 -0.000485 -0.006368 0.008720 
526546028716882 -0.000485 -0.006368 0.008720 
526546049287766 -0.000485 -0.006368 0.008720 
526546069858234 -0.000485 -0.006368 0.008720 
526546090428756 -0.000485 -0.006368 0.008720 
526546111000319 -0.000485 -0.006368 0.008720 
526546131570578 -0.000485 -0.006368 0.008720 
526546152141412 -0.000485 -0.006368 0.008720 
526546172712193 -0.000485 -0.006368 0.008720 
526546193283026 -0.000485 -0.006368 0.008720 
526546213853964 -0.000485 -0.006368 0.008720 
526546234424953 -0.000485 -0.006368 0.008720 
526546254995579 -0.000485 -0.006368 0.008720 
526546275566516 -0.000485 -0.006368 0.008720 
526546296137350 -0.000485 -0.006368 0.008720 
526546316708548 -0.000485 -0.006368 0.008720 
526546337279173 -0.000485 -0.006368 0.008720 
526546357849849 -0.000485 -0.006368 0.008720 
526546378420735 -0.000485 -0.006368 0.008720 
526546398991777 -0.000485 -0.006368 0.008720 
526546419562297 -0.000485 -0.006368 0.008720 
526546440133391 -0.000485 -0.006368 0.008720 
526546460703860 -0.000485 -0.006368 0.008720 
526546481281307 -0.000485 -0.006368 0.008720 
526546501845839 -0.000485 -0.006368 0.008720 
526546522416881 -0.000485 -0.006368 0.008720 
526546542987453 -0.000485 -0.006368 0.008720 
526546563558444 -0.000485 -0.006368 0.008720 
526546584129120 -0.000485 -0.006368 0.008720 
526546604700005 -0.000485 -0.006368 0.008720 
526546625271568 -0.000485 -0.006368 0.008720 
526546645841620 -0.000485 -0.006368 0.008720 
526546666412975 -0.000485 -0.006368 0.008720 
526546686983235 -0.000485 -0.006368 0.008720 
526546707554484 -0.000485 -0.006368 0.008720 
526546728125162 -0.000485 -0.006368 0.008720 
526546748696620 -0.000485 -0.006368 0.008720 
526546769266828 -0.000485 -0.006368 0.008720 
526546789837662 -0.000485 -0.006368 0.008720 
526546810408495 -0.000485 -0.006368 0.008720 
526546830979276 -0.000485 -0.006368 0.008720 
526546851550110 -0.000485 -0.006368 0.008720 
526546872121620 -0.000485 -0.006368 0.008720 
526546892692088 -0.000485 -0.006368 0.008720 
526546913262610 -0.000485 -0.006368 0.008720 
526546933833964 -0.000485 -0.006368 0.008720 
526546954404693 -0.000485 -0.006368 0.008720 
526546974975110 -0.000485 -0.006368 0.008720 
526546995546151 -0.000485 -0.006368 0.008720 
526547016116880 -0.000485 -0.006368 0.008720 
526547036688131 -0.000485 -0.006368 0.008720 
526547057258443 -0.000485 -0.006368 0.008720 
526547077829380 -0.000485 -0.006368 0.008720 
526547098400422 -0.000485 -0.006368 0.008720 
526547118971619 -0.000485 -0.006368 0.008720 
526547139541881 -0.000485 -0.006368 0.008720 
526547160112922 -0.000485 -0.006368 0.008720 
526547180683599 -0.000485 -0.006368 0.008720 
526547201254797 -0.000485 -0.006368 0.008720 
526547221825318 -0.000485 -0.006368 0.008720 
526547242396568 -0.000485 -0.006368 0.008720 
526547262966985 -0.000485 -0.006368 0.008720 
526547283537141 -0.000485 -0.006368 0.008720 
526547304108911 -0.000485 -0.006368 0.008720 
526547324679485 -0.000485 -0.006368 0.008720 
526547345250942 -0.000485 -0.006368 0.008720 
526547365821151 -0.000485 -0.006368 0.008720 
526547386392246 -0.000485 -0.006368 0.008720 
526547406963078 -0.000485 -0.006368 0.008720 
526547427534016 -0.000485 -0.006368 0.008720 
526547448104589 -0.000485 -0.006368 0.008720 
526547468676098 -0.000485 -0.006368 0.008720 
526547489246308 -0.000485 -0.006368 0.008720 
526547509817297 -0.000485 -0.006368 0.008720 
526547530388130 -0.000485 -0.006368 0.008720 
526547550959016 -0.000485 -0.006368 0.008720 
526547571529796 -0.000485 -0.006368 0.008720 
526547592100786 -0.000485 -0.006368 0.008720 
526547612671516 -0.000485 -0.006368 0.008720 
526547633242505 -0.000485 -0.006368 0.008720 
526547653813182 -0.000485 -0.006368 0.008720 
526547674384016 -0.000485 -0.006368 0.008720 
526547694954797 -0.000485 -0.006368 0.008720 
526547715525786 -0.000485 -0.006368 0.008720 
526547736096723 -0.000485 -0.006368 0.008720 
526547756667557 -0.000485 -0.006368 0.008720 
526547777238443 -0.000485 -0.006368 0.008720 
526547797809276 -0.000485 -0.006368 0.008720 
526547818379953 -0.000485 -0.006368 0.008720 
526547838951203 -0.000485 -0.006368 0.008720 
526547859521776 -0.000485 -0.006368 0.008720 
526547880092974 -0.000485 -0.006368 0.008720 
526547900663390 -0.000485 -0.006368 0.008720 
526547921234380 -0.000485 -0.006368 0.008720 
526547941805266 -0.000485 -0.006368 0.008720 
526547962376046 -0.000485 -0.006368 0.008720 
526547982946931 -0.000485 -0.006368 0.008720 
526548003517661 -0.000485 -0.006368 0.008720 
526548024088703 -0.000485 -0.006368 0.008720 
526548044659328 -0.000485 -0.006368 0.008720 
526548065230734 -0.000485 -0.006368 0.008720 
526548085801203 -0.000485 -0.006368 0.008720 
526548106372401 -0.000485 -0.006368 0.008720 
526548126942140 -0.000485 -0.006368 0.008720 
526548147514380 -0.000485 -0.006368 0.008720 
526548168084536 -0.000485 -0.006368 0.008720 
526548188655369 -0.000485 -0.006368 0.008720 
526548209226150 -0.000485 -0.006368 0.008720 
526548229797714 -0.000485 -0.006368 0.008720 
526548250367973 -0.000485 -0.006368 0.008720 
526548270938859 -0.000485 -0.006368 0.008720 
526548291509641 -0.000485 -0.006368 0.008720 
526548312080630 -0.000485 -0.006368 0.008720 
526548332651464 -0.000485 -0.006368 0.008720 
526548353222140 -0.000485 -0.006368 0.008720 
526548373793077 -0.000485 -0.006368 0.008720 
526548394364276 -0.000485 -0.006368 0.008720 
526548414934901 -0.000485 -0.006368 0.008720 
526548435505995 -0.000485 -0.006368 0.008720 
526548456076985 -0.000485 -0.006368 0.008720 
526548476647609 -0.000485 -0.006368 0.008720 
526548497218599 -0.000485 -0.006368 0.008720 
526548517789275 -0.000485 -0.006368 0.008720 
526548538359952 -0.000485 -0.006368 0.008720 
526548558931307 -0.000485 -0.006368 0.008720 
526548579501671 -0.000485 -0.006368 0.008720 
526548600072974 -0.000485 -0.006368 0.008720 
526548620643338 -0.000485 -0.006368 0.008720 
526548641214379 -0.000485 -0.006368 0.008720 
526548661785266 -0.000485 -0.006368 0.008720 
526548682356151 -0.000485 -0.006368 0.008720 
526548702926775 -0.000485 -0.006368 0.008720 
526548723497713 -0.000485 -0.006368 0.008720 
526548744068702 -0.000485 -0.006368 0.008720 
526548764639328 -0.000485 -0.006368 0.008720 
526548785210213 -0.000485 -0.006368 0.008720 
526548805780994 -0.000485 -0.006368 0.008720 
526548826352921 -0.000485 -0.006368 0.008720 
526548846922765 -0.000485 -0.006368 0.008720 
526548867493755 -0.000485 -0.006368 0.008720 
526548888064484 -0.000485 -0.006368 0.008720 
526548908635629 -0.000485 -0.006368 0.008720 
526548929206255 -0.000485 -0.006368 0.008720 
526548949777192 -0.000485 -0.006368 0.008720 
526548970347973 -0.000485 -0.006368 0.008720 
526548990919276 -0.000485 -0.006368 0.008720 
526549011489744 -0.000485 -0.006368 0.008720 
526549032061098 -0.000485 -0.006368 0.008720 
526549052631359 -0.000485 -0.006368 0.008720 
526549073202296 -0.000485 -0.006368 0.008720 
526549093773026 -0.000485 -0.006368 0.008720 
526549114344379 -0.000485 -0.006368 0.008720 
526549134915525 -0.000485 -0.006368 0.008720 
526549155487192 -0.000485 -0.006368 0.008720 
526549176057140 -0.000485 -0.006368 0.008720 
526549196628391 -0.000485 -0.006368 0.008720 
526549217198963 -0.000485 -0.006368 0.008720 
526549237770161 -0.000485 -0.006368 0.008720 
526549258340578 -0.000485 -0.006368 0.008720 
526549278911879 -0.000485 -0.006368 0.008720 
526549299482660 -0.000485 -0.006368 0.008720 
526549320053442 -0.000485 -0.006368 0.008720 
526549340624067 -0.000485 -0.006368 0.008720 
526549361195110 -0.000485 -0.006368 0.008720 
526549381765942 -0.000485 -0.006368 0.008720 
526549402336723 -0.000485 -0.006368 0.008720 
526549422907661 -0.000485 -0.006368 0.008720 
526549443478442 -0.000485 -0.006368 0.008720 
526549464049327 -0.000485 -0.006368 0.008720 
526549484620265 -0.000485 -0.006368 0.008720 
526549505191307 -0.000485 -0.006368 0.008720 
526549525762088 -0.000485 -0.006368 0.008720 
526549546333286 -0.000485 -0.006368 0.008720 
