# Created at Thu Nov 07 19:34:58 EST 2019 in Burnaby Canada 
526542050926882 40.773468 185.543625 -10.365678 
526542070926882 40.773468 185.543625 -10.365678 
526542090922663 40.773468 185.543625 -10.365678 
526542110922195 40.773468 185.543625 -10.365678 
526542130916830 40.773468 185.543625 -10.365678 
526542150922195 40.773468 185.543625 -10.365678 
526542170922403 40.773468 185.543625 -10.365678 
526542190922925 40.773468 185.543625 -10.365678 
526542210923183 40.773468 185.543625 -10.365678 
526542230922507 40.773468 185.543625 -10.365678 
526542250922195 40.773468 185.543625 -10.365678 
526542270922143 40.773468 185.543625 -10.365678 
526542290922820 40.773468 185.543625 -10.365678 
526542310922351 40.773468 185.543625 -10.365678 
526542330916257 40.773468 185.543625 -10.365678 
526542350922038 40.773468 185.543625 -10.365678 
526542370922663 40.773468 185.543625 -10.365678 
526542390922194 40.773468 185.543625 -10.365678 
526542410923392 40.773468 185.543625 -10.365678 
526542430923392 40.773468 185.543625 -10.365678 
526542450922247 40.773468 185.543625 -10.365678 
526542470921987 40.773468 185.543625 -10.365678 
526542490922507 40.773468 185.543625 -10.365678 
526542510921934 40.773468 185.543625 -10.365678 
526542530922038 40.773468 185.543625 -10.365678 
526542550922506 40.773468 185.543625 -10.365678 
526542570922455 40.773468 185.543625 -10.365678 
526542590922455 40.773468 185.543625 -10.365678 
526542610922299 40.773468 185.543625 -10.365678 
526542630921987 40.773468 185.543625 -10.365678 
526542650922194 40.773468 185.543625 -10.365678 
526542670922090 40.773468 185.543625 -10.365678 
526542690922299 40.773468 185.543625 -10.365678 
526542710922299 40.773468 185.543625 -10.365678 
526542730921725 40.773468 185.543625 -10.365678 
526542750922350 40.773468 185.543625 -10.365678 
526542770947559 40.773468 185.543625 -10.365678 
526542790947559 40.773468 185.543625 -10.365678 
526542810923131 40.773468 185.543625 -10.365678 
526542830924747 40.773468 185.543625 -10.365678 
526542850922455 40.773468 185.543625 -10.365678 
526542870922975 40.773468 185.543625 -10.365678 
526542890924069 40.773468 185.543625 -10.365678 
526542910923341 40.773468 185.543625 -10.365678 
526542930923080 40.773468 185.543625 -10.365678 
526542951129851 40.773468 185.543625 -10.365678 
526542970921830 40.773468 185.543625 -10.365678 
526542990922298 40.773468 185.543625 -10.365678 
526543010922716 40.773468 185.543625 -10.365678 
526543030922039 40.773468 185.543625 -10.365678 
526543050916256 40.773468 185.543625 -10.365678 
526543070922246 40.773468 185.543625 -10.365678 
526543090919173 40.773468 185.543625 -10.365678 
526543110923183 40.773468 185.543625 -10.365678 
526543130916881 40.773468 185.543625 -10.365678 
526543150916881 40.773468 185.543625 -10.365678 
526543170919017 40.773468 185.543625 -10.365678 
526543190922767 40.773468 185.543625 -10.365678 
526543210915996 40.773468 185.543625 -10.365678 
526543230922559 40.773468 185.543625 -10.365678 
526543250923288 40.773468 185.543625 -10.365678 
526543270923444 40.773468 185.543625 -10.365678 
526543290923132 40.773468 185.543625 -10.365678 
526543310923340 40.773468 185.543625 -10.365678 
526543330918549 40.773468 185.543625 -10.365678 
526543350925424 40.773468 185.543625 -10.365678 
526543370924278 40.773468 185.543625 -10.365678 
526543390923810 40.773468 185.543625 -10.365678 
526543410916256 40.773468 185.543625 -10.365678 
526543430915788 40.773468 185.543625 -10.365678 
526543450915684 40.773468 185.543625 -10.365678 
526543470922350 40.773468 185.543625 -10.365678 
526543490919329 40.773468 185.543625 -10.365678 
526543510919329 40.773468 185.543625 -10.365678 
526543530916101 40.773468 185.543625 -10.365678 
526543550922038 40.773468 185.543625 -10.365678 
526543570916101 40.773468 185.543625 -10.365678 
526543590915371 40.773468 185.543625 -10.365678 
526543610916205 40.773468 185.543625 -10.365678 
526543630922246 40.773468 185.543625 -10.365678 
526543650923080 40.773468 185.543625 -10.365678 
526543670922611 40.773468 185.543625 -10.365678 
526543690922350 40.773468 185.543625 -10.365678 
526543710922142 40.773468 185.543625 -10.365678 
526543730915788 40.773468 185.543625 -10.365678 
526543750922559 40.773468 185.543625 -10.365678 
526543770915996 40.773468 185.543625 -10.365678 
526543790915892 40.773468 185.543625 -10.365678 
526543810918080 40.773468 185.543625 -10.365678 
526543830918705 40.773468 185.543625 -10.365678 
526543850946986 40.773468 185.543625 -10.365678 
526543871346361 40.773468 185.543625 -10.365678 
526543890919278 40.773468 185.543625 -10.365678 
526543910922715 40.773468 185.543625 -10.365678 
526543930915840 40.773468 185.543625 -10.365678 
526543951129746 40.773468 185.543625 -10.365678 
526543970922820 40.773468 185.543625 -10.365678 
526543990922143 40.773468 185.543625 -10.365678 
526544010922611 40.773468 185.543625 -10.365678 
526544030922090 40.773468 185.543625 -10.365678 
526544050922246 40.773468 185.543625 -10.365678 
526544070922246 40.773468 185.543625 -10.365678 
526544090915788 40.773468 185.543625 -10.365678 
526544110915840 40.773468 185.543625 -10.365678 
526544130915475 40.773468 185.543625 -10.365678 
526544150980007 40.773468 185.543625 -10.365678 
526544170923392 40.773468 185.543625 -10.365678 
526544190922819 40.773468 185.543625 -10.365678 
526544210917558 40.773468 185.543625 -10.365678 
526544231315110 40.773468 185.543625 -10.365678 
526544250916152 40.773468 185.543625 -10.365678 
526544270923079 40.773468 185.543625 -10.365678 
526544290916830 40.773468 185.543625 -10.365678 
526544310922663 40.773468 185.543625 -10.365678 
526544330917089 40.773468 185.543625 -10.365678 
526544350923131 40.773468 185.543625 -10.365678 
526544370922247 40.773468 185.543625 -10.365678 
526544390922974 40.773468 185.543625 -10.365678 
526544410922246 40.773468 185.543625 -10.365678 
526544430922246 40.773468 185.543625 -10.365678 
526544450916413 40.773468 185.543625 -10.365678 
526544470922611 40.773468 185.543625 -10.365678 
526544490915371 40.773468 185.543625 -10.365678 
526544510922871 40.773468 185.543625 -10.365678 
526544530915944 40.773468 185.543625 -10.365678 
526544550922194 40.773468 185.543625 -10.365678 
526544570921672 40.773468 185.543625 -10.365678 
526544590921672 40.773468 185.543625 -10.365678 
526544610915475 40.773468 185.543625 -10.365678 
526544630916465 40.773468 185.543625 -10.365678 
526544650917402 40.773468 185.543625 -10.365678 
526544670923391 40.773468 185.543625 -10.365678 
526544690921569 40.773468 185.543625 -10.365678 
526544710921569 40.773468 185.543625 -10.365678 
526544730917454 40.773468 185.543625 -10.365678 
526544750924173 40.773468 185.543625 -10.365678 
526544770916726 40.773468 185.543625 -10.365678 
526544790923340 40.773468 185.543625 -10.365678 
526544810916725 40.773468 185.543625 -10.365678 
526544830920267 40.773468 185.543625 -10.365678 
526544850917923 40.773468 185.543625 -10.365678 
526544870919277 40.773468 185.543625 -10.365678 
526544890916829 40.773468 185.543625 -10.365678 
526544910923496 40.773468 185.543625 -10.365678 
526544930917142 40.773468 185.543625 -10.365678 
526544950917142 40.773468 185.543625 -10.365678 
526544970917663 40.773468 185.543625 -10.365678 
526544990917246 40.773468 185.543625 -10.365678 
526545010916777 40.773468 185.543625 -10.365678 
526545030916568 40.773468 185.543625 -10.365678 
526545050917297 40.773468 185.543625 -10.365678 
526545070923444 40.773468 185.543625 -10.365678 
526545090924485 40.773468 185.543625 -10.365678 
526545110923184 40.773468 185.543625 -10.365678 
526545130916256 40.773468 185.543625 -10.365678 
526545150922974 40.773468 185.543625 -10.365678 
526545170916777 40.773468 185.543625 -10.365678 
526545190923236 40.773468 185.543625 -10.365678 
526545210916517 40.773468 185.543625 -10.365678 
526545230923965 40.773468 185.543625 -10.365678 
526545250923235 40.773468 185.543625 -10.365678 
526545270916100 40.773468 185.543625 -10.365678 
526545290938599 40.773468 185.543625 -10.365678 
526545311281933 40.773468 185.543625 -10.365678 
526545330917454 40.773468 185.543625 -10.365678 
526545350923965 40.773468 185.543625 -10.365678 
526545370917766 40.773468 185.543625 -10.365678 
526545390918131 40.773468 185.543625 -10.365678 
526545410922454 40.773468 185.543625 -10.365678 
526545430923287 40.773468 185.543625 -10.365678 
526545450922715 40.773468 185.543625 -10.365678 
526545470923444 40.773468 185.543625 -10.365678 
526545490923079 40.773468 185.543625 -10.365678 
526545510922923 40.773468 185.543625 -10.365678 
526545530917246 40.773468 185.543625 -10.365678 
526545550922975 40.773468 185.543625 -10.365678 
526545570923079 40.773468 185.543625 -10.365678 
526545590923288 40.773468 185.543625 -10.365678 
526545610923026 40.773468 185.543625 -10.365678 
526545630923599 40.773468 185.543625 -10.365678 
526545650957871 40.773468 185.543625 -10.365678 
526545671298236 40.773468 185.543625 -10.365678 
526545690923183 40.773468 185.543625 -10.365678 
526545710922506 40.773468 185.543625 -10.365678 
526545730916308 40.773468 185.543625 -10.365678 
526545750922454 40.773468 185.543625 -10.365678 
526545770923079 40.773468 185.543625 -10.365678 
526545790922194 40.773468 185.543625 -10.365678 
526545810923652 40.773468 185.543625 -10.365678 
526545830922401 40.773468 185.543625 -10.365678 
526545850922870 40.773468 185.543625 -10.365678 
526545870923443 40.773468 185.543625 -10.365678 
526545890923235 40.773468 185.543625 -10.365678 
526545910922818 40.773468 185.543625 -10.365678 
526545930917141 40.773468 185.543625 -10.365678 
526545951130735 40.773468 185.543625 -10.365678 
526545970923079 40.773468 185.543625 -10.365678 
526545990923131 40.773468 185.543625 -10.365678 
526546010958599 40.773468 185.543625 -10.365678 
526546031281568 40.773468 185.543625 -10.365678 
526546050923235 40.773468 185.543625 -10.365678 
526546070922766 40.773468 185.543625 -10.365678 
526546090921933 40.773468 185.543625 -10.365678 
526546110922141 40.773468 185.543625 -10.365678 
526546130915839 40.773468 185.543625 -10.365678 
526546150922453 40.773468 185.543625 -10.365678 
526546170922245 40.773468 185.543625 -10.365678 
526546190922454 40.773468 185.543625 -10.365678 
526546210922558 40.773468 185.543625 -10.365678 
526546230922558 40.773468 185.543625 -10.365678 
526546250922350 40.773468 185.543625 -10.365678 
526546270922507 40.773468 185.543625 -10.365678 
526546290922454 40.773468 185.543625 -10.365678 
526546310922246 40.773468 185.543625 -10.365678 
526546330922715 40.773468 185.543625 -10.365678 
526546350922819 40.773468 185.543625 -10.365678 
526546370942714 40.773468 185.543625 -10.365678 
526546391275526 40.773468 185.543625 -10.365678 
526546410922298 40.773468 185.543625 -10.365678 
526546430922037 40.773468 185.543625 -10.365678 
526546450922766 40.773468 185.543625 -10.365678 
526546470921985 40.773468 185.543625 -10.365678 
526546490928755 40.773468 185.543625 -10.365678 
526546510922193 40.773468 185.543625 -10.365678 
526546530922350 40.773468 185.543625 -10.365678 
526546550922193 40.773468 185.543625 -10.365678 
526546570922610 40.773468 185.543625 -10.365678 
526546590922767 40.773468 185.543625 -10.365678 
526546610922349 40.773468 185.543625 -10.365678 
526546630922870 40.773468 185.543625 -10.365678 
526546650922089 40.773468 185.543625 -10.365678 
526546670922089 40.773468 185.543625 -10.365678 
526546690921724 40.773468 185.543625 -10.365678 
526546710922037 40.773468 185.543625 -10.365678 
526546730916412 40.773468 185.543625 -10.365678 
526546751267245 40.773468 185.543625 -10.365678 
526546770922662 40.773468 185.543625 -10.365678 
526546790922453 40.773468 185.543625 -10.365678 
526546810922505 40.773468 185.543625 -10.365678 
526546830922714 40.773468 185.543625 -10.365678 
526546850922089 40.773468 185.543625 -10.365678 
526546870922193 40.773468 185.543625 -10.365678 
526546890922713 40.773468 185.543625 -10.365678 
526546910922245 40.773468 185.543625 -10.365678 
526546930916829 40.773468 185.543625 -10.365678 
526546951130422 40.773468 185.543625 -10.365678 
526546970922506 40.773468 185.543625 -10.365678 
526546990922193 40.773468 185.543625 -10.365678 
526547010922089 40.773468 185.543625 -10.365678 
526547030922349 40.773468 185.543625 -10.365678 
526547050922922 40.773468 185.543625 -10.365678 
526547070922349 40.773468 185.543625 -10.365678 
526547090918443 40.773468 185.543625 -10.365678 
526547111256724 40.773468 185.543625 -10.365678 
526547130916619 40.773468 185.543625 -10.365678 
526547150922922 40.773468 185.543625 -10.365678 
526547170922505 40.773468 185.543625 -10.365678 
526547190922922 40.773468 185.543625 -10.365678 
526547210923130 40.773468 185.543625 -10.365678 
526547230922558 40.773468 185.543625 -10.365678 
526547250923079 40.773468 185.543625 -10.365678 
526547270922400 40.773468 185.543625 -10.365678 
526547290921256 40.773468 185.543625 -10.365678 
526547310921047 40.773468 185.543625 -10.365678 
526547330915787 40.773468 185.543625 -10.365678 
526547350922245 40.773468 185.543625 -10.365678 
526547370922349 40.773468 185.543625 -10.365678 
526547390922662 40.773468 185.543625 -10.365678 
526547410922453 40.773468 185.543625 -10.365678 
526547430922609 40.773468 185.543625 -10.365678 
526547450941151 40.773468 185.543625 -10.365678 
526547471243078 40.773468 185.543625 -10.365678 
526547490922401 40.773468 185.543625 -10.365678 
526547510922089 40.773468 185.543625 -10.365678 
526547530926568 40.773468 185.543625 -10.365678 
526547550922662 40.773468 185.543625 -10.365678 
526547570922296 40.773468 185.543625 -10.365678 
526547590922973 40.773468 185.543625 -10.365678 
526547610922558 40.773468 185.543625 -10.365678 
526547630922714 40.773468 185.543625 -10.365678 
526547650922921 40.773468 185.543625 -10.365678 
526547670922452 40.773468 185.543625 -10.365678 
526547690922349 40.773468 185.543625 -10.365678 
526547710922297 40.773468 185.543625 -10.365678 
526547730915838 40.773468 185.543625 -10.365678 
526547750922400 40.773468 185.543625 -10.365678 
526547770922297 40.773468 185.543625 -10.365678 
526547790922557 40.773468 185.543625 -10.365678 
526547810915421 40.773468 185.543625 -10.365678 
526547831236359 40.773468 185.543625 -10.365678 
526547850969328 40.773468 185.543625 -10.365678 
526547870922401 40.773468 185.543625 -10.365678 
526547890922765 40.773468 185.543625 -10.365678 
526547910922036 40.773468 185.543625 -10.365678 
526547930916411 40.773468 185.543625 -10.365678 
526547951130214 40.773468 185.543625 -10.365678 
526547970921879 40.773468 185.543625 -10.365678 
526547990922557 40.773468 185.543625 -10.365678 
526548010922348 40.773468 185.543625 -10.365678 
526548030921932 40.773468 185.543625 -10.365678 
526548050922557 40.773468 185.543625 -10.365678 
526548070922192 40.773468 185.543625 -10.365678 
526548090922297 40.773468 185.543625 -10.365678 
526548110921880 40.773468 185.543625 -10.365678 
526548130921828 40.773468 185.543625 -10.365678 
526548150921984 40.773468 185.543625 -10.365678 
526548170916307 40.773468 185.543625 -10.365678 
526548191227088 40.773468 185.543625 -10.365678 
526548210969432 40.773468 185.543625 -10.365678 
526548230922505 40.773468 185.543625 -10.365678 
526548250922765 40.773468 185.543625 -10.365678 
526548270922713 40.773468 185.543625 -10.365678 
526548290922245 40.773468 185.543625 -10.365678 
526548310922453 40.773468 185.543625 -10.365678 
526548330916724 40.773468 185.543625 -10.365678 
526548350922193 40.773468 185.543625 -10.365678 
526548370921723 40.773468 185.543625 -10.365678 
526548390922244 40.773468 185.543625 -10.365678 
526548410922245 40.773468 185.543625 -10.365678 
526548430922297 40.773468 185.543625 -10.365678 
526548450922922 40.773468 185.543625 -10.365678 
526548470922454 40.773468 185.543625 -10.365678 
526548490922349 40.773468 185.543625 -10.365678 
526548510922870 40.773468 185.543625 -10.365678 
526548530915786 40.773468 185.543625 -10.365678 
526548551213911 40.773468 185.543625 -10.365678 
526548570969953 40.773468 185.543625 -10.365678 
526548590922192 40.773468 185.543625 -10.365678 
526548610923078 40.773468 185.543625 -10.365678 
526548630922296 40.773468 185.543625 -10.365678 
526548650922400 40.773468 185.543625 -10.365678 
526548670922714 40.773468 185.543625 -10.365678 
526548690923026 40.773468 185.543625 -10.365678 
526548710922088 40.773468 185.543625 -10.365678 
526548730916202 40.773468 185.543625 -10.365678 
526548750922140 40.773468 185.543625 -10.365678 
526548770922036 40.773468 185.543625 -10.365678 
526548790921984 40.773468 185.543625 -10.365678 
526548810922088 40.773468 185.543625 -10.365678 
526548830922401 40.773468 185.543625 -10.365678 
526548850922505 40.773468 185.543625 -10.365678 
526548870922192 40.773468 185.543625 -10.365678 
526548890915890 40.773468 185.543625 -10.365678 
526548911203130 40.773468 185.543625 -10.365678 
526548930963702 40.773468 185.543625 -10.365678 
526548951129275 40.773468 185.543625 -10.365678 
526548970922244 40.773468 185.543625 -10.365678 
526548990921723 40.773468 185.543625 -10.365678 
526549010922505 40.773468 185.543625 -10.365678 
526549030922348 40.773468 185.543625 -10.365678 
526549050921932 40.773468 185.543625 -10.365678 
526549070922505 40.773468 185.543625 -10.365678 
526549090922401 40.773468 185.543625 -10.365678 
526549110922349 40.773468 185.543625 -10.365678 
526549130917661 40.773468 185.543625 -10.365678 
526549150923130 40.773468 185.543625 -10.365678 
526549170923234 40.773468 185.543625 -10.365678 
526549190922869 40.773468 185.543625 -10.365678 
526549210923286 40.773468 185.543625 -10.365678 
526549230923234 40.773468 185.543625 -10.365678 
526549250916671 40.773468 185.543625 -10.365678 
526549271196984 40.773468 185.543625 -10.365678 
526549290970994 40.773468 185.543625 -10.365678 
526549310923077 40.773468 185.543625 -10.365678 
526549330921671 40.773468 185.543625 -10.365678 
526549350922921 40.773468 185.543625 -10.365678 
526549370923287 40.773468 185.543625 -10.365678 
526549390922713 40.773468 185.543625 -10.365678 
526549410922400 40.773468 185.543625 -10.365678 
526549430922244 40.773468 185.543625 -10.365678 
526549450922765 40.773468 185.543625 -10.365678 
526549470922661 40.773468 185.543625 -10.365678 
526549490922921 40.773468 185.543625 -10.365678 
526549510922973 40.773468 185.543625 -10.365678 
526549530922973 40.773468 185.543625 -10.365678 
526549550923181 40.773468 185.543625 -10.365678 
