# Created at Thu Nov 07 17:54:11 EST 2019 in Burnaby Canada 
520495130917291 43.254688 188.857788 -10.191297 
520495150919427 43.254688 188.857788 -10.191297 
520495170917187 43.254688 188.857788 -10.191297 
520495190917448 43.254688 188.857788 -10.191297 
520495210917448 43.254688 188.857788 -10.191297 
520495230917447 43.254688 188.857788 -10.191297 
520495250918333 43.254688 188.857788 -10.191297 
520495270934844 43.254688 188.857788 -10.191297 
520495290916926 43.254688 188.857788 -10.191297 
520495310916094 43.254688 188.857788 -10.191297 
520495330916718 43.254688 188.857788 -10.191297 
520495350917448 43.254688 188.857788 -10.191297 
520495370920520 43.254688 188.857788 -10.191297 
520495390918176 43.254688 188.857788 -10.191297 
520495410916511 43.254688 188.857788 -10.191297 
520495430916197 43.254688 188.857788 -10.191297 
520495450916615 43.254688 188.857788 -10.191297 
520495470916979 43.254688 188.857788 -10.191297 
520495490916927 43.254688 188.857788 -10.191297 
520495510916718 43.254688 188.857788 -10.191297 
520495530917031 43.254688 188.857788 -10.191297 
520495550917135 43.254688 188.857788 -10.191297 
520495570925833 43.254688 188.857788 -10.191297 
520495590925886 43.254688 188.857788 -10.191297 
520495610921511 43.254688 188.857788 -10.191297 
520495630917240 43.254688 188.857788 -10.191297 
520495650916666 43.254688 188.857788 -10.191297 
520495670916823 43.254688 188.857788 -10.191297 
520495690916615 43.254688 188.857788 -10.191297 
520495710917083 43.254688 188.857788 -10.191297 
520495730916771 43.254688 188.857788 -10.191297 
520495750916615 43.254688 188.857788 -10.191297 
520495770917239 43.254688 188.857788 -10.191297 
520495790916823 43.254688 188.857788 -10.191297 
520495810917812 43.254688 188.857788 -10.191297 
520495830917239 43.254688 188.857788 -10.191297 
520495850916614 43.254688 188.857788 -10.191297 
520495870916719 43.254688 188.857788 -10.191297 
520495890918594 43.254688 188.857788 -10.191297 
520495910917396 43.254688 188.857788 -10.191297 
520495930917760 43.254688 188.857788 -10.191297 
520495950918646 43.254688 188.857788 -10.191297 
520495970917396 43.254688 188.857788 -10.191297 
520495990917187 43.254688 188.857788 -10.191297 
520496010916197 43.254688 188.857788 -10.191297 
520496030917083 43.254688 188.857788 -10.191297 
520496050917603 43.254688 188.857788 -10.191297 
520496070918125 43.254688 188.857788 -10.191297 
520496090917551 43.254688 188.857788 -10.191297 
520496110917291 43.254688 188.857788 -10.191297 
520496130916770 43.254688 188.857788 -10.191297 
520496150916927 43.254688 188.857788 -10.191297 
520496170919635 43.254688 188.857788 -10.191297 
520496190917915 43.254688 188.857788 -10.191297 
520496210935467 43.254688 188.857788 -10.191297 
520496230916614 43.254688 188.857788 -10.191297 
520496250916146 43.254688 188.857788 -10.191297 
520496270924791 43.254688 188.857788 -10.191297 
520496290920937 43.254688 188.857788 -10.191297 
520496311239739 43.254688 188.857788 -10.191297 
520496330917448 43.254688 188.857788 -10.191297 
520496350918020 43.254688 188.857788 -10.191297 
520496370918281 43.254688 188.857788 -10.191297 
520496390917656 43.254688 188.857788 -10.191297 
520496410917448 43.254688 188.857788 -10.191297 
520496430919479 43.254688 188.857788 -10.191297 
520496450917709 43.254688 188.857788 -10.191297 
520496470954844 43.254688 188.857788 -10.191297 
520496490917656 43.254688 188.857788 -10.191297 
520496510918697 43.254688 188.857788 -10.191297 
520496530926978 43.254688 188.857788 -10.191297 
520496550917864 43.254688 188.857788 -10.191297 
520496570975833 43.254688 188.857788 -10.191297 
520496590917760 43.254688 188.857788 -10.191297 
520496610916406 43.254688 188.857788 -10.191297 
520496630917551 43.254688 188.857788 -10.191297 
520496650920156 43.254688 188.857788 -10.191297 
520496671179739 43.254688 188.857788 -10.191297 
520496690966509 43.254688 188.857788 -10.191297 
520496710917448 43.254688 188.857788 -10.191297 
520496730918540 43.254688 188.857788 -10.191297 
520496750917708 43.254688 188.857788 -10.191297 
520496770917864 43.254688 188.857788 -10.191297 
520496790917030 43.254688 188.857788 -10.191297 
520496810917135 43.254688 188.857788 -10.191297 
520496830918437 43.254688 188.857788 -10.191297 
520496850916979 43.254688 188.857788 -10.191297 
520496870917239 43.254688 188.857788 -10.191297 
520496890916874 43.254688 188.857788 -10.191297 
520496910917030 43.254688 188.857788 -10.191297 
520496930916301 43.254688 188.857788 -10.191297 
520496951129010 43.254688 188.857788 -10.191297 
520496970953073 43.254688 188.857788 -10.191297 
520496990918542 43.254688 188.857788 -10.191297 
520497010924375 43.254688 188.857788 -10.191297 
520497031105468 43.254688 188.857788 -10.191297 
520497050967188 43.254688 188.857788 -10.191297 
520497070964530 43.254688 188.857788 -10.191297 
520497090917552 43.254688 188.857788 -10.191297 
520497110917238 43.254688 188.857788 -10.191297 
520497130917291 43.254688 188.857788 -10.191297 
520497150917551 43.254688 188.857788 -10.191297 
520497170916978 43.254688 188.857788 -10.191297 
520497190917135 43.254688 188.857788 -10.191297 
520497210916614 43.254688 188.857788 -10.191297 
520497230917187 43.254688 188.857788 -10.191297 
520497250917030 43.254688 188.857788 -10.191297 
520497270918228 43.254688 188.857788 -10.191297 
520497290916614 43.254688 188.857788 -10.191297 
520497310918906 43.254688 188.857788 -10.191297 
520497330917082 43.254688 188.857788 -10.191297 
520497350917239 43.254688 188.857788 -10.191297 
520497370918958 43.254688 188.857788 -10.191297 
520497391011770 43.254688 188.857788 -10.191297 
520497411012135 43.254688 188.857788 -10.191297 
520497430920624 43.254688 188.857788 -10.191297 
520497450916979 43.254688 188.857788 -10.191297 
520497470916718 43.254688 188.857788 -10.191297 
520497490918280 43.254688 188.857788 -10.191297 
520497510917083 43.254688 188.857788 -10.191297 
520497530917291 43.254688 188.857788 -10.191297 
520497550917916 43.254688 188.857788 -10.191297 
520497570917604 43.254688 188.857788 -10.191297 
520497590917604 43.254688 188.857788 -10.191297 
520497610916770 43.254688 188.857788 -10.191297 
520497630916614 43.254688 188.857788 -10.191297 
520497650917447 43.254688 188.857788 -10.191297 
520497670917655 43.254688 188.857788 -10.191297 
520497690917551 43.254688 188.857788 -10.191297 
520497710917447 43.254688 188.857788 -10.191297 
520497730924061 43.254688 188.857788 -10.191297 
520497750941822 43.254688 188.857788 -10.191297 
520497770941562 43.254688 188.857788 -10.191297 
520497790925469 43.254688 188.857788 -10.191297 
520497810917031 43.254688 188.857788 -10.191297 
520497830918019 43.254688 188.857788 -10.191297 
520497850918280 43.254688 188.857788 -10.191297 
520497870917551 43.254688 188.857788 -10.191297 
520497890917655 43.254688 188.857788 -10.191297 
520497910924426 43.254688 188.857788 -10.191297 
520497930917343 43.254688 188.857788 -10.191297 
520497951133957 43.254688 188.857788 -10.191297 
520497970918280 43.254688 188.857788 -10.191297 
520497990919113 43.254688 188.857788 -10.191297 
520498010918906 43.254688 188.857788 -10.191297 
520498030919166 43.254688 188.857788 -10.191297 
520498050919009 43.254688 188.857788 -10.191297 
520498070918853 43.254688 188.857788 -10.191297 
520498090929582 43.254688 188.857788 -10.191297 
520498110917499 43.254688 188.857788 -10.191297 
520498130918905 43.254688 188.857788 -10.191297 
520498150976040 43.254688 188.857788 -10.191297 
520498170917186 43.254688 188.857788 -10.191297 
520498190917342 43.254688 188.857788 -10.191297 
520498210918228 43.254688 188.857788 -10.191297 
520498230918801 43.254688 188.857788 -10.191297 
520498250917030 43.254688 188.857788 -10.191297 
520498270917707 43.254688 188.857788 -10.191297 
520498290917708 43.254688 188.857788 -10.191297 
520498310918281 43.254688 188.857788 -10.191297 
520498330917968 43.254688 188.857788 -10.191297 
520498350918020 43.254688 188.857788 -10.191297 
520498370918280 43.254688 188.857788 -10.191297 
520498390922186 43.254688 188.857788 -10.191297 
520498410917967 43.254688 188.857788 -10.191297 
520498430917968 43.254688 188.857788 -10.191297 
520498450920781 43.254688 188.857788 -10.191297 
520498470918749 43.254688 188.857788 -10.191297 
520498490918176 43.254688 188.857788 -10.191297 
520498510919061 43.254688 188.857788 -10.191297 
520498530918540 43.254688 188.857788 -10.191297 
520498550919842 45.002232 190.324265 -6.960118 
520498570918592 45.002232 190.324265 -6.960118 
520498590920571 45.002232 190.324265 -6.960118 
520498610986561 45.002232 190.324265 -6.960118 
520498630918019 45.002232 190.324265 -6.960118 
520498650918019 45.002232 190.324265 -6.960118 
520498670919998 45.002232 190.324265 -6.960118 
520498690918280 45.002232 190.324265 -6.960118 
520498710919322 45.002232 190.324265 -6.960118 
520498730919425 45.002232 190.324265 -6.960118 
520498750918644 45.002232 190.324265 -6.960118 
520498770918489 45.002232 190.324265 -6.960118 
520498790918592 45.002232 190.324265 -6.960118 
520498810929738 45.002232 190.324265 -6.960118 
520498830926509 45.002232 190.324265 -6.960118 
520498851310155 45.002232 190.324265 -6.960118 
520498870917394 45.002232 190.324265 -6.960118 
520498890917186 45.002232 190.324265 -6.960118 
520498910930206 45.002232 190.324265 -6.960118 
520498930916249 45.002232 190.324265 -6.960118 
520498951124582 45.002232 190.324265 -6.960118 
520498970917968 45.002232 190.324265 -6.960118 
520498990919999 45.002232 190.324265 -6.960118 
520499010919113 45.002232 190.324265 -6.960118 
520499030918072 45.002232 190.324265 -6.960118 
520499050917863 45.002232 190.324265 -6.960118 
520499070917290 45.002232 190.324265 -6.960118 
520499090916873 45.002232 190.324265 -6.960118 
520499110924790 45.002232 190.324265 -6.960118 
520499130916353 45.002232 190.324265 -6.960118 
520499150916979 45.002232 190.324265 -6.960118 
520499170916979 45.002232 190.324265 -6.960118 
520499190930207 45.002232 190.324265 -6.960118 
520499211224374 45.002232 190.324265 -6.960118 
520499230919634 45.002232 190.324265 -6.960118 
520499250917290 45.002232 190.324265 -6.960118 
520499270917394 45.002232 190.324265 -6.960118 
520499290917655 45.002232 190.324265 -6.960118 
520499310919009 45.002232 190.324265 -6.960118 
520499330917811 45.002232 190.324265 -6.960118 
520499350917499 45.002232 190.324265 -6.960118 
520499370917029 45.002232 190.324265 -6.960118 
520499390918019 45.002232 190.324265 -6.960118 
520499410917708 45.002232 190.324265 -6.960118 
520499430918019 45.002232 190.324265 -6.960118 
520499450920728 45.002232 190.324265 -6.960118 
520499470917759 45.002232 190.324265 -6.960118 
520499490918436 45.002232 190.324265 -6.960118 
520499510917759 45.002232 190.324265 -6.960118 
520499530916926 45.002232 190.324265 -6.960118 
520499550918019 45.002232 190.324265 -6.960118 
520499571160468 45.002232 190.324265 -6.960118 
520499590964269 45.002232 190.324265 -6.960118 
520499610917499 45.002232 190.324265 -6.960118 
520499630917915 45.002232 190.324265 -6.960118 
520499650916977 45.002232 190.324265 -6.960118 
520499670918280 45.002232 190.324265 -6.960118 
520499690917238 45.002232 190.324265 -6.960118 
520499710917707 45.002232 190.324265 -6.960118 
520499730919321 45.002232 190.324265 -6.960118 
520499750926873 45.002232 190.324265 -6.960118 
520499770917550 45.002232 190.324265 -6.960118 
520499790918279 45.002232 190.324265 -6.960118 
520499810918384 45.002232 190.324265 -6.960118 
520499830918280 45.002232 190.324265 -6.960118 
520499850918072 45.002232 190.324265 -6.960118 
520499870918123 45.002232 190.324265 -6.960118 
520499890918175 45.002232 190.324265 -6.960118 
520499910917707 45.002232 190.324265 -6.960118 
520499931057915 45.002232 190.324265 -6.960118 
520499951058019 45.002232 190.324265 -6.960118 
520499970965519 45.002232 190.324265 -6.960118 
520499990918644 45.002232 190.324265 -6.960118 
520500010917446 45.002232 190.324265 -6.960118 
520500030921040 45.002232 190.324265 -6.960118 
520500050918956 45.002232 190.324265 -6.960118 
520500070918593 45.002232 190.324265 -6.960118 
520500090918800 45.002232 190.324265 -6.960118 
520500110920727 45.002232 190.324265 -6.960118 
520500130918436 45.002232 190.324265 -6.960118 
520500150919425 45.002232 190.324265 -6.960118 
520500170917811 45.002232 190.324265 -6.960118 
520500190917499 45.002232 190.324265 -6.960118 
520500210918123 45.002232 190.324265 -6.960118 
520500230917238 45.002232 190.324265 -6.960118 
520500250919894 45.002232 190.324265 -6.960118 
520500270918071 45.002232 190.324265 -6.960118 
520500290984686 45.002232 190.324265 -6.960118 
520500310986144 45.002232 190.324265 -6.960118 
520500330917811 45.002232 190.324265 -6.960118 
520500350918019 45.002232 190.324265 -6.960118 
520500370917967 45.002232 190.324265 -6.960118 
520500390917550 45.002232 190.324265 -6.960118 
520500410916612 45.002232 190.324265 -6.960118 
520500430956664 45.002232 190.324265 -6.960118 
520500450917082 45.002232 190.324265 -6.960118 
520500470917341 45.002232 190.324265 -6.960118 
520500490918852 45.002232 190.324265 -6.960118 
520500510918801 45.002232 190.324265 -6.960118 
520500530918123 45.002232 190.324265 -6.960118 
520500550922029 45.002232 190.324265 -6.960118 
520500570918435 45.002232 190.324265 -6.960118 
520500590916509 45.002232 190.324265 -6.960118 
520500610917238 45.002232 190.324265 -6.960118 
520500630923072 45.002232 190.324265 -6.960118 
520500650927603 45.002232 190.324265 -6.960118 
520500670928436 45.002232 190.324265 -6.960118 
520500690974582 45.002232 190.324265 -6.960118 
520500710927185 45.002232 190.324265 -6.960118 
520500730918071 45.002232 190.324265 -6.960118 
520500750922655 45.002232 190.324265 -6.960118 
520500770919008 45.002232 190.324265 -6.960118 
520500790918695 45.002232 190.324265 -6.960118 
520500810921821 45.002232 190.324265 -6.960118 
520500830917915 45.002232 190.324265 -6.960118 
