# Created at Thu Nov 07 19:34:19 EST 2019 in Burnaby Canada 
526502799098460 -0.000485 -0.006368 0.008720 
526502819669293 -0.000485 -0.006368 0.008720 
526502840240179 -0.000485 -0.006368 0.008720 
526502860811481 -0.000485 -0.006368 0.008720 
526502881382315 -0.000485 -0.006368 0.008720 
526502901952679 -0.000485 -0.006368 0.008720 
526502922523564 -0.000485 -0.006368 0.008720 
526502943094449 -0.000485 -0.006368 0.008720 
526502963665283 -0.000485 -0.006368 0.008720 
526502984236168 -0.000485 -0.006368 0.008720 
526503004807262 -0.000485 -0.006368 0.008720 
526503025377835 -0.000485 -0.006368 0.008720 
526503045948720 -0.000485 -0.006368 0.008720 
526503066519502 -0.000485 -0.006368 0.008720 
526503087090595 -0.000485 -0.006368 0.008720 
526503107661219 -0.000485 -0.006368 0.008720 
526503128232210 -0.000485 -0.006368 0.008720 
526503148802783 -0.000485 -0.006368 0.008720 
526503169373928 -0.000485 -0.006368 0.008720 
526503189944658 -0.000485 -0.006368 0.008720 
526503210515543 -0.000485 -0.006368 0.008720 
526503231086168 -0.000485 -0.006368 0.008720 
526503251657053 -0.000485 -0.006368 0.008720 
526503272227939 -0.000485 -0.006368 0.008720 
526503292798981 -0.000485 -0.006368 0.008720 
526503313369918 -0.000485 -0.006368 0.008720 
526503333940387 -0.000485 -0.006368 0.008720 
526503354511221 -0.000485 -0.006368 0.008720 
526503375082054 -0.000485 -0.006368 0.008720 
526503395652939 -0.000485 -0.006368 0.008720 
526503416223824 -0.000485 -0.006368 0.008720 
526503436794657 -0.000485 -0.006368 0.008720 
526503457365751 -0.000485 -0.006368 0.008720 
526503477936585 -0.000485 -0.006368 0.008720 
526503498506533 -0.000485 -0.006368 0.008720 
526503519077366 -0.000485 -0.006368 0.008720 
526503539649085 -0.000485 -0.006368 0.008720 
526503560219918 -0.000485 -0.006368 0.008720 
526503580790543 -0.000485 -0.006368 0.008720 
526503601361429 -0.000485 -0.006368 0.008720 
526503621932262 -0.000485 -0.006368 0.008720 
526503642503095 -0.000485 -0.006368 0.008720 
526503663073980 -0.000485 -0.006368 0.008720 
526503683644814 -0.000485 -0.006368 0.008720 
526503704215596 -0.000485 -0.006368 0.008720 
526503724787002 -0.000485 -0.006368 0.008720 
526503745357418 -0.000485 -0.006368 0.008720 
526503765928616 -0.000485 -0.006368 0.008720 
526503786499136 -0.000485 -0.006368 0.008720 
526503807070334 -0.000485 -0.006368 0.008720 
526503827640647 -0.000485 -0.006368 0.008720 
526503848212053 -0.000485 -0.006368 0.008720 
526503868782990 -0.000485 -0.006368 0.008720 
526503889353824 -0.000485 -0.006368 0.008720 
526503909924084 -0.000485 -0.006368 0.008720 
526503930495022 -0.000485 -0.006368 0.008720 
526503951065803 -0.000485 -0.006368 0.008720 
526503971637573 -0.000485 -0.006368 0.008720 
526503992207939 -0.000485 -0.006368 0.008720 
526504012779084 -0.000485 -0.006368 0.008720 
526504033349240 -0.000485 -0.006368 0.008720 
526504053920127 -0.000485 -0.006368 0.008720 
526504074490960 -0.000485 -0.006368 0.008720 
526504095062417 -0.000485 -0.006368 0.008720 
526504115633303 -0.000485 -0.006368 0.008720 
526504136204240 -0.000485 -0.006368 0.008720 
526504156775126 -0.000485 -0.006368 0.008720 
526504177346063 -0.000485 -0.006368 0.008720 
526504197916896 -0.000485 -0.006368 0.008720 
526504218487730 -0.000485 -0.006368 0.008720 
526504239058563 -0.000485 -0.006368 0.008720 
526504259628980 -0.000485 -0.006368 0.008720 
526504280199814 -0.000485 -0.006368 0.008720 
526504300770855 -0.000485 -0.006368 0.008720 
526504321341688 -0.000485 -0.006368 0.008720 
526504341912157 -0.000485 -0.006368 0.008720 
526504362482990 -0.000485 -0.006368 0.008720 
526504383053720 -0.000485 -0.006368 0.008720 
526504403624605 -0.000485 -0.006368 0.008720 
526504424196115 -0.000485 -0.006368 0.008720 
526504444767366 -0.000485 -0.006368 0.008720 
526504465339136 -0.000485 -0.006368 0.008720 
526504485908459 -0.000485 -0.006368 0.008720 
526504506479606 -0.000485 -0.006368 0.008720 
526504527050646 -0.000485 -0.006368 0.008720 
526504547621325 -0.000485 -0.006368 0.008720 
526504568191532 -0.000485 -0.006368 0.008720 
526504588762470 -0.000485 -0.006368 0.008720 
526504609333356 -0.000485 -0.006368 0.008720 
526504629904136 -0.000485 -0.006368 0.008720 
526504650475281 -0.000485 -0.006368 0.008720 
526504671049501 -0.000485 -0.006368 0.008720 
526504691622365 -0.000485 -0.006368 0.008720 
526504712192678 -0.000485 -0.006368 0.008720 
526504732760803 -0.000485 -0.006368 0.008720 
526504753333146 -0.000485 -0.006368 0.008720 
526504773904761 -0.000485 -0.006368 0.008720 
526504794475646 -0.000485 -0.006368 0.008720 
526504815043458 -0.000485 -0.006368 0.008720 
526504835614344 -0.000485 -0.006368 0.008720 
526504856183719 -0.000485 -0.006368 0.008720 
526504876754553 -0.000485 -0.006368 0.008720 
526504897326011 -0.000485 -0.006368 0.008720 
526504917896844 -0.000485 -0.006368 0.008720 
526504938467157 -0.000485 -0.006368 0.008720 
526504959037990 -0.000485 -0.006368 0.008720 
526504979609449 -0.000485 -0.006368 0.008720 
526505000180282 -0.000485 -0.006368 0.008720 
526505020751219 -0.000485 -0.006368 0.008720 
526505041322105 -0.000485 -0.006368 0.008720 
526505061892470 -0.000485 -0.006368 0.008720 
526505082463355 -0.000485 -0.006368 0.008720 
526505103035022 -0.000485 -0.006368 0.008720 
526505123605907 -0.000485 -0.006368 0.008720 
526505144175908 -0.000485 -0.006368 0.008720 
526505164747469 -0.000485 -0.006368 0.008720 
526505185318667 -0.000485 -0.006368 0.008720 
526505205889032 -0.000485 -0.006368 0.008720 
526505226460021 -0.000485 -0.006368 0.008720 
526505247030335 -0.000485 -0.006368 0.008720 
526505267601220 -0.000485 -0.006368 0.008720 
526505288172313 -0.000485 -0.006368 0.008720 
526505308742678 -0.000485 -0.006368 0.008720 
526505329313719 -0.000485 -0.006368 0.008720 
526505349884552 -0.000485 -0.006368 0.008720 
526505370455647 -0.000485 -0.006368 0.008720 
526505391026896 -0.000485 -0.006368 0.008720 
526505411597209 -0.000485 -0.006368 0.008720 
526505432168355 -0.000485 -0.006368 0.008720 
526505452739344 -0.000485 -0.006368 0.008720 
526505473310386 -0.000485 -0.006368 0.008720 
526505493880438 -0.000485 -0.006368 0.008720 
526505514451324 -0.000485 -0.006368 0.008720 
526505535023823 -0.000485 -0.006368 0.008720 
526505555594708 -0.000485 -0.006368 0.008720 
526505576164605 -0.000485 -0.006368 0.008720 
526505596735438 -0.000485 -0.006368 0.008720 
526505617305803 -0.000485 -0.006368 0.008720 
526505637876688 -0.000485 -0.006368 0.008720 
526505658448979 -0.000485 -0.006368 0.008720 
526505679019813 -0.000485 -0.006368 0.008720 
526505699591428 -0.000485 -0.006368 0.008720 
526505720162314 -0.000485 -0.006368 0.008720 
526505740732313 -0.000485 -0.006368 0.008720 
526505761303146 -0.000485 -0.006368 0.008720 
526505781875021 -0.000485 -0.006368 0.008720 
526505802445906 -0.000485 -0.006368 0.008720 
526505823014656 -0.000485 -0.006368 0.008720 
526505843587469 -0.000485 -0.006368 0.008720 
526505864158250 -0.000485 -0.006368 0.008720 
526505884727261 -0.000485 -0.006368 0.008720 
526505905298199 -0.000485 -0.006368 0.008720 
526505925869292 -0.000485 -0.006368 0.008720 
526505946440125 -0.000485 -0.006368 0.008720 
526505967011011 -0.000485 -0.006368 0.008720 
526505987581896 -0.000485 -0.006368 0.008720 
526506008153094 -0.000485 -0.006368 0.008720 
526506028723354 -0.000485 -0.006368 0.008720 
526506049295334 -0.000485 -0.006368 0.008720 
526506069865958 -0.000485 -0.006368 0.008720 
526506090436636 -0.000485 -0.006368 0.008720 
526506111007104 -0.000485 -0.006368 0.008720 
526506131578302 -0.000485 -0.006368 0.008720 
526506152149084 -0.000485 -0.006368 0.008720 
526506172720438 -0.000485 -0.006368 0.008720 
526506193290855 -0.000485 -0.006368 0.008720 
526506213862000 -0.000485 -0.006368 0.008720 
526506234432885 -0.000485 -0.006368 0.008720 
526506255002730 -0.000485 -0.006368 0.008720 
526506275573563 -0.000485 -0.006368 0.008720 
526506296145385 -0.000485 -0.006368 0.008720 
526506316716270 -0.000485 -0.006368 0.008720 
526506337287781 -0.000485 -0.006368 0.008720 
526506357858667 -0.000485 -0.006368 0.008720 
526506378428614 -0.000485 -0.006368 0.008720 
526506398999500 -0.000485 -0.006368 0.008720 
526506419570959 -0.000485 -0.006368 0.008720 
526506440141845 -0.000485 -0.006368 0.008720 
526506460711479 -0.000485 -0.006368 0.008720 
526506481282364 -0.000485 -0.006368 0.008720 
526506501855229 -0.000485 -0.006368 0.008720 
526506522426114 -0.000485 -0.006368 0.008720 
526506542995854 -0.000485 -0.006368 0.008720 
526506563566687 -0.000485 -0.006368 0.008720 
526506584137312 -0.000485 -0.006368 0.008720 
526506604708459 -0.000485 -0.006368 0.008720 
526506625279500 -0.000485 -0.006368 0.008720 
526506645850281 -0.000485 -0.006368 0.008720 
526506666420906 -0.000485 -0.006368 0.008720 
526506686992989 -0.000485 -0.006368 0.008720 
526506707563823 -0.000485 -0.006368 0.008720 
526506728133771 -0.000485 -0.006368 0.008720 
526506748704605 -0.000485 -0.006368 0.008720 
526506769274761 -0.000485 -0.006368 0.008720 
526506789845645 -0.000485 -0.006368 0.008720 
526506810417261 -0.000485 -0.006368 0.008720 
526506830987833 -0.000485 -0.006368 0.008720 
526506851559188 -0.000485 -0.006368 0.008720 
526506872130072 -0.000485 -0.006368 0.008720 
526506892701270 -0.000485 -0.006368 0.008720 
526506913271532 -0.000485 -0.006368 0.008720 
526506933842312 -0.000485 -0.006368 0.008720 
526506954413198 -0.000485 -0.006368 0.008720 
526506974984396 -0.000485 -0.006368 0.008720 
526506995555281 -0.000485 -0.006368 0.008720 
526507016125802 -0.000485 -0.006368 0.008720 
526507036696635 -0.000485 -0.006368 0.008720 
526507057268563 -0.000485 -0.006368 0.008720 
526507077839448 -0.000485 -0.006368 0.008720 
526507098409239 -0.000485 -0.006368 0.008720 
526507118980125 -0.000485 -0.006368 0.008720 
526507139551010 -0.000485 -0.006368 0.008720 
526507160121896 -0.000485 -0.006368 0.008720 
526507180692989 -0.000485 -0.006368 0.008720 
526507201263875 -0.000485 -0.006368 0.008720 
526507221836688 -0.000485 -0.006368 0.008720 
526507242407521 -0.000485 -0.006368 0.008720 
526507262976843 -0.000485 -0.006368 0.008720 
526507283547208 -0.000485 -0.006368 0.008720 
526507304118302 -0.000485 -0.006368 0.008720 
526507324689552 -0.000485 -0.006368 0.008720 
526507345259968 -0.000485 -0.006368 0.008720 
526507365830854 -0.000485 -0.006368 0.008720 
526507386402052 -0.000485 -0.006368 0.008720 
526507406972209 -0.000485 -0.006368 0.008720 
526507427543614 -0.000485 -0.006368 0.008720 
526507448113979 -0.000485 -0.006368 0.008720 
526507468684864 -0.000485 -0.006368 0.008720 
526507489255645 -0.000485 -0.006368 0.008720 
526507509828771 -0.000485 -0.006368 0.008720 
526507530397468 -0.000485 -0.006368 0.008720 
526507550968250 -0.000485 -0.006368 0.008720 
526507571540073 -0.000485 -0.006368 0.008720 
526507592109812 -0.000485 -0.006368 0.008720 
526507612681062 -0.000485 -0.006368 0.008720 
526507633251479 -0.000485 -0.006368 0.008720 
526507653822729 -0.000485 -0.006368 0.008720 
526507674393615 -0.000485 -0.006368 0.008720 
526507694964760 -0.000485 -0.006368 0.008720 
526507715535593 -0.000485 -0.006368 0.008720 
526507736107989 -0.000485 -0.006368 0.008720 
526507756678874 -0.000485 -0.006368 0.008720 
526507777248718 -0.000485 -0.006368 0.008720 
526507797819551 -0.000485 -0.006368 0.008720 
526507818389552 -0.000485 -0.006368 0.008720 
526507838960438 -0.000485 -0.006368 0.008720 
526507859531218 -0.000485 -0.006368 0.008720 
526507880102104 -0.000485 -0.006368 0.008720 
526507900673093 -0.000485 -0.006368 0.008720 
526507921243926 -0.000485 -0.006368 0.008720 
526507941814812 -0.000485 -0.006368 0.008720 
526507962385697 -0.000485 -0.006368 0.008720 
526507982957260 -0.000485 -0.006368 0.008720 
526508003527884 -0.000485 -0.006368 0.008720 
526508024098405 -0.000485 -0.006368 0.008720 
526508044669813 -0.000485 -0.006368 0.008720 
526508065240333 -0.000485 -0.006368 0.008720 
526508085811323 -0.000485 -0.006368 0.008720 
526508106381687 -0.000485 -0.006368 0.008720 
526508126953041 -0.000485 -0.006368 0.008720 
526508147523770 -0.000485 -0.006368 0.008720 
526508168094812 -0.000485 -0.006368 0.008720 
526508188666113 -0.000485 -0.006368 0.008720 
526508209236062 -0.000485 -0.006368 0.008720 
526508229808614 -0.000485 -0.006368 0.008720 
526508250378875 -0.000485 -0.006368 0.008720 
526508270949082 -0.000485 -0.006368 0.008720 
526508291519968 -0.000485 -0.006368 0.008720 
526508312089551 -0.000485 -0.006368 0.008720 
526508332661530 -0.000485 -0.006368 0.008720 
526508353232051 -0.000485 -0.006368 0.008720 
526508373803875 -0.000485 -0.006368 0.008720 
526508394374708 -0.000485 -0.006368 0.008720 
526508414945229 -0.000485 -0.006368 0.008720 
526508435516114 -0.000485 -0.006368 0.008720 
526508456086322 -0.000485 -0.006368 0.008720 
526508476657208 -0.000485 -0.006368 0.008720 
526508497228926 -0.000485 -0.006368 0.008720 
526508517799812 -0.000485 -0.006368 0.008720 
526508538370176 -0.000485 -0.006368 0.008720 
526508558941009 -0.000485 -0.006368 0.008720 
526508579511374 -0.000485 -0.006368 0.008720 
526508600082207 -0.000485 -0.006368 0.008720 
526508620654031 -0.000485 -0.006368 0.008720 
526508641224864 -0.000485 -0.006368 0.008720 
526508661795488 -0.000485 -0.006368 0.008720 
526508682366322 -0.000485 -0.006368 0.008720 
526508702937468 -0.000485 -0.006368 0.008720 
526508723507936 -0.000485 -0.006368 0.008720 
526508744078823 -0.000485 -0.006368 0.008720 
526508764649708 -0.000485 -0.006368 0.008720 
526508785220281 -0.000485 -0.006368 0.008720 
526508805791166 -0.000485 -0.006368 0.008720 
526508826361791 -0.000485 -0.006368 0.008720 
526508846932833 -0.000485 -0.006368 0.008720 
526508867503613 -0.000485 -0.006368 0.008720 
526508888074551 -0.000485 -0.006368 0.008720 
526508908645280 -0.000485 -0.006368 0.008720 
526508929216322 -0.000485 -0.006368 0.008720 
526508949786843 -0.000485 -0.006368 0.008720 
526508970358040 -0.000485 -0.006368 0.008720 
526508990928873 -0.000485 -0.006368 0.008720 
526509011499708 -0.000485 -0.006368 0.008720 
526509032070437 -0.000485 -0.006368 0.008720 
526509052641582 -0.000485 -0.006368 0.008720 
526509073212468 -0.000485 -0.006368 0.008720 
526509093783249 -0.000485 -0.006368 0.008720 
526509114354135 -0.000485 -0.006368 0.008720 
526509134924708 -0.000485 -0.006368 0.008720 
526509155495593 -0.000485 -0.006368 0.008720 
526509176066530 -0.000485 -0.006368 0.008720 
526509196637363 -0.000485 -0.006368 0.008720 
526509217208665 -0.000485 -0.006368 0.008720 
526509237779551 -0.000485 -0.006368 0.008720 
526509258349864 -0.000485 -0.006368 0.008720 
526509278920698 -0.000485 -0.006368 0.008720 
526509299491739 -0.000485 -0.006368 0.008720 
526509320062572 -0.000485 -0.006368 0.008720 
526509340633301 -0.000485 -0.006368 0.008720 
526509361204134 -0.000485 -0.006368 0.008720 
526509381775228 -0.000485 -0.006368 0.008720 
526509402346061 -0.000485 -0.006368 0.008720 
526509422916947 -0.000485 -0.006368 0.008720 
526509443487936 -0.000485 -0.006368 0.008720 
526509464058510 -0.000485 -0.006368 0.008720 
526509484629446 -0.000485 -0.006368 0.008720 
526509505200177 -0.000485 -0.006368 0.008720 
526509525771374 -0.000485 -0.006368 0.008720 
526509546341948 -0.000485 -0.006368 0.008720 
526509566912989 -0.000485 -0.006368 0.008720 
526509587483717 -0.000485 -0.006368 0.008720 
526509608055229 -0.000485 -0.006368 0.008720 
526509628625280 -0.000485 -0.006368 0.008720 
526509649196425 -0.000485 -0.006368 0.008720 
526509669766426 -0.000485 -0.006368 0.008720 
526509690337832 -0.000485 -0.006368 0.008720 
526509710908717 -0.000485 -0.006368 0.008720 
526509731480436 -0.000485 -0.006368 0.008720 
526509752050800 -0.000485 -0.006368 0.008720 
526509772621739 -0.000485 -0.006368 0.008720 
526509793192155 -0.000485 -0.006368 0.008720 
526509813763353 -0.000485 -0.006368 0.008720 
526509834334187 -0.000485 -0.006368 0.008720 
526509854904759 -0.000485 -0.006368 0.008720 
526509875475592 -0.000485 -0.006368 0.008720 
526509896046426 -0.000485 -0.006368 0.008720 
526509916617259 -0.000485 -0.006368 0.008720 
526509937188249 -0.000485 -0.006368 0.008720 
526509957759134 -0.000485 -0.006368 0.008720 
526509978329968 -0.000485 -0.006368 0.008720 
526509998900854 -0.000485 -0.006368 0.008720 
526510019471790 -0.000485 -0.006368 0.008720 
