# Created at Thu Nov 07 19:55:25 EST 2019 in Burnaby Canada 
527769128124017 -0.001878 -0.002344 0.006000 
527769148692456 -0.001878 -0.002344 0.006000 
527769169261206 -0.001878 -0.002344 0.006000 
527769189829903 -0.001878 -0.002344 0.006000 
527769210398705 -0.001878 -0.002344 0.006000 
527769230967247 -0.001878 -0.002344 0.006000 
527769251536413 -0.001878 -0.002344 0.006000 
527769272105945 -0.001878 -0.002344 0.006000 
527769292673913 -0.001878 -0.002344 0.006000 
527769313242299 -0.001878 -0.002344 0.006000 
527769333811361 -0.001878 -0.002344 0.006000 
527769354379747 -0.001878 -0.002344 0.006000 
527769374948654 -0.001878 -0.002344 0.006000 
527769395517351 -0.001878 -0.002344 0.006000 
527769416086101 -0.001878 -0.002344 0.006000 
527769436655268 -0.001878 -0.002344 0.006000 
527769457223392 -0.001878 -0.002344 0.006000 
527769477792403 -0.001878 -0.002344 0.006000 
527769498361310 -0.001878 -0.002344 0.006000 
527769518929591 -0.001878 -0.002344 0.006000 
527769539498237 -0.001878 -0.002344 0.006000 
527769560066987 -0.001878 -0.002344 0.006000 
527769580635892 -0.001878 -0.002344 0.006000 
527769601204590 -0.001878 -0.002344 0.006000 
527769621773236 -0.001878 -0.002344 0.006000 
527769642341986 -0.001878 -0.002344 0.006000 
527769662910736 -0.001878 -0.002344 0.006000 
527769683479642 -0.001878 -0.002344 0.006000 
527769704048392 -0.001878 -0.002344 0.006000 
527769724617142 -0.001878 -0.002344 0.006000 
527769745185632 -0.001878 -0.002344 0.006000 
527769765754382 -0.001878 -0.002344 0.006000 
527769786323236 -0.001878 -0.002344 0.006000 
527769806891934 -0.001878 -0.002344 0.006000 
527769827460632 -0.001878 -0.002344 0.006000 
527769848029382 -0.001878 -0.002344 0.006000 
527769868598027 -0.001878 -0.002344 0.006000 
527769889166777 -0.001878 -0.002344 0.006000 
527769909735527 -0.001878 -0.002344 0.006000 
527769930304382 -0.001878 -0.002344 0.006000 
527769950873080 -0.001878 -0.002344 0.006000 
527769971442038 -0.001878 -0.002344 0.006000 
527769992010579 -0.001878 -0.002344 0.006000 
527770012580007 -0.001878 -0.002344 0.006000 
527770033148340 -0.001878 -0.002344 0.006000 
527770053717663 -0.001878 -0.002344 0.006000 
527770074285631 -0.001878 -0.002344 0.006000 
527770094854538 -0.001878 -0.002344 0.006000 
527770115423184 -0.001878 -0.002344 0.006000 
527770135992351 -0.001878 -0.002344 0.006000 
527770156560528 -0.001878 -0.002344 0.006000 
527770177129695 -0.001878 -0.002344 0.006000 
527770197697923 -0.001878 -0.002344 0.006000 
527770218268288 -0.001878 -0.002344 0.006000 
527770238836204 -0.001878 -0.002344 0.006000 
527770259404954 -0.001878 -0.002344 0.006000 
527770279973652 -0.001878 -0.002344 0.006000 
527770300542298 -0.001878 -0.002344 0.006000 
527770321111048 -0.001878 -0.002344 0.006000 
527770341679851 -0.001878 -0.002344 0.006000 
527770362248601 -0.001878 -0.002344 0.006000 
527770382816466 -0.001878 -0.002344 0.006000 
527770403385164 -0.001878 -0.002344 0.006000 
527770423954018 -0.001878 -0.002344 0.006000 
527770444522768 -0.001878 -0.002344 0.006000 
527770465091934 -0.001878 -0.002344 0.006000 
527770485660684 -0.001878 -0.002344 0.006000 
527770506229174 -0.001878 -0.002344 0.006000 
527770526797924 -0.001878 -0.002344 0.006000 
527770547366674 -0.001878 -0.002344 0.006000 
527770567935424 -0.001878 -0.002344 0.006000 
527770588504018 -0.001878 -0.002344 0.006000 
527770609072768 -0.001878 -0.002344 0.006000 
527770629641517 -0.001878 -0.002344 0.006000 
527770650210267 -0.001878 -0.002344 0.006000 
527770670779018 -0.001878 -0.002344 0.006000 
527770691350111 -0.001878 -0.002344 0.006000 
527770711919747 -0.001878 -0.002344 0.006000 
527770732486934 -0.001878 -0.002344 0.006000 
527770753056100 -0.001878 -0.002344 0.006000 
527770773624538 -0.001878 -0.002344 0.006000 
527770794193288 -0.001878 -0.002344 0.006000 
527770814761830 -0.001878 -0.002344 0.006000 
527770835330163 -0.001878 -0.002344 0.006000 
527770855898340 -0.001878 -0.002344 0.006000 
527770876467090 -0.001878 -0.002344 0.006000 
527770897035424 -0.001878 -0.002344 0.006000 
527770917604122 -0.001878 -0.002344 0.006000 
527770938173392 -0.001878 -0.002344 0.006000 
527770958744121 -0.001878 -0.002344 0.006000 
527770979311153 -0.001878 -0.002344 0.006000 
527770999879903 -0.001878 -0.002344 0.006000 
527771020450319 -0.001878 -0.002344 0.006000 
527771041019069 -0.001878 -0.002344 0.006000 
527771061587298 -0.001878 -0.002344 0.006000 
527771082156048 -0.001878 -0.002344 0.006000 
527771102724434 -0.001878 -0.002344 0.006000 
527771123293184 -0.001878 -0.002344 0.006000 
527771143860372 -0.001878 -0.002344 0.006000 
527771164429174 -0.001878 -0.002344 0.006000 
527771184997871 -0.001878 -0.002344 0.006000 
527771205566621 -0.001878 -0.002344 0.006000 
527771226135319 -0.001878 -0.002344 0.006000 
527771246704121 -0.001878 -0.002344 0.006000 
527771267273548 -0.001878 -0.002344 0.006000 
527771287842298 -0.001878 -0.002344 0.006000 
527771308410892 -0.001878 -0.002344 0.006000 
527771328979694 -0.001878 -0.002344 0.006000 
527771349548235 -0.001878 -0.002344 0.006000 
527771370117455 -0.001878 -0.002344 0.006000 
527771390685631 -0.001878 -0.002344 0.006000 
527771411254434 -0.001878 -0.002344 0.006000 
527771431823027 -0.001878 -0.002344 0.006000 
527771452391985 -0.001878 -0.002344 0.006000 
527771472960579 -0.001878 -0.002344 0.006000 
527771493529329 -0.001878 -0.002344 0.006000 
527771514098183 -0.001878 -0.002344 0.006000 
527771534667454 -0.001878 -0.002344 0.006000 
527771555236048 -0.001878 -0.002344 0.006000 
527771575805266 -0.001878 -0.002344 0.006000 
527771596373495 -0.001878 -0.002344 0.006000 
527771616942870 -0.001878 -0.002344 0.006000 
527771637511204 -0.001878 -0.002344 0.006000 
527771658081778 -0.001878 -0.002344 0.006000 
527771678648757 -0.001878 -0.002344 0.006000 
527771699218496 -0.001878 -0.002344 0.006000 
527771719787246 -0.001878 -0.002344 0.006000 
527771740354694 -0.001878 -0.002344 0.006000 
527771760923444 -0.001878 -0.002344 0.006000 
527771781492194 -0.001878 -0.002344 0.006000 
527771802060944 -0.001878 -0.002344 0.006000 
527771822629902 -0.001878 -0.002344 0.006000 
527771843198652 -0.001878 -0.002344 0.006000 
527771863767662 -0.001878 -0.002344 0.006000 
527771884336412 -0.001878 -0.002344 0.006000 
527771904906881 -0.001878 -0.002344 0.006000 
527771925475631 -0.001878 -0.002344 0.006000 
527771946043964 -0.001878 -0.002344 0.006000 
527771966612766 -0.001878 -0.002344 0.006000 
527771987180840 -0.001878 -0.002344 0.006000 
527772007749642 -0.001878 -0.002344 0.006000 
527772028319172 -0.001878 -0.002344 0.006000 
527772048888131 -0.001878 -0.002344 0.006000 
527772069457193 -0.001878 -0.002344 0.006000 
527772090025578 -0.001878 -0.002344 0.006000 
527772110594382 -0.001878 -0.002344 0.006000 
527772131162819 -0.001878 -0.002344 0.006000 
527772151731882 -0.001878 -0.002344 0.006000 
527772172303548 -0.001878 -0.002344 0.006000 
527772192868392 -0.001878 -0.002344 0.006000 
527772213437715 -0.001878 -0.002344 0.006000 
527772234006100 -0.001878 -0.002344 0.006000 
527772254575006 -0.001878 -0.002344 0.006000 
527772275144329 -0.001878 -0.002344 0.006000 
527772295712662 -0.001878 -0.002344 0.006000 
527772316281724 -0.001878 -0.002344 0.006000 
527772336849745 -0.001878 -0.002344 0.006000 
527772357418600 -0.001878 -0.002344 0.006000 
527772377988651 -0.001878 -0.002344 0.006000 
527772398556464 -0.001878 -0.002344 0.006000 
527772419125109 -0.001878 -0.002344 0.006000 
527772439693859 -0.001878 -0.002344 0.006000 
527772460262557 -0.001878 -0.002344 0.006000 
527772480831359 -0.001878 -0.002344 0.006000 
527772501400422 -0.001878 -0.002344 0.006000 
527772521969225 -0.001878 -0.002344 0.006000 
527772542537193 -0.001878 -0.002344 0.006000 
527772563105943 -0.001878 -0.002344 0.006000 
527772583675058 -0.001878 -0.002344 0.006000 
527772604243860 -0.001878 -0.002344 0.006000 
527772624812662 -0.001878 -0.002344 0.006000 
527772645381412 -0.001878 -0.002344 0.006000 
527772665951255 -0.001878 -0.002344 0.006000 
527772686520057 -0.001878 -0.002344 0.006000 
527772707088235 -0.001878 -0.002344 0.006000 
527772727656985 -0.001878 -0.002344 0.006000 
527772748225318 -0.001878 -0.002344 0.006000 
527772768794120 -0.001878 -0.002344 0.006000 
527772789363026 -0.001878 -0.002344 0.006000 
527772809932453 -0.001878 -0.002344 0.006000 
527772830500994 -0.001878 -0.002344 0.006000 
527772851070006 -0.001878 -0.002344 0.006000 
527772871640527 -0.001878 -0.002344 0.006000 
527772892207767 -0.001878 -0.002344 0.006000 
527772912777402 -0.001878 -0.002344 0.006000 
527772933345214 -0.001878 -0.002344 0.006000 
527772953913339 -0.001878 -0.002344 0.006000 
527772974482245 -0.001878 -0.002344 0.006000 
527772995051204 -0.001878 -0.002344 0.006000 
527773015622037 -0.001878 -0.002344 0.006000 
527773036190162 -0.001878 -0.002344 0.006000 
527773056758599 -0.001878 -0.002344 0.006000 
527773077327037 -0.001878 -0.002344 0.006000 
527773097895839 -0.001878 -0.002344 0.006000 
527773118463859 -0.001878 -0.002344 0.006000 
527773139032349 -0.001878 -0.002344 0.006000 
527773159601152 -0.001878 -0.002344 0.006000 
527773180172349 -0.001878 -0.002344 0.006000 
527773200741151 -0.001878 -0.002344 0.006000 
527773221308964 -0.001878 -0.002344 0.006000 
527773241877766 -0.001878 -0.002344 0.006000 
527773262445526 -0.001878 -0.002344 0.006000 
527773283014328 -0.001878 -0.002344 0.006000 
527773303583235 -0.001878 -0.002344 0.006000 
527773324152037 -0.001878 -0.002344 0.006000 
527773344721359 -0.001878 -0.002344 0.006000 
527773365290161 -0.001878 -0.002344 0.006000 
527773385859016 -0.001878 -0.002344 0.006000 
527773406427818 -0.001878 -0.002344 0.006000 
527773426995162 -0.001878 -0.002344 0.006000 
527773447563964 -0.001878 -0.002344 0.006000 
527773468133964 -0.001878 -0.002344 0.006000 
527773488702767 -0.001878 -0.002344 0.006000 
527773509270371 -0.001878 -0.002344 0.006000 
527773529840526 -0.001878 -0.002344 0.006000 
527773550409016 -0.001878 -0.002344 0.006000 
527773570978339 -0.001878 -0.002344 0.006000 
527773591546829 -0.001878 -0.002344 0.006000 
527773612118756 -0.001878 -0.002344 0.006000 
527773632683130 -0.001878 -0.002344 0.006000 
527773653251932 -0.001878 -0.002344 0.006000 
527773673820526 -0.001878 -0.002344 0.006000 
527773694389433 -0.001878 -0.002344 0.006000 
527773714958286 -0.001878 -0.002344 0.006000 
527773735527297 -0.001878 -0.002344 0.006000 
527773756096255 -0.001878 -0.002344 0.006000 
527773776664901 -0.001878 -0.002344 0.006000 
527773797233390 -0.001878 -0.002344 0.006000 
527773817802610 -0.001878 -0.002344 0.006000 
527773838371151 -0.001878 -0.002344 0.006000 
527773858943079 -0.001878 -0.002344 0.006000 
527773879511881 -0.001878 -0.002344 0.006000 
527773900079953 -0.001878 -0.002344 0.006000 
527773920648755 -0.001878 -0.002344 0.006000 
527773941216724 -0.001878 -0.002344 0.006000 
527773961785526 -0.001878 -0.002344 0.006000 
527773982353026 -0.001878 -0.002344 0.006000 
527774002921776 -0.001878 -0.002344 0.006000 
527774023491151 -0.001878 -0.002344 0.006000 
527774044059953 -0.001878 -0.002344 0.006000 
527774064629328 -0.001878 -0.002344 0.006000 
527774085198130 -0.001878 -0.002344 0.006000 
527774105765005 -0.001878 -0.002344 0.006000 
527774126333755 -0.001878 -0.002344 0.006000 
527774146902765 -0.001878 -0.002344 0.006000 
527774167471568 -0.001878 -0.002344 0.006000 
527774188040267 -0.001878 -0.002344 0.006000 
527774208609069 -0.001878 -0.002344 0.006000 
527774229177870 -0.001878 -0.002344 0.006000 
527774249746568 -0.001878 -0.002344 0.006000 
527774270315318 -0.001878 -0.002344 0.006000 
527774290884172 -0.001878 -0.002344 0.006000 
527774311452870 -0.001878 -0.002344 0.006000 
527774332024120 -0.001878 -0.002344 0.006000 
527774352591464 -0.001878 -0.002344 0.006000 
527774373160162 -0.001878 -0.002344 0.006000 
527774393728860 -0.001878 -0.002344 0.006000 
527774414298078 -0.001878 -0.002344 0.006000 
527774434866567 -0.001878 -0.002344 0.006000 
527774455434848 -0.001878 -0.002344 0.006000 
527774476003390 -0.001878 -0.002344 0.006000 
527774496572505 -0.001878 -0.002344 0.006000 
527774517140786 -0.001878 -0.002344 0.006000 
527774537710214 -0.001878 -0.002344 0.006000 
527774558278339 -0.001878 -0.002344 0.006000 
527774578847401 -0.001878 -0.002344 0.006000 
527774599415891 -0.001878 -0.002344 0.006000 
527774619984068 -0.001878 -0.002344 0.006000 
527774640552870 -0.001878 -0.002344 0.006000 
527774661122297 -0.001878 -0.002344 0.006000 
527774681691099 -0.001878 -0.002344 0.006000 
527774702259692 -0.001878 -0.002344 0.006000 
527774722828442 -0.001878 -0.002344 0.006000 
527774743397557 -0.001878 -0.002344 0.006000 
527774763966307 -0.001878 -0.002344 0.006000 
527774784535057 -0.001878 -0.002344 0.006000 
527774805103807 -0.001878 -0.002344 0.006000 
527774825672505 -0.001878 -0.002344 0.006000 
527774846241307 -0.001878 -0.002344 0.006000 
527774866810213 -0.001878 -0.002344 0.006000 
527774887379015 -0.001878 -0.002344 0.006000 
527774907947505 -0.001878 -0.002344 0.006000 
527774928516307 -0.001878 -0.002344 0.006000 
527774949085058 -0.001878 -0.002344 0.006000 
527774969654328 -0.001878 -0.002344 0.006000 
527774990222870 -0.001878 -0.002344 0.006000 
527775010791620 -0.001878 -0.002344 0.006000 
527775031360266 -0.001878 -0.002344 0.006000 
527775051929224 -0.001878 -0.002344 0.006000 
527775072497869 -0.001878 -0.002344 0.006000 
527775093067088 -0.001878 -0.002344 0.006000 
527775113635370 -0.001878 -0.002344 0.006000 
527775134204380 -0.001878 -0.002344 0.006000 
527775154773130 -0.001878 -0.002344 0.006000 
527775175341984 -0.001878 -0.002344 0.006000 
527775195910474 -0.001878 -0.002344 0.006000 
527775216479848 -0.001878 -0.002344 0.006000 
527775237047974 -0.001878 -0.002344 0.006000 
527775257617505 -0.001878 -0.002344 0.006000 
527775278185629 -0.001878 -0.002344 0.006000 
527775298754849 -0.001878 -0.002344 0.006000 
527775319323182 -0.001878 -0.002344 0.006000 
527775339891931 -0.001878 -0.002344 0.006000 
527775360460733 -0.001878 -0.002344 0.006000 
527775381029535 -0.001878 -0.002344 0.006000 
527775401598338 -0.001878 -0.002344 0.006000 
527775422169068 -0.001878 -0.002344 0.006000 
527775442737870 -0.001878 -0.002344 0.006000 
527775463305526 -0.001878 -0.002344 0.006000 
527775483874328 -0.001878 -0.002344 0.006000 
527775504442922 -0.001878 -0.002344 0.006000 
527775525011724 -0.001878 -0.002344 0.006000 
527775545582193 -0.001878 -0.002344 0.006000 
527775566150995 -0.001878 -0.002344 0.006000 
527775586719588 -0.001878 -0.002344 0.006000 
527775607287400 -0.001878 -0.002344 0.006000 
527775627856307 -0.001878 -0.002344 0.006000 
527775648425109 -0.001878 -0.002344 0.006000 
527775668993182 -0.001878 -0.002344 0.006000 
527775689561984 -0.001878 -0.002344 0.006000 
527775710130109 -0.001878 -0.002344 0.006000 
527775730700161 -0.001878 -0.002344 0.006000 
527775751269796 -0.001878 -0.002344 0.006000 
527775771838389 -0.001878 -0.002344 0.006000 
527775792408129 -0.001878 -0.002344 0.006000 
527775812974535 -0.001878 -0.002344 0.006000 
527775833543077 -0.001878 -0.002344 0.006000 
527775854112192 -0.001878 -0.002344 0.006000 
527775874680578 -0.001878 -0.002344 0.006000 
527775895250266 -0.001878 -0.002344 0.006000 
527775915818390 -0.001878 -0.002344 0.006000 
527775936387141 -0.001878 -0.002344 0.006000 
527775956957244 -0.001878 -0.002344 0.006000 
527775977526932 -0.001878 -0.002344 0.006000 
527775998094953 -0.001878 -0.002344 0.006000 
527776018662609 -0.001878 -0.002344 0.006000 
527776039231151 -0.001878 -0.002344 0.006000 
527776059800213 -0.001878 -0.002344 0.006000 
527776080368963 -0.001878 -0.002344 0.006000 
527776100938859 -0.001878 -0.002344 0.006000 
