# Created at Thu Nov 07 18:12:40 EST 2019 in Burnaby Canada 
521605039313691 0.003797 -0.003950 0.006214 
521605059882441 0.003797 -0.003950 0.006214 
521605080452910 0.003797 -0.003950 0.006214 
521605101023274 0.003797 -0.003950 0.006214 
521605121593691 0.003797 -0.003950 0.006214 
521605142164316 0.003797 -0.003950 0.006214 
521605162734733 0.003797 -0.003950 0.006214 
521605183305202 0.003797 -0.003950 0.006214 
521605203875722 0.003797 -0.003950 0.006214 
521605224446191 0.003797 -0.003950 0.006214 
521605245016712 0.003797 -0.003950 0.006214 
521605265587232 0.003797 -0.003950 0.006214 
521605286157753 0.003797 -0.003950 0.006214 
521605306728222 0.003797 -0.003950 0.006214 
521605327298743 0.003797 -0.003950 0.006214 
521605347869420 0.003797 -0.003950 0.006214 
521605368439941 0.003797 -0.003950 0.006214 
521605389010515 0.003797 -0.003950 0.006214 
521605409581035 0.003797 -0.003950 0.006214 
521605430151243 0.003797 -0.003950 0.006214 
521605450721868 0.003797 -0.003950 0.006214 
521605471292285 0.003797 -0.003950 0.006214 
521605491862754 0.003797 -0.003950 0.006214 
521605512432441 0.003797 -0.003950 0.006214 
521605533003638 0.003797 -0.003950 0.006214 
521605553574107 0.003797 -0.003950 0.006214 
521605574145670 0.003797 -0.003950 0.006214 
521605594715045 0.003797 -0.003950 0.006214 
521605615285878 0.003797 -0.003950 0.006214 
521605635856191 0.003797 -0.003950 0.006214 
521605656427129 0.003797 -0.003950 0.006214 
521605676997077 0.003797 -0.003950 0.006214 
521605697567805 0.003797 -0.003950 0.006214 
521605718138013 0.003797 -0.003950 0.006214 
521605738709055 0.003797 -0.003950 0.006214 
521605759279420 0.003797 -0.003950 0.006214 
521605779849733 0.003797 -0.003950 0.006214 
521605800420201 0.003797 -0.003950 0.006214 
521605820990930 0.003797 -0.003950 0.006214 
521605841561399 0.003797 -0.003950 0.006214 
521605862131660 0.003797 -0.003950 0.006214 
521605882702129 0.003797 -0.003950 0.006214 
521605903274472 0.003797 -0.003950 0.006214 
521605923844941 0.003797 -0.003950 0.006214 
521605944414212 0.003797 -0.003950 0.006214 
521605964984681 0.003797 -0.003950 0.006214 
521605985556608 0.003797 -0.003950 0.006214 
521606006127076 0.003797 -0.003950 0.006214 
521606026696087 0.003797 -0.003950 0.006214 
521606047266504 0.003797 -0.003950 0.006214 
521606067836503 0.003797 -0.003950 0.006214 
521606088406919 0.003797 -0.003950 0.006214 
521606108977544 0.003797 -0.003950 0.006214 
521606129548274 0.003797 -0.003950 0.006214 
521606150118534 0.003797 -0.003950 0.006214 
521606170689368 0.003797 -0.003950 0.006214 
521606191259680 0.003797 -0.003950 0.006214 
521606211831294 0.003797 -0.003950 0.006214 
521606232401503 0.003797 -0.003950 0.006214 
521606252973066 0.003797 -0.003950 0.006214 
521606273542701 0.003797 -0.003950 0.006214 
521606294112909 0.003797 -0.003950 0.006214 
521606314683429 0.003797 -0.003950 0.006214 
521606335254263 0.003797 -0.003950 0.006214 
521606355825149 0.003797 -0.003950 0.006214 
521606376395722 0.003797 -0.003950 0.006214 
521606396967129 0.003797 -0.003950 0.006214 
521606417537023 0.003797 -0.003950 0.006214 
521606438105930 0.003797 -0.003950 0.006214 
521606458676816 0.003797 -0.003950 0.006214 
521606479246816 0.003797 -0.003950 0.006214 
521606499817284 0.003797 -0.003950 0.006214 
521606520387752 0.003797 -0.003950 0.006214 
521606540958066 0.003797 -0.003950 0.006214 
521606561528587 0.003797 -0.003950 0.006214 
521606582099107 0.003797 -0.003950 0.006214 
521606602669524 0.003797 -0.003950 0.006214 
521606623240200 0.003797 -0.003950 0.006214 
521606643810721 0.003797 -0.003950 0.006214 
521606664381972 0.003797 -0.003950 0.006214 
521606684952493 0.003797 -0.003950 0.006214 
521606705523170 0.003797 -0.003950 0.006214 
521606726093586 0.003797 -0.003950 0.006214 
521606746663169 0.003797 -0.003950 0.006214 
521606767233690 0.003797 -0.003950 0.006214 
521606787804575 0.003797 -0.003950 0.006214 
521606808375096 0.003797 -0.003950 0.006214 
521606828945253 0.003797 -0.003950 0.006214 
521606849518482 0.003797 -0.003950 0.006214 
521606870089888 0.003797 -0.003950 0.006214 
521606890658742 0.003797 -0.003950 0.006214 
521606911229316 0.003797 -0.003950 0.006214 
521606931800878 0.003797 -0.003950 0.006214 
521606952369836 0.003797 -0.003950 0.006214 
521606972940721 0.003797 -0.003950 0.006214 
521606993511138 0.003797 -0.003950 0.006214 
521607014081607 0.003797 -0.003950 0.006214 
521607034652388 0.003797 -0.003950 0.006214 
521607055222545 0.003797 -0.003950 0.006214 
521607075791868 0.003797 -0.003950 0.006214 
521607096362023 0.003797 -0.003950 0.006214 
521607116932492 0.003797 -0.003950 0.006214 
521607137503065 0.003797 -0.003950 0.006214 
521607158073586 0.003797 -0.003950 0.006214 
521607178646190 0.003797 -0.003950 0.006214 
521607199215201 0.003797 -0.003950 0.006214 
521607219785721 0.003797 -0.003950 0.006214 
521607240356242 0.003797 -0.003950 0.006214 
521607260926138 0.003797 -0.003950 0.006214 
521607281496659 0.003797 -0.003950 0.006214 
521607302068274 0.003797 -0.003950 0.006214 
521607322638795 0.003797 -0.003950 0.006214 
521607343208169 0.003797 -0.003950 0.006214 
521607363778690 0.003797 -0.003950 0.006214 
521607384350409 0.003797 -0.003950 0.006214 
521607404920930 0.003797 -0.003950 0.006214 
521607425491660 0.003797 -0.003950 0.006214 
521607446062181 0.003797 -0.003950 0.006214 
521607466632335 0.003797 -0.003950 0.006214 
521607487202856 0.003797 -0.003950 0.006214 
521607507772700 0.003797 -0.003950 0.006214 
521607528343273 0.003797 -0.003950 0.006214 
521607548914575 0.003797 -0.003950 0.006214 
521607569486086 0.003797 -0.003950 0.006214 
521607590055826 0.003797 -0.003950 0.006214 
521607610627283 0.003797 -0.003950 0.006214 
521607631197284 0.003797 -0.003950 0.006214 
521607651767597 0.003797 -0.003950 0.006214 
521607672338169 0.003797 -0.003950 0.006214 
521607692907284 0.003797 -0.003950 0.006214 
521607713478690 0.003797 -0.003950 0.006214 
521607734048587 0.003797 -0.003950 0.006214 
521607754619106 0.003797 -0.003950 0.006214 
521607775189991 0.003797 -0.003950 0.006214 
521607795760356 0.003797 -0.003950 0.006214 
521607816331659 0.003797 -0.003950 0.006214 
521607836901920 0.003797 -0.003950 0.006214 
521607857473846 0.003797 -0.003950 0.006214 
521607878043222 0.003797 -0.003950 0.006214 
521607898614627 0.003797 -0.003950 0.006214 
521607919184627 0.003797 -0.003950 0.006214 
521607939755356 0.003797 -0.003950 0.006214 
521607960325877 0.003797 -0.003950 0.006214 
521607980896398 0.003797 -0.003950 0.006214 
521608001466971 0.003797 -0.003950 0.006214 
521608022037701 0.003797 -0.003950 0.006214 
521608042608221 0.003797 -0.003950 0.006214 
521608063178273 0.003797 -0.003950 0.006214 
521608083748794 0.003797 -0.003950 0.006214 
521608104319680 0.003797 -0.003950 0.006214 
521608124890253 0.003797 -0.003950 0.006214 
521608145461086 0.003797 -0.003950 0.006214 
521608166031607 0.003797 -0.003950 0.006214 
521608186602908 0.003797 -0.003950 0.006214 
521608207173429 0.003797 -0.003950 0.006214 
521608227743169 0.003797 -0.003950 0.006214 
521608248313690 0.003797 -0.003950 0.006214 
521608268883847 0.003797 -0.003950 0.006214 
521608289454420 0.003797 -0.003950 0.006214 
521608310024993 0.003797 -0.003950 0.006214 
521608330595773 0.003797 -0.003950 0.006214 
521608351166346 0.003797 -0.003950 0.006214 
521608371736918 0.003797 -0.003950 0.006214 
521608392308064 0.003797 -0.003950 0.006214 
521608412878482 0.003797 -0.003950 0.006214 
521608433448637 0.003797 -0.003950 0.006214 
521608454019836 0.003797 -0.003950 0.006214 
521608474590044 0.003797 -0.003950 0.006214 
521608495159471 0.003797 -0.003950 0.006214 
521608515730252 0.003797 -0.003950 0.006214 
521608536301450 0.003797 -0.003950 0.006214 
521608556870565 0.003797 -0.003950 0.006214 
521608577442075 0.003797 -0.003950 0.006214 
521608598013012 0.003797 -0.003950 0.006214 
521608618583742 0.003797 -0.003950 0.006214 
521608639152909 0.003797 -0.003950 0.006214 
521608659723064 0.003797 -0.003950 0.006214 
521608680293585 0.003797 -0.003950 0.006214 
521608700864262 0.003797 -0.003950 0.006214 
521608721434783 0.003797 -0.003950 0.006214 
521608742005669 0.003797 -0.003950 0.006214 
521608762576190 0.003797 -0.003950 0.006214 
521608783146607 0.003797 -0.003950 0.006214 
521608803717128 0.003797 -0.003950 0.006214 
521608824287596 0.003797 -0.003950 0.006214 
521608844858117 0.003797 -0.003950 0.006214 
521608865429211 0.003797 -0.003950 0.006214 
521608885999732 0.003797 -0.003950 0.006214 
521608906569992 0.003797 -0.003950 0.006214 
521608927140513 0.003797 -0.003950 0.006214 
521608947711763 0.003797 -0.003950 0.006214 
521608968282284 0.003797 -0.003950 0.006214 
521608988852543 0.003797 -0.003950 0.006214 
521609009423116 0.003797 -0.003950 0.006214 
521609029992908 0.003797 -0.003950 0.006214 
521609050565824 0.003797 -0.003950 0.006214 
521609071135200 0.003797 -0.003950 0.006214 
521609091704523 0.003797 -0.003950 0.006214 
521609112275149 0.003797 -0.003950 0.006214 
521609132846346 0.003797 -0.003950 0.006214 
521609153416814 0.003797 -0.003950 0.006214 
521609173987231 0.003797 -0.003950 0.006214 
521609194559054 0.003797 -0.003950 0.006214 
521609215128377 0.003797 -0.003950 0.006214 
521609235698794 0.003797 -0.003950 0.006214 
521609256270200 0.003797 -0.003950 0.006214 
521609276839262 0.003797 -0.003950 0.006214 
521609297411138 0.003797 -0.003950 0.006214 
521609317980460 0.003797 -0.003950 0.006214 
521609338551398 0.003797 -0.003950 0.006214 
521609359125043 0.003797 -0.003950 0.006214 
521609379693586 0.003797 -0.003950 0.006214 
521609400264107 0.003797 -0.003950 0.006214 
521609420835617 0.003797 -0.003950 0.006214 
521609441404680 0.003797 -0.003950 0.006214 
521609461975512 0.003797 -0.003950 0.006214 
521609482546032 0.003797 -0.003950 0.006214 
521609503116970 0.003797 -0.003950 0.006214 
521609523687491 0.003797 -0.003950 0.006214 
521609544256553 0.003797 -0.003950 0.006214 
521609564827074 0.003797 -0.003950 0.006214 
521609585399992 0.003797 -0.003950 0.006214 
521609605970513 0.003797 -0.003950 0.006214 
521609626539054 0.003797 -0.003950 0.006214 
521609647109574 0.003797 -0.003950 0.006214 
521609667680095 0.003797 -0.003950 0.006214 
521609688250616 0.003797 -0.003950 0.006214 
521609708821450 0.003797 -0.003950 0.006214 
521609729391971 0.003797 -0.003950 0.006214 
521609749962023 0.003797 -0.003950 0.006214 
521609770533013 0.003797 -0.003950 0.006214 
521609791103064 0.003797 -0.003950 0.006214 
521609811674157 0.003797 -0.003950 0.006214 
521609832244314 0.003797 -0.003950 0.006214 
521609852815772 0.003797 -0.003950 0.006214 
521609873385980 0.003797 -0.003950 0.006214 
521609893957283 0.003797 -0.003950 0.006214 
521609914527543 0.003797 -0.003950 0.006214 
521609935101190 0.003797 -0.003950 0.006214 
521609955671189 0.003797 -0.003950 0.006214 
521609976238949 0.003797 -0.003950 0.006214 
521609996809470 0.003797 -0.003950 0.006214 
521610017379679 0.003797 -0.003950 0.006214 
521610037949627 0.003797 -0.003950 0.006214 
521610058520512 0.003797 -0.003950 0.006214 
521610079090616 0.003797 -0.003950 0.006214 
521610099661033 0.003797 -0.003950 0.006214 
521610120231554 0.003797 -0.003950 0.006214 
521610140802751 0.003797 -0.003950 0.006214 
521610161373324 0.003797 -0.003950 0.006214 
521610181945095 0.003797 -0.003950 0.006214 
521610202515668 0.003797 -0.003950 0.006214 
521610223085095 0.003797 -0.003950 0.006214 
521610243655668 0.003797 -0.003950 0.006214 
521610264225564 0.003797 -0.003950 0.006214 
521610284796137 0.003797 -0.003950 0.006214 
521610305367283 0.003797 -0.003950 0.006214 
521610325937804 0.003797 -0.003950 0.006214 
521610346509001 0.003797 -0.003950 0.006214 
521610367079522 0.003797 -0.003950 0.006214 
521610387649262 0.003797 -0.003950 0.006214 
521610408219783 0.003797 -0.003950 0.006214 
521610428790200 0.003797 -0.003950 0.006214 
521610449360772 0.003797 -0.003950 0.006214 
521610469931189 0.003797 -0.003950 0.006214 
