# Created at Thu Nov 07 18:12:40 EST 2019 in Burnaby Canada 
521605050925670 45.002232 190.324265 -6.960118 
521605070923535 45.002232 190.324265 -6.960118 
521605090923170 45.002232 190.324265 -6.960118 
521605110923222 45.002232 190.324265 -6.960118 
521605130923535 45.002232 190.324265 -6.960118 
521605150923587 45.002232 190.324265 -6.960118 
521605170923379 45.002232 190.324265 -6.960118 
521605190923431 45.002232 190.324265 -6.960118 
521605210923170 45.002232 190.324265 -6.960118 
521605230922962 45.002232 190.324265 -6.960118 
521605250923275 45.002232 190.324265 -6.960118 
521605270922492 45.002232 190.324265 -6.960118 
521605290923013 45.002232 190.324265 -6.960118 
521605310923222 45.002232 190.324265 -6.960118 
521605330923587 45.002232 190.324265 -6.960118 
521605350923639 45.002232 190.324265 -6.960118 
521605370984316 45.002232 190.324265 -6.960118 
521605390984421 45.002232 190.324265 -6.960118 
521605410923900 45.002232 190.324265 -6.960118 
521605430923587 45.002232 190.324265 -6.960118 
521605450924368 45.002232 190.324265 -6.960118 
521605470923899 45.002232 190.324265 -6.960118 
521605490923535 45.002232 190.324265 -6.960118 
521605510923535 45.002232 190.324265 -6.960118 
521605530922493 45.002232 190.324265 -6.960118 
521605550923482 45.002232 190.324265 -6.960118 
521605570923065 45.002232 190.324265 -6.960118 
521605590924420 45.002232 190.324265 -6.960118 
521605610923483 45.002232 190.324265 -6.960118 
521605630923951 45.002232 190.324265 -6.960118 
521605650923691 45.002232 190.324265 -6.960118 
521605670924368 45.002232 190.324265 -6.960118 
521605690923170 45.002232 190.324265 -6.960118 
521605710917649 45.002232 190.324265 -6.960118 
521605730970461 45.002232 190.324265 -6.960118 
521605750971139 45.002232 190.324265 -6.960118 
521605770924003 45.002232 190.324265 -6.960118 
521605790923691 45.002232 190.324265 -6.960118 
521605810923847 45.002232 190.324265 -6.960118 
521605830923691 45.002232 190.324265 -6.960118 
521605850923691 45.002232 190.324265 -6.960118 
521605870923118 45.002232 190.324265 -6.960118 
521605890923431 45.002232 190.324265 -6.960118 
521605910925149 45.002232 190.324265 -6.960118 
521605930925358 45.002232 190.324265 -6.960118 
521605951130827 45.002232 190.324265 -6.960118 
521605970923795 45.002232 190.324265 -6.960118 
521605990925774 45.002232 190.324265 -6.960118 
521606010925358 45.002232 190.324265 -6.960118 
521606030924212 45.002232 190.324265 -6.960118 
521606050924108 45.002232 190.324265 -6.960118 
521606070917128 45.002232 190.324265 -6.960118 
521606090950878 45.002232 190.324265 -6.960118 
521606110951399 45.002232 190.324265 -6.960118 
521606130923638 45.002232 190.324265 -6.960118 
521606150923639 45.002232 190.324265 -6.960118 
521606170923690 45.002232 190.324265 -6.960118 
521606190923795 45.002232 190.324265 -6.960118 
521606210924107 45.002232 190.324265 -6.960118 
521606230924523 45.002232 190.324265 -6.960118 
521606250924993 45.002232 190.324265 -6.960118 
521606270926243 45.002232 190.324265 -6.960118 
521606290924628 45.002232 190.324265 -6.960118 
521606310924211 45.002232 190.324265 -6.960118 
521606330924211 45.002232 190.324265 -6.960118 
521606350924628 45.002232 190.324265 -6.960118 
521606370924889 45.002232 190.324265 -6.960118 
521606390924940 45.002232 190.324265 -6.960118 
521606410919681 45.002232 190.324265 -6.960118 
521606430959628 45.002232 190.324265 -6.960118 
521606450936086 45.002232 190.324265 -6.960118 
521606470936399 45.002232 190.324265 -6.960118 
521606490923743 45.002232 190.324265 -6.960118 
521606510923690 45.002232 190.324265 -6.960118 
521606530923846 45.002232 190.324265 -6.960118 
521606550923743 45.002232 190.324265 -6.960118 
521606570924525 45.002232 190.324265 -6.960118 
521606590923430 45.002232 190.324265 -6.960118 
521606610923378 45.002232 190.324265 -6.960118 
521606630924211 45.002232 190.324265 -6.960118 
521606650923482 45.002232 190.324265 -6.960118 
521606670924785 45.002232 190.324265 -6.960118 
521606690924212 45.002232 190.324265 -6.960118 
521606710924576 45.002232 190.324265 -6.960118 
521606730924472 45.002232 190.324265 -6.960118 
521606750924732 45.002232 190.324265 -6.960118 
521606770923326 45.002232 190.324265 -6.960118 
521606790917388 45.002232 190.324265 -6.960118 
521606810923898 45.002232 190.324265 -6.960118 
521606830923534 45.002232 190.324265 -6.960118 
521606850923326 45.002232 190.324265 -6.960118 
521606870925982 45.002232 190.324265 -6.960118 
521606890926815 45.002232 190.324265 -6.960118 
521606910925461 45.002232 190.324265 -6.960118 
521606930925462 45.002232 190.324265 -6.960118 
521606951133794 45.002232 190.324265 -6.960118 
521606970924888 45.002232 190.324265 -6.960118 
521606990925200 45.002232 190.324265 -6.960118 
521607010925253 45.002232 190.324265 -6.960118 
521607030925357 45.002232 190.324265 -6.960118 
521607050925461 45.002232 190.324265 -6.960118 
521607070925097 45.002232 190.324265 -6.960118 
521607090923743 45.002232 190.324265 -6.960118 
521607110923743 45.002232 190.324265 -6.960118 
521607130923117 45.002232 190.324265 -6.960118 
521607150920461 45.002232 190.324265 -6.960118 
521607170923638 45.002232 190.324265 -6.960118 
521607190925773 45.002232 190.324265 -6.960118 
521607210924471 45.002232 190.324265 -6.960118 
521607230924003 45.002232 190.324265 -6.960118 
521607250924211 45.002232 190.324265 -6.960118 
521607270923482 45.002232 190.324265 -6.960118 
521607290923638 45.002232 190.324265 -6.960118 
521607310924524 45.002232 190.324265 -6.960118 
521607330924628 45.002232 190.324265 -6.960118 
521607350923117 45.002232 190.324265 -6.960118 
521607370923534 45.002232 190.324265 -6.960118 
521607390924836 45.002232 190.324265 -6.960118 
521607410924420 45.002232 190.324265 -6.960118 
521607430924368 45.002232 190.324265 -6.960118 
521607450924524 45.002232 190.324265 -6.960118 
521607470924419 45.002232 190.324265 -6.960118 
521607490924419 45.002232 190.324265 -6.960118 
521607510917388 45.002232 190.324265 -6.960118 
521607530924106 45.002232 190.324265 -6.960118 
521607550924887 45.002232 190.324265 -6.960118 
521607570924939 45.002232 190.324265 -6.960118 
521607590925617 45.002232 190.324265 -6.960118 
521607610924732 45.002232 190.324265 -6.960118 
521607630925877 45.002232 190.324265 -6.960118 
521607650925357 45.002232 190.324265 -6.960118 
521607670924993 45.002232 190.324265 -6.960118 
521607690925617 45.002232 190.324265 -6.960118 
521607710923378 45.002232 190.324265 -6.960118 
521607730924523 45.002232 190.324265 -6.960118 
521607750923691 45.002232 190.324265 -6.960118 
521607770924002 45.002232 190.324265 -6.960118 
521607790924314 45.002232 190.324265 -6.960118 
521607810924471 45.002232 190.324265 -6.960118 
521607830924419 45.002232 190.324265 -6.960118 
521607850924368 45.002232 190.324265 -6.960118 
521607870925773 45.002232 190.324265 -6.960118 
521607890924940 45.002232 190.324265 -6.960118 
521607910926294 45.002232 190.324265 -6.960118 
521607930925044 45.002232 190.324265 -6.960118 
521607951132179 45.002232 190.324265 -6.960118 
521607970925408 45.002232 190.324265 -6.960118 
521607990925408 45.002232 190.324265 -6.960118 
521608010925356 45.002232 190.324265 -6.960118 
521608030925982 45.002232 190.324265 -6.960118 
521608050925617 45.002232 190.324265 -6.960118 
521608070925044 45.002232 190.324265 -6.960118 
521608090924940 45.002232 190.324265 -6.960118 
521608110925305 45.002232 190.324265 -6.960118 
521608130925513 45.002232 190.324265 -6.960118 
521608150925461 45.002232 190.324265 -6.960118 
521608170925617 45.002232 190.324265 -6.960118 
521608190926450 45.002232 190.324265 -6.960118 
521608210925825 45.002232 190.324265 -6.960118 
521608230919419 45.002232 190.324265 -6.960118 
521608250926659 45.002232 190.324265 -6.960118 
521608270927232 45.002232 190.324265 -6.960118 
521608290925253 45.002232 190.324265 -6.960118 
521608310925409 45.002232 190.324265 -6.960118 
521608330925201 45.002232 190.324265 -6.960118 
521608350925720 45.002232 190.324265 -6.960118 
521608370925044 45.002232 190.324265 -6.960118 
521608390925512 45.002232 190.324265 -6.960118 
521608410925981 45.002232 190.324265 -6.960118 
521608430926034 45.002232 190.324265 -6.960118 
521608450925720 45.002232 190.324265 -6.960118 
521608470926346 45.002232 190.324265 -6.960118 
521608490926242 45.002232 190.324265 -6.960118 
521608510925253 45.002232 190.324265 -6.960118 
521608530925096 45.002232 190.324265 -6.960118 
521608550925981 45.002232 190.324265 -6.960118 
521608570924576 45.002232 190.324265 -6.960118 
521608590925200 45.002232 190.324265 -6.960118 
521608610936866 45.002232 190.324265 -6.960118 
521608630937075 45.002232 190.324265 -6.960118 
521608650924940 45.002232 190.324265 -6.960118 
521608670924262 45.002232 190.324265 -6.960118 
521608690924158 45.002232 190.324265 -6.960118 
521608710924575 45.002232 190.324265 -6.960118 
521608730924106 45.002232 190.324265 -6.960118 
521608750924731 45.002232 190.324265 -6.960118 
521608770924836 45.002232 190.324265 -6.960118 
521608790924263 45.002232 190.324265 -6.960118 
521608810924628 45.002232 190.324265 -6.960118 
521608830924471 45.002232 190.324265 -6.960118 
521608850925044 45.002232 190.324265 -6.960118 
521608870924992 45.002232 190.324265 -6.960118 
521608890924680 45.002232 190.324265 -6.960118 
521608910924471 45.002232 190.324265 -6.960118 
521608930924523 45.002232 190.324265 -6.960118 
521608951131815 45.002232 190.324265 -6.960118 
521608970925981 45.002232 190.324265 -6.960118 
521608990925668 45.002232 190.324265 -6.960118 
521609010924887 45.002232 190.324265 -6.960118 
521609030924314 45.002232 190.324265 -6.960118 
521609050924106 45.002232 190.324265 -6.960118 
521609070926345 45.002232 190.324265 -6.960118 
521609090925200 45.002232 190.324265 -6.960118 
521609110924106 45.002232 190.324265 -6.960118 
521609130923742 45.002232 190.324265 -6.960118 
521609150924783 45.002232 190.324265 -6.960118 
521609170924471 45.002232 190.324265 -6.960118 
521609190923794 45.002232 190.324265 -6.960118 
521609210925825 45.002232 190.324265 -6.960118 
521609230924627 45.002232 190.324265 -6.960118 
521609250924054 45.002232 190.324265 -6.960118 
521609270926137 45.002232 190.324265 -6.960118 
521609290924366 45.002232 190.324265 -6.960118 
521609310918169 45.002232 190.324265 -6.960118 
521609330924315 45.002232 190.324265 -6.960118 
521609350924680 45.002232 190.324265 -6.960118 
521609370927283 45.002232 190.324265 -6.960118 
521609390925201 45.002232 190.324265 -6.960118 
521609410924836 45.002232 190.324265 -6.960118 
521609430926242 45.002232 190.324265 -6.960118 
521609450924784 45.002232 190.324265 -6.960118 
521609470925095 45.002232 190.324265 -6.960118 
521609490924574 45.002232 190.324265 -6.960118 
521609510925252 45.002232 190.324265 -6.960118 
521609530925304 45.002232 190.324265 -6.960118 
521609550923116 45.002232 190.324265 -6.960118 
521609570923845 45.002232 190.324265 -6.960118 
521609590925669 45.002232 190.324265 -6.960118 
521609610926398 45.002232 190.324265 -6.960118 
521609630923845 45.002232 190.324265 -6.960118 
521609650924210 45.002232 190.324265 -6.960118 
521609670917647 45.002232 190.324265 -6.960118 
521609690924366 45.002232 190.324265 -6.960118 
521609710924627 45.002232 190.324265 -6.960118 
521609730924575 45.002232 190.324265 -6.960118 
521609750923950 45.002232 190.324265 -6.960118 
521609770923637 45.002232 190.324265 -6.960118 
521609790923950 45.002232 190.324265 -6.960118 
521609810923428 45.002232 190.324265 -6.960118 
521609830924157 45.002232 190.324265 -6.960118 
521609850923637 45.002232 190.324265 -6.960118 
521609870924783 45.002232 190.324265 -6.960118 
521609890925355 45.002232 190.324265 -6.960118 
521609910925043 45.002232 190.324265 -6.960118 
521609930925512 45.002232 190.324265 -6.960118 
521609951135408 45.002232 190.324265 -6.960118 
521609970927855 45.002232 190.324265 -6.960118 
521609990924835 45.002232 190.324265 -6.960118 
521610010924939 45.002232 190.324265 -6.960118 
521610030918117 45.002232 190.324265 -6.960118 
521610050917700 45.002232 190.324265 -6.960118 
521610070918012 45.002232 190.324265 -6.960118 
521610090924001 45.002232 190.324265 -6.960118 
521610110923845 45.002232 190.324265 -6.960118 
521610130923585 45.002232 190.324265 -6.960118 
521610150923949 45.002232 190.324265 -6.960118 
521610170924001 45.002232 190.324265 -6.960118 
521610190925720 45.002232 190.324265 -6.960118 
521610210925460 45.002232 190.324265 -6.960118 
521610230924209 45.002232 190.324265 -6.960118 
521610250924470 45.002232 190.324265 -6.960118 
521610270923793 45.002232 190.324265 -6.960118 
521610290923376 45.002232 190.324265 -6.960118 
521610310924419 45.002232 190.324265 -6.960118 
521610330924106 45.002232 190.324265 -6.960118 
521610350924782 45.002232 190.324265 -6.960118 
521610370925512 45.002232 190.324265 -6.960118 
521610390917960 45.002232 190.324265 -6.960118 
521610410924418 45.002232 190.324265 -6.960118 
521610430924574 45.002232 190.324265 -6.960118 
521610450924054 45.002232 190.324265 -6.960118 
521610470924834 45.002232 190.324265 -6.960118 
521610490923898 45.002232 190.324265 -6.960118 
